-9.166323282980002804e-03
-7.877178898630274664e-03
5.429524796474395794e-03
4.997049138087208270e-03
-1.985419966500938296e-05
-5.503837353177774491e-03
-6.019780616641430375e-03
5.268347827332969975e-03
-6.566326527898194709e-03
-8.205985258035952690e-03
3.709334855524808010e-03
9.073720944531495081e-03
-9.907301078294112814e-03
2.443536803332701309e-04
6.197742182836271305e-03
2.274316189238239413e-03
4.435463563567208257e-03
-4.000664500338818250e-03
8.454950546365297762e-03
4.320242083320928461e-03
8.508873602252262081e-04
-7.147008703521309618e-03
-3.986709068684060782e-03
3.145373567368616417e-03
-1.152984660208600373e-03
-1.353833185934920358e-02
1.949033752866279274e-03
2.833614887402394547e-04
3.128866559486095152e-03
2.044822761582425555e-03
1.133331912683981958e-02
4.608468625419446596e-04
8.232184572261715474e-03
-3.444912198931975554e-03
-2.986721515502817424e-03
-4.052076619128562596e-03
-7.819993523557522766e-03
6.584532060408592770e-03
-9.052211716448068518e-03
3.071962253506154133e-03
9.544514387625612634e-04
6.363939584107538260e-03
-6.064200789614310194e-03
7.097919735831874875e-03
-2.860249548094023330e-03
5.669392319657463354e-03
-4.131569362130843408e-03
7.676806717816426519e-03
-3.591634335554300724e-03
-6.661371765537247441e-03
-2.073891656905090235e-03
-5.951615833112143018e-03
6.428330073307528779e-03
-6.958424027368672812e-03
-2.317622638101482328e-03
8.926095913715676247e-03
1.158920605234135467e-02
-8.368981596428318138e-04
6.524800998943473818e-03
-4.953118048663313240e-03
1.980672497886551160e-03
5.989330840686299395e-03
6.691729783809848399e-04
1.845343328627781611e-03
-9.628814477536324148e-03
-2.824784091000451854e-03
-8.451825936572104209e-03
-3.890801633143634898e-03
-3.371999205995179771e-03
5.485073514195579376e-03
-9.188317126383715658e-03
-1.363672759803839004e-03
-3.676203320041308408e-03
2.742140954216349281e-03
-3.070035444142322351e-03
-9.141631590830071388e-03
7.657612673427474648e-03
5.291433369222838835e-03
7.582743271277919694e-03
-1.637086331643665708e-03
2.126562741377290098e-03
2.790183728847888192e-04
1.996431704762510837e-03
-4.696021859137058246e-03
-3.940924996890803576e-03
-9.255397455983999100e-03
-4.046840461163770698e-03
-4.762465976682265893e-03
1.300890079400332522e-03
1.960739362141311701e-03
2.375913247165526874e-04
-2.116599745069301219e-03
-2.709477344986352919e-03
1.051260066230099051e-02
4.641174947318668577e-04
3.781829001853322190e-03
9.533414335071668799e-03
-1.180848584410750662e-03
-3.909754537999374745e-03
-5.238732932496953203e-03
1.255892875343933828e-03
7.054776937833903867e-03
-8.836217063743278394e-03
-1.061346555494907355e-03
5.698594248006026708e-03
4.532038293430276123e-03
1.724853037164398662e-03
-9.175092593813516731e-03
-2.975164241573569502e-03
1.299621644726105339e-03
-3.912164854003963993e-03
2.179863413331176777e-04
3.442920138515428215e-03
-6.377124927564320131e-03
-8.958359930219988651e-03
-8.102045297777886110e-03
-7.878482581245434616e-03
-6.423068412445246018e-03
7.155568996037469688e-03
-3.462467072305273636e-03
-5.628148975389332155e-03
5.129457397807881715e-03
-7.741485391271871880e-03
4.874301417843548111e-03
-7.752807529349578074e-04
2.152683633555176924e-03
-7.063367448066595194e-03
-6.287722821828153202e-03
3.203886908785545922e-03
-9.030944722893383125e-03
-4.800787161614775318e-03
8.374687971701299952e-04
-5.463968180509947738e-03
-1.981438181812617341e-03
8.460611186686794322e-03
8.572753975443466248e-03
1.384037085879149132e-03
6.941101608562501475e-04
-9.689433032207265400e-03
8.594987537331249053e-03
1.308570912108198868e-03
5.839731391472283324e-03
1.210393814225505741e-03
7.595992129309262278e-03
3.335872785380281785e-03
4.202042754075387652e-03
-7.023324058539964602e-03
-1.293598301189751495e-03
3.630701745771667578e-03
-8.411145097038552620e-03
-7.346959668563130550e-04
-6.724893890318326024e-03
1.491626395409118933e-04
6.271388324489377344e-03
-8.242476586563740604e-03
5.904806928564949181e-03
1.270391177672350845e-03
1.799183701886183494e-03
-9.751549484826781133e-03
-1.273080537407630768e-03
-4.008749252734774768e-03
-8.587871208971649406e-03
-1.000346612362538502e-02
-6.408826301131606042e-04
4.892259689063457699e-03
1.168882101794458056e-03
-2.299940149034756642e-03
-6.644193212940503399e-03
6.852748174619797440e-03
2.607362228721770477e-03
5.666341416474009011e-03
8.140435715150450696e-03
2.121550753960786424e-03
5.632944742943890408e-03
2.314737520671386953e-03
-9.796698083363889961e-03
5.662467419035323822e-03
-6.470533708948180210e-03
-6.771455772811363523e-03
-1.253708579240422416e-03
-5.116787149723663617e-04
6.888486105610637511e-03
-6.504726244332834952e-03
-9.699184634303437483e-03
6.976755468493954851e-03
4.817819428698707704e-03
-8.143049832213816600e-04
-1.680581829457503769e-03
-7.520679041996642875e-03
-3.235454762329548900e-03
-8.107654779386618341e-03
4.322271019040190357e-03
-8.644577458778272827e-03
-5.996227306697469311e-03
1.486238218041862095e-03
1.767324892467906153e-02
2.695763692610216901e-03
5.210672968579564170e-03
-2.732679448510253253e-03
-8.006799115361987532e-03
6.277112804333424140e-03
5.696283888441903281e-03
-2.083387605568014916e-03
7.334684281375083124e-03
-2.512973136964253684e-03
-4.789587833455181271e-03
6.631689598143029538e-03
4.717273172320821800e-03
1.292763777239517805e-04
2.917418767929390831e-03
-5.607055820012578351e-03
7.932785581143417600e-03
9.290434500828764069e-03
-3.687524258511379587e-03
7.314577946416636958e-03
-3.809798233977890105e-03
-9.373798170506911567e-03
-9.157186945552097876e-03
-6.320490607788810389e-03
-8.647807718479227912e-03
-4.882624579320879801e-03
8.321891412976624783e-03
-6.140931174003502009e-04
-7.796140031534775673e-03
5.393499726402618995e-03
-1.935187697997574991e-03
-9.456263685199186794e-03
7.157510067529545932e-03
-4.482522883383253769e-03
4.213700017748632336e-03
-3.028883180709753594e-03
5.725976426551020008e-03
6.892728759777627841e-03
7.689263266733775476e-04
1.182585055517546826e-03
-7.473913374195247268e-03
-2.387837180841020836e-03
-2.079620834570682433e-03
2.412139573501903837e-04
8.009589044593180829e-03
-4.018265106743079684e-03
-2.067480310261393846e-03
5.892082310864344558e-03
-6.811339925725702280e-03
-6.358545978137467025e-03
6.818257493845326055e-03
3.110220509356117092e-03
-9.808797131548505771e-03
9.798603189347842440e-03
-5.428695546691204334e-03
1.216284681208057612e-02
-4.688074097521504301e-03
5.948409091950988478e-03
-3.185746071864404660e-04
6.532418447419364484e-03
-4.224064990335725349e-03
-4.486325432711614145e-03
2.243988464628867210e-03
6.638378180748340240e-03
4.147739883779219192e-03
-4.719991758863553363e-03
-7.486427533237840527e-03
-8.365003764614057811e-04
9.056829258645744327e-03
2.050795711387808778e-02
-6.104702113232199703e-03
-7.146196865097566991e-03
9.082724072965085715e-03
7.557784794543277208e-03
4.973694319300145210e-03
9.341975954783749217e-03
3.122929365959576428e-03
1.260029655001977666e-02
-1.023555957777811179e-02
-7.559950565841810216e-03
-2.561353490763574031e-03
6.774632673607482343e-03
-3.522061573657631756e-03
2.819796651558928186e-03
-9.699688426242095152e-03
1.542999788167020558e-03
-4.739601304997085283e-03
7.943833925109103009e-03
8.830028361363522621e-03
-2.344300355954986089e-03
-2.118950489687730990e-03
7.970529791814886730e-03
-8.872116957285448163e-03
-1.871506294596222844e-03
-7.356192062896642000e-03
-8.241329034015245844e-03
5.684252803939415788e-03
-3.615007305179169638e-03
1.683642540818215466e-03
7.608232287851183356e-03
7.691068725273970778e-03
2.032445143011460658e-03
2.926337352327708016e-03
-8.951446089956878807e-03
2.380587847412196818e-03
3.975018580854308529e-03
-6.389058096355482164e-03
3.950638823138672047e-03
4.657579399430344502e-04
5.154892859103326133e-03
-6.647086497211735293e-03
-8.477534247145245352e-03
-6.277181008929123883e-04
-8.398439901940213436e-04
4.274282941509459713e-03
-5.893762613333074739e-03
3.457354633043395638e-03
4.530127641453696695e-03
-1.004840550964826267e-02
9.270202307017701149e-03
9.914339369033886226e-03
2.925029634093850774e-04
-8.300525961353033208e-03
-3.014520354433151798e-03
-9.565906663918058439e-03
6.046519167735192254e-03
-5.516534124605500418e-03
-7.071110059380242285e-03
4.033401986621720781e-03
-8.854965369290078783e-03
-4.876728761828615262e-03
2.059758034392195926e-04
9.904854978990771525e-03
-7.011074106195125562e-03
-1.420316158663055724e-02
4.609258392216713726e-03
-9.026038536509205235e-03
-4.859996557389629351e-03
4.470741429444624257e-03
1.117501593162913446e-03
6.372702444926945167e-03
7.793128101197124109e-04
-6.432292985372628155e-03
6.158347823146239968e-04
7.689284348654400712e-03
3.106328312314783732e-04
2.511630451390393752e-03
1.145021531942641817e-04
1.307208941270185734e-02
-1.696252074185514158e-03
7.224666703834867372e-04
-3.243195043224907960e-03
-7.108805680586168310e-03
3.324777542537662913e-03
8.740446586485822386e-03
2.384812603552461090e-03
6.298612196198677404e-03
-5.848911678596094288e-03
7.867992461382042682e-03
-9.804600457606284583e-03
-5.249413535478884840e-03
-7.376323619178750540e-03
8.157250619059641661e-03
8.718172492239575216e-03
1.536319243206417861e-03
-7.661739225068720481e-03
-7.525273064163713263e-03
7.006215437021447341e-03
4.674247798782685259e-03
-8.257432861349755723e-03
-2.896260113641490209e-03
5.392103119184215969e-03
-7.247511302993100979e-03
7.741997411233457905e-04
5.424208402778679140e-03
-4.507601925123567131e-03
1.353392657440761907e-03
-1.543898161975740474e-04
1.132420133427076763e-03
-1.160724042454334883e-03
3.894434161691784531e-03
4.226197943362354492e-03
5.136550323897990170e-03
-9.178622762137619503e-03
3.721866517220233980e-03
-4.553447048656291849e-04
-7.696069198610509809e-03
2.283924674293806231e-03
6.869164454967968333e-03
4.704670738436169189e-03
-3.564387056449483566e-03
-8.628451586929736239e-03
-9.238313099579408688e-03
7.926586595361404496e-04
-6.761048394153266854e-03
-4.611348531399486403e-03
-5.667883257120267214e-03
-9.799552386263213691e-03
-7.114884879463231546e-03
-9.365078770337943379e-03
9.653843631979377310e-03
-2.750336128923852857e-03
6.139456008414345342e-03
-1.696442509324073197e-03
-5.021603060707461978e-03
-5.212114055104261762e-03
5.481967146428596595e-03
3.531543956780663646e-03
4.172489343647801767e-03
7.985732355113302205e-03
4.417822954831467325e-04
-1.142691713395428167e-03
-1.929683619239252069e-03
2.415545895705974947e-03
5.780544504529840089e-03
7.729101838559917191e-03
-7.789098538172629232e-04
-7.272278576284874931e-03
5.052795099392263199e-03
2.467075160917434323e-03
3.722562807554793442e-03
-8.581149284648928498e-04
6.776985555429917464e-03
8.002394699770308236e-04
-4.637932045699500599e-03
-8.797166721215126176e-03
5.896771539529555885e-03
-6.480050995744357847e-03
-1.167459522952230379e-03
6.218684501502117976e-03
8.213023999355100260e-03
1.723949571486255248e-03
-4.142856864779844404e-03
3.108679292775312717e-03
2.524797078170102401e-03
7.622309401625435455e-05
9.325233066960736047e-03
6.177835716665978742e-03
9.468136065900269877e-03
2.286780736286706493e-03
9.674623632483258726e-03
4.350093785865822259e-03
-9.813176014633872082e-03
-4.017338483244575070e-03
7.053566111612636497e-03
-1.115770882142187509e-03
-6.527677249036890027e-03
-7.704580737761776953e-03
6.227903119418920844e-03
1.676016929514211702e-03
1.108333881635693244e-03
-4.255960442069398053e-03
2.756781012915889961e-03
-7.879625684106537388e-04
2.021841985401043665e-03
5.256622497002581308e-03
7.980220088784689345e-03
-8.960557353716702700e-03
1.948812826954044049e-04
2.918957805625980225e-03
-6.826178850183095385e-03
-9.847949444477083550e-03
9.445979875940018616e-03
6.119522922475645853e-03
-4.429476904811610952e-03
-4.402216006129966788e-03
-7.580302113850229291e-03
1.202734483289416307e-03
1.640600135883932623e-02
8.193282444652337168e-03
-5.088103530501962742e-03
-2.958310207030491728e-03
7.845914889389770872e-03
-4.422289798060123449e-03
8.777402115985632677e-03
5.018876579739422507e-03
7.627356886609248758e-03
7.451995510805854532e-03
-7.025649986394028219e-03
5.752131945464785193e-03
8.695248496865998905e-03
6.814521995547467847e-03
4.342794203414736091e-03
-3.838174790125394552e-03
-2.827892269368840420e-03
-5.261134336730503500e-03
-8.213113979796989386e-03
-5.793333307509220681e-03
1.230721893070601744e-02
1.339762892499932884e-02
3.817795423386976215e-03
1.647370033006120621e-03
-4.675269973485206634e-03
5.908185208499700403e-04
6.549918329376368253e-03
-3.878366292422706554e-03
2.269384984310351266e-03
-8.487423865542428544e-03
4.884094032784230474e-03
-9.499968400630703219e-03
-1.247998022229117581e-03
6.895108921857558658e-03
-9.748952733509045135e-03
3.657320216679182771e-03
2.162520975768423876e-04
-9.405001210196063319e-03
-9.784766065466132812e-03
-3.237761467383033775e-03
-8.712287265541785591e-03
1.433683922202478797e-02
7.729040334392244319e-03
-1.684304288077311538e-03
-9.167312277411269680e-03
-8.328300259315721960e-03
-8.246448767573013802e-03
8.199947534814976124e-03
6.040687167872747267e-03
-9.073532729019784249e-03
7.240012609003030827e-03
8.256621895896128563e-03
-1.886363621631657883e-03
-4.176731514206257802e-03
6.836884843471960349e-03
2.369640328133531745e-03
-6.962805940747631567e-03
-5.393714119156759086e-03
6.831087168825333497e-03
6.884918094112730050e-03
-4.764178372445960347e-03
9.938061022944253906e-03
7.638148474749411644e-04
2.212287531592616562e-03
4.659451183187426600e-04
3.034726044133348195e-03
-9.861213616528127779e-03
-9.272446820551172308e-03
3.790667577424348088e-03
-8.232266022324314508e-03
3.652501281914510671e-03
-4.189180954794476802e-03
-8.877661235367064613e-03
9.676672768754846984e-03
-4.050679005687327951e-03
-3.563948502267109356e-03
9.345882398155144072e-03
-6.013150783791069466e-03
-3.166007176442229946e-03
-7.871931553832587844e-03
-1.877812280597406392e-03
-8.127880673797275440e-03
-1.402204049635220573e-06
4.925270861377191618e-03
-9.413861522079538385e-03
-8.073719544353371441e-03
-9.094064222033616113e-03
8.055031476603189897e-03
1.211998794949836408e-02
3.160699758990727468e-04
-5.952000604749100449e-03
8.685926910965365705e-03
3.133727571138374655e-03
6.178853912341167667e-03
2.527764367905274332e-04
5.785421005560796408e-03
-3.275784821205713140e-03
-7.718062918939464813e-03
8.126842265791028516e-03
-9.917563177455755719e-03
-8.544145028785466583e-03
-7.334587221175662905e-03
8.848806696552660028e-03
-3.526019146747099309e-03
-5.633994748417820581e-03
-4.838885722651301881e-03
-8.062898806567573781e-03
-2.655561814368901600e-03
4.712774364420622454e-03
3.005465874367527733e-03
-5.023632938537848230e-03
-5.425000506772753237e-03
-2.263810743387285592e-05
8.614424912738609386e-03
2.712537881704116510e-03
5.033893166627655472e-03
-1.248745200830449166e-03
-1.991436231455636415e-03
4.471513480047109579e-03
-2.492577315129596623e-03
5.587298588125773867e-03
-8.262653953988424727e-03
2.482084736897698096e-03
-4.187357685672954237e-03
4.882046849530133868e-03
-3.980930458281857487e-03
2.142942653653575127e-02
-5.471469126951337969e-03
-9.962941141119409025e-03
-7.176654164467357461e-03
-3.988086010940813421e-03
-6.881570409966109719e-03
9.812886867670836052e-04
-5.793627602370928290e-03
5.574000632314076061e-03
-2.669232420183016859e-04
2.786807854465668879e-03
-6.634984592819476688e-03
8.551034532578336358e-03
4.460067166291342526e-03
-6.820946024380439981e-03
4.647835164302084425e-03
1.994590078113572546e-03
6.439327563209879673e-03
-6.025624958720977864e-03
9.455416774213354358e-03
7.794370559479345565e-04
-5.444040958790231054e-03
-5.926192921428932552e-03
2.140530881844889509e-03
2.774492112683062898e-03
-3.846458622733209699e-03
5.326946708530098246e-03
-1.608436043645949465e-03
6.318934306162963047e-03
1.015496392874268338e-03
9.655411300517433015e-03
7.089421945995690033e-03
-4.087069828398585437e-03
-2.947894079281468491e-03
-9.953413181984465188e-03
9.777079316954862681e-03
3.754811924217110221e-03
-6.269773347103537071e-03
-9.099021370430315434e-03
-9.726470673850030543e-03
1.566283045286664738e-03
-7.937979128899269252e-03
-3.778348534116993205e-03
-3.833079981528317044e-03
-7.619803589711496294e-03
8.883691390264840393e-03
9.597627089005593762e-03
8.106574664399427907e-03
5.894652936701642691e-03
-8.687914535185144171e-03
4.536304627931400137e-03
-1.759275699879683319e-03
-6.381325971228755597e-03
2.883818561952018571e-03
-9.391192175318068686e-03
5.931095722712207731e-03
7.962464002278330996e-03
-9.773798562687790667e-03
-3.442469551731979632e-03
6.408928524391867970e-03
-7.682085792882853079e-03
-9.973855224962390950e-03
6.309414909514365032e-03
-5.049681748649621771e-03
-5.042991255181488927e-03
-6.904505003918828820e-03
-4.479736996488447968e-03
-1.416808315834309530e-03
-4.842602159585602216e-03
-2.712995575096075092e-03
-3.436644730494215882e-03
-3.219205939777904524e-03
-3.823013727843374218e-03
-3.680632970575677208e-03
-4.587527091569605295e-03
7.982233064332815153e-03
9.379516149555100143e-03
7.912293739726889916e-03
-2.392541308467025559e-03
3.119444092321486256e-03
-3.938168661762601885e-03
6.224275607009900277e-03
6.295290825502368112e-03
5.906443664954619081e-03
-7.751766918708983232e-03
5.622816067998789857e-03
7.000051567166774673e-03
7.742061995564769247e-03
-3.542094781130100244e-03
-7.845518837706027052e-03
-5.542054840870841090e-03
4.627114992558028703e-03
4.328089932512975066e-03
-5.176830920591300560e-03
6.135059405185462438e-03
8.389330371397718533e-03
9.725547974407493246e-03
9.974312989995334777e-03
3.197359904408118587e-04
-1.085726450426018237e-02
-8.627297305367823826e-03
8.038916219689508022e-03
6.264079249955722441e-03
-2.588751793021384050e-03
9.527988274557462958e-03
-2.271685725732445777e-03
-9.656409575993368799e-03
-9.164635296498441219e-03
8.978335441421788059e-04
-1.966348491411123740e-03
-9.598173701554482684e-03
-2.248543472296997067e-03
-1.228082905229829595e-03
-1.888970364264879777e-03
7.652496528204353471e-03
-6.796894464074828418e-03
-1.379090030971688672e-03
-4.538297060070363778e-03
9.601291661081935366e-03
1.799123270991659579e-03
4.107737783750164788e-03
3.042892776566798879e-03
5.176575094467755767e-03
7.663106927451986128e-03
-4.653343659998508859e-03
-4.954233548551055001e-03
2.052834165552807483e-03
-5.182904440084321745e-03
4.721002133957102539e-03
3.238800253651294425e-03
-5.183875930036734372e-03
-6.271272010692842055e-03
-4.178918115940045107e-03
-2.552191964762488309e-03
1.757954477748207255e-03
5.205042503671690295e-03
-3.214437102637282898e-03
4.272534811837605312e-04
1.702143498898286977e-03
-4.667982348536161945e-03
4.258813327851483990e-03
-8.517404554206514135e-04
2.992699929310510196e-03
8.213632896191420127e-05
-2.028563645358484255e-03
4.402469226767040042e-03
-9.754387009668217395e-03
-8.358789265945774233e-03
1.482116654503258350e-03
6.346193128769615603e-03
1.011332563031618710e-03
1.962958851004441719e-03
-5.557995586945285379e-03
8.552295604808260454e-03
-6.470905122415780523e-03
3.594986679952614280e-03
-2.567518210666798646e-03
-5.768492364628557446e-03
6.436424403857555522e-03
-7.695403696282663436e-03
5.512847434920359682e-03
-3.201206864960417261e-04
8.675087177530352994e-03
1.005018692211665041e-03
4.215558985859218155e-04
7.490616525940565693e-03
4.785244284069171961e-03
-3.179764534931798364e-03
-9.707572898848175827e-03
-7.252948567133170668e-03
6.314626836379149365e-03
6.657392411256506104e-03
3.381392994625879046e-03
1.184003418936669088e-03
8.179043994759438441e-03
4.395019971461309842e-03
-3.608048216549968046e-04
4.128536527511582517e-03
2.924676068996781564e-03
-8.885906209965292388e-03
6.062541041127827122e-03
5.162271391827380831e-03
-2.250710694198216656e-03
1.750954209113232034e-03
-5.283670500490516946e-03
9.818996076160657616e-03
1.505629260883522766e-03
-6.004261554373039114e-03
9.724140093702206625e-03
7.186870073166034580e-03
-3.115347763728167595e-03
3.164819319309333887e-03
8.759389022103214462e-03
1.147193824892043688e-03
2.395891216351229286e-03
-6.027162331243058778e-04
9.913457400380654497e-03
7.968266533842522162e-03
-8.825274045052729915e-03
-1.069449102175577988e-03
-3.191156868174329850e-03
-6.855210391519280140e-03
-7.049182631810118303e-03
4.266207670871065456e-03
-1.531032389953315286e-04
-2.147827933109745444e-02
8.332797119761984478e-03
1.349076836101428811e-03
-4.488413676088049385e-03
5.738280589019357711e-03
1.023938940541861513e-02
3.965634312436083081e-03
1.465796417910499722e-03
6.294795535043528310e-03
4.605611463626914544e-04
1.459720031101896303e-03
1.087188793668670411e-02
8.874658427657194926e-03
1.922316507967013590e-03
-5.190856372410315028e-03
-4.021887319634827101e-04
-1.264889796125781129e-03
-2.986833520050646146e-03
3.178929362931568088e-03
-7.942060039130022925e-03
-7.683985368237067522e-03
9.408358581612180638e-03
9.949946456562181601e-03
-2.353229832095845003e-03
9.776955063293898268e-03
4.352031855089367497e-03
8.547631509844598810e-03
-4.212482534103591247e-03
6.382391099368769569e-03
1.307157495163919179e-03
-5.851291601791654921e-04
-8.561504615862631021e-03
-2.999699429897886155e-03
-1.487084010428429666e-03
6.065698812905364126e-03
-5.122909299173865512e-03
-9.901313579470692045e-03
-1.972825367390156591e-03
8.500794929375495718e-03
-6.940231210310929960e-03
5.038725354765431416e-03
8.963195556627050198e-03
-4.966119191772772751e-03
-6.846350245420385582e-03
-3.161441771163440041e-03
-4.164267513775818039e-03
1.091178701572480085e-02
-2.744097245372137134e-03
8.840081459291509623e-04
-9.863610375755026138e-03
6.926668876279254428e-03
-7.212100605719750333e-03
5.164176932957476387e-03
-8.390347587810523602e-03
5.304895251903960808e-03
-2.711400882749579692e-03
-2.686656823462079281e-03
5.215840850511788834e-03
-8.883617009267673337e-03
-1.018754208622141668e-03
7.962797396385012244e-03
8.165182681810130919e-03
-9.951032995469454110e-04
6.662263089581369965e-03
8.769814237895676590e-04
-5.042497619877197267e-03
-2.805212415521380828e-03
8.577221490413514809e-03
7.564741515931858694e-03
9.213821255643633509e-03
-5.791009107128337191e-03
-6.369560556392373819e-03
-7.007016280649049599e-03
1.729939073721920711e-03
-4.187798477174496485e-03
9.916205195121917740e-03
4.423133637415191827e-06
4.362713884749809708e-03
9.933599635422125929e-03
-1.207533853679542205e-03
-9.446664605500872114e-03
-9.758729780497228321e-03
-5.233127962213397896e-04
2.664922540484913459e-03
-4.649210150316074666e-03
-5.609656307054247670e-03
4.854530471771919403e-03
4.198506877066485697e-03
9.291305805073342763e-03
3.444124107799516506e-03
8.123010041623947297e-03
1.877082350869573165e-03
3.636287616338594077e-03
3.967433470515271954e-03
-5.516917317744198662e-03
-1.383462338699504657e-03
-1.797294104873276357e-03
-2.231915158019823469e-03
-7.733893836187053991e-03
-1.577924728726022531e-03
5.318830249113102628e-03
9.807709242328103288e-03
-8.775218625364192282e-03
7.051743555425196361e-03
-1.522900618854127960e-02
-4.520744489481347533e-04
-4.140590352452172898e-03
-2.974470004897804168e-04
-2.117758810208336152e-03
7.885636707510915860e-03
-4.248066052442643972e-03
-5.993235449694033282e-03
9.494012169837130603e-05
-6.395391975214477151e-03
-2.113736571140150105e-03
3.979617852476934059e-03
5.785299540235984243e-03
9.418617748563059416e-03
5.038048203601173079e-03
5.748521284189839556e-03
6.278278705159914819e-03
-3.407871235801889984e-03
2.432362883874085880e-03
-6.317154575329638269e-03
6.903853213638033205e-03
9.187692675456228183e-03
-4.927764503190799200e-03
-8.584519568899214720e-03
4.810289991232047542e-03
8.292174165068097458e-03
6.821753658404085437e-03
-9.710612757657027805e-03
-1.265346451651293280e-03
-1.903249900220198602e-03
-1.443716401286258616e-03
-7.047988745905195071e-03
5.212608055321384277e-03
6.928050830293709271e-04
2.587196764404062991e-03
9.509208671852233466e-03
4.369708216162518366e-03
-3.514036526608986782e-03
6.335135588164648481e-03
8.981690136203425781e-03
-6.024838672092382857e-03
6.976958681464704229e-04
5.753293407153236075e-03
-2.741321760920302584e-03
-2.728934298095428250e-03
4.054202783122475527e-03
1.168804471510897450e-03
2.475728394028351570e-03
-5.887760491972326288e-03
2.863892709706345602e-03
8.535863108763490055e-04
3.138756921942756004e-03
-4.288700682879745263e-03
-7.217418367568445049e-03
6.460640087952693005e-03
-7.296594585302358660e-03
-2.923282897855798354e-02
-9.719593910133657788e-04
-1.630078779571786114e-03
9.092098163784726947e-03
-1.926322161205224360e-03
-3.367749005856448749e-03
-3.400377802166150779e-03
-5.015472821495527839e-03
4.914026047361623462e-03
-8.459547601071653808e-03
2.986194715062621702e-03
-9.210114905099639482e-03
-5.175333881045226202e-03
-8.113837351057901978e-03
5.279775383098368573e-03
-5.693460501728260514e-03
3.680982586408462764e-03
-5.001177300047346223e-04
8.690198660346041409e-03
-6.956414238902614879e-03
-4.073259078667168563e-04
-8.178137898394948965e-03
-8.850669887649214793e-03
-8.506710454280133268e-03
-3.097236189390419753e-03
3.453581253678725867e-03
-4.321277288542424433e-03
-3.763974443911093006e-03
-8.655966375622334633e-03
1.621120164244085546e-03
7.217468476368569044e-03
1.362719839132151868e-03
9.417296353967966396e-03
3.840454776071322747e-03
-7.341457143359740763e-03
-6.804577732098298672e-03
-2.165606554632858779e-03
-6.525695944232581640e-03
-9.287732244016062497e-03
-5.378823781635984694e-03
-5.335912129383875522e-04
2.537045516686521618e-04
-5.786641305176797381e-03
-6.716282001237783815e-03
2.849493939480158416e-03
-8.087725822908380796e-03
-4.582640783308411644e-04
6.165191792932806641e-03
-7.812572302608863581e-04
2.572283308675456150e-03
-5.605397018540713046e-03
-8.286412449512579881e-03
9.532445715201476669e-03
-2.484310293772645090e-03
1.536871355840153767e-03
-6.837066173903534605e-02
1.001351295162646038e-02
1.358394567193861938e-03
2.697223272308319126e-04
7.631239819629594828e-03
-2.191803538648363914e-02
4.038606556246874223e-03
-3.628315563368986890e-03
3.010393448791190939e-03
7.395170157414277315e-03
-1.307722755623712133e-03
-6.876742891792166947e-03
-1.095336283419162627e-03
-3.572852262599700290e-03
-5.198492900751791601e-03
1.053252384751646002e-02
-3.708991736188630046e-03
-1.830987367156177651e-04
-9.858198962435075520e-04
2.121265385610506416e-03
-2.625423636669651888e-03
-4.947794955788615938e-03
-2.640961703777891263e-03
-6.909365713402755918e-03
-6.381733590990420341e-03
6.495019579861855893e-03
-2.119102930588773886e-03
4.089440056861290591e-03
8.983081564200206051e-03
-7.230161729255425718e-03
7.179962870629118948e-04
3.108418087548967586e-03
6.598611729048028647e-04
-7.897226620567299182e-03
-1.973729186962439909e-03
-1.782549872611168462e-03
-1.423889389819742255e-03
-7.402095999728261141e-03
-7.682076720171343923e-03
-5.134115187116432668e-04
7.153838868325414213e-03
5.580076918973502983e-03
6.676473400556638682e-03
-9.689173950598430410e-03
7.512689547718152429e-03
-5.977313793245816846e-03
8.498233029245003123e-03
-7.686612385947256577e-03
-7.911411406400357949e-03
-1.342707418381920313e-03
6.590442376109372988e-03
3.041489489580400610e-03
6.952939482989639597e-03
2.584773438476846040e-04
-4.155411275753959945e-03
-7.517131077382507333e-03
7.891445495754526376e-03
9.891937187684324631e-03
-7.494500993491804743e-03
2.949506096767921652e-04
-1.626296997696859321e-03
6.130911886430655613e-03
7.787165356338475626e-03
7.531654291172932593e-03
7.205398886811334447e-03
-1.349772114894079661e-03
5.290524268969638670e-03
-8.743599949326202186e-03
-5.051190704895763828e-03
1.950061543918129832e-03
-4.633351378030398614e-03
8.791644491520714255e-03
2.307136541813843353e-03
8.691920048658954151e-03
8.959163989141288864e-03
2.006384923645432652e-03
8.641611349885025897e-03
-1.112212284476159652e-03
-9.065148057572029044e-03
-8.913655830368870381e-03
-3.079159846230629122e-03
-5.871529688259525225e-03
7.953802683493950074e-03
-7.424079755690125154e-03
3.181625968849364767e-04
9.753482800436152206e-03
9.587802611424830340e-03
-6.832327078885484101e-03
-1.694611615325320375e-03
3.841865093661285622e-03
-2.865488603042200613e-03
3.363319470984690515e-03
-6.547888727487564085e-03
3.673455238962655765e-05
-4.310459702161640455e-03
7.114160892529322600e-03
-8.825952200142057197e-03
4.100220017708706803e-03
5.273832211386236639e-03
-7.326164756531048337e-03
-6.836610422783527714e-03
6.965893573942951236e-03
7.921315085952226193e-03
9.850464428161906719e-03
4.877242134688274805e-03
7.094354196168214249e-03
-5.064134309775578970e-03
6.878343762830490052e-03
-9.627459744995816443e-03
-3.349443899379729670e-03
-2.528414265831234291e-03
-2.246123492120690596e-03
1.276600107176302165e-02
6.927614968761625948e-03
4.409777323517698883e-03
-1.133261690506206674e-03
4.922492099546948476e-03
-7.925484076694315830e-03
-4.422171755217876865e-03
6.152387136508174169e-03
1.441466829189091275e-02
1.647198962089890069e-03
-5.171838613836824035e-03
3.629297412649573878e-03
8.272664596859472322e-03
-3.936375129436080547e-03
-4.772806690955950213e-04
-7.203131459936863538e-03
6.850977942649242799e-03
1.296063086226843450e-03
-9.276777468619433129e-03
-5.890334699206562115e-03
8.882726579960635582e-03
3.343254032908289739e-03
-9.369125728401820480e-03
7.869000021645602971e-03
-6.946978347317413031e-03
-9.554620517967991195e-03
-1.068284825906612272e-02
-9.155337043872184902e-03
-2.285482841915399081e-03
-3.787132558052193343e-03
-3.476132839081326389e-03
-1.007687688495473039e-03
9.911831169236249434e-03
6.826227381155900928e-03
6.227827222389691747e-03
3.970711881356350781e-03
-2.605671474391214187e-04
1.254662068730041111e-03
-9.292519145478989051e-03
-5.129511001567773482e-03
-7.256153529391105167e-03
3.762420449091597938e-03
4.517139669716820072e-03
6.444199892482843119e-03
-5.243327154153070400e-03
8.379146824800644960e-03
1.006194307897621300e-02
-9.958854743142424336e-05
7.539567939717152674e-03
-6.303636369370519896e-03
-2.289709185844218502e-03
4.664843690488821616e-03
-7.778958226540204010e-03
6.656904821363576925e-03
5.382122217144186781e-03
-8.835919941729634616e-03
-7.179439548418629219e-03
3.159158499484427361e-03
-2.384820480971803786e-03
-1.184849033287223470e-02
-2.736929224692658934e-03
3.023020468317379195e-03
7.743636728098871047e-03
8.878871404126156136e-03
4.442591762417922273e-03
4.546370093869966911e-04
3.925232586555990263e-03
7.334085670566395550e-03
-8.553902441051952285e-03
-7.592059097133888566e-03
-3.786352859418026968e-03
-5.602872987486437299e-03
8.511518376990724263e-03
5.682904091634005846e-03
-4.599381963646948304e-03
5.205749911157245974e-03
9.253247309952802174e-03
4.623200449148138873e-03
1.705318199995993662e-03
3.340077137825015179e-03
-7.691801414160559860e-03
9.154539311838263277e-03
-8.307351781211691835e-03
-3.878532874062139146e-03
-7.810293980265864411e-03
2.341118500188740358e-03
-5.850825123444825145e-03
-8.230829926482821288e-03
3.281398589389726301e-03
-4.637505151928982515e-03
4.760699554048729819e-03
3.542622801891482948e-04
-5.881173049914128342e-03
7.880427630205152564e-03
1.259521204620756528e-03
8.021345219674558963e-03
2.263888312269826241e-03
4.401104181759914712e-03
-4.804357086241587207e-03
4.272084761680249899e-03
-4.157151847187625163e-03
-4.023143561317214681e-04
-9.894933530846207123e-03
-2.784248101352820252e-03
-8.504171995625336988e-03
-2.811093141997139059e-03
-1.160413926909720098e-03
-7.196316719212327191e-03
9.086533268384487314e-03
-4.837773445958076096e-03
-2.406393265425296486e-03
8.648864742220919305e-03
4.435804030708312418e-03
5.767228579443063954e-03
-6.166741222112548729e-03
-5.265925332742332245e-03
7.905660027181809005e-03
9.865943372109333212e-03
9.278640270076035645e-03
3.325490100161624909e-05
-2.216998271885941250e-03
-1.787676472406746295e-03
5.593165823986082259e-03
-5.725996488619568107e-03
5.577706556118586061e-03
2.987869819144542763e-03
-6.806250223032802313e-04
-7.942105601745534996e-03
-5.100927498131732152e-04
8.658059703030187085e-03
1.359075101416859326e-02
1.373762254143135299e-03
6.146124410492882946e-03
-3.919121933179065508e-03
8.032738443697272053e-04
1.817579990002057052e-03
-6.508497542893510769e-03
-6.291700091813214914e-03
-3.745422575275905025e-02
8.684255818076214509e-03
-9.226052942851321534e-03
2.352973723418349053e-02
-5.167969770390267760e-03
-7.657659173781114319e-03
-9.905456402480481651e-04
5.669289957823864592e-03
-1.262148346649051957e-03
8.348464891823993012e-03
-4.535382422435872869e-03
-2.167533146198914490e-04
5.677667896889042158e-03
6.498545074590357865e-03
-7.943455144698011909e-04
3.121626179070419692e-03
7.392365126135880087e-03
2.378092256111289347e-03
-6.128606786713082684e-03
6.792327476409937455e-03
6.760194397782873232e-03
-1.782474254393010384e-03
3.202025770507800195e-03
-1.438102328238918164e-03
1.632995759731435030e-03
5.426132039945589331e-04
-7.292652576368188581e-03
8.914984208113433534e-03
-5.631461235012790410e-03
7.667109102357554801e-03
-4.704868484315354385e-03
-1.154107978005899406e-02
4.044766882458853373e-03
7.424739509376160687e-03
-6.401025252664294292e-03
-6.010696187555266074e-04
-6.237876153203256342e-03
9.553106444677926870e-03
-1.845246199846758322e-04
6.208066528418309908e-03
-2.412053242462219079e-03
-8.925770920994023638e-03
-4.186234671040604642e-03
8.743444675920586384e-03
-1.033261345310046257e-02
3.416186515519974241e-03
9.544235950685348024e-03
-2.213464418221913754e-03
-3.864284372648939432e-03
-5.194293637352682784e-03
-2.056916023956268172e-03
-6.786706274053184648e-03
-3.583734973897821207e-03
1.955215359297967574e-04
-4.670427967989393609e-04
2.241739920248997636e-03
6.423377646622960117e-03
-3.768691175367139008e-03
9.240667982446753442e-03
1.611337681387221138e-02
8.288542799933447044e-03
-9.425764007965605547e-05
-2.439967571040053268e-03
-2.554209879981110543e-03
-3.927556672161223832e-03
-1.558090905325313887e-03
-1.009491222989059196e-02
-6.341505037511777423e-03
-4.848678477136318665e-03
3.042895229563281033e-03
-6.020229447330689189e-03
-2.405935146619371913e-04
1.609160853930397417e-03
1.950585310312930205e-03
5.651675581376076722e-03
2.243163287730201919e-03
3.118279181078118488e-03
1.663992317633320459e-03
-2.674316726825200653e-03
-5.947819549340069116e-03
6.009163793017366709e-03
-5.209462535696931032e-03
1.481961395315309956e-03
7.103802059207725735e-03
1.202886430212420825e-03
-7.006971108769157602e-03
1.325580814383776809e-03
7.250975720569463254e-03
-1.480016581403005224e-02
2.509984510465756297e-03
-1.001139252633932025e-02
2.039066765925871740e-03
8.172811036413336200e-03
-7.451416355442598734e-03
-4.692112139198665634e-03
8.777809720723754247e-03
-5.896083439878508498e-03
4.968354376197328844e-03
9.662206519952230149e-03
-5.369626123990970008e-03
5.889600722502048684e-03
-6.079772112010719274e-04
6.990224050918505266e-03
-2.270676688671938225e-04
5.741102639843774849e-03
-1.882421787886311105e-03
7.087125436434403049e-03
6.310043580165501133e-03
-5.772692489058141915e-04
-7.270144350090333545e-03
-4.853914980206648459e-03
1.230928096869518540e-03
-6.454850685038851857e-03
4.728836941125596008e-03
-8.288771230214292407e-03
-5.726284116489616452e-03
-8.286915013345859740e-03
3.180747283627292053e-03
4.305064929759601713e-04
7.606418310873645609e-03
9.415570174265357195e-03
-6.434453183307228472e-03
1.893097306172286578e-03
9.695397195725232592e-03
1.019864460591743578e-02
7.324843408226363456e-03
-3.951454914616978585e-03
7.887375487382854850e-03
-3.497759246514017123e-03
2.908276778606260198e-03
4.560369762450526207e-03
-1.038500403615680474e-02
-7.239836399981376507e-03
-3.041508837053910619e-03
-5.663895684623355790e-03
-8.914617111258116983e-03
7.509974498255638127e-03
-4.504975270795837615e-03
2.455112273803099622e-04
-2.910395310579981087e-03
8.863353730169316533e-03
8.154913268375640900e-03
-4.273222818674206683e-03
4.831658045846186182e-03
8.448835101031492226e-03
-5.499895324362837241e-03
2.763781588285051626e-03
-9.295144022295528247e-03
9.630066979842864458e-04
9.961685018046798068e-03
3.884962297869459184e-03
1.244472804644681900e-02
9.618948125762114693e-03
6.165921527112265717e-03
-9.823873265466241331e-03
5.013212656566759691e-03
5.956235333892352830e-03
-1.744561576132171643e-03
5.567864926221476746e-03
6.451561199149375564e-03
-5.829718875045034054e-03
-8.696744820578281715e-03
6.741923704561775602e-03
-7.646261554833544243e-03
4.161473381660943903e-03
-7.329243333050847360e-04
8.789317817796092613e-03
-2.405206072067707119e-04
-2.282018971500319980e-05
3.668377191299817576e-03
-2.331158985212217639e-03
2.652503306634885951e-03
7.461607944831145055e-03
-2.372899969425937890e-03
-9.302996827180574912e-03
-4.932384277596425608e-03
8.060986285638284746e-03
2.805047277671410353e-03
2.432591844281259928e-03
-6.327537054484088513e-03
4.894019079532745294e-03
-4.057609126044091179e-03
-9.062424055369321454e-03
9.514428023839097484e-03
-6.167138204405098710e-03
-7.510563377315575967e-03
1.228004402171188484e-03
-3.285204355204355414e-03
4.554619690156406185e-03
3.172345703865928675e-03
9.688810578031170628e-03
6.970469581463813701e-03
-1.664909971820065834e-03
7.301799492944979417e-03
2.920219916624865793e-03
3.600425292535871374e-03
9.380278670329082746e-03
-5.123355757643613222e-03
7.917881004795587416e-03
2.821907936406354601e-03
3.291412255966711872e-03
-1.890749887745444375e-03
-7.551881038269940040e-03
6.819530433193029921e-03
-7.236087425427560789e-03
2.403731540057940739e-03
-5.539550871096224441e-05
-2.524149483495587154e-03
-8.033866240575797749e-03
3.285967474980764670e-03
3.420957088150092338e-03
5.321569312553864686e-03
-4.601686714940306407e-03
7.606795503896393758e-03
-4.437077163981473574e-03
3.719015811372811814e-03
1.552301736771094726e-03
-2.134927730978343832e-03
-3.415334435887171748e-03
-6.076753323616004496e-03
3.534146084365068479e-03
6.425049131761726047e-03
-3.778458803988901226e-03
-4.348415165645313010e-03
-6.325940494308105247e-03
6.933699783101787174e-03
9.592016008281795472e-03
-5.253793023440698692e-03
9.356233397641528036e-04
-2.095186697376936330e-03
1.289448774097624439e-03
-3.041256892024190184e-04
-4.114592389241512535e-03
6.874175980339862838e-03
-4.195761069590867032e-03
-3.583869221649071870e-03
1.373795867415330023e-03
-3.447608522055205498e-03
-3.980515779748704415e-03
-4.293552058758160622e-03
2.885819687724347059e-03
2.926635466572077003e-04
5.400711685115856288e-03
-5.969956033497669269e-03
1.885134303729583158e-04
7.636870295760968264e-03
-1.726252565705883239e-04
1.162422013206831570e-02
2.869214450126422386e-03
-8.347236751484550868e-03
-4.458237222979348838e-03
2.240319135393508635e-03
8.116569996088273623e-04
9.230766269890897449e-03
-5.103760332816056552e-03
5.563764755558954500e-03
7.046892233140260482e-03
-8.226844756548722191e-04
4.087399577841707016e-03
9.178882112486167269e-03
5.910511333327007726e-03
-7.815036046504552844e-03
7.350920267087503526e-03
1.981750955655454515e-03
-8.653376995960552695e-03
-2.365943749292012677e-03
7.407161349384004147e-03
7.069704715948593385e-03
-9.287466026876868216e-03
-5.370439901968776866e-03
2.803697007360908718e-03
-9.329009860738615018e-03
-1.093823903478397625e-03
2.285182109303192984e-03
5.565817249997673417e-03
8.018986965467270883e-03
2.373949051113508589e-03
-7.186567414759198599e-04
-3.381964944192925992e-03
-9.228383031766760822e-04
-6.106652008006165783e-03
-7.339353705789435425e-03
-9.822395176696651492e-03
-4.056072754386430036e-03
6.371768715586386897e-03
-9.430960462570374750e-03
3.914841183091126095e-03
8.316497801651384983e-03
6.860972318226936893e-03
3.849806415345765915e-03
-3.833687297625940288e-05
1.233251459280760437e-03
1.968676432676877712e-04
-4.253890592860803607e-03
-1.638875868917814415e-04
-3.911840243738685247e-03
8.462999314154473832e-03
-2.590314739675317335e-03
-4.212815011778840019e-03
1.332299471291818402e-03
-6.348481598225531181e-04
1.673645082344373805e-03
-1.443584676580454348e-03
2.945287091367140408e-03
-9.353231888101177713e-03
7.153987755382705711e-03
3.735958010711257996e-03
4.673508611410993495e-04
-4.772195854297381877e-03
5.589164745031706015e-04
-3.235369531497602532e-03
-3.635176338893292714e-03
-7.337183451902169924e-03
-2.443974586258229262e-03
1.692614399764526874e-03
7.981566135167364115e-03
-1.210410114701921877e-03
3.670420850650537616e-03
2.813809858188322396e-04
-6.506785206886149010e-03
-7.641839153105216970e-03
-8.508109448816995532e-03
-8.191635956763584220e-03
-6.064387534507964007e-03
3.015127021004937197e-03
-4.620216008523760597e-03
-8.653060885091937854e-03
4.271834469037681485e-03
5.054603093220260898e-03
7.553379220832882185e-03
5.301977225208797176e-03
5.249990953213366264e-03
5.937603523652842073e-03
3.480017655534889138e-03
4.537973145968597177e-04
3.711672557359322385e-03
4.658133697203512870e-03
5.749876419651466473e-03
5.002659863084474128e-03
1.944098152187360160e-03
-5.366194981377666109e-03
2.977190875715496864e-03
-8.494140729748439912e-04
7.713781795098069265e-03
5.934682982872415552e-03
-1.955526882094761349e-03
3.919086103362548132e-03
1.765391169206152614e-03
-5.480949282827179796e-03
6.605771647551442888e-03
5.460664694369381927e-03
7.406294535820642962e-03
-6.058162593782490807e-03
-5.821051060344342200e-03
-1.989146675226420580e-03
8.796398723607733172e-03
9.793512777762353530e-03
3.848403453274510180e-03
8.755968842537441982e-03
-3.890659492559083669e-03
9.563613129762517026e-03
-2.695738034205524304e-03
-2.493899631945200972e-03
2.170961600078473788e-03
-6.646643181700176428e-03
7.316196689130206529e-03
8.413069766014037373e-03
2.566972054163665570e-03
-7.509935124214618327e-03
-1.167756426246169266e-03
-4.391897734386181716e-03
1.831670500169226001e-03
3.496663132407414575e-03
-4.998493982275487198e-03
-2.587900114353240601e-03
-3.053737922492722346e-03
6.572103371621445568e-03
6.837009207361460263e-03
-8.103210580569843516e-03
-4.518258449691558119e-03
7.746963467965273242e-05
5.904416945195703828e-03
-9.330123653794744967e-03
3.758046806283606416e-03
-8.967678813615116012e-03
8.812409604610051475e-04
8.766256099543373592e-03
-7.477406907286497477e-03
-6.856967673575361556e-03
-1.248303400631494428e-04
-1.356388956371801929e-02
-9.703838312973363592e-03
-7.375810171184262083e-03
5.848112756459360358e-03
5.361948682305669490e-03
-2.354684576590087425e-03
-3.635332448357293041e-04
-6.788615970339294606e-03
2.292507154522783943e-03
7.481849821603801971e-03
6.283945422723308813e-04
-5.140192004696520975e-03
4.527173674493689855e-03
-7.436122727206644599e-03
-8.543250576259075676e-03
2.633416741179953752e-03
-8.087417713953892057e-03
-7.153651044273378820e-03
2.391907627702021324e-02
2.915958971233672224e-03
9.640507472842582345e-03
5.666849812696367512e-03
-9.654934326967014660e-03
-5.890948627546178235e-03
-7.571064638346456169e-03
1.385654935821525359e-03
7.734827442126428892e-03
6.062997729028398071e-03
5.825118385967324730e-03
3.236390444006746747e-03
-5.392012815996870614e-03
8.949721372069702197e-03
-9.028358591797531335e-03
-5.237522520009657394e-03
-1.210174231024342022e-04
6.859626679289704959e-03
6.961547195486195161e-03
-7.449320645711992282e-03
5.181363443201897519e-03
-4.313324233656341995e-03
5.367998748276614843e-03
6.745962914997444444e-03
-2.412296680648619903e-03
3.980495680991518945e-03
8.470290309964515971e-03
-4.777452166124327576e-04
4.569169875659569689e-03
-1.002051042865316315e-02
-9.207658134949331732e-03
5.569582668938080280e-04
-3.983038088357700006e-03
-5.972129526329042482e-03
-7.010965331001167526e-03
-4.804160514080472663e-03
-3.834988286446145127e-03
4.578136854827107548e-03
-7.370769497814985520e-03
2.537390214762455694e-03
-5.497906593764772913e-03
2.505668177522287193e-03
-8.879504932210978418e-03
-1.676662587692422709e-03
5.140837996142229999e-03
-5.327615398516488861e-03
8.345843866248141285e-03
-5.376885450585238042e-03
9.409444458941854453e-03
-4.324047373416502714e-03
2.529290948956387439e-03
-7.050797627910717486e-03
6.379524619408630422e-03
-6.789939295648137960e-03
-9.313809330748214557e-03
-1.994571648726002708e-03
-4.187178987319232180e-03
8.565433559584140211e-03
-5.578188900043766496e-03
2.749780927939237882e-03
-8.798821135179506550e-03
7.181828633380495097e-03
2.631431829160006328e-03
-7.775992546266953997e-04
-8.201188735772196522e-03
9.742400992807317278e-03
5.033940058423328444e-03
8.375992696616136809e-03
1.329405885966287179e-03
-1.275475349386909901e-03
-3.171299733120059271e-03
-9.872640637562600172e-03
-1.402054586294079058e-03
-1.114869305125633196e-03
-5.491889363092878479e-03
-3.631294691468029290e-03
-4.841825918605995212e-03
-4.437549678333336384e-03
8.503070928998289479e-03
5.086379446499693369e-03
-1.594345708975626955e-03
-4.246666168954023042e-04
8.123165933704885877e-03
5.368346758085730877e-03
-6.269690762743918011e-03
-2.181916369411629215e-03
-8.797666893264801530e-03
-3.795187844745112182e-03
8.405484883859887582e-03
-9.425871075112822808e-03
7.792551051991840512e-03
1.683412560090256308e-03
-9.774026905376315480e-03
-5.094628491211998213e-05
-2.213311288568305894e-03
1.847258823993660473e-03
6.127371879018668997e-03
7.190319079969440495e-03
7.613835092643616957e-03
8.652402950978571941e-03
8.321462152713199681e-03
4.338097253589612810e-03
-1.810907653347516117e-03
2.863343060253357823e-03
-2.282856222173090029e-03
-5.517968770975107372e-03
-1.664892204231411578e-03
8.444289037363116729e-03
-4.907540052037561926e-03
-9.967126912862694921e-03
-4.103744276342162142e-03
6.208436524985051427e-03
4.278359844585205400e-03
7.547362418706206159e-03
4.433396169154689426e-03
2.460435811044809403e-03
6.602824428325782154e-03
2.506312392168418522e-03
6.139282818078362243e-03
-3.924983665116932828e-03
7.186575165317172012e-03
-6.653769606619832841e-03
-3.272882309787252669e-03
-4.930082417221190449e-03
6.391448585770836445e-03
-7.625683037220136982e-03
-7.299235288798960712e-03
-2.375344533308683826e-03
-1.724773151281175116e-04
2.101987942440838517e-03
-6.386479502550259681e-03
-1.556642584448687697e-04
-3.051847635758329555e-03
3.806057776936870585e-03
9.213209149263320435e-03
-6.719040920058712285e-03
5.649109583191582080e-03
-9.942911101846436256e-03
-9.790495161944998831e-03
-5.962897279609722517e-03
-7.479520975189414382e-03
9.423287894696426997e-03
-9.257526044228477080e-03
3.548513944572827608e-03
-6.324233183118062882e-04
5.316160537989124933e-03
-9.908191533914683519e-03
3.162960451143297016e-03
2.286353764708979816e-03
-1.174759622018201532e-03
7.156045191831024790e-03
8.624553972842650918e-04
9.342850766830163370e-03
-1.888978393376353985e-03
5.131776798112569525e-04
-8.878256727456833655e-03
8.254521026314996096e-03
8.353735175530098422e-03
8.776003513810021542e-03
9.780381037412474478e-04
-6.377878994705717119e-04
7.361865898001433185e-03
9.639789423134557944e-03
4.515923161578359879e-03
1.548194712767995583e-03
-9.452414584459016902e-03
9.978896081993230902e-03
8.808629960605064355e-03
1.010422836473025623e-02
-3.223873682191965608e-03
5.953047382859258559e-03
3.939402687575223154e-03
-9.293343986990020011e-03
-7.084697493156072445e-03
1.271329921070557360e-02
1.742800917640286969e-03
-3.299014621223294013e-03
8.978881636539495781e-03
-7.150880275900957546e-03
-3.548583102235444188e-03
3.283487894650207080e-03
-8.358899637161703103e-03
-9.825539754246423452e-03
1.154706569527704299e-02
9.591780756718051772e-04
4.072278450607995717e-03
1.333107046513998478e-04
1.195530641021186856e-03
-8.921412600506493581e-03
5.875597310818483562e-03
5.755423002843771839e-04
-4.447586671328583770e-03
-9.812574014590541571e-03
-5.739930281167864023e-03
-3.594499360922353334e-03
9.801002153382341181e-03
3.892468917529900204e-03
1.483670755317511095e-03
4.152909013098273969e-03
-2.746215332518967857e-03
-6.628319570332710450e-03
5.058956242768559465e-03
-4.706582959944720888e-03
3.902435841517307331e-03
-4.463968930262161156e-03
3.332816295202065647e-03
5.909916661912788770e-03
-2.615432397071459371e-04
-8.021049987977851153e-03
-1.496233917919435365e-03
4.632229760600663042e-03
5.240199658740432934e-03
9.583857139523883862e-04
6.139454035914266271e-03
8.047984009003460518e-03
6.798160513503141190e-03
-9.910408977453394330e-02
3.088953571702421157e-04
1.697466647784311991e-03
8.648570692283688230e-03
1.044193214279887788e-02
5.154574314928516733e-03
-5.912096844630772806e-03
-4.974436973669646260e-03
-7.404821856636217272e-04
-7.100591838523588953e-03
2.572971686082125425e-03
3.942731740605448162e-03
-3.311694817825243300e-03
2.378356939169136430e-03
-7.766523484281137764e-03
9.966183801209508447e-03
3.902201092979649261e-03
7.121661698092080287e-03
-8.359972495347783861e-03
-1.179038740541629195e-02
6.725965243664778874e-03
3.701951095721558917e-03
2.593040777258989824e-03
-5.629875477254017886e-03
-1.776540284361691376e-03
3.697714115438508094e-03
-2.534784850475571474e-03
8.494727718278699199e-03
-5.600952250210868705e-04
-7.880226435051656750e-03
-4.258795264981285293e-03
-8.500184067853315886e-03
-6.337805182476133337e-03
1.406787785497936802e-02
7.124267035189270000e-03
2.945621149786353723e-03
1.107396848039192330e-03
-1.239018113669918680e-03
7.798742379636660650e-03
-5.296976722924322083e-04
2.754993599437955938e-04
-4.775531071338023556e-03
-5.098453420730034331e-03
-9.814113576460788135e-03
8.243588570325140891e-03
-5.060777168704969943e-03
9.427124484936500945e-03
-4.924374802763802940e-03
5.583170264311988241e-03
3.159941861762354063e-03
5.747640569379519268e-04
-6.283673042517008180e-03
6.502947917540774503e-03
9.491358432173753468e-03
-1.458224163513640063e-03
-6.095868362711709572e-03
-1.159501030411553115e-03
-9.523507306444897735e-03
-9.114391800770725235e-03
-7.999039510980413686e-03
-6.663577421612438059e-03
-7.397641441824932482e-03
-5.954946813690562869e-03
3.099296026338575500e-03
1.797264149210689400e-03
-2.483549913299673995e-03
5.573346180960402768e-03
-6.220193146323902376e-03
-2.240136159441223781e-04
-5.395808106114398719e-03
3.899685764315886146e-03
4.025310208331008520e-03
9.521700075866938728e-03
-6.540810784775404584e-03
-7.607867735822148800e-03
1.775809349541530163e-02
-6.715176163211392102e-03
1.530562271621847999e-02
5.748528146489855113e-03
-6.232888249746592127e-03
-3.263972125558275289e-02
-9.714911180519047312e-03
6.570526364639721123e-04
-3.146744135238396800e-03
-3.023004586028908269e-03
-1.585788731754869023e-03
1.340210456476290243e-03
5.985074823792171581e-03
-9.873952367380298134e-03
5.966624244268520358e-04
2.831007002554041148e-03
-3.475173778967912980e-03
6.771958364511620337e-03
3.602390680834083574e-03
-6.525780880443376314e-03
-3.289266114031575306e-03
-2.574508743973229208e-02
1.034205950596015378e-03
7.260668844156993942e-03
9.045329841971259596e-03
9.430555170288614994e-04
-9.172764760402896816e-03
6.238060933411594677e-03
-1.044557022328163726e-04
-6.914714335356180082e-03
-1.423573020079261023e-02
5.315965400683752423e-03
-9.158153632040266084e-03
-4.131819824975359844e-03
6.034936773644435266e-03
2.527309295266751740e-03
6.036203502994844311e-04
9.278950730825429039e-03
-5.152103326962922231e-05
-8.668087274010506877e-04
2.375591672416253047e-02
-9.206388211802602611e-03
3.637026141603180371e-03
5.506159847858923748e-03
1.199755151979975095e-03
-6.309286259064149360e-03
-2.570978165145034605e-03
3.437474842584465999e-03
5.465077190722479952e-03
-3.236509465923608983e-03
-6.581732285950268532e-03
-6.834515368571789616e-03
-5.118011793824254162e-03
5.364674332135452653e-03
9.649723961014147408e-03
4.553567659890734622e-03
5.189611743093243412e-03
-8.932030335388406808e-03
-2.779779406307525402e-04
3.650163257682133983e-03
-9.117559974498656156e-03
-3.956537206285206353e-03
-1.260272357456673363e-04
4.120728343401661858e-03
-9.772481599072008543e-03
-8.722627216846677925e-03
-5.036277124652688807e-03
-3.668648034308175706e-03
-9.054592937590573085e-03
-9.037060863900119381e-03
-6.160007685273555245e-03
9.383227080022949265e-03
9.454456290592343562e-03
2.117975922391993320e-03
9.127182580334708417e-03
9.500568489497695016e-03
7.500005667792798182e-03
8.793281085075174350e-03
1.633471481123436285e-03
2.957855109385233629e-03
-9.721261638091517263e-03
-5.140744905936056250e-03
1.826347460584584010e-03
-5.491608673751824550e-03
3.204169283265684981e-03
-8.962724823365515996e-04
-8.601825604495925764e-04
-6.477556239072710179e-03
2.449437446954358128e-03
7.288848273964785435e-03
-2.042194884036797973e-03
5.572147457142813572e-03
8.332417935157925004e-03
8.568839921770939061e-03
-5.462774504640378198e-03
3.504913349730565814e-03
-3.156568494345710421e-03
2.595821898247783338e-03
9.258757617372052190e-03
-6.513433754985471606e-03
6.569476609344583780e-04
-4.169823639525351532e-03
-6.671636255547650635e-03
-8.680286372945174419e-05
-8.103245588858967036e-03
7.195746146724847810e-03
-8.396365704402650176e-03
-7.727406143159928388e-03
-5.562132497403860301e-03
-1.180427023745495756e-03
7.650302923060473860e-03
8.241400548659875633e-03
2.492342740554561505e-03
5.563266407145207176e-03
6.606585408761918299e-03
1.384546655772145524e-03
-4.457390761220383912e-03
-4.092629768314965007e-03
-1.622863774993607913e-03
-5.405139323932635700e-03
-9.165538942907265271e-03
6.265105005912588107e-03
-3.313811623125940877e-03
-2.974177599402689316e-04
-3.562902228361281443e-03
4.044599607345689650e-03
-3.549289946200029095e-04
-6.811099924143652375e-03
1.256684889311984916e-02
-9.558573458766522497e-04
-1.166229719968786029e-02
-3.522384013628269452e-03
-7.830489521862341040e-03
-9.069606392478186258e-03
5.585181530686269061e-03
2.538561838176898056e-03
-4.579363360479211074e-03
-9.623919043997895481e-03
4.904136066957272971e-03
-4.187851633966414334e-03
3.894590532140952688e-03
8.688889548979127769e-03
-4.061773067703586086e-03
2.934291521871231387e-05
-6.210986346150010502e-03
1.366124715002275513e-03
5.342812512996142696e-03
5.603300454526799305e-03
8.967867490250629181e-03
7.592887009833129523e-04
3.201118799247431885e-03
1.233535960795774334e-03
-7.817642567728657135e-03
-1.275292133469201538e-03
-7.748443169433428049e-03
-2.613879760909003282e-03
6.677521763822036500e-03
-1.936526103374311978e-03
9.786980432226951090e-03
-2.173789524347792372e-03
-9.307659490966506410e-03
4.062319085221826123e-03
-4.470952853106894415e-03
-5.646413958808436592e-03
-3.345789924871057398e-03
-1.660451185148723030e-02
3.551577377117188378e-03
7.283849721699705432e-03
-1.300755931049860049e-03
-9.574253403783351823e-03
7.182591474311894771e-03
-4.844190697388298106e-03
-1.175680342266116401e-03
-5.131662340107133805e-03
-8.860170025098066532e-03
3.149155713908706835e-04
-8.347565860080957342e-03
-8.100087270103082868e-03
6.061820296765683957e-03
-7.943292632923981689e-03
8.842894014806403080e-04
-1.780679604868315793e-02
4.242559793844707765e-03
-8.410708961304330655e-03
-5.157017855074321096e-03
5.410187458004978890e-03
3.039380673405892193e-03
-7.622802298514723060e-03
-4.565582003677528221e-03
-4.058734141467454544e-03
-2.845796328376000699e-03
-1.291588213419215224e-02
-4.992514222530693505e-03
6.838441804609450038e-03
-5.860169821874133128e-03
-9.685635013900493334e-03
5.077161847270090199e-03
3.281772845252280135e-03
-8.208019679435076335e-03
6.651772177658685746e-03
3.331002666733752417e-03
-1.499164691285634083e-04
-2.606840106909888519e-03
1.425553543575728025e-03
-7.254545754843637513e-03
4.779141575199427790e-03
7.552182769626446940e-03
-8.105087881061429078e-03
2.062894742240502580e-03
7.933104219538024762e-03
5.860964064475053525e-03
9.641472409779729136e-03
7.507694331385892338e-03
-5.584405612635880145e-03
-4.048972035151089145e-03
8.027793439493903158e-03
-9.706766852044168212e-04
-1.907387048379198622e-03
5.069553956954542598e-03
-3.651992873599249536e-03
-1.131463841921879739e-03
-1.029564780243599938e-03
-6.696197327311320495e-03
-8.417285877743693745e-03
3.693154422761880766e-03
-8.777013020469124835e-03
-5.299510440188962869e-03
6.046947466303318440e-03
1.007789696908532873e-03
-2.683243752997847321e-03
-2.942946323621158621e-03
-7.710766069544673813e-03
-9.299157031395376485e-03
-5.477014972260503545e-03
-3.343868197152636505e-04
7.636438863186842917e-03
2.383856072395943142e-03
-3.063961999670459721e-03
-3.237900266977056934e-04
-4.153232914717417019e-03
-9.898832010632534553e-03
-8.259753530220565257e-03
-9.367016725137712607e-03
-9.965332748836553886e-03
2.464244500774513420e-03
1.905933697039271200e-03
-8.763404074284204467e-03
2.265578225460856444e-03
-8.892294342950780861e-03
1.229551177753186470e-03
-4.284139197509809031e-03
7.235887428511354746e-03
-5.143994535684732507e-03
5.818082486688151179e-03
8.473244320769153862e-03
6.662576762042911977e-04
4.435306346689403718e-03
5.179262966556560065e-03
-2.706129943007851753e-03
3.872728013188107485e-03
7.166392010307244369e-03
2.358296401302891431e-04
-8.868362310659391734e-03
2.785494910163050300e-03
1.467214719280986179e-02
-2.131458376923090967e-03
-6.557583209643443739e-03
1.006503434805015732e-03
6.610732789303421474e-03
-9.835335859336602482e-03
-9.740957119118790961e-03
-5.723947065893315173e-03
-4.139328653063922663e-03
-8.372163258267581107e-03
-8.279477341269544238e-03
2.404741441157195146e-03
-3.519570282989350780e-03
-2.402961745514637336e-03
3.165242532567532577e-03
5.100353745822482944e-04
8.296343743264085122e-04
-4.461557759648705594e-03
1.280874613366436406e-03
-5.016202905152259556e-03
2.495834293113762588e-03
9.321696327626890002e-03
5.634459470321416877e-03
1.155369356549724265e-03
-6.242466778010601590e-03
-8.706278609934480980e-03
9.844579187476984461e-03
4.792346014277045103e-03
4.911352400038432840e-03
3.254488990858724323e-03
-8.312005188059985034e-03
6.885975084619340957e-03
9.284391889666638448e-03
-5.515774294086952037e-03
-1.520781997131048432e-03
-6.195262892318573189e-03
7.996546866128708894e-03
2.851191500751125668e-04
9.550731279415150543e-03
-5.468146507482648036e-03
5.576481293313462380e-03
-6.018698169178335680e-03
-3.684339439549017426e-03
-5.155535571552976974e-03
-5.759877141053544765e-03
3.292010620802554056e-03
3.868847905397190291e-03
-4.910786984062377909e-03
-1.577537537643591923e-03
2.158770159027400149e-03
-8.608376009018240196e-03
-4.453832086300419518e-03
7.907649573269446772e-03
9.916620434114739938e-03
-8.436613119092335744e-03
-6.139295125164017514e-03
-5.497521610841557028e-03
-5.694385111356651706e-04
-6.748124887849731544e-03
9.946244693722796140e-03
-6.668723497990616290e-03
3.547934045337505218e-04
-3.268000489749223018e-03
2.033717610471840603e-03
-6.006500008141795084e-03
-4.101024548563875737e-03
2.429964390544771171e-03
5.217264470507691505e-04
5.356251332520997090e-03
-1.160244039669248084e-03
-2.039339289855647986e-03
-6.555747358292951521e-03
-3.918073860043865334e-03
9.653979498018204833e-03
-8.521660584612620812e-03
-5.615185114981095793e-03
-8.013969011324404215e-03
4.500320660438455155e-03
-2.462386585978006679e-04
-3.461781605206258518e-03
-4.160589401586416158e-03
3.979800298999073248e-03
1.070286369219212649e-03
4.522367603732927593e-03
5.876936746361636696e-03
-8.183257835321455440e-03
-6.485065826628882459e-03
1.363526068152941077e-03
-1.309136796556797976e-04
-1.258487858541585715e-02
-1.905995888029447674e-03
7.895055965539761640e-04
-5.562816456808721867e-03
-5.463304874379536213e-03
6.590966952186517319e-03
4.355393922827817572e-03
-9.572740296780346547e-03
2.389078375878708575e-03
9.634697783572889959e-03
-5.837147272566322806e-03
4.316888378696718577e-03
-8.323811246951709486e-03
-9.251629207496883320e-03
2.088474856044005912e-04
-9.811995074549630796e-03
4.228323869366517121e-03
-1.276012582675877796e-03
-3.780386718749753454e-03
5.971549489693432113e-03
6.747208849460525557e-03
-1.781060392894535807e-03
2.288605855501720443e-04
2.187956295072027591e-03
7.475311725555815190e-03
-4.187591866351453307e-03
3.686874587979376266e-03
-1.546328382203830676e-02
-6.563016083699998830e-03
-8.759445913398434397e-03
1.064584560247656617e-02
1.010396956817799247e-03
-5.137614819993495396e-03
8.924834091673741060e-03
3.083776787347310925e-03
6.100006567845595896e-03
9.429693939109310558e-03
8.883138534634528113e-03
-7.655478808493066181e-03
-3.740672605953320514e-03
1.559634307011896004e-03
-4.871510539104957627e-04
5.466807937400769597e-03
4.275431713165871520e-03
-3.382155737874898739e-03
9.523140865485736281e-03
8.890876954561033330e-03
-9.956532571704548862e-03
-4.595315529345507413e-04
3.680699628086068348e-03
1.748218235854052819e-03
9.585868229519137196e-03
5.577618552560968668e-03
-5.288284245177446788e-03
-7.002447601498761358e-04
-3.771694890739535431e-03
8.935851720515558538e-03
2.210072197166017879e-03
-7.465067946742899932e-03
4.723393570947278706e-04
-4.256146730375909640e-03
1.665137276507069755e-03
-3.024644249062251669e-03
-1.947689964537493990e-03
-9.173152417177109219e-03
6.707486805787467700e-04
-8.610855405817104471e-03
-8.537929234358389990e-03
-3.700149425657089236e-03
8.556639680595917946e-04
-4.841514824768696802e-03
-1.086376384866283382e-03
-2.857674813231428097e-03
-1.145929161812243467e-03
-3.599895140200099993e-04
-2.635443903136730232e-03
8.449555734042078076e-03
2.671075307297943787e-03
-4.057153561083130452e-03
-7.210405181473113038e-03
1.784615375727325107e-02
7.867724856120363389e-03
-7.526399992000561145e-03
-5.871256263818401197e-03
-8.449149599229471147e-03
4.606494182860651140e-03
-1.815103030125328649e-03
3.358992218406746128e-03
1.548206132046488215e-03
-1.208886286809219548e-03
-1.289801783797835588e-03
7.294983949674880945e-03
1.301462662485068471e-02
-8.722127360702274998e-03
-9.235638040187142683e-03
5.371528437993967897e-03
8.500451050356506305e-03
-9.532924073934656486e-04
8.972674313611993940e-03
1.257324493065498788e-03
-6.108951828437972353e-03
-8.436101434603915025e-03
-2.186388707842557618e-03
1.582908340034102821e-04
8.961414792546078256e-03
-5.993386341339577116e-03
1.222346067617071904e-03
-9.610456622667020235e-03
7.417098676207853174e-03
-4.747210815241272898e-03
7.315150201630746252e-03
1.490950093391780421e-03
-2.492872569839211985e-03
-6.760583600614499672e-03
1.650641217065740816e-03
-6.940595870569383000e-03
-1.832154091894903046e-03
-4.666721434722504065e-03
1.161875706693910396e-02
4.413952253462844963e-03
3.553220913453274989e-03
8.412906893758865037e-03
-9.908146844705301853e-03
4.101589259478099700e-03
-2.013941892313674225e-04
5.775196256805404868e-03
-4.873582931124254523e-03
2.920621225183872832e-03
-8.373381781507633834e-03
-4.777304940852948080e-03
1.349107498518052096e-02
2.154219617685277244e-03
-9.559317271834961993e-03
4.381800942038097633e-03
-5.222788002724757829e-03
5.110750016005087722e-03
2.418807761757645926e-03
4.896297686459738854e-03
7.791341673908647007e-03
-5.772154154472530947e-03
3.155094592980662183e-03
-6.069392951290363165e-03
8.026716523712488453e-04
4.738406180266337142e-03
9.492321447813605387e-03
7.406225365356541466e-04
-2.588006330300283986e-03
2.719662224643252320e-04
9.526146422662945534e-03
-4.408863131138023896e-03
-1.036827779252039129e-03
-7.384081257904604595e-03
4.007470360885387502e-03
-3.306793755460953489e-03
5.888515570440451584e-04
3.901579588632696043e-03
5.756706654899220246e-03
-5.903679087074419941e-03
9.210546761900870530e-03
-6.963801400850187610e-03
-5.815672363615143232e-03
-9.788672716288485121e-03
5.150159482069503747e-03
1.605974524951647286e-03
6.840934771293203688e-03
-6.729278311056862555e-03
8.356486968610270325e-04
2.156781443531510106e-03
4.172411646511192673e-03
6.350364936891320436e-03
8.108510622050292061e-05
2.506788404643072008e-04
-7.180427565393552800e-03
-6.185295454558667125e-03
5.623340433619717499e-03
9.372975127632663522e-03
-1.135839631995910932e-03
8.503641962761571138e-03
3.695947043729627332e-03
-8.869819753425867842e-03
1.305734769345942396e-02
2.704502947857153022e-04
-2.716568367387234718e-03
6.497565106986204035e-03
-1.228517466229696493e-03
7.053640954102002175e-03
2.626566193731968285e-03
2.144217898645798745e-03
-8.080137907202260619e-03
7.065020840477746408e-03
-1.383917263132491407e-03
4.711159257725189634e-03
9.572109668298930604e-03
7.413889046250346547e-04
6.144094313558341736e-03
-1.049421962474807136e-03
-2.077517762566554686e-03
1.250781411191648511e-03
-9.649628198549772481e-03
2.875363196033234488e-03
2.474585949733028724e-04
-7.947004735667921246e-03
-5.930742309646888991e-03
6.162896435885998475e-03
7.706533350633013729e-03
5.047123804908055719e-03
4.413228919265226383e-03
-1.615301567252898710e-03
8.201996328271139031e-03
7.879987515281463087e-03
7.426787556483215209e-03
-2.261562370463226883e-03
-9.732645244789520089e-03
7.567514888448412399e-05
-9.370473311552504972e-03
-4.359663977658421834e-03
3.625712690632579456e-03
9.398044186394107977e-03
7.263134905690569500e-03
-6.337177172323959183e-03
3.868672759621351147e-03
-8.781194567828616571e-03
-3.337299521552641521e-03
4.957381457064271267e-03
9.004260687244462769e-03
8.538918304573950638e-03
-2.796223297394208676e-03
-1.523030735362200473e-03
4.945801441432281023e-03
7.903653901631302672e-03
9.700053034902105225e-04
3.785337177437522304e-03
-7.535800087380141801e-03
-6.371535676493988651e-03
-3.688101734687716533e-03
-2.421844532852984212e-03
6.044285231320822675e-03
-2.238238620401233891e-03
-3.393215001222445529e-03
-3.170260184155626777e-03
-2.757346699302503528e-04
-6.205309455439352896e-03
1.262986432446902953e-03
5.142084849586728984e-03
7.212901458753914058e-03
-2.134486803014055533e-03
-1.747331116541115488e-03
8.450930987573381306e-03
8.465666374608254302e-03
6.229142289786189848e-03
5.374616447350440140e-03
2.309930297110972947e-03
5.341815580970713136e-03
4.013749953956615574e-03
1.755903333208531144e-03
-8.816116913237522640e-03
-9.141707834864355384e-03
4.703475260550109630e-03
-5.179413009612917999e-03
-8.187381094348978802e-03
-6.407094468837287032e-03
-9.359903631148266609e-03
-2.574635237187181819e-03
-1.367728124048604027e-02
9.162700126486327673e-03
5.226050305763594445e-03
-1.989747888847908514e-03
4.171380002820871714e-03
1.482727441484428706e-02
-8.434940590544221309e-03
-8.588436972497826699e-03
1.918210839855316206e-03
-3.191596416546077248e-03
3.017566225937936934e-03
1.700536901161936844e-03
-9.025226039758684968e-03
-4.206582925914227936e-04
9.850192184661390148e-04
-5.743492752966769879e-03
9.914708262241974171e-03
7.876440129157157369e-03
-2.261979671368888768e-03
-7.846428270455065371e-03
8.744912867993882150e-03
-3.779552711683408645e-03
-9.434916651583883859e-03
-6.811196933190537262e-03
-6.287593988778254761e-03
-1.339972183254448806e-02
-6.683650230140527476e-03
-8.140916510624880698e-03
4.658252383295241996e-04
6.868851387194398542e-03
-1.086367719153670183e-02
4.841888030950323822e-03
5.772466971592424972e-03
8.487943617496031268e-03
-6.338240475295573925e-03
1.756497679401998122e-02
2.682438324363796336e-03
-7.326357248119153183e-03
1.972462069004614436e-03
7.670524179836442358e-03
-5.992330079887041999e-03
-8.613320358397381915e-03
-2.824054052530635111e-03
6.238523461918939021e-03
4.061128281793792080e-03
-9.086386008512959550e-03
4.952954781106737314e-03
3.379323953929021761e-03
8.632990959283034843e-04
-3.958916832661780495e-03
7.768071122654335130e-03
1.145515685176117177e-03
-8.020287767998819997e-03
4.359180744816603184e-03
-2.008853121727194411e-03
-2.253141302033702473e-03
-4.843559742910635672e-03
9.972576303782822171e-03
3.379215831978788463e-03
-2.351347224205166311e-03
-1.524809298700690111e-02
1.328783778224146414e-03
4.142054509235368331e-03
-9.026459196946199498e-03
-8.343517077313369196e-03
7.897747901264523182e-03
-7.821911480769879604e-03
5.293400310248389451e-04
-6.640207186095679198e-03
5.941111524356766996e-03
-2.213546717353330159e-05
1.007546603459894344e-02
3.305382219439400616e-03
9.192672630532810682e-03
-9.802390527664643985e-03
8.782350180320065702e-03
-1.394042451629522476e-03
-6.779785684188921642e-03
9.715651219810567812e-03
9.206698833875894689e-03
1.018189910940020104e-03
8.751185030138639714e-03
-5.967524390849346903e-03
7.196317667311477595e-03
-4.998437777789849559e-03
5.556068878576108511e-03
-3.482484306127960755e-04
7.507154181811206972e-03
-8.904567473343210499e-03
-9.128752803075968966e-03
3.714316549465621065e-03
-6.794983211791799475e-03
-8.524884806305440751e-03
2.633423157811042633e-03
8.583591376695100684e-04
-2.771874058001974443e-03
1.990454003026899919e-03
8.113122152600302575e-03
-2.740218770356818261e-03
-5.794805287654281566e-03
-4.152070837719562015e-03
4.224100000866290276e-03
-4.605576215440223935e-03
-5.835122545278274668e-03
8.225830057066780068e-03
-5.881918380960390706e-03
7.948717901437044042e-03
8.383440036411022450e-03
-3.712687722366771106e-03
4.902612635039654311e-03
4.569639019381937367e-03
9.363436637801016149e-03
5.086000748198469569e-03
-9.338977324848150158e-03
6.475616343003473292e-04
-5.981946441103302460e-03
-3.756405534089240703e-03
3.155626414639811118e-03
-1.678891267125655687e-02
4.989470989760134284e-03
1.598812337916911825e-05
-8.581996236199554429e-03
-9.087717696336424650e-03
4.149965222825118850e-03
-6.559615439201579162e-03
9.333774398894182853e-03
4.039555818612327459e-03
-5.683561610043646843e-03
-1.481369076067942919e-03
-3.761008077606785294e-03
6.166942167202468794e-03
-6.595282808771837533e-04
3.799724992641057876e-03
-3.893822399117549248e-03
-6.233424066335369051e-03
8.717939812468766814e-03
-8.355719923838820715e-03
7.056730779334725000e-03
-8.181166999153910782e-03
-6.950153750375945988e-03
7.482598368469445954e-03
-9.265953810381102884e-03
-6.754766348937057789e-03
-2.035770979873221392e-02
2.390010577176424848e-03
-3.702258263613331189e-03
5.920118002410838244e-07
-6.835324202062426080e-03
1.080797885549474383e-02
-1.043238276123657944e-03
4.458661824240577748e-03
-5.346388445837208826e-03
9.208340793088808790e-03
4.367608878865357480e-03
3.364167144943941336e-03
-3.372959024634678438e-03
4.474780921780824663e-03
1.125849382129723991e-02
-2.168148622475266595e-03
5.241165808883944954e-04
2.744083680709431990e-03
-1.395101286727954901e-03
1.807643343548391611e-03
-9.301238164018035132e-03
6.611575931170339743e-05
5.169133624412509780e-03
-9.218654330472739189e-03
-7.246446104231551479e-03
-6.817858713486870705e-03
9.893770767433942431e-03
-4.871777346886427447e-03
8.812463589543033729e-03
8.983046794235297061e-03
-3.780615536814251661e-03
4.986638803957357986e-03
-1.055658502637904506e-03
-4.600719681375063652e-03
6.625191285098435204e-03
-5.020236067587726184e-03
3.437651942980096253e-03
-5.437681199749294994e-03
-2.098962079392232595e-03
4.184290482068415799e-03
8.445111865253169398e-03
-2.074615844961880985e-03
-8.822607056530920241e-03
-5.871673377952219865e-03
-8.782255433961168312e-03
-7.691051950317536216e-04
-7.064439428751377766e-03
-1.500033699740134117e-03
-3.671447865708947229e-03
-6.642850280727234484e-03
-9.070512033478538710e-03
-6.010799313939178302e-03
2.741299671298191073e-03
3.352612896978648949e-03
-9.605436389752438839e-03
4.623194216322593260e-03
9.392476305101319506e-03
-6.343294367274810580e-03
-8.003252428314242342e-03
2.889086074080504662e-03
-1.576757389277111442e-03
-3.821469165701194600e-03
-6.940266325669469313e-03
-1.065779302402962252e-02
1.475945530748924619e-03
8.745406661358957889e-03
9.439609396235950148e-03
1.410032407528325838e-03
-5.683487421356237315e-03
-2.714180202086542877e-03
9.352661802035449300e-04
-2.892792509042420995e-03
9.115193088959201717e-03
8.756028550466820465e-03
-5.158080026241050782e-03
-2.880994067193849879e-03
1.305983420945521639e-03
-3.088439295060361241e-03
-4.355309731700170855e-03
-7.799656430575225945e-03
-6.787489688374209046e-03
4.992700519340450074e-03
7.346068573988492022e-03
1.777540071931056360e-03
-5.985615880705633975e-03
-3.507235629399081504e-03
-4.428629074977326330e-03
4.316942450005135413e-03
-8.503462325672849625e-03
1.038778885161458420e-03
4.667186937029221827e-03
8.882821433433815694e-03
5.657291491796063998e-03
4.852025974345564562e-03
-2.313787331846053875e-04
-4.105163306192260129e-03
8.042508368940385483e-03
-9.540084697261481950e-03
2.986620609827927899e-03
-1.338734732556173986e-03
9.330648771611255773e-04
3.719652175397401405e-03
7.067794563738462668e-03
-9.337168052239981295e-03
-5.726941961616513130e-03
-6.635389018793175567e-03
-1.049048844721804652e-02
-7.988140750150312872e-03
-2.500775169562122376e-03
-6.011094195793555660e-03
5.125818196349748827e-03
1.315169822392832691e-04
3.240507283793075954e-04
-4.636037649224403374e-03
-5.349807542277979291e-03
5.761893637867538873e-03
-6.566034333161600844e-03
3.427725368970257081e-03
7.901282568898370176e-03
-8.219377772555987866e-03
9.485823698652102315e-03
8.211372879255126808e-03
8.261509345357775577e-03
-1.919819093023106922e-03
-9.030193797791406449e-03
4.201204484209290768e-03
1.487804241742353255e-03
4.755965910034814018e-03
-1.720187664047213892e-03
-8.515617035731438272e-03
5.832473692541118330e-04
3.291859912733878339e-03
-1.480088280520935320e-03
8.455665999369324504e-03
6.853580679334577049e-03
-8.581407141416974582e-03
-6.604222536223676443e-03
-6.567940291693953256e-03
4.781987142970173590e-03
3.744428061561390266e-03
9.395773272555932309e-03
8.956601190019898920e-03
-9.134057026223121878e-03
3.454388097445744692e-03
9.731360466599683900e-03
-7.794868325398420818e-03
-8.388381342500516756e-04
3.455025213558736690e-03
-5.970890842509551238e-03
-6.507242830725045064e-03
-2.453190091568569278e-02
-4.376683364619807573e-03
2.861976142905772735e-03
-9.550766106818439974e-03
-6.179694867135616249e-03
5.745171542166267048e-03
7.263396343600769453e-03
1.822878701638708503e-03
-3.512891926348114726e-03
-6.962436516851733953e-03
-7.106138203985187807e-03
-4.343040818944312264e-04
2.297957194112340996e-03
-1.508899016896469644e-03
1.312881941778359929e-02
9.368533689120231434e-03
-2.580110345329151168e-03
-8.386699760831391876e-03
1.455420716719323234e-03
8.649230786980899007e-04
9.319374703120631223e-03
1.710759928474806218e-03
-3.297211809657037574e-03
6.191693703952986898e-03
-3.880680674817012232e-03
7.095789291437861607e-03
1.390575251372940923e-03
-2.411062650739921804e-04
-3.623355863409172695e-03
-3.243489013644266714e-03
-6.160045490394461427e-03
-2.205595249550784849e-03
5.618849925830557597e-03
-7.878762142309357966e-04
1.871490028994425526e-03
9.459936829592159244e-03
-4.690303025010367742e-03
8.334329420092653068e-03
-5.092728128117216847e-03
1.304418957336300625e-03
-8.384052958270106840e-03
3.600869707577815382e-03
2.811698788001835286e-03
2.977354658797889703e-03
3.187490116703940203e-03
2.800504008268899989e-03
-3.751729593362749214e-03
-7.078517387579342200e-03
-4.162272857886673005e-03
-4.504895855764934690e-03
-6.589212376476285583e-03
-8.771512261541805980e-03
-7.248550857716349639e-03
-7.445840286653038556e-03
5.018689981913981336e-03
-2.802802539758201313e-03
-6.176689778544398185e-04
5.361363699409459234e-03
2.775380616827684450e-03
6.135892596662613843e-03
5.573584682110377213e-03
-7.818251346927969012e-03
-8.350344470288501714e-03
4.762170981511015290e-04
9.541650846236243017e-03
1.571217202458456219e-03
5.336301890410633138e-03
-6.237528304459457641e-03
-7.114899187564763250e-03
-2.731318625820699890e-03
7.987917081045129569e-03
-6.472503032872829569e-03
-1.210814216446038771e-03
8.733420256251551647e-03
9.314344382328285793e-03
9.184584255922645032e-03
-7.272686355728056923e-05
3.990412743151001279e-03
-1.483838944499895956e-03
-6.570367225338491490e-03
2.355162513106154407e-03
-5.761551012721875809e-03
5.436474088608673517e-03
-1.741565446560456795e-02
9.305078131080966874e-03
5.304356097844869014e-03
-8.226907629657342208e-03
4.802536278300652099e-03
-9.144174392643323809e-03
8.362220907685326277e-03
-9.745533795576818634e-03
-9.159547259658902540e-03
-8.682113755307401676e-03
-5.516980887392190433e-03
-5.739046558408741373e-03
-9.030302418722900570e-03
1.830696971626543258e-03
-4.546805480579385432e-03
6.089149296465613641e-03
-8.063674533456830634e-03
-8.149657573006492337e-03
3.803825873576643143e-03
8.935186444624029778e-03
9.857992245716611437e-03
-7.128433365199282265e-03
-1.152060195512291359e-03
-9.856503223933138925e-04
6.053338103190556048e-03
-8.907073847730241634e-03
-1.490651136906075841e-03
-9.273507652308502630e-03
6.312677935559663639e-03
6.777455114674027156e-03
8.649828312565062405e-03
-7.383088286810462857e-03
2.594553744883323302e-03
3.220086289326025419e-03
-2.157253607036557341e-03
-5.253814883641907789e-03
-9.088097192594643201e-03
-2.777621712215338871e-03
-3.263636796991868216e-03
7.356871011650828809e-03
-9.867815325857783731e-03
-3.428145762125309648e-04
8.266097077604825372e-03
-8.842309661804001811e-03
4.283045059314095383e-03
-8.566678108419982507e-03
-7.216162737669615419e-03
-6.258232626404810692e-03
4.809284541278645644e-03
8.603857742261356023e-03
8.959950394010119182e-03
-7.590109612111452936e-03
2.931710482226998916e-03
-1.667921525403509055e-03
2.960268646857690950e-03
1.237234878761863657e-03
4.080261397951659430e-03
-2.318377434204323042e-03
-2.493876663431631585e-03
-6.745089950990343884e-03
-8.914290804153100073e-03
-6.985880999786789683e-04
2.079627847885882289e-03
3.253399734688219250e-03
-9.870967415214107477e-03
-2.354392031652106573e-03
-2.944622536060040579e-03
-7.799457306249570065e-03
7.472172222836273754e-03
7.553816719652825269e-04
3.807784202981088790e-03
-5.586980470518147952e-03
4.088627903079190481e-03
-8.058087937755750024e-03
-1.926860464280153243e-03
-6.888612104370920447e-03
-9.389742276929650619e-03
1.326922615415345331e-03
1.354999234188361372e-03
-8.738180593299822371e-03
4.074791486543105634e-03
-2.783636035778798683e-03
-4.644624705136915846e-03
-2.688988220114624673e-03
7.869002345222812084e-03
3.928799834912918496e-03
9.043411647932554295e-03
6.362180713681328710e-03
3.051266223448293683e-03
-4.268500623436326594e-03
-2.100343107435656467e-03
-5.300899571109344253e-04
3.218535567983436558e-03
-9.667090964682744855e-03
6.510983258389540368e-03
-1.396604268275513207e-03
6.911029167677202809e-03
-4.918800316125687341e-03
-5.559703184095337973e-03
-8.529403088506542011e-03
-1.499488692678971162e-02
9.068246045478074724e-03
-6.728988452903822935e-03
-5.355373641477598548e-03
-3.143144902831138468e-03
2.883387992237095281e-03
-7.602475686806131096e-03
-7.909719480121955599e-04
-1.653034468695234157e-03
9.478518608734949830e-04
2.497615225221782968e-03
9.914857279333234505e-03
1.715545334731615216e-03
3.644969425054173789e-03
-8.381017993655573775e-03
-5.131709092759893440e-03
-4.081010828793588813e-03
8.636054640987126871e-03
4.288151561487533146e-03
8.361035108659748902e-03
-2.769227564620838338e-03
-9.931368461428032382e-03
5.487514434183648863e-03
-8.369666561700713284e-03
-4.710165193108261684e-03
-2.125263003618809744e-03
2.432781045852616154e-03
-4.095506878034692322e-03
-3.915659355417048376e-03
-7.299281923507256256e-03
5.828093443950740221e-03
-1.157698090334909058e-02
-4.188035765436544551e-03
7.506535494143820424e-03
7.972262507385212763e-03
-8.205456123424686998e-03
-8.404079226304294811e-03
-9.071953665452605134e-03
2.968859968169116400e-03
-8.822959819632172906e-03
5.828323092954256976e-03
7.804978349775594515e-03
6.666633501694502499e-04
-6.401120134668799276e-03
3.580432944873187216e-03
-9.012542171319602724e-03
-7.940095331801077377e-03
2.217684623013054238e-06
-1.954409589249142803e-03
4.030326177611176508e-03
6.537905647554763389e-04
9.670947622409010666e-03
4.348756434479600363e-03
-3.834546949360358864e-03
-6.156423438022502227e-03
6.854166251820573152e-03
6.115231200612100335e-03
3.184447818700160155e-03
7.487846669469204290e-03
-1.920592150290887582e-04
9.653028525859915637e-03
9.294241755308503203e-03
9.813558322072230000e-04
7.788728508410616529e-03
-1.070531903840838892e-02
5.260947354643595933e-03
-1.018471040262474304e-03
-9.071027777631378731e-04
-7.206942829176192153e-03
-9.001823616081622292e-03
-9.787047337267330491e-03
8.436926339189911375e-04
-6.398103145321812346e-03
2.943772453832613732e-03
-3.385682709481554879e-04
9.246573908133414940e-04
-8.713904776154319382e-03
7.386260298052006214e-03
4.247032603538447929e-03
8.803757030419879018e-03
7.515291111528241835e-03
-4.338313213468072103e-03
-5.039242933113366289e-03
-4.938873882614989649e-03
7.469580061263351133e-03
-9.352899483379584211e-03
1.051019656681661217e-02
1.253589150523486953e-03
2.611399282598128417e-03
5.273184439997899865e-04
-9.372840130877723927e-03
2.179660584725333708e-02
-9.065655089765223620e-03
8.561983627707258140e-03
2.248051407979862935e-04
2.956961902239081761e-03
1.675050394168929894e-03
-2.652550549238146763e-03
3.640419875125016930e-03
5.171349142603950781e-03
2.933661364545123856e-03
-9.662546765694382186e-03
2.886088699647955651e-03
-9.622427734697168791e-03
6.927556206950109471e-03
8.990446349892766698e-03
3.525071862322832345e-03
8.668209517439053047e-03
-4.613142409612336868e-03
6.103262864838189701e-03
-7.931154017589153379e-03
6.723634921602877380e-03
3.777867681023287100e-03
3.819852084928049719e-03
5.555646759164714621e-03
9.466994325924271356e-03
-5.143995006765077595e-04
6.841705067235402150e-03
7.410646294325134477e-03
-6.305091585048892659e-03
-2.928730819760381587e-03
-3.222912290551476194e-03
7.789922636052925946e-03
5.611324680369548894e-03
9.793756834728538710e-03
-3.441773464893290932e-03
-8.908850242393689597e-03
3.231959125557457187e-03
-6.739978380547470907e-03
7.225807586251400613e-03
-9.197112430669623570e-03
7.555393639947925039e-03
-1.486405692046487874e-04
5.043890352956278446e-03
-2.021483541776645382e-03
2.215967327629405487e-03
-3.580764698939001029e-03
2.376383823760138368e-03
6.398699527872527687e-03
-8.915541708136348956e-03
8.432987201134795746e-03
-5.402964637543157707e-04
1.091610445878726278e-02
3.332800401386704168e-03
4.373689234752706364e-04
2.479965067778096711e-03
8.496849573432277685e-04
2.287139926120958233e-03
-7.942215729019111436e-03
-6.418870903645593163e-04
-6.464708859062195077e-03
6.278002465451366226e-03
1.110327719883733065e-03
-7.441222272043654905e-03
-9.473859203280357230e-03
-9.743652130279188694e-03
-3.836952076143887447e-03
-9.461900632630915187e-03
-5.947307903335729770e-03
-2.124672474497593319e-03
-8.399176272687798941e-03
-7.973938304928424384e-03
-7.009326854343810725e-03
-7.499178394200243852e-04
1.421715697131624391e-03
-3.927824806656422980e-03
8.421665832262465595e-03
-5.612379450818313908e-03
4.561554711646474171e-03
-5.668031853940072758e-03
-3.929027610887621605e-03
3.526497438557753012e-03
-2.068952053425183752e-03
-8.655501178181361499e-03
-4.620399034197950755e-03
-6.313446535827491220e-03
-6.476652662823517703e-03
-6.101768116804691389e-03
-7.387737988887173660e-03
-8.513610486659007812e-03
1.992151740595311370e-03
3.169901634820870926e-03
-2.420614798621813614e-04
7.371680396119213198e-03
-9.481848630158102101e-03
-6.146862166296606159e-03
1.045699903113441430e-03
-9.219517161522526247e-03
-5.430657950345233690e-04
-6.222720255651170533e-03
6.804338028688768861e-04
-2.241148246728517576e-02
-8.656142026752786101e-03
-1.162315756077003442e-03
2.928363512110861329e-03
2.899609226399351564e-03
8.356820207373813481e-03
2.735484990211610457e-03
6.222449659082206035e-03
6.729291199270692053e-03
1.531659984778024420e-03
-9.929005296785110238e-04
-6.492325313349770789e-03
8.142954859383851399e-03
1.625022854881512857e-03
-8.064890689172926966e-03
5.794477023493628184e-03
-5.487755465567932707e-03
9.265033357197251587e-03
1.008748406739099282e-02
1.326524134881895516e-03
2.871720829035018935e-03
-6.530958277858742861e-03
9.180096821389484643e-03
-6.797939057052544351e-03
8.289196612912597822e-03
-9.894193946380804364e-03
-5.672063260400051973e-03
-3.982353310396393592e-03
2.308161814161144732e-03
9.059515607235264431e-03
7.412426074408109619e-03
-3.882337137606071313e-04
-6.402611218487870917e-03
8.831711459055542612e-03
6.300466363878042507e-03
-1.342473905538386523e-03
-6.588821974346154887e-03
-6.656635609970820537e-04
8.388269104894085669e-04
6.357330078599059131e-03
9.604654497617786182e-03
4.484898463652608677e-03
-9.388761217066608636e-04
9.848116889472895152e-03
-5.682443511799013238e-04
3.970875806410592394e-03
-4.607775064928373160e-03
-3.880311787096770576e-03
-6.341738779994485209e-03
-1.316417080390476025e-03
-1.546680434696170699e-03
-1.377274638864336379e-03
-6.576959433447083624e-04
4.557871545727693735e-03
5.273176056945954975e-03
-5.495587288678874770e-03
7.905626413675610059e-03
-2.047392522005303441e-03
3.689987684079747750e-03
8.699068435049887513e-03
-5.773043575748797868e-03
2.519284137360627319e-03
8.262600178637018525e-03
-1.573569585899942417e-03
2.038436268550757882e-04
-4.553670419534148854e-03
-5.453812830723245991e-03
-7.918978294856635763e-03
-6.733315054435013922e-03
3.047299807385854629e-03
6.891393906247483304e-03
7.583637758491919290e-03
-7.780895579152813726e-03
-7.840002642317265777e-03
6.012224514726540727e-04
-7.518515207498255477e-03
1.748814503545401133e-03
5.354653944038249500e-03
5.755533406541168094e-03
-4.254560275892574524e-03
9.311552996257452253e-03
-6.208257101790196292e-04
3.955659978897318498e-03
-6.434142783999089940e-03
-4.155042033927344725e-03
1.337131464411062153e-04
-9.199863961296008905e-03
-7.818793253057539430e-03
-6.828583394476512268e-03
-6.328377158670909358e-03
-9.856047157804930306e-03
-4.995526877852454924e-03
2.853960799745079626e-03
9.305735669962572273e-03
1.726428210281816169e-03
-3.136650719170235024e-03
-3.547667287723552890e-03
-2.174333829329265499e-03
1.431403094155288313e-03
6.675543164372803491e-03
5.987365382903019756e-03
9.589620836367806697e-03
-1.986352162764084585e-03
6.426522694273791719e-03
-5.633475527995933851e-04
7.910594934122695820e-03
-1.528158248071779645e-03
2.770485806829143909e-03
-9.088185725271464774e-03
-9.111134362191537512e-04
5.247638845890848468e-04
-1.734325961437891209e-03
6.850296214986108419e-03
-4.524436423692228607e-03
4.234442300862491324e-04
8.546259841434603044e-03
3.974192595831618942e-03
5.668929283483482851e-03
-6.872807787733292532e-03
-3.311398797585705608e-04
-4.283986860806198935e-03
6.486008311431624984e-03
-7.225582974828915865e-03
1.799122096406980385e-04
7.425821627981073376e-03
-1.748049586331141192e-03
3.273051600653565426e-03
-6.235252457058111566e-04
8.298555149197240494e-03
1.074551573832038809e-02
9.278141982743369487e-03
-5.322552277060643884e-03
-8.969404905223818045e-03
8.202751270490842711e-03
-2.068523988191300119e-03
-7.716939109623868059e-03
1.851845574204622836e-03
-7.979349496977379552e-03
-2.460794358389708624e-03
-8.932406400756922812e-03
-5.533131804500379669e-03
-4.241592237128218729e-03
6.405265978935017514e-03
4.692342277428367993e-03
-2.392750629701542557e-03
1.021775712574538204e-02
9.072690317862322842e-03
3.058982417528878246e-03
-7.297166343139946908e-03
-3.420251312814911364e-04
-6.416555011543082464e-03
1.027973705798348292e-04
-6.695131429142004049e-03
-3.831933108169522425e-04
-2.817876954737501814e-04
6.691793663678416611e-03
3.685120560865767954e-03
-4.819901293477550121e-03
3.577175260027476260e-03
-2.831728482969329396e-03
1.053631854104949105e-02
9.729395748812869190e-05
2.408114127689132532e-03
8.929059351449936035e-04
-1.496756408343281192e-03
4.697554858913672443e-03
5.299208185964260180e-04
6.381150424215826893e-03
1.872367935278024080e-03
-1.059414273111376585e-02
-1.943912496730614654e-03
7.611841764213508714e-03
-1.333221309901285508e-03
9.160392460088420978e-04
-4.354582290398821380e-03
5.304683239689549600e-03
-5.052925000898911148e-04
9.300482722796358029e-03
3.694331487278405043e-03
6.242120399296263570e-05
-4.259766317573617476e-03
-7.254882128028992613e-03
5.636943778226296067e-03
-5.554720821640678208e-03
-2.430096652172283921e-04
-4.118681262225388877e-03
5.588682706479787196e-03
9.896483055166622328e-03
-7.519571550942901611e-03
6.041254106361268993e-03
9.755437021144961265e-03
4.500430495151509780e-03
6.015870222779776816e-03
6.236682702569053618e-03
-8.345867011424630208e-03
8.860385693376330446e-03
-2.225085022445253032e-03
4.271980900377845072e-03
7.196311627626356643e-03
-3.905568311508937889e-03
2.765584011894974773e-03
-4.820104532384171872e-03
9.559421280307763349e-03
1.470560837132653333e-04
-5.937169400858164758e-04
-8.308380681058307599e-03
-2.534874199705191081e-03
-6.206768002841198291e-03
-5.484874783973581192e-03
-1.729016871406855197e-03
4.694952899293934091e-03
9.187245710826052666e-03
-8.584242185111102402e-03
6.510501687394948389e-03
7.402029654536321918e-03
-5.272441182304952491e-03
2.139410671337603140e-03
-6.309337999685948536e-03
9.657027380718229831e-03
-1.159371144186428825e-03
-8.321637561616688702e-03
-4.112583634032290596e-03
-1.310568574671018907e-03
-6.530032327684558158e-03
2.383624491091376751e-03
3.034231235856150229e-03
-3.654400165597554689e-03
-8.278797890917481347e-03
4.100548622108307010e-04
9.701006847053564308e-03
8.183484742524033129e-03
5.130349523746012032e-03
-2.646126378963176325e-03
5.182623542523421070e-03
-2.152999071807264186e-03
-4.344981254127813775e-03
-3.192111672924189542e-03
-2.120755295598962618e-03
9.696049549393216671e-03
-8.867158885967384510e-03
2.130968980612771985e-03
-9.369828503517106666e-03
-9.131557018567824577e-03
-9.549487129354345544e-03
5.549612048210638381e-04
9.332325833755724873e-03
2.780048030897320100e-03
-5.988703890377374862e-03
9.310153809841478431e-03
-1.333206940063570798e-03
-3.552814177555502911e-03
1.768960655977911941e-03
5.518265046627302776e-04
-6.254429140183238867e-03
5.885223319086996599e-03
6.795440305697204343e-03
-3.680322889116374903e-03
-6.810966371952120041e-03
6.693238321188909462e-03
6.396580928395634909e-04
9.377891563871955383e-03
6.247091204949529325e-03
8.120117015612195177e-03
-5.841970577271773067e-03
-7.549732095387475667e-03
-2.577934917446238813e-03
-3.524671720545112345e-03
-9.281776498064234866e-04
-1.685219242691224817e-04
-8.140604745457186500e-03
-5.569164483230562047e-03
8.960090930889411109e-03
-6.535159219800512446e-04
7.810121177200308844e-03
-8.104609425246305648e-03
-9.653108512461717680e-03
-4.378557157694306333e-03
3.458885739537414031e-03
1.110790292348216510e-02
-5.122012494778505065e-03
1.552475066137889103e-04
6.151760572152855516e-03
6.660189364075659764e-03
-3.532306906194957428e-03
9.078760964311328660e-03
2.658381363748768544e-03
3.500479383805119981e-03
3.491884935793515814e-03
-3.744551609699566051e-03
1.276131781999595080e-03
-2.675831038639571186e-03
-1.533331443993725873e-03
1.946836116609945841e-03
-4.796799689482881949e-04
-8.146478504245678598e-03
7.829654188124507419e-03
-4.701299259729343864e-03
-8.181562261885653650e-03
9.517686819529211015e-03
1.230806859791699947e-03
-4.252229705591160426e-04
-3.023325172564281325e-03
8.170817805875954867e-03
-7.706812243748616294e-03
8.997832301296722693e-03
-4.515719234446279734e-03
1.562164466627286290e-03
9.806938120870627162e-03
1.759297406874880520e-03
7.000383624499583065e-05
1.056570753443185524e-02
-7.412235344274357811e-03
3.566205882032015377e-03
7.452060079583426588e-03
2.907639094187732757e-03
3.284721839369354832e-03
2.471288827266607084e-03
-7.481413892724546322e-03
-1.069073714640622792e-02
7.398628185027027529e-03
3.154498890592136867e-03
1.119735207518373970e-03
-1.642492506552640933e-03
-6.286621028179562032e-03
2.282424492752727421e-03
-3.203580703167673537e-04
-7.103305307688452704e-03
-8.000583071921628722e-03
8.284270311621719576e-03
9.463517209458306018e-03
9.791088668573937406e-03
-4.402617851848462591e-03
-9.368635350490019109e-03
9.489175308975025119e-03
3.109057907215969155e-03
-1.149278572650634482e-03
-6.690965502401184130e-03
-7.880254222516570872e-03
8.236854886574811879e-03
-2.032812244007053005e-03
3.378642654453469559e-03
-6.220265626035357230e-03
-6.852355725372081922e-03
-4.652150114642121179e-03
8.288598159366694640e-03
-4.139463772747440165e-03
8.879485228449800205e-03
7.547574718675020139e-03
1.534804369355932847e-03
4.403849973445732487e-03
-8.093583758541703088e-03
-8.001429655344756767e-03
3.292077524544520257e-03
8.274962393430659868e-03
-9.185874156983832306e-03
-6.247922181972031565e-03
3.351540808551004436e-03
7.989189777282227137e-03
-5.638674123240405497e-03
-3.337353509782272319e-03
1.853520704221790901e-03
-6.228524162897852365e-03
5.411363490912011326e-03
-5.850191223706173622e-03
9.653704522989988920e-03
-9.741949192850365633e-03
-9.252766361153626912e-03
-1.010646828811415272e-02
8.816726906974808181e-03
-2.432969599119263852e-03
5.952312324760467184e-03
-5.877809162771936886e-03
-8.143560776247706079e-03
1.422634457752525866e-02
-3.307033328463999944e-03
-3.392383108245161974e-04
7.864413350638950820e-03
-2.741548907134354514e-03
-6.645433639000685767e-03
1.500732031543013274e-02
1.724245270172919528e-03
-2.762404336521305168e-03
6.768299176748118935e-03
7.701580209270380509e-04
-2.228266131600125342e-03
-5.008707287525197220e-05
8.966751996264392399e-03
-7.632709112403076972e-03
-9.302838716049966622e-03
3.963091174691345774e-03
-6.473825788768452355e-03
1.205297514665665259e-03
-7.411572370218704603e-03
7.007344155067973639e-03
4.349561745141529261e-03
8.098384740032859783e-03
-7.499788848198081503e-03
-8.605204071394331397e-03
-2.309171422431570246e-03
-9.652500207368117091e-03
9.392643239824832735e-03
-1.742331016697756460e-02
-6.438649199690341801e-03
-6.970064026949905622e-03
7.260655947992894661e-03
3.344746200215964905e-03
4.082397525443362193e-03
-7.858086613616824256e-03
3.336043752575841830e-03
4.297593888982170589e-03
5.650165744442717936e-03
-4.802094646693160634e-03
1.351872030474280707e-03
9.346396357904001445e-03
-8.001146682334493374e-03
3.730268255986802627e-03
-7.001219406823973312e-03
-6.904436376479810775e-03
3.116235421750102041e-03
5.346681676404266628e-03
4.074505561052450126e-03
-1.471637966935614942e-03
6.607054088362179778e-03
-6.219296593078040046e-04
6.564773380188609203e-03
9.897719381332105784e-03
-1.802944481822480469e-03
4.124650361550258153e-03
6.580662994236303673e-03
-3.433820640036679660e-03
-7.798510474337961088e-03
-9.483706954069699713e-03
-7.205999093399142845e-03
-5.403050347707575793e-03
-8.368394742669926778e-03
-1.182711086088996852e-04
2.770676448612921245e-03
6.777167780480566200e-03
-4.963273386866745920e-03
-9.180091396294885395e-03
9.391315214321882196e-03
8.693007278469224233e-03
-7.702152826258227072e-03
-4.925444183319484769e-03
4.573955676109625092e-03
-2.880278013945907802e-03
-1.445841495344440389e-03
-4.944126988337987048e-03
-3.272607195716321481e-03
-6.210860050060194176e-03
2.987298541984711661e-03
-3.272729323171304217e-03
2.039707737396645459e-03
3.486068915606845269e-03
-5.077481835479092168e-04
-4.895509180467643578e-03
2.309765138419392783e-03
-9.034574058376499892e-03
3.442412667778595170e-03
6.591861144715042704e-05
-5.729944713459093723e-03
2.070581216394849246e-03
-9.220710966805368419e-03
2.695271720833555557e-03
1.144511240252597817e-02
-4.440674871520492416e-03
-4.046298052045915251e-04
-8.822883875843907930e-03
-7.067545265463856356e-03
9.759207326184038758e-03
3.419463638903095116e-03
-1.560852561312945502e-03
-3.379627130993604050e-03
-2.005257900640949713e-03
9.939219476182667087e-03
-4.169043377869370223e-03
9.874310257096105548e-03
-6.043594999633642578e-03
-2.098610999303446734e-03
-8.614873679156542091e-03
-4.308229831821801768e-03
4.476523068865632428e-03
-8.312254377157934915e-03
8.312704209505906300e-03
-1.564436770787560943e-03
-6.637468751110046222e-03
-3.863176418618679501e-03
8.370397946207723192e-03
2.333774588648279691e-03
8.117310641412979130e-03
7.793539866407460034e-03
6.549329215756101788e-03
1.050119271730901201e-03
-7.901715239857028464e-03
-5.006209069240904856e-03
-4.108782604107093402e-03
1.709177582911710746e-03
1.500254424032479396e-03
7.385382337276786592e-03
-4.292866014279670545e-03
-9.723338681034927877e-03
6.565622910472055079e-04
-6.082706111069407368e-03
3.696940169931663914e-03
-9.826117241723403978e-03
-3.716082653713352005e-03
4.088098952724652721e-03
4.367013847732168635e-03
5.211933673537805581e-03
-2.140226606632576918e-03
-8.934026962575235958e-03
7.128620568432021513e-03
1.367691231047375982e-03
-6.454578327988078415e-03
2.920305177430040488e-03
4.461835696623153193e-03
-4.225602549405123786e-04
3.114904956010691121e-03
4.958095759954238464e-03
-6.940003070591400924e-03
-8.796191946780643547e-03
-9.795909121441988623e-03
-7.926198929635260015e-03
1.204511120122271411e-03
7.400336032082003267e-03
-5.470682387797842598e-03
3.407187174277421810e-03
5.336886955191720745e-03
1.517052247086203565e-03
1.326841415279160497e-03
-2.692080805691302210e-03
-5.000399384601101824e-03
-4.684228533388359005e-03
6.288766789670320774e-03
9.501511972559543995e-03
7.803214168421495657e-03
6.968449937118512605e-04
-9.066991989798944785e-04
-1.223376462311267024e-02
5.409142474630645146e-03
-1.614321773139161358e-03
-4.136468421352459783e-03
1.735818160117923344e-03
-1.456806038746917727e-03
5.239690890996758985e-03
4.445176131934567773e-03
2.504231887015559519e-03
-1.977919126068121945e-03
-9.392091797818124047e-03
-7.663699132820063487e-03
-8.006507027678837901e-03
4.098433013813820164e-03
7.108213981911315656e-03
6.866321296336256631e-03
-3.913826124498948934e-03
-3.909621201066224710e-03
2.564923314328892111e-03
9.431099309357898752e-03
-2.111358562324357896e-03
3.233758915083219908e-03
-7.316341151149003547e-03
6.491983949023159318e-03
1.974605990830246779e-03
-1.688138316139415913e-03
-5.601933115152684176e-03
4.150672163053447696e-03
-9.621981107721968001e-04
-5.221350126051684318e-03
7.723353756543403087e-03
1.225335492819136550e-04
-2.161678319879484656e-03
9.023050865613439775e-03
-7.100799436768154282e-03
1.657347698072923411e-02
1.743756549741987821e-02
1.412436345045758879e-03
8.876460094111984778e-03
-4.607798281738100486e-03
-5.009580408759014072e-03
-7.913143013499645065e-03
7.746325772654684243e-03
-1.120883850706140333e-03
-2.046967308570020894e-03
4.535389197383159210e-03
4.844801456441494986e-03
-7.034518210871283130e-03
-5.505297164362296485e-03
3.024033105373758086e-03
-7.058142354501987549e-03
8.464576150246209268e-03
-1.517873803168533079e-03
4.076888518337130896e-03
-4.657493337338278368e-03
-3.418251049757431870e-03
-5.230455949240552654e-03
5.717153327704089551e-03
3.557801885521989262e-03
6.278793700064778244e-03
-9.796444679346942921e-03
-2.653930896436424575e-02
-2.798724422875518286e-03
-2.776440129363441645e-03
6.051176576449642484e-03
8.050028907280215237e-03
-8.742178474905576424e-03
3.062822600211423732e-03
9.443044945412818717e-05
-8.764883684507590589e-03
6.102113946505406325e-03
-1.759313277677993859e-03
-6.409346849804912864e-03
1.555508905987113390e-03
-4.614023249764667364e-03
-2.747145152606897921e-03
8.054743280088068683e-03
6.844941807916352094e-03
-2.205578410040990450e-03
-1.579817327738717637e-04
-7.514994627135670319e-03
5.565712220466961964e-04
-6.703742718407052111e-03
2.897906621494358696e-04
3.478363836208152576e-03
7.726970863953211595e-04
4.696732543689449701e-03
-7.940744467368690421e-04
-4.653210608896558680e-03
-3.402243511316895886e-05
-8.301546127930757926e-03
-6.684830915907656688e-04
2.612261827332551262e-03
8.096541462741284811e-04
-9.010445846150165949e-04
1.156310258121124104e-02
5.330889231817795976e-03
4.229053169793862976e-03
-6.627344562436358194e-03
-7.487757253651024280e-04
6.333522546864768163e-03
3.694129579959896936e-03
-8.801051390372794693e-04
-1.691300589336710474e-03
5.433023911221422387e-06
-9.840653935102381799e-04
2.568728147833659100e-03
-2.688771435655341619e-03
-6.603103268373280987e-03
-1.617385892601666542e-02
-3.661924280829077002e-03
-6.540606779917613155e-03
7.438673778132049060e-03
7.352130008434574343e-04
4.362085716468027188e-03
1.353360216194961522e-03
2.789723187622816184e-03
-5.056247263944167562e-03
6.332175018479071354e-04
7.630178346265411790e-03
3.684956820323295919e-03
-1.454141933637435533e-03
-3.034684559794236956e-04
7.097686831097830933e-03
3.951658307173925438e-03
3.660713101595724356e-03
8.603795005375027699e-03
2.987697553513064038e-03
8.754193614416776528e-03
6.851191817293962941e-03
2.143030332706176606e-03
-7.162536716274945335e-03
-4.508712559974150172e-03
1.637872501402678777e-03
2.673727441587030271e-03
-9.368909380257060132e-03
3.005318332621153589e-03
-3.197346683664047031e-03
-7.167998181573486793e-04
-7.659382774270707614e-03
9.918563848439517893e-04
7.448632059148876071e-03
