-1.058531743319434879e-02
-2.601644489785459331e-03
-2.890179926527696678e-03
1.047546402322832278e-03
4.399489785892607419e-03
-1.537002191797147812e-03
9.634375774262897429e-03
3.753023773636748276e-03
-3.311040140944554542e-04
-2.130630506117833518e-03
-3.134354583294210028e-03
4.586610487469447266e-03
-1.215312669352026139e-03
-8.805915467066844499e-03
-2.091597574323366803e-03
4.783241625099635824e-03
-6.349918632480790366e-03
-6.326640578398895313e-03
7.318028471745431206e-04
6.655142486875603161e-04
2.688019171026422016e-03
6.998135341948038407e-03
3.033983928764031040e-03
1.887836478758870597e-03
4.459483097190401757e-03
-1.565815665924320463e-02
-3.184797759597439264e-03
-5.413366716293918461e-03
-4.006351094442170239e-03
2.643659481658965776e-03
-2.892569342574551408e-03
-1.298422354404466308e-03
-1.323042486302342547e-03
4.531857811032935827e-05
3.441675384939182902e-03
-3.821253469464547248e-03
-1.574098968071363644e-03
7.879288908161880683e-03
8.893590646304459432e-03
6.007355145299229275e-04
2.482133445672118650e-03
-7.709297091644321843e-03
-3.697115782353578139e-03
-1.741963062455120954e-03
7.432232258254699298e-03
-4.389151563067540500e-03
-3.895882432327636940e-04
9.709038848742634897e-03
2.911389734522162182e-04
2.295336162301909143e-03
-7.511577022410649909e-03
8.739127401730582140e-03
2.067488077485916259e-03
9.194839505720353839e-04
-3.144561103438896481e-03
-3.877237236408767954e-03
1.911143695719464916e-04
3.662610726414041069e-03
7.511842948842085976e-03
2.277586026261548663e-04
3.418279496441382556e-03
-3.541269988476838351e-04
2.476739022627748570e-03
3.534083184789387714e-03
6.358814686980266903e-03
-8.304980260795034874e-03
5.229883158500063176e-03
-5.126626928270959678e-03
-6.101995307266650306e-03
1.457596443724681803e-03
-8.073218752306819332e-03
7.750375878344630855e-03
2.569517004782199271e-03
4.480692813304862354e-03
-9.674296490540582744e-03
1.884937508525295815e-03
1.194845961145961583e-03
-6.793870803284652801e-03
-6.918113204304111863e-03
3.923354007434077216e-03
-3.609637986039051800e-03
3.849335804652769064e-03
1.127924267976018096e-03
-2.161578477914230263e-03
8.542647633448427827e-03
7.071953256173863986e-03
-2.959743505101866939e-03
-8.741311293160350035e-03
-3.757756600042096856e-03
-1.415684888211401517e-03
4.830267300162548530e-03
1.192201817158803495e-02
3.035536274308933778e-03
6.187032615674077120e-03
5.352947879319619982e-03
7.664796982295961347e-03
-6.985607193317222054e-03
-2.018036111569644110e-03
-5.443799627456179929e-03
-8.763163516370664138e-03
-2.430866179831150017e-05
3.303389477096413483e-03
-8.081019355047016142e-03
-7.731151224521479876e-03
-3.500084200470503139e-03
3.329541482037172428e-03
6.934673743188105380e-03
1.147549319252168416e-03
7.100846888162070866e-03
-2.268107172464171092e-03
-3.573528956216765352e-03
-2.967890532921154626e-03
-6.604202980478871693e-03
7.025213298256210298e-03
-3.195767759305888529e-03
-3.815320806954154188e-03
1.531330482918293479e-03
4.294710738675723864e-04
-1.036493593222732011e-02
8.986423855183528486e-03
8.103551960799145609e-03
-5.765459352171565903e-03
-4.030843766370261622e-03
3.812077191957793172e-04
7.810571876940873744e-03
9.857365163047976039e-03
-4.864643182250241900e-03
1.318300831051826862e-03
6.442210029565572510e-03
-2.115187229103712707e-03
4.857892366046041507e-03
-6.789235584186213528e-03
2.013971356671797816e-03
7.726788707267940454e-03
9.686285800449364117e-03
-8.347160457105479506e-03
-1.384732538277000076e-03
-5.885003415977220313e-03
-9.743800540599832204e-04
1.257117792915366184e-05
-8.286596933580669608e-03
-4.058229430156830297e-03
8.530499017196888425e-03
1.431038276427735881e-03
7.883897231805627598e-04
5.095840717788891611e-03
4.851472297751047678e-03
-8.890838319138014492e-03
3.924846274501054763e-03
6.277892380504588969e-03
-6.200864912125524792e-03
5.570835948408128617e-03
-4.259952861784563859e-03
-3.974995657878589543e-03
3.260601502741207296e-03
-7.867946414550861314e-03
3.265162533397558599e-03
7.771738183584955655e-03
2.246991512051663598e-04
-1.178262153011475034e-03
-1.162247410463193315e-03
5.952129856477040779e-03
7.014700017359843396e-04
-8.007998433423552803e-03
1.648431786046425547e-03
6.319551417762360804e-03
-3.261766117548975906e-03
8.546358441476905807e-03
5.103658177560187539e-03
2.024205686814080276e-03
5.045103835207302191e-03
-7.246651012059802596e-03
7.245864363774978320e-03
6.442704568997032269e-03
8.197433192204178418e-03
-7.647274329344045871e-03
-7.698218193919170380e-03
-7.218072058919782104e-03
-7.935109455444389753e-03
-3.023158432928250289e-03
1.055614166188747517e-03
-7.554503009524054895e-03
-5.972607328325436719e-03
6.240172349866794817e-03
-6.384303193061139367e-04
6.124189313973586214e-03
-9.795002767558172105e-03
1.013371686017409869e-03
8.784585934631661264e-03
1.634465850897490148e-03
-5.878990161452322602e-03
4.361399955643953039e-03
-2.602093590892672666e-03
3.253483706645578580e-03
-9.403196104779446354e-03
2.432306464381081904e-02
-9.783275069525310119e-03
4.039114246526976683e-03
-3.072002589349782627e-04
-7.441060767991522149e-03
8.635090436866316123e-04
-8.665785088576740194e-03
3.115329726439640661e-03
9.967478416066622229e-03
5.202323091014087776e-03
1.539647945570284506e-03
-7.903914340106692540e-03
3.986236104646359926e-03
3.201836109307098100e-03
-8.987014097964022077e-03
5.769735292012842520e-03
3.917771017947423401e-04
-1.510936254442690491e-03
5.738055296033391095e-03
-1.764991394549659479e-03
-3.944034167492514666e-04
-6.248055168742264708e-03
-3.715359277279726632e-03
6.896620557181484118e-03
-6.289036208655685196e-03
-1.686966014393345269e-03
9.830429141144497035e-03
-4.956501502312142711e-03
7.924859487519945664e-03
7.569868590034041153e-03
-8.178212294835101454e-03
-6.710081737694205753e-04
6.559553075212574589e-05
-3.695501026401247849e-03
-9.022089282689070566e-03
-5.312151924155062571e-03
-8.247112159847289070e-03
-5.234828695465465129e-03
6.162973706921058559e-03
7.901041081995508614e-03
-9.059618994775807052e-03
-3.902314386867838589e-03
8.961737388892254338e-03
8.070212436618178246e-04
2.698584686496418271e-03
-9.912298438721229427e-03
-2.986436486500867343e-04
9.793324603811565804e-03
-7.470239351705298611e-03
-8.115724693412729521e-03
-7.502652540322435511e-04
1.106035813382236915e-02
-4.130217115663976056e-03
5.999212938790140538e-03
5.974594610962280505e-03
4.162131995961944331e-03
-3.229180968700757961e-03
4.208971805020389478e-03
-4.550463746711551349e-03
-6.072415290789594938e-03
9.360573116033856639e-03
3.032687981772059973e-03
7.526459802890073103e-03
-1.166414656115290389e-02
-4.659622723126605019e-03
5.279892941784514041e-05
-8.584844366646578878e-03
9.849759591543116172e-03
-5.710464681193713581e-03
1.563823094708435141e-02
-5.690180159355377396e-03
-5.989811430205865990e-03
-5.321225423486166881e-03
-3.602719673057402667e-03
1.121776801571460792e-03
-4.310224192847118135e-03
-1.613866834146616188e-03
-5.881304113323004151e-03
-5.800542767962569082e-03
8.426767619718527952e-04
-6.761972980702751421e-03
3.371127249467291247e-03
-4.083033252809735621e-03
2.699570393209836314e-03
-9.359057387989335591e-03
8.422942593353776805e-03
-1.104717027389161624e-02
-7.476664401274628162e-03
5.559087941143329818e-03
-9.108711758451870991e-03
4.178079160631200523e-03
9.445612051824172489e-03
7.387488564367178205e-03
4.224696739619422138e-03
9.210316838021700286e-03
-1.384330543763598407e-03
7.462462986202645157e-03
-2.590895599977940337e-03
8.597798086142039928e-03
-6.985689855786091085e-03
8.877639712355604729e-03
6.667692361710209764e-03
6.943627040292498463e-03
-7.603317844947821841e-03
7.971537692148136442e-03
-9.531418913970803389e-03
4.250219063736424517e-03
-1.195898214018487407e-02
-8.136568287417676737e-03
-5.480407230686254461e-03
7.285232756739435864e-03
-2.863382015938978689e-03
5.175069804133907055e-04
-3.532856463468647727e-05
-5.142955128495043000e-03
1.454011664527572354e-03
3.248968273779984442e-03
-5.327370163923445673e-03
-2.496713334208150534e-03
-8.833290192838624561e-04
9.055522513229982695e-03
1.061974488732348029e-03
9.363918111246403303e-03
1.198542506240501048e-03
3.686520939331602072e-05
-9.899185110926252140e-03
-5.008029023806811851e-05
8.609640055260830635e-03
-5.999536520080292826e-03
-8.970956321499646766e-03
-1.873178324759907634e-03
-2.552937097543975416e-03
7.142452759868699735e-03
-9.410827076657538037e-03
-4.951787073172367500e-03
6.204557170791684916e-03
7.109542916571033426e-03
1.487246390183781779e-03
6.296905729544028697e-03
-3.187996407559914435e-03
-3.407745255194417899e-03
-3.026497964914931765e-03
4.972331790543766707e-03
-4.299555538989829374e-03
-5.200551202740147025e-03
8.727922112849664446e-03
8.148937671881148134e-03
-3.011306194480996030e-03
7.606929311362063857e-03
-4.486132895441430520e-03
-5.864388757954498536e-03
-3.367788852392219340e-03
-3.163129663355732524e-03
7.719014533612332009e-03
6.473386967361456808e-03
4.318374018010156558e-03
8.615143977006660056e-03
-1.753772214021988947e-03
-5.295730221780966217e-03
-7.652031256170215359e-03
-3.648285430295230680e-03
-7.109919049418658536e-03
-8.150127402865291540e-03
2.577738600341836998e-03
-2.801067372235686685e-03
1.881255123344722537e-03
-6.042220600118962393e-03
5.116833705587406529e-03
-5.671686029696530393e-03
-4.439528125119278530e-03
4.786045263904172876e-03
1.124279849751968607e-03
-3.181798166919798734e-03
8.781879832350893752e-04
4.206417474731414391e-03
8.283482370112499674e-03
1.638416040179681591e-03
-5.039552844305642855e-03
4.933967832041837379e-03
5.579939242819369552e-03
-5.972672858422351481e-03
6.273027107394955372e-03
-6.926426845947162431e-04
5.670361814738671992e-03
-5.108007751323384929e-03
-3.348100335927401468e-03
9.371592489583089117e-03
3.156301462996100038e-03
5.565951844442394887e-03
3.793712948498770277e-03
-5.909858238805834954e-03
-5.713236337869382871e-04
6.194614316082871878e-03
3.106172939393241073e-03
-9.858002158901028877e-03
-8.220366718978168452e-03
-3.461353304369784931e-03
8.727818241438128205e-03
-3.226377714061296419e-04
-4.639202427960722672e-03
-2.774449841723689893e-03
-5.747312188232360335e-03
-1.947095341445561527e-03
-5.579664208838764662e-03
6.830962095015397778e-03
-8.212658978396763631e-04
-4.384775267725220943e-03
8.764630910102426398e-03
-3.666340331137155160e-03
9.115362477272407477e-03
-9.130123318272863331e-03
4.144407217590254100e-03
-3.326219165631004622e-03
-1.731077160574156322e-03
-9.264596958407630978e-03
-9.312016438406863980e-03
-1.713555592665022109e-04
8.958000198274999534e-03
2.386323298636297639e-03
-7.121224728585079204e-04
2.817197197946953008e-04
-5.332109858390839986e-03
-6.698612828611560932e-03
-2.710197802114149099e-03
7.619231987948924673e-03
2.117253653213269917e-04
9.651516635402618283e-03
9.040844814337157739e-03
6.364042203943534246e-03
-3.540326153301690242e-03
9.447111096212863421e-03
9.948637871311300646e-03
-1.792860624635843987e-03
3.190911918864108767e-03
-2.125523793741674640e-03
-4.847920743522257138e-03
-8.333056064385913411e-03
-4.684892916784560123e-03
-3.687537915038880017e-03
-2.019113322128679097e-03
-6.265793573672085066e-03
9.126448671461503265e-03
-7.928661156360754247e-03
2.723659997453225720e-03
-9.655932708391476004e-04
-1.507563778835962478e-03
-2.550848357087630389e-03
7.370757071052917372e-03
-4.109777333912467343e-03
-1.092364464073869966e-02
9.427828415310373841e-03
7.320191411936642981e-03
-4.436163166753256948e-03
2.297295407162073567e-03
-6.570757489924153316e-03
-8.115718594980650749e-03
7.921746722596227988e-03
-2.910912954453449310e-03
3.216151611912211866e-03
8.872549350694420092e-03
-4.982963602663805121e-03
-9.620749408320127330e-03
-9.412107905735997773e-03
4.149778522484404500e-03
8.579034983539955347e-03
-6.374253968441503720e-04
-2.492793635074689977e-03
2.425861120521004277e-03
1.503272256188806048e-02
2.960068718841603157e-03
-5.306127996003952817e-03
4.646708749125226523e-03
-8.854904658854434799e-03
-6.623304641093228848e-03
2.273945938371980252e-03
-5.576739080345520863e-03
4.032163242679250893e-03
-2.977402722364492094e-03
-4.407322984401353810e-03
9.947388241193106870e-03
-8.677319399639216863e-03
2.967425518289986981e-03
-9.119584006342072724e-03
5.217444636112728365e-03
-5.302664521120971364e-03
-8.191551444421985365e-03
2.960194112258835667e-03
4.964522705639766095e-03
1.353240367631744316e-02
-4.236607084117500165e-03
-4.117659366964028685e-03
-5.974621983424297129e-04
-4.208188564816656846e-03
6.256277369676229057e-03
-6.929335097808912020e-03
2.471754473200427678e-03
1.827039343981014252e-02
9.153634487248136706e-03
-5.538694931814191168e-03
-1.026374424972735511e-02
9.688680963806555260e-03
7.905028656775224191e-03
8.371237480766799757e-03
1.759374007043089600e-03
5.485361980762798462e-03
-5.741528410334715074e-03
-2.167048756830879629e-03
7.156232976007317718e-03
-7.387972455271424321e-03
2.002574858332198740e-02
-5.899066454726125064e-05
-1.405013330984078131e-03
-3.821159391397764647e-03
8.392464470587258918e-03
4.689200937315230345e-04
8.123479588809672317e-03
7.179715920232749952e-03
9.018526719602957750e-03
-3.918568018255103903e-03
-3.173074296009858672e-03
2.052949579523772813e-03
-1.097330239394269042e-03
8.632757793714069747e-03
-2.021386009494424360e-03
-2.194181854171804215e-04
2.373992093262071359e-03
-1.905841600130241207e-03
9.847039870093868622e-03
-7.216664259421228661e-03
-1.930273948270810327e-03
-3.503109679903834098e-03
-7.041301557932686840e-03
-4.315204244021507429e-03
5.823933608319345305e-03
4.933742861618177489e-04
-9.091041496146118339e-03
9.641258362073823820e-03
6.899967351502991550e-04
-9.041732364669468475e-03
3.323892109751297626e-03
-2.411162780098799040e-03
8.153238631789294427e-04
1.306266861044656736e-03
4.521217283173168192e-03
3.428626136642280546e-03
-4.962503433440709592e-03
3.835343037370219613e-04
8.007140712891067840e-04
4.421218368387240180e-03
-2.787441192195378847e-03
5.855136965276700085e-03
2.631464306216858319e-03
-8.763150628275120230e-03
1.051559997059996069e-03
7.015080545737664187e-03
1.720054326349831214e-03
-3.854289115629342798e-03
1.199965083687702785e-04
5.218205199843215826e-03
-7.778717029183071854e-03
6.383099583320462830e-03
-6.304759063001580573e-03
7.100920218052658760e-04
-2.263992048067826023e-03
-5.001368623652212297e-03
2.966025978449098825e-03
-9.222545973929924951e-03
5.198725633653975171e-03
5.238521033885064132e-04
7.535034828183738952e-03
4.202979034389721022e-04
-8.879234761301459111e-03
-7.029509475547372072e-03
5.960197059211961267e-03
-1.441241788093057996e-04
-1.843594601522793213e-03
-3.538996854049179450e-03
-4.268494731970808032e-03
9.277288775873535412e-03
-1.314713183119334489e-03
7.741094707709981343e-03
4.279445344623626288e-03
7.200701907358517638e-03
6.996058975764498158e-03
9.134942192001546668e-03
3.963161192159984740e-03
6.120334462640685154e-03
4.722587633316756989e-03
6.616674799506052848e-03
4.469608911937037084e-03
4.925670829850159124e-03
-8.982577897659807867e-03
3.555288413177106767e-04
5.895538626730954107e-03
1.102089504492222150e-02
-6.965499959873328387e-04
-1.348650101853852024e-03
-1.915663478771031892e-03
-7.463646811908601110e-03
-2.716560102977588504e-04
-1.071447953378399775e-03
3.274235213251757304e-03
9.924825478972148368e-04
-9.409349174777915242e-03
-9.361640247884972163e-03
4.038273449775699533e-03
4.200577912576298860e-03
9.314364581347210278e-03
7.618433350741417656e-03
-4.655425893382584743e-04
1.015172438336329336e-02
-1.001760697610512302e-03
-5.502021046771206000e-03
-2.236895051184786907e-03
-8.096994461734528803e-03
3.428559574268327630e-03
-6.354443553983022200e-03
-9.118665849627405730e-04
9.469537761035196760e-03
-9.280646919878163259e-03
-7.937229431428331067e-03
-4.018022603402339812e-03
8.877425817759208859e-03
1.390018371748155332e-02
-6.772929700635018334e-03
9.266286776094190963e-03
2.080465240973885035e-03
1.130998475477572275e-03
8.092597693960187910e-03
7.571238704434816134e-03
-2.037654711275809372e-03
3.073963015445403072e-03
2.947738720768013077e-03
-3.449885719461956348e-03
-8.063066296888828435e-03
-7.450053832894604731e-04
-4.712179159278052053e-03
-2.890766051924864057e-03
9.116751783422957778e-03
-8.301859325694710759e-04
3.747961535844967964e-03
-3.258382001400438564e-03
9.887868801984365380e-03
3.178802991614101698e-03
-5.894020718077621485e-03
-8.915147934599102972e-03
9.444618857698568529e-03
8.843455227176161629e-03
2.450795962227185487e-03
-8.808724435152430129e-03
-5.319177636881743977e-03
6.044081561629124043e-03
7.518272500929237649e-03
-1.082977294849419994e-03
-2.622479561920867518e-03
-4.982802783040288577e-03
-7.639145652973437436e-03
-7.712892314439982570e-03
9.022176179078911229e-03
6.100502232321107499e-03
-6.706677924589841619e-03
-5.849991511671478323e-03
3.099548486822413691e-03
5.228133352109928279e-03
5.797108008830410830e-03
-6.614996528093618038e-03
9.797059625157412271e-03
-5.427320661846251650e-03
1.797171398569795625e-03
1.730738968164220563e-03
9.387370929832061089e-03
3.131968338738611978e-03
1.840917015582356443e-03
5.255817333096172474e-04
5.146278091756376592e-03
-7.853703103988279866e-03
-9.758388606833175508e-03
9.068051809919446329e-03
-8.366405193262156431e-06
-4.012996731871599360e-03
-1.210993145687398178e-03
6.117257874085596514e-03
-2.343112243279616997e-03
5.414527744880328133e-03
8.445142482949438624e-05
8.036155459512269936e-03
-8.431539518168428352e-03
-2.997178077981915278e-04
-6.429376668553056767e-04
-4.689869033686174665e-03
8.905006658656190385e-03
8.134121720827437035e-03
-1.133170500817763529e-03
-2.240846122906037241e-02
-6.021680764457781540e-03
-4.554910968225339002e-03
-3.067876792010011482e-04
-3.006736549340799716e-03
5.496629489622986524e-03
-4.707635215916635427e-04
7.427014959171373415e-03
1.036684091673546922e-02
-5.588486632857364751e-03
1.408704957813579958e-03
6.838460368327986365e-03
9.291179014091635949e-03
-3.828967526808660458e-03
4.543792484349364058e-03
-1.199064118716288221e-02
7.653390084389055138e-03
-8.838265556361541569e-03
4.725111809398919137e-03
1.011351978986145365e-02
2.662880227196951326e-05
-5.789746856033750957e-03
1.936930628671654784e-03
2.549647405692901953e-03
3.319302411924748755e-03
-6.266342137921705573e-03
8.464308358185238662e-03
2.419827350009571068e-03
-9.033913097271700429e-03
3.781809862178373526e-03
-6.118631262001556111e-03
-9.422641850901527019e-03
1.029583704627358562e-03
5.836029193395005261e-03
7.318659875529679067e-03
-7.968840716996241497e-03
3.281613988159399857e-03
4.522380572298955945e-03
-3.725293998059688028e-03
9.459338084413574516e-03
-4.426250598639063297e-03
-8.617862950574735684e-03
3.866091303317908219e-04
3.874145280408307964e-03
-5.077799045585881452e-03
-3.879299654597619714e-03
1.319049235533915161e-03
7.732322599048492041e-03
4.981613809343126559e-03
-5.852873689096840110e-03
-4.887583028918369467e-03
2.625274476255898357e-04
5.272632123322251903e-03
2.404740574787919347e-03
1.789867689907502924e-04
1.366968594731167181e-03
4.950711418562602113e-03
6.694726064590701946e-04
7.955405110628345489e-03
8.958254545754346793e-03
8.320308186434579797e-03
5.142352039916487857e-03
-5.055089912151233475e-03
-2.612062564512596455e-03
-4.389184528104207901e-03
3.086151840136449210e-03
-3.496979892183808922e-03
6.968331462112805838e-03
-7.498599968881690045e-03
5.590937716313621950e-03
1.723575158933473347e-03
7.610757032589426062e-03
-1.387826969771451500e-03
2.592585058596223908e-03
7.801310439098233570e-04
9.523417647951041079e-03
5.218307971972740295e-03
8.972468784638030917e-04
-6.541930576559804728e-03
8.268223904586003217e-03
-5.263192356739916124e-03
3.001924750230828848e-03
8.969308048193026447e-03
-5.520515959475879968e-03
-5.456775807316845833e-03
7.025581209446474414e-03
6.601892786992594186e-03
-3.236390946252787944e-03
-4.682283639948926941e-03
-7.531369643542108056e-03
9.888602510365981924e-03
6.709351279433469102e-03
8.011571449473576731e-03
3.728431365570125319e-04
-7.746686009473283292e-03
-8.895091419929451390e-03
-3.371137625529911901e-03
8.423561991088178089e-03
8.271589325431857875e-03
7.414380784094224373e-03
-6.862388488524770631e-03
-1.592115091898784439e-03
-5.046110128399280276e-03
-8.837857912589957773e-03
3.621333005594580805e-03
-1.734433015549397504e-04
-2.108703313573274951e-02
-8.060698663071040604e-03
-1.626021838114429267e-03
-3.082314873892727774e-03
-2.301924659614703033e-03
-3.111849221801779499e-03
-2.373842705555663513e-03
3.104649735822915743e-03
-9.346868956862023139e-03
6.763671139493668098e-03
8.405880615455925062e-03
2.556576214470394209e-03
-4.609097134255631285e-03
9.941899425010902042e-03
-2.117612883295506669e-03
3.573444986387510573e-03
3.821071494459501658e-03
-9.175008428157778017e-04
-4.917118306288837878e-03
9.486927462286789611e-03
-8.725905609382245132e-03
-2.825869196586961829e-04
-4.699846063605036747e-03
-4.074731333070971684e-03
6.597229102018485267e-03
-2.667434190958793260e-03
-8.270260164691725299e-03
-6.935409037004827172e-03
6.738837724810805251e-03
8.760109797397153814e-03
-1.198793764557234617e-02
3.186452427834396590e-03
-8.384952235511907923e-03
4.402727504128572597e-03
-1.659012267322785726e-03
8.398487763376835322e-03
-3.737510775302054639e-03
9.082161861961484881e-03
1.332158255494645955e-04
-3.014847260696963769e-03
2.978405491098191134e-03
-4.988654936853471021e-03
-5.385805306451521730e-03
-6.068229440729422212e-03
9.172203321273483811e-03
-1.522697966875201695e-04
2.022304827859063361e-02
-2.742587055346474689e-03
1.462800203752454573e-03
1.692068956426457695e-03
9.654710645884365464e-03
3.434796095835641449e-03
-5.293683458298342401e-03
-9.734947549530628338e-03
-5.596360966308781999e-03
-8.685525509228467049e-04
3.349028800674364471e-04
6.289494435741711451e-03
5.711135100025048136e-03
-8.212369079268732816e-03
8.986701251674477850e-03
5.678044788246074462e-04
1.605656575862067026e-03
-1.856898294079336893e-03
5.665111178036698249e-04
7.147180593447040146e-03
3.521103197844317571e-03
9.426085741583755187e-03
3.945203433798697909e-03
6.492776642246102237e-03
-9.312324665831917675e-03
4.049739751406020855e-03
3.608834007726725943e-03
-5.761364816193299300e-03
7.493667339850822694e-03
3.290851152856795817e-03
-7.848321215726554792e-03
1.835243754625055660e-03
-4.231538611764995832e-04
-5.252726075820169684e-03
-9.482414377679491621e-03
-2.749300816196977720e-03
2.451515104126127890e-03
-3.510235171920172113e-03
-6.172928667283271009e-04
5.017453393069210704e-03
5.332988259337473683e-03
4.311848804729183533e-03
-7.893926308611924972e-03
-8.592804661263723359e-04
2.473571325042639435e-03
4.888254190872643942e-03
8.061148209293076544e-03
-2.867749299957837814e-03
-4.886396884231047856e-04
5.616948457078419464e-03
3.477161169824890576e-03
1.182383200809618241e-03
-4.481636950706778706e-03
-6.139226357127687030e-03
-5.805442639578061587e-03
-8.363115003288564692e-03
-8.526456453106779493e-03
6.918730788307245541e-03
-2.280262360863910542e-02
-8.820824152014907285e-03
7.831442217615176837e-03
-5.497753316309352163e-03
-4.613050994141970618e-03
-6.225863638759217278e-03
9.502440785466871251e-03
-5.580830948903488936e-03
4.448676199064385134e-03
8.694538808884591172e-03
6.440831252051457123e-03
7.199034276160154629e-03
-7.077385425873071456e-03
4.935048441253061038e-03
2.915379315321923581e-03
-8.260091422856747235e-04
7.461625209749833329e-03
3.987080341643591506e-03
7.913199725089118189e-03
5.114977920753531297e-03
2.591278379301276288e-04
4.089798579615578900e-06
-9.048841852919363134e-04
-9.552693667991919713e-03
9.192247328033506136e-04
-1.589335460044930632e-03
-6.896868352118439884e-03
-7.591910400234403236e-03
-9.004501346879824602e-04
-9.011935559301596788e-03
9.858278331078090123e-03
-2.289259915774673627e-03
-2.368715320011032834e-03
-1.209389877611935157e-02
-1.116829186560020859e-03
-8.759539844366694833e-03
-9.340159900140801094e-03
-3.194007773826920953e-03
6.433605288006251886e-03
-7.832186910035208094e-04
-9.009163649414814179e-03
-6.617528011336409367e-03
4.963321898582308961e-03
4.860484425498093342e-03
4.986881614244828044e-03
-2.936860827149472518e-03
-2.844901173412136587e-03
6.060666420901700789e-03
-2.030524769745823202e-03
4.544008835056383838e-03
2.541233265373488322e-03
-2.713166408505816342e-03
-8.548333116900327933e-03
-7.719338570777381156e-03
7.554284794128516070e-03
-5.172708690317066350e-04
-1.178945753634635246e-02
-2.870989275556944022e-03
-4.929551745132863295e-03
-2.802624095187173335e-03
-3.307663120794835255e-03
2.855437763175663456e-03
-9.576565561370042889e-03
5.265600044221114238e-03
-1.537552096372641177e-03
-3.769731673145627145e-04
-3.587054184556366936e-04
-1.533586632563534299e-03
-3.002163742003935787e-05
-3.006028496877250714e-03
-8.726029314981562698e-04
-1.906966768385983486e-03
4.354507236747482595e-04
2.467905114961702322e-03
-5.104001403296313383e-03
-1.049524256245345902e-05
1.861858965941189754e-03
-9.661033708197892117e-03
-1.942391938599504018e-03
-5.192494077551936850e-03
-1.887420511321835246e-03
6.454495800825316848e-03
-3.346198728935005987e-03
-3.078215102409378860e-04
-9.253986397627792307e-03
1.547387547561958777e-03
2.906953518976539575e-03
-3.690936017441368358e-03
-5.868394450125065560e-03
-4.185083610517391015e-03
9.092139370871894777e-03
-8.276045383496005020e-03
-7.185864012289012396e-04
-8.804006522739951657e-03
9.440878483614675853e-04
-7.040534641986112910e-03
4.088723951267767519e-03
-4.770269062957203411e-03
3.857923010022636014e-03
-3.075057961316264837e-03
-1.085421666044149129e-02
-4.094097300245148723e-03
-5.770090033929644105e-03
-1.131925561437680650e-04
-4.197748748933083363e-03
2.845127007953934632e-03
3.278095933966492328e-04
-9.438054988812659765e-03
-3.605327660466306396e-03
-5.092086810344623117e-05
1.455177859259957013e-03
-7.035073879409689535e-02
3.161804065270668474e-03
-3.094598360747763312e-03
-6.405640462803510564e-03
6.108908557632095580e-03
-2.087469867698922565e-02
8.039724980427605250e-03
4.123696534581306784e-03
-4.781527680855630598e-04
-8.877595830867843554e-03
-2.190123799481442837e-03
2.902259434768696220e-03
6.516895285138114488e-03
2.183013572097178799e-03
-2.056436372576478811e-03
7.331273330738432431e-03
9.471206406933380464e-03
-2.839886626000283527e-03
-8.564601279800285183e-03
3.528114736079909861e-03
1.008159942673300148e-02
-1.619667021492475750e-03
-6.142830673357177473e-03
-9.090928892827128058e-03
-1.707515856516126848e-02
-3.514092646955804377e-03
3.632991537208436501e-03
3.294646102644293705e-03
-9.031442531349624658e-03
8.778476571890604652e-03
-4.393706462550129102e-03
-7.062472630230349872e-03
8.301116249361660971e-04
3.049810136431072623e-03
-3.890995854527483887e-03
3.358301462109440291e-03
-4.154620860517638410e-03
8.259137192868611435e-03
4.796008562473731696e-03
-8.509086391384946060e-03
-7.416887410035208524e-03
3.962183461043931529e-03
-9.243729584556194256e-03
6.664207344702489759e-03
-2.470792939429618165e-03
4.982449331457309422e-03
-9.033972613160466333e-03
-5.816168941305288088e-03
-8.491089455620584939e-03
-6.046302683889137088e-03
-2.324203107742674971e-03
-2.965840752382761314e-04
8.465373696574077927e-03
6.834133002227373715e-03
4.146123157393323024e-03
-1.011046607988775638e-02
-3.837789604645921310e-03
9.876467898404619680e-03
1.213938669856507412e-03
5.716657969641372392e-03
-8.103821340966889039e-03
-8.078787729076166227e-03
-7.771881220251561362e-03
-9.417994459472217930e-03
8.637960951089861464e-03
-4.920666663275015396e-03
1.002280892060341232e-02
4.813557912700315924e-03
-4.979780642315564942e-03
9.873206056081825638e-03
7.370633080026623915e-03
-6.703999195140673134e-03
-6.254601306142654020e-03
3.569408947287728336e-03
-8.398893366298076230e-03
1.681007062459058095e-03
-8.751706989879058651e-03
-5.594754309846457913e-03
9.104541461382884004e-03
-2.856725301270991724e-05
1.483661543105809508e-03
-4.469572826295478002e-03
-1.118206133615602801e-03
-7.346026152386411073e-03
3.186540270336081287e-04
-8.912281712209957005e-03
-9.282362307378260596e-03
3.599817186341976519e-03
-8.889829934881186488e-03
5.387924118612858132e-04
-4.670181742404288031e-03
-6.021569888525920428e-03
1.487256289888975189e-03
-3.708264864942660641e-03
-2.873587076356512839e-04
-7.254530640997921762e-03
-7.455142676686942263e-03
-7.695193541059359120e-03
-8.513569162123009806e-03
1.112048958223343801e-03
5.171022752925007876e-03
6.454525759158940591e-03
9.163296831019455968e-03
-6.424879612193636590e-03
-7.281549178064964691e-03
1.084694280604269184e-03
7.239182983121787360e-03
5.376234476221790869e-03
1.167483542189658814e-03
-3.097673644693581078e-03
-1.941738399110003437e-03
4.312832262902018682e-03
1.147176727416351211e-02
-9.256281330376762290e-03
1.872068072644288974e-03
4.262498170007531471e-03
4.498576344501513911e-03
-6.871829444061778105e-03
-3.147219235387071525e-03
8.742881489128440532e-05
4.155038448916377816e-03
-7.689532798019267645e-03
-2.349155816930286779e-03
7.503915154708655012e-05
4.197089447123467792e-03
1.354234295583932064e-03
-1.887216912787991179e-03
8.567453462370606260e-03
1.971712418235182195e-03
9.427377709754372268e-03
7.433442796406055861e-03
3.731883317695703587e-03
8.071652134760786204e-03
1.016302089025688561e-02
-5.557801361742000304e-03
3.828183779929613707e-03
1.115804089819454406e-02
-9.455042610801716804e-03
5.225154525285278899e-03
-8.214692617018126697e-03
8.320135131594528013e-03
2.186734769930431983e-03
-6.909379705129183556e-03
-9.174437179503419637e-03
6.816669326005885508e-03
-7.066365689400341300e-03
8.778763839002359098e-03
-8.181248288056910262e-03
6.766070430322505824e-03
-1.527936008406152214e-03
7.456042792492714212e-03
5.492841515677716717e-03
7.211548582464919963e-03
-5.804681233469139541e-04
1.414914581102675629e-02
-3.692280257163102920e-03
-9.036668638725025432e-03
-5.342931785643378027e-03
-9.592978995094758599e-03
-2.688573509132424245e-03
-1.158538632452501746e-04
-9.911534532510177936e-03
-3.873459086173686346e-03
3.814095373509634231e-03
-7.911273893496720971e-03
-8.126149764639824594e-03
-1.628291196561392406e-04
4.365782046878402545e-03
9.551861572176556167e-03
-3.677740992602583983e-03
-7.618142173024080796e-03
-1.614752407940974951e-02
-5.836964842032789022e-03
-6.660708784367939516e-04
-9.893766948045846707e-03
-4.196893490695298781e-03
-6.739147209001841894e-03
-9.593479709635071434e-03
-3.705089312686290874e-03
6.542396747575166503e-03
-3.893932158219666657e-03
4.128641911275495770e-03
8.189195466824138181e-03
-9.720290613593715254e-03
1.026027472486446511e-02
-7.215052393100438062e-03
4.392149682127198182e-03
-2.309024320302463171e-03
7.370149123210974727e-03
9.901546156324800979e-03
-6.152807010281652854e-03
6.113501550438671557e-03
-7.735221180109288672e-05
9.103523887218616800e-03
3.162420097158458784e-03
1.884965877977082477e-03
-1.485104796380873338e-02
4.451946651020393005e-03
-4.235939331661965450e-03
7.059013953018244449e-03
9.782922987156677033e-03
-9.819706547780826869e-03
9.110173059046816971e-03
-2.826495775687520341e-03
-1.843446551097272033e-04
8.479597739468526518e-03
5.675803778914806016e-03
-5.129586074571979883e-03
-7.956821774290382884e-03
6.858490103848381356e-03
5.033540696688775656e-03
7.337861767418991411e-03
-2.309673971808218467e-03
-1.479799767261944855e-04
-6.996274405360932563e-04
-3.656375609562668473e-03
-2.664147769819655894e-03
7.098515275629294248e-03
5.120046111723353284e-03
7.271395584008658215e-03
6.849603100951750546e-03
4.845462277403597522e-03
3.468999387270939013e-04
4.669131483198969527e-03
9.735971950458537777e-03
6.780516416365473670e-03
9.152592164620172721e-03
-9.290195194612360305e-03
2.482884479197523114e-03
-5.761685883162251560e-03
-5.005991278636301965e-03
6.881935423820242405e-03
5.059914636857630425e-03
-3.304583643466353377e-03
8.594154254439759309e-04
-6.639131047524500333e-03
-9.903233015494918717e-03
8.163780784666741994e-03
4.380396415356872103e-03
6.079250353168170074e-04
-8.816282795117392004e-03
-1.563660034512405223e-03
2.787555087900965740e-03
-7.026060384006374213e-03
-7.055314867769758858e-03
-6.615257128113896483e-03
1.945710728099234567e-03
-7.628884707455677212e-03
-2.270303396066052776e-03
8.971091592424481481e-03
-3.522458557811965901e-02
5.310804314728354188e-03
1.958973569059226094e-03
1.235380824317706440e-02
1.945040372885200458e-03
-7.395044980535041106e-03
-1.028805477768884147e-04
9.468937583704165051e-03
-1.407880804175831637e-03
-4.177864612918919494e-03
8.522140622174052826e-03
2.525533179113876019e-03
4.645790805467698951e-03
3.708716458046557311e-04
-9.741233927619231611e-03
5.122923034358837537e-03
1.149467684217559370e-02
4.105942785010183171e-03
5.949079210252493713e-03
6.814708969930271566e-03
9.980823451896162629e-03
-4.220936974541653758e-03
-1.066266158833338367e-03
8.736360211682827389e-04
-6.899520012478794172e-03
-2.256020831431316610e-04
-4.438938853164598776e-03
6.834371115558037640e-03
-3.199368219443079770e-03
-8.362588624530185172e-03
-9.363302025871454715e-03
8.261898558560810610e-04
7.401116655982723121e-03
8.684449392788480895e-03
-8.540334895668879461e-03
-1.733814847914197810e-03
-1.403606058718474044e-03
7.102527198924631947e-03
-4.748301660715501318e-03
-4.320956181422606034e-03
4.565889072344379677e-03
-6.386250500931095649e-03
2.698135124203659019e-03
4.752943685494578560e-03
-6.998943794443369254e-03
-5.536523795121608103e-03
4.005225841412244844e-03
5.864849481741251161e-03
8.926928796555383058e-03
-3.969277852737496289e-03
1.022458457219303828e-03
-6.977548090957468203e-03
-1.255583288711972301e-03
-4.718279697876284241e-03
-2.986354566705699820e-03
6.270312984633382748e-03
6.075857503787729895e-03
4.148725395075780926e-03
-7.502067657001082294e-03
1.864069524183097071e-02
8.793672635784849020e-03
-9.702492268462155995e-04
2.555902763130871082e-03
-9.599503873632829823e-03
3.070307408553699644e-04
3.779869954946650339e-03
-8.973428147772832472e-03
-4.375987995175677561e-03
-2.640147981416213728e-03
1.151870992975976421e-02
-4.930803958541870105e-03
-9.515745719868453842e-03
6.193284455332483812e-03
7.065252632414390117e-03
7.485656718033082682e-04
7.839467736941045650e-03
-6.290640166538695281e-03
-4.473509017457068422e-03
-9.561374074886304711e-03
1.731778412557609609e-03
1.087548210653599759e-02
2.455189423046657583e-03
-8.497416149792633849e-03
3.987719725270535281e-03
3.539729343797352271e-03
-6.956581883230944854e-03
6.572183673701917708e-03
8.285167247917611319e-03
-1.088749650127199091e-02
-3.483451425156882178e-03
1.476655038769307104e-03
9.496577703680536553e-03
4.537973807616646135e-03
5.826062006735466259e-03
5.610736818969445060e-03
9.590288874908174319e-03
6.359169580228692803e-03
-4.304859709677015360e-03
2.941397895624976635e-03
-5.142266888843480960e-03
-5.729375162809390194e-03
-5.906934941449320381e-03
8.915707132647965674e-03
9.092892707483115483e-03
-8.168654012355256594e-03
-8.624609968045151079e-03
7.244861749539499921e-03
1.691219791393397311e-03
-5.753996042890474095e-03
-7.998755913819198017e-04
-3.635131172452006447e-03
9.658130804387054374e-03
-7.199245899470962939e-03
6.765360293225507887e-03
8.919567924358657099e-03
4.206700116499388110e-03
-8.058312305814843701e-03
2.350903106897330071e-03
-7.128089377049831241e-03
7.330703664688532559e-03
3.446611781372211757e-03
8.850014813845074463e-03
-7.063223502713027874e-03
1.095953856396878097e-03
1.655526483026339675e-03
-7.855784037165042949e-03
3.727362040873025140e-03
1.330491917074619205e-03
-3.149744416690410369e-03
-1.681788398012594703e-03
6.465199432530641978e-03
-4.563204402926340254e-03
9.454201674777232972e-03
8.431250843027116373e-03
-8.082082524921933159e-03
7.510752372706996222e-03
2.926805909147440696e-03
-8.882906669727257468e-03
9.132214281933800568e-03
6.739233612991821221e-03
7.390354028835511256e-03
7.828135205487890547e-03
8.394571442433038100e-03
-5.615628354398696266e-03
1.896515797728115169e-02
-9.657448102519367028e-03
7.584770005158372221e-03
-9.059090786628678756e-04
6.638287360792611592e-03
-3.867699286265630608e-03
5.231587512552093866e-03
2.278857770403706212e-02
-8.577322127561147480e-03
8.258431256205627999e-03
6.408689990291777799e-03
1.892132435512148625e-03
4.681915539338561694e-03
-2.928425619161389385e-03
-5.832073840999120072e-04
-6.940769998710145244e-03
1.427836383812149850e-03
5.681753787343424289e-03
1.185929715474464676e-03
-7.359269920625173197e-03
6.589871795313975017e-03
4.922633889886901190e-03
-9.207331791448555153e-03
6.216446982328894914e-03
7.646122086364362698e-03
2.682398013614948804e-04
-2.382561076450467104e-03
-8.402968929542772858e-03
6.615165230357884785e-03
-9.778108175540294739e-03
-3.205650800429062433e-03
-3.393944228265350499e-03
8.895673184874722944e-03
-1.035489207432691797e-03
7.783428756520114136e-03
-1.132213956921994912e-02
5.881480410312351498e-03
2.247487172768604814e-03
7.774746249267550958e-04
-3.861093328434721597e-03
-1.615684262730808886e-04
-6.241254115165790865e-03
-8.659501100795059369e-04
5.294355519862539890e-03
2.550963719798811109e-03
3.560814731151293409e-03
8.151823109571791626e-03
-8.913598557788358911e-03
-6.448725650357115154e-03
4.493225909393929081e-03
-1.890838116431446886e-03
2.731761428142267384e-03
7.977390604024520507e-03
4.728659810125659772e-03
1.068637908186571492e-02
-6.993183593908706974e-03
5.102530009909372020e-03
4.073240310360355144e-03
-9.905669587000303158e-03
-9.063423292134947448e-03
-9.863699843050147131e-03
5.506408296168865003e-04
4.986150612899674546e-03
-1.577045164467418860e-03
-1.024349410828489897e-02
-6.538483286053344522e-03
8.942451578813383206e-03
-5.201188503309622964e-03
7.420729950699736857e-03
-2.585520879119839431e-03
2.992691853019661106e-04
-4.303743634791828108e-04
-7.248040138588358536e-03
-2.621537715544325787e-03
1.086635616270000514e-02
1.296084324602928602e-03
-4.928837331516879635e-04
9.885058455730865758e-04
-4.777447378388787955e-03
1.340688008797911871e-03
4.572630817243690526e-03
-7.884107248589280678e-03
-4.305260171978375107e-03
-5.297210615721039371e-03
5.893662134404020064e-03
7.662476269517297031e-03
-2.222583079881601097e-03
2.605805280928691434e-03
-9.626810570804854306e-03
-7.419723580439507686e-03
-2.345111276666451451e-03
3.251857918241219531e-03
1.744041049282983287e-03
-5.629857440820893073e-03
-7.133731263498525009e-03
4.634015644657944223e-03
-2.917746974916696125e-03
-7.658457952236028118e-04
-8.075983405363650752e-03
8.220885757459207160e-03
3.386014237355457028e-03
1.852824295810714451e-04
-1.370589781778756063e-03
-6.390427115808952445e-03
-5.717072520273586492e-03
7.602056229814296330e-03
3.225958027807507289e-03
-6.031994469799227022e-03
-5.721882877193351126e-03
1.054539520409022253e-03
2.501429920935627563e-03
8.687175557664718762e-04
2.118307898894132135e-03
7.857438623315234072e-03
7.233222331495438827e-03
6.927876615039664510e-03
4.066395806502269908e-03
-2.150440163445369642e-03
-3.654849230898594026e-03
8.389928855721996356e-03
-9.122698344430505216e-03
2.378219243865122966e-03
4.480873894402242173e-03
-4.547508797374290312e-03
9.588321854202627378e-03
7.762605325097931760e-03
-5.970734953661277662e-03
-4.588750701223809000e-03
7.981396318755749203e-03
-7.810932993798077283e-03
-2.729743648224971717e-03
2.492474870558538617e-03
-5.038003125284430499e-03
1.539697930577733605e-03
1.781959987050679315e-03
1.930711300472276720e-03
-4.978196698608987336e-03
6.363466531236637060e-03
9.429121508250846301e-03
-4.331315304623495344e-03
7.337908430928109793e-03
-4.137417887760479716e-03
-3.013320654955715851e-03
5.418529994246656413e-03
-6.962714560401201194e-03
-8.700112938529956305e-03
-2.312695129533802116e-03
-7.481994156284840596e-03
-8.452117059577903685e-03
1.779131155484808390e-03
-6.305789704690076269e-03
-3.979098889548338992e-03
4.638734708407760664e-03
-8.132810898700501903e-03
9.880203040106456946e-03
-3.683364051068106510e-03
1.306433455456316181e-03
5.855805858487861913e-03
-5.337165556597178555e-03
-3.044094365107758056e-03
-5.971994678271276384e-03
-2.432851136197072481e-03
6.027624278679843614e-03
4.292443356148344276e-03
-6.400388149806013859e-03
-5.606011707119852193e-04
3.818770725638449479e-03
4.982033745106010172e-03
3.412699449124183965e-03
-6.093962648553467518e-03
7.382642959886417770e-03
-5.523219770325943877e-03
-2.578466673571675610e-03
1.158649002930414685e-03
7.089775023476413938e-03
3.007094332240563272e-03
4.038564768593826300e-03
-6.761000549355431453e-03
-2.778520315991853378e-03
-7.077033996013586646e-03
4.706852628166161533e-03
7.989494833454218597e-03
4.813702537085557016e-03
-7.390435103630964807e-03
3.874244458917684448e-03
-1.293817108780631478e-03
-8.199725820654601288e-03
8.131312610331349611e-03
4.414138228590198595e-03
2.273240053763270901e-03
7.278851569175613136e-03
-3.841185001402853960e-03
3.443139038087703139e-03
-5.362729540688306300e-04
-7.511453535175989862e-03
8.603002883383388142e-04
2.573933163592281685e-03
-8.623472206200263326e-04
-6.839274334891795072e-03
-8.394635403675167196e-03
3.309789759263940829e-03
6.798368738649037714e-03
8.532440023786412586e-03
-2.228229911440302545e-03
8.977565374399124401e-03
6.395256597890757073e-03
-1.487670464248848530e-03
-1.810254119659007385e-03
-3.309753952420515632e-03
-9.125205124396750661e-03
-9.767593893869063598e-03
-5.060887359785140073e-03
-4.900787382512047409e-03
6.984976585284076792e-03
-6.733677336706351581e-03
3.749415368270046268e-03
4.632060526866012967e-03
-5.821234421821515001e-04
-7.630826361783893917e-03
4.405671219181912963e-03
8.272945025736886879e-03
-2.592768491124684826e-03
5.156822475519396570e-03
5.021066567911976371e-03
-8.902165267648533623e-03
-8.929326393561684561e-03
5.046573796396757079e-03
1.536970270797104361e-02
8.486014300452305453e-03
-7.143193012807417391e-03
1.679670372164961470e-03
-4.350587672389324284e-03
-5.472187567596482720e-03
4.771932161520724310e-03
-1.731372514707298386e-03
-1.232407103608580082e-03
6.888025220132305490e-03
-5.218238586646403374e-03
8.370706112745292379e-04
9.528005276194705109e-03
-7.242909311953013400e-03
1.850526584212450892e-03
6.748077803581694137e-03
5.251735955244292084e-03
8.269983512891591892e-03
-9.344085022240017357e-03
-5.138195120794428195e-03
-5.899940504586104022e-03
1.220624211628874812e-03
5.503833882197552499e-03
-4.971266597412255309e-03
-7.851868194477988963e-03
6.841396008211562962e-03
8.786744944715466424e-03
-4.087786717070347698e-04
-5.184584536754703078e-03
-6.909876261083956013e-04
7.519574291802610944e-03
-5.106908980520633717e-03
7.391814829377427870e-03
-9.379973061589249109e-03
9.435549225639312462e-03
-7.588821793089321581e-03
7.771294977976618730e-03
1.579992173249968740e-02
1.368549847279189888e-03
9.268292631025663170e-03
9.130872403186744354e-03
5.978205345853350623e-03
2.982565752337447071e-03
3.438758928827575275e-03
-7.394297074505626691e-03
-1.103305845727407114e-03
-1.416074688937951414e-03
-7.893410668439496472e-03
-1.024702038705837398e-02
-9.674316328269332368e-03
4.745020682857324472e-03
-1.045052903125900760e-03
-1.973773369938685380e-04
-4.897896958348190409e-03
8.090189277059792010e-04
-7.382717344580172134e-03
-6.747288795752245071e-03
6.362286004703448551e-03
-9.575118969042263617e-03
8.399071894941599267e-03
-3.225042226509388949e-03
8.707857952302880053e-03
-8.700359975158266160e-03
-3.671171487284284086e-03
2.010852733087035559e-03
8.692518813233473390e-03
-8.427658389686986870e-03
6.096658698652075020e-03
2.324114036112346141e-03
2.993169379213897648e-03
9.924912950264458411e-03
-3.513492460300616637e-03
-2.878919550492057070e-03
1.005075419836334557e-03
2.507378712108349929e-03
-3.731535770635867853e-03
4.089403850639306524e-03
-7.726391368819401223e-03
-6.096416938375701262e-03
-9.726016145979106062e-03
4.928211983269363550e-03
8.980443957428094551e-03
5.392221853888011507e-03
-6.462188643505647860e-03
-4.256673765904194981e-03
3.454396380060648954e-03
-4.424514538250305488e-03
-1.771313662834992676e-03
-4.869382587916375529e-03
1.413408835913756512e-03
7.080117148661399518e-03
-5.156623044880614785e-03
1.486718465464342137e-03
3.315395359131510181e-03
-9.726617464823630876e-03
-4.962564824083121225e-03
1.432739147661401917e-03
6.558333376759494654e-03
-6.161700954068639186e-03
7.933255401437381768e-03
6.459402524623128299e-03
-2.134117715483664548e-03
6.367523688753823873e-03
6.986273640735773775e-03
-4.514595749657688076e-03
-7.912920157412378641e-03
-8.146861890458909766e-03
1.199651818216823478e-02
-5.305164124284084695e-05
3.429075190469735648e-03
-2.228093286886279056e-03
5.605327185705567469e-03
6.533048615096290375e-03
7.872352892092699186e-03
3.298007704203810651e-03
7.911688634659892402e-03
7.350209196492775085e-03
-3.264599113397795033e-03
1.763435975372860866e-03
-4.689265425770241733e-03
2.852411952559591544e-03
7.921462966557839616e-03
7.486371571758048370e-04
6.517133375806428118e-03
-9.615279482997880420e-03
7.342868543038930454e-03
9.182057316658184462e-03
-3.721143012728376186e-03
1.540887945134088947e-03
6.317971974737389244e-03
-7.712031514071196470e-03
-1.111379036130172651e-03
-5.870585675731033841e-03
4.453992310672528869e-03
-2.020878084166725062e-03
-9.981710202196920206e-03
-4.750195550941186361e-03
-5.933685775454463837e-03
-8.579020257388048076e-03
5.743282710561786221e-04
-3.278713891522974308e-03
-5.600353556424655238e-03
8.860230486454168802e-03
-3.551564468627822421e-03
-7.468830952298707859e-03
1.834395269058949115e-03
7.613068475993212472e-03
5.738482206115973726e-03
-7.021825167618405902e-03
-4.611803035110410495e-03
-5.287488956289434702e-03
8.439946082226744764e-03
-4.425222173012015661e-03
-6.639730682733955246e-03
-8.341653132428387789e-04
2.254271184892911277e-03
-6.808551201836393445e-03
-9.489276972425238904e-03
-8.104699676258717359e-03
3.019054589347258677e-03
-6.692444689866095323e-03
-4.829146619802476142e-03
1.858552513994351282e-03
7.459836474589912579e-03
9.082159741210810849e-03
-2.300579320263727509e-03
-5.682349643330573442e-03
4.739654286643556376e-03
2.348200612374090612e-03
9.048703040252716046e-03
-8.052942078732423792e-03
7.505445019805058980e-03
-6.484356235218421277e-03
4.851568359636676021e-03
9.840398910308899641e-03
-5.375498787114670572e-03
5.884155017711373455e-03
5.064632671307370271e-03
-4.569997485968052379e-03
6.667208290701501054e-03
-8.639861166464158845e-03
-1.344350430037522144e-02
-3.573083292258563606e-03
-8.343542269215640031e-03
-5.070374710038271122e-03
5.756201566357371444e-03
-4.524306166735259788e-03
3.135633827882053685e-04
-7.105340487749615790e-03
1.836083894411071104e-03
2.184263471462677148e-03
-5.571370367215264241e-03
-8.806458224347401414e-03
4.043745506000203174e-03
2.657117627930334538e-03
-3.569366286534141823e-04
7.905539599357606570e-03
9.545387507591802587e-03
4.617076691336687022e-03
9.264340438215471971e-03
-7.528002325869702534e-03
-6.801410526461552225e-03
1.001409764352096006e-02
-2.423305692082965753e-03
1.138625261117412728e-03
1.221891055841789128e-02
2.097191965188325517e-03
7.494483009431078882e-03
4.174673412072660121e-03
5.972446771998390740e-03
-2.883572762618925303e-04
2.167848808075752837e-02
-7.158355538956616242e-03
7.017322688722557600e-03
-5.451645428459976454e-03
2.378897350306480481e-03
5.746019688049369863e-03
5.010232756626526937e-03
-1.298218877071631973e-03
8.389908698806167187e-03
-5.197029672870944438e-03
4.481494614217619403e-03
-3.806611868658747472e-03
3.925958996927100993e-03
-6.173083837607688286e-03
-9.034900190091295358e-03
5.775728517724982615e-03
6.338160764539820143e-03
-6.690462519903819100e-03
5.923662050065796672e-03
-2.854728820516779040e-03
1.221465069670052417e-03
2.059662284009572235e-03
4.334665183665634483e-03
1.571363604160525311e-03
7.379146385082704061e-03
-1.583779467909869924e-03
2.383568136772500415e-03
-6.104499063913742564e-03
4.248957748130386888e-03
8.965225068283868420e-03
-1.478981573679538208e-03
3.819354945748575005e-03
9.575824646462552901e-04
-8.466015952832835548e-03
8.182919107773583764e-03
6.181569278536803470e-03
-1.348362643601000053e-03
-8.148618365894840301e-03
-2.967116415789439014e-03
5.213507580634311068e-04
-5.020938326543523955e-03
6.698519069456422385e-03
-9.938329672584345076e-02
-6.368910914697984219e-03
-6.591528635251827847e-03
4.565638935476005154e-03
6.517282667962244654e-03
4.194799700065528908e-03
-4.177183791671958135e-03
-1.984572352669883733e-03
7.368310967930813069e-03
-3.387036125056094773e-03
8.060923810686800028e-03
1.050769470687712252e-02
-1.336933756033889358e-02
-1.962096362722076963e-04
2.456212707825479371e-03
-9.746787463617245101e-03
-2.994822805455865915e-03
-9.165818782234177661e-03
2.592424452838754199e-03
-6.256405385541768255e-03
-4.704143779920028773e-03
5.325557098280470428e-03
-1.261859339538593579e-03
-3.785869941490079991e-04
1.084656804272662346e-02
9.305987155894321697e-03
-6.226328469844861525e-03
9.593730862685381430e-03
1.936518952576425645e-03
7.580543461606903226e-03
-4.130348074911881218e-03
-1.565588446441241316e-02
-9.733793165416249407e-03
1.414680200018421895e-02
-9.919196970836404240e-03
-1.222672004444004361e-03
4.883565378126351712e-03
3.366685042984965751e-03
4.645147332245241380e-03
1.727216260202447864e-03
7.384198292670179561e-03
-5.220465186208860485e-03
8.187300208275931010e-03
9.643518713796333033e-03
-9.799773592764968524e-03
-1.343647156506033074e-03
3.516904845344728196e-03
2.094133522898368027e-03
9.823313274727192568e-03
3.236564791587606595e-03
2.353706317520794494e-03
8.526902624589645027e-03
8.059306579535246637e-03
7.063706776076568786e-03
3.472815276909851142e-03
4.031304061670193568e-03
9.470807468654533073e-03
-5.705242563367201106e-03
-3.024647739906550516e-04
5.144606717912452928e-03
2.316699190313004260e-03
6.573734340936727982e-03
-4.683937630385355023e-03
-7.263887719514704883e-03
-4.814399413202307570e-04
3.263296045877914480e-03
1.960332139042013540e-03
2.309650384852800567e-03
-8.117450466700657299e-03
-1.174388383011538858e-04
-5.875466334787874702e-03
4.220158311496718939e-03
1.881828034479089175e-03
2.176655011447794098e-03
1.916432151870225194e-03
5.123413050992487415e-03
-7.304968440360901615e-03
4.960964260946661847e-03
-3.990209242848213531e-03
1.450543688812170598e-03
-4.375831699024308741e-02
-5.796979691152537827e-03
-4.078470137732863147e-03
-7.942584043003790562e-03
-2.023015370285752984e-03
-6.103536511181058321e-04
9.567301403681675170e-03
-8.226203173587055828e-03
-3.445944784455735876e-03
2.210196159075356395e-03
-5.427025754626416294e-03
8.398650662928613606e-03
3.835861880394612119e-03
-5.569754455092037516e-03
-7.866351408774863510e-03
-8.521244062136069594e-03
-2.443757282388865637e-02
-2.663607772899594280e-03
5.031451774513043262e-03
-7.909609344259889430e-03
-9.382273997823863468e-03
7.797579128140655000e-03
-3.301121448902194673e-03
-3.513395557365349507e-03
5.146612152042766243e-04
-8.316669634522816726e-03
-4.074164814892720921e-03
4.226385272721006406e-03
5.602158685440230060e-03
5.711868524216547928e-03
5.407710878069855141e-03
3.814487094611807190e-03
-5.179227835617891511e-03
4.642411510929280588e-03
-4.498290450577114089e-03
1.960296890004005824e-02
-8.007878404888075716e-03
2.653639383690427475e-04
-2.107639057304986838e-03
-9.236136409220975507e-03
7.665487775489776903e-03
3.609784520395975440e-03
5.200226398777028393e-03
3.316485327953707252e-03
-3.362085595554003582e-03
1.358775183505148143e-04
-7.026474359011419986e-03
-1.477093122586808568e-02
-3.572974649740624613e-03
2.596769703193326992e-03
2.089725624877466787e-03
5.513277485928363975e-03
1.380972322040692783e-03
3.386899990783139199e-03
-9.090636138322285079e-03
8.733062189211321727e-03
6.954344452730997980e-03
8.775875228489176186e-03
-6.422453252091030185e-03
-7.034276040563602721e-03
7.372917962449474167e-04
6.602273962957437396e-03
5.467878560641758513e-03
-4.825609627031663372e-03
-1.623392639071661887e-03
-6.296756588961873770e-03
1.221629345533479551e-03
9.053979407992407630e-04
-9.081352046915685747e-03
2.889113935460468213e-03
-8.039045990885354542e-03
-9.431255887672396893e-03
6.605243680304773678e-03
-1.061061424670603666e-03
5.238142615778661887e-03
8.759225278044303550e-03
2.508946621989117942e-03
-2.642391086865087182e-03
7.029129576591296689e-03
-5.681159567843786611e-03
-3.538798901980680692e-04
2.658295944211607961e-03
1.829531828330093444e-03
-9.634129558783021546e-03
-2.234190162349553987e-03
1.836714676678713205e-03
-7.821576184048031812e-04
6.338885873256144311e-03
4.082767763018627614e-03
8.563987544811831401e-03
-5.539920499479199581e-03
-6.876712377378391659e-03
-7.343875895419922813e-03
3.158489127529624015e-03
-4.098693703859544908e-03
3.300138731470936976e-03
3.677334182071707088e-03
-8.367371865940749845e-03
4.549259471583808404e-03
-3.730813148945650009e-03
-5.496537844632456982e-03
-4.867352181758060128e-03
7.930493448229450348e-03
2.151246832008224356e-03
3.230928664091336708e-03
-5.595590632357241336e-03
-2.601773300147533930e-03
6.216423823068525228e-03
-3.084719439630526083e-03
6.358043374388376058e-03
-5.917819953983249545e-03
6.019484067254454902e-03
-7.779347979641641070e-03
6.416697762810752784e-03
3.286834150976937746e-03
8.792858878200254455e-03
-9.583342641006740645e-03
-7.203178254881464210e-03
-9.508771910983971482e-03
-9.698638206464150341e-03
7.192734336151824365e-03
2.644188118186213861e-03
2.881008474399236480e-03
3.134357859901516687e-03
-8.884689527671988871e-03
-3.141379593611120461e-03
-5.666867287871265799e-03
8.691904822270670253e-03
7.488522223340893583e-03
-3.654349440986354950e-03
-9.712113264308626717e-03
-9.453001653076109623e-03
7.250055241569597266e-04
6.570750727680133366e-03
-3.152036129403441508e-03
2.908135767252994705e-03
7.160300472750214494e-03
2.792670413442535984e-03
-1.092357071312476634e-02
1.018136442576324545e-03
-6.472906927721165139e-03
4.773141077290386607e-03
-1.412927529724579976e-03
-1.229035704804039633e-03
-4.096144307920776897e-03
-5.433692524339631125e-03
-6.730360584058853700e-03
-1.828717161036952322e-03
7.637944512574903989e-04
8.018790800231738111e-03
-1.942781661065788026e-03
-7.931752588089889099e-04
6.382658968851344025e-03
5.117143075756786473e-03
-8.482654218285864273e-03
4.145109182838082468e-03
8.935396235982403720e-03
3.564251225642547558e-04
-6.862652745360429095e-04
4.714047647310411725e-03
-1.465283063054224379e-02
-2.655923853461690347e-03
-3.615514640689896763e-03
9.866621436235586615e-03
-6.406951108543586584e-03
-6.562221345248151275e-03
-2.657859848305976509e-04
-4.518196409526863307e-03
7.432096069950883642e-03
-1.267204721730404030e-03
3.366051209159769044e-03
6.504476119446050628e-03
-4.623596595883127346e-03
3.390853796554540306e-03
-1.971579536120781229e-03
-5.181737355577907024e-03
-7.856705390609402314e-04
1.286156135833796139e-03
-9.491641268744224075e-05
-6.356449922786016130e-03
8.010524820870883189e-03
6.495843515181623333e-03
9.247295748525126424e-03
-9.170794578715418810e-03
-7.639644847904756078e-03
6.399656563237484524e-03
-1.215284479092159677e-02
-6.351843249691651932e-04
-5.462298787190216637e-03
-1.770325408284270001e-04
-1.837101148475175135e-03
7.087315907208852593e-03
3.369579385425069615e-03
5.992529175589041482e-03
4.180568969390929465e-03
-1.545334201569278617e-03
-3.955892033337249543e-03
-3.458740228824697983e-03
9.819653151454381390e-03
-1.434910468975726270e-03
5.170963068879756708e-03
-8.345063777143465686e-03
-1.338297963390158458e-03
-3.456042061385381468e-03
-6.793568059766929082e-03
-9.520100180758689357e-03
-4.950091045175328969e-03
5.885361703009625751e-03
-4.050165297209449428e-03
7.462680566931881830e-03
1.576953762929649006e-03
5.441053627094852990e-03
1.004237014955753141e-02
3.700875237875502887e-03
-3.202745505006115816e-03
-3.836324713994124138e-03
9.575510987215828801e-03
4.313518586351503502e-03
3.768993687066972105e-04
-5.619319453966814017e-03
-2.840358023037747675e-04
5.257555799649322147e-03
9.495352081171585384e-03
3.544660933612193456e-03
-9.559762178032825755e-03
-5.585354938181894425e-04
7.192807587499855035e-03
2.164431694522161759e-04
-2.738574271411044377e-03
7.224820407092455085e-03
2.165070831144460389e-03
8.933006035989549457e-05
1.070995744390256969e-04
3.629881072197742309e-03
-7.045107563717364994e-04
1.297511432754558424e-03
-4.489990481884989504e-03
-6.582456242019615704e-03
5.800758286358755761e-03
-5.308312960488427434e-03
-7.482757068648583816e-03
-6.249781746348371386e-03
-1.704144245208326835e-03
-4.167883511078340070e-03
3.875675584059719726e-03
-2.616574492642185709e-03
1.722702433431443515e-03
-6.610838699760372000e-03
-7.240061013717486241e-03
8.281127387433934867e-03
8.781492054699368416e-03
8.066277032685241835e-03
-7.245396506200487048e-05
-8.702745426838933568e-03
-3.777724005462293044e-03
7.618446540753335411e-03
-2.327489396744266640e-03
-3.207048353721263321e-03
-4.041003525403440849e-03
6.283918593218317666e-03
-2.749012163697256601e-04
-2.667797234938103657e-03
4.041872770048346442e-03
-4.651209764431759111e-03
-9.486349237543982571e-03
-5.954285890318834415e-03
-9.227951116370976953e-03
8.928014082254206660e-03
6.863369155312590286e-03
-7.941347340834533849e-03
-8.479355259896804650e-03
-1.669953981271952428e-03
5.035385652207000941e-03
6.759852416642912233e-03
-9.534110241774688965e-03
-4.316346019205346066e-03
6.841418702948836661e-04
-7.039655577399987763e-03
8.035121680934531954e-03
-4.971099956915953251e-03
7.371865126043570995e-04
-7.738718263100855671e-03
-2.263432057012806052e-03
-7.575187073994435298e-03
8.262100898393255274e-03
9.001703962632480460e-03
8.618478247136701891e-04
-2.984395216269153991e-03
-3.507118390912366320e-03
8.487260183999336544e-03
4.021197440159798159e-03
-1.646705948201588471e-03
5.429991284340069183e-03
7.289956938683130354e-04
-5.634450046878400516e-03
-5.165781785094792494e-03
-5.195061566355054818e-03
-9.717019396737830439e-03
-4.850688184449603729e-03
2.272944507954962213e-03
5.108608320083811612e-03
-7.705792796929706624e-03
9.667915252790811736e-03
-1.753748599744958897e-04
-1.088949195181477571e-02
8.635465012377475935e-03
-4.515597477066916020e-03
-3.728692634905715706e-03
-8.087119218414283222e-04
-3.494581615538762398e-03
-6.471456914626284862e-03
-7.416706321264746916e-03
1.316782866043357319e-04
-8.525780683398110835e-03
4.045335983015236649e-03
-3.153923852473241619e-03
9.854793208949464214e-03
-8.742932013427528321e-03
-9.012854910040802095e-03
-4.289113499987174706e-03
-2.955571165908407391e-03
6.284022298997811971e-03
6.616589450019715046e-03
4.487299120595050587e-03
6.526662353576452753e-03
4.565393863196035538e-03
7.542678903759065558e-03
-7.534861698541169255e-04
-4.471045686954375209e-03
2.738482884590276879e-03
-1.917527793362584863e-03
-8.645784791277295531e-03
7.128645708444012082e-03
6.680863672240037500e-03
-7.121399117927313576e-05
-6.760559354407607181e-04
-7.703740335340031505e-03
-7.257520998258416844e-03
5.934660426864611822e-03
7.392887220599207200e-03
-1.003781117309719868e-02
5.810711126341868045e-03
9.699340453857811664e-04
4.960987805210938760e-03
2.948509850640947854e-04
4.345383926808948569e-03
-9.939940419518343215e-03
-8.787314869592676575e-03
4.190910170045787295e-03
1.000504769746525871e-02
-5.282681470360783317e-03
-2.011656317147166723e-03
4.050189274058379335e-03
3.396382705527440597e-03
5.684355735306490486e-03
8.436310259350135801e-03
-4.705670536931648787e-03
5.401029914622846543e-04
-7.094769438501622935e-03
9.444782172956630445e-03
5.117750805351650722e-03
-6.227650286721959916e-03
4.794868822374025522e-03
5.988206249102541803e-03
-5.226833755075294130e-03
-7.816362829777808311e-06
6.149277326929511976e-03
-2.981793390679754116e-03
-8.552563758057903781e-03
-2.188375228739702309e-03
6.594605455839684487e-03
-7.193369494562162729e-03
-2.969458214710373085e-03
7.151194318645665883e-03
2.514801685426601430e-03
-2.306439271787679227e-02
1.112557924996732334e-03
-6.441215568972575786e-03
4.848681907440044632e-03
5.665128835063407489e-03
2.713615560281349044e-03
7.381804273453603134e-03
-7.385874560712221183e-03
-9.829654076062590423e-03
-4.835830553952011161e-03
6.894587886849950012e-03
-7.505776349151917042e-03
5.145424517578843504e-03
8.600844027864278443e-03
1.169242716106553854e-03
1.090378096438021464e-02
-4.801550406556274672e-03
4.475434452997949404e-03
5.576465442371550917e-03
-2.222646739937410656e-04
1.988065571225281717e-03
-8.260044102054581172e-03
-4.470216524785008798e-03
-8.442975378184273960e-03
-5.211552200887398234e-03
7.945005142847828827e-03
-1.012924185865652672e-02
-8.845515766296602211e-05
-7.754379618967014191e-05
2.920840511084617404e-03
5.742434102887280546e-03
1.764793049916027002e-03
-6.087311836883238687e-03
-5.953941033876175440e-04
-9.500181323584773463e-03
-9.665229766365189198e-03
5.000026832031457050e-03
-6.554720417779696245e-03
9.372235012199272436e-03
-2.828353214140200828e-03
4.263668881746130075e-03
-7.488904798817754786e-04
-1.793237950675126121e-03
3.368367858349271150e-03
2.542344397368274771e-03
7.543155298466180762e-03
-7.318554888862801623e-03
1.624832608535198785e-04
2.107776275971091906e-03
3.002530827258357519e-03
2.406052453438604476e-03
-2.596208334872898531e-03
-9.361973440916994751e-03
2.370491313484547960e-02
-9.057783930035482461e-03
-5.831953759796861892e-04
4.837270560234685317e-03
-3.931549204931834851e-03
-9.339372741467965450e-03
-8.138068024483099613e-03
-7.217444874882706154e-03
3.348498868213292592e-03
3.256487825172597970e-03
9.623262801482937792e-03
-3.573659524761191395e-03
2.916583198123397832e-03
-6.547914922092011418e-03
-9.356619222833153018e-03
6.513810000958981244e-03
-8.388017195433824721e-03
7.881378698701480001e-03
-8.129646601369951153e-03
6.883059868031636552e-03
-5.810051162295980579e-03
-9.525986643939053297e-03
5.059202865385224908e-03
-8.357085313963390216e-03
-8.262079916482626633e-04
-8.808861217693232659e-03
-7.493679663967029413e-03
-7.478198619840827240e-03
4.493909905490679757e-03
9.471493456740021771e-03
-5.094239019190925297e-03
-2.110510217931250640e-03
-2.487382813618640130e-03
-4.711946544312608717e-03
2.741498746418301498e-03
-4.628710658263601035e-03
2.964961665392759562e-04
-7.400196449318242713e-03
1.598999130205681907e-02
3.820618933986149723e-03
-9.915606726599015749e-04
2.332229000716225156e-03
-5.496362259161611738e-03
7.012816899417947947e-03
-7.571200553506998200e-03
7.691693088869314132e-03
2.279977582088068156e-03
8.826309766435978116e-03
-4.152146878761879024e-03
9.051180796532066683e-03
7.914933331591334983e-03
-9.433093032709503542e-03
-7.920060674288393818e-03
1.887092777138147607e-03
-8.096961350441666747e-03
4.966277809129809005e-03
3.048265374534748790e-03
-6.299938215507621883e-03
2.773599886781103700e-03
1.350576745351781630e-03
-3.690385844119732899e-03
4.161115998400922653e-03
3.222851585688460505e-04
7.221787191377801104e-03
-2.056276413992736037e-03
1.091053888170072242e-03
3.178626373516072606e-03
7.684661237615022025e-03
-8.581983210597096462e-04
3.099513795071605696e-03
1.937307620022528419e-03
-8.519912270234455617e-03
9.419847295093554699e-04
-9.062684859981231730e-03
1.162099792749034076e-04
-7.852515387745071310e-03
2.171270790057035303e-03
4.643386033618496223e-03
5.727203340532413187e-03
1.819058711814069626e-03
9.732284669075882272e-03
-2.819424223767518466e-03
-9.739873348173293602e-03
6.671351516538651105e-03
-9.849327371783214193e-04
8.717737631539684623e-04
6.887358550050718189e-03
-4.479672014681329584e-03
-1.130684676811281354e-03
-8.058076264228795915e-03
3.759940036822181832e-03
-5.618060336493578902e-03
7.072435490944204740e-03
2.047161291052835511e-03
8.228343571286666353e-03
-8.771519801394697322e-03
9.859360487010835478e-03
-2.008599634913104098e-03
9.286938567017530158e-04
2.863244631888481242e-03
1.226467438393468064e-02
5.774764082302030581e-04
-1.601897494884386422e-03
-5.367622161083712186e-03
9.698861149298888817e-03
6.025267404632350145e-03
1.972267783312634578e-03
-8.785480907227725261e-03
8.616760081593087539e-03
-8.415730490419848567e-03
5.657233289125485065e-03
-8.779229735637822732e-03
1.180947738490617689e-02
6.911326765666607128e-03
-9.680996812580688806e-04
6.931066995683864834e-03
7.289235905173600816e-03
9.361879470900018665e-03
-9.641383429350889808e-03
-7.396271600631208233e-03
7.861696936218420112e-03
3.578546027498464600e-03
-4.489347933340649861e-03
-1.045714791258680427e-03
-7.776273518260977749e-03
-9.351938514020127421e-03
4.916761404806012023e-03
4.515488960165565772e-03
3.916929116742152821e-03
7.735638847479221758e-03
-5.127259268208787107e-03
-1.525470608471694595e-03
-4.930141782594155142e-03
2.415601944452883381e-03
2.152068391113790696e-03
-1.765881341909309420e-03
8.711674048960433778e-03
1.991917130773991954e-04
8.685038995386498012e-03
4.860817169361001701e-03
7.525891665695759632e-03
5.356718510237027005e-03
-4.820952975798807084e-03
4.026908733528181822e-03
-5.265452273728229646e-03
-4.132276792952162096e-03
-5.564889516598452331e-03
-7.371210662916001174e-05
-1.812906180444930895e-03
8.283357173777195631e-03
1.854782408041455791e-03
-2.814221227998584852e-03
2.466574024825318907e-03
-3.165073279539336575e-03
1.181568694846841551e-02
-8.669151195058653198e-03
-5.629180311536798216e-03
-7.938627636656214043e-03
5.631577858091593031e-03
-4.535061914813172217e-03
9.823641561738639255e-03
-6.890596536347224146e-03
2.849384183737764965e-03
8.603403655202094755e-03
1.931074369046617773e-03
-7.455681057711342839e-05
-5.818615294351639489e-03
5.961739952511252785e-03
-3.322430062950174068e-03
4.735682134416891419e-03
1.676784131299775263e-03
2.508348691570150193e-03
-4.734600373135008401e-03
-8.613951000418632042e-03
2.180950456471941919e-03
4.916719845115532193e-03
1.527701983258894025e-03
4.075295120776094467e-03
3.969306185464454260e-03
-9.089507231830308565e-03
-5.518260780603093107e-03
2.280886838251916862e-03
-8.571492447958831487e-03
-9.426523970481366296e-03
-8.972691751066330310e-03
-6.550106073065140727e-03
-9.753697389560769468e-03
6.369592702264365892e-03
7.452897617116288620e-03
9.559095285899726945e-04
-9.884323366745075695e-03
7.042038919828530648e-03
-8.802431269234694752e-03
5.760224955879191325e-03
-5.599609057131894017e-03
6.500227508434365704e-03
-7.249632265294409482e-03
1.220698981187125784e-03
-9.695262176339609211e-03
1.083599913709537262e-03
-7.288795113754906359e-03
3.357875728994117424e-03
-5.384213050219870469e-03
-7.582963057175639947e-03
-9.294360865991327034e-03
1.475353168379023392e-03
3.352538142129532495e-03
7.960302551305425620e-03
-1.462345416959889670e-02
-2.158049725239103572e-03
-6.699818754944437439e-03
7.082922911855023197e-05
-5.200119880755534052e-03
-9.449040631101003618e-03
-2.612798338788561384e-03
3.817779738622072237e-03
6.111855193085023903e-03
-1.418732947139809096e-03
1.481056290361036643e-02
6.005804072243596525e-03
6.978282854297669646e-03
8.396502697615243699e-04
-4.927993126641210843e-03
5.699406670794707717e-03
-2.713067991393379712e-03
4.538453917525888184e-03
-4.658771123035409904e-03
8.850815726369056641e-03
-1.413488077359482172e-03
5.090184438469956725e-03
-5.805396554061407859e-03
2.499130293634881615e-03
1.936009267749523761e-03
-1.774186306223292896e-03
4.739724681305768593e-03
6.022813585289409077e-03
4.579486474670753891e-03
6.332533717135491180e-03
5.188970873941279802e-03
-7.026477455789869112e-03
6.163821309761527076e-03
-3.565783711656724756e-03
-9.623624945665419997e-03
2.462794008762195751e-03
1.787734807027662387e-03
-6.439975033483077115e-03
2.717499337471528977e-03
-3.789147238625798896e-03
-7.475990148120113463e-03
6.010680037053192995e-03
-7.902933622886949491e-03
9.294058866212042205e-03
5.561593103604958906e-03
4.336348194705351086e-03
-4.583070320407747929e-03
5.457740944110096512e-03
-8.347752737399289150e-03
1.210520080270988509e-03
-3.124367043859773742e-03
6.685706113052246845e-03
3.170354112399616751e-03
-2.123240186649780464e-04
-2.011302259755861103e-04
-8.535769364591092034e-03
-5.027097543088110410e-03
3.535522085605274315e-03
-8.692466685641570684e-03
5.710205864539696224e-03
9.440814610579962088e-03
-8.414687756637659333e-03
-9.055607064748183400e-04
1.610871091056420264e-03
6.259765729821311492e-03
-7.572636257969041738e-03
-3.093477631698773010e-03
6.660669098033828589e-03
3.669167015130922536e-04
-6.711884303512248746e-03
7.574683509285203876e-03
8.747951029949706248e-03
4.191899974111706895e-03
9.246163059084162861e-03
8.560404378473692247e-03
-6.034508613557049844e-03
-1.811353584926471329e-03
1.960906712556557269e-03
4.649019854638796259e-03
7.057070694564635547e-04
2.964392609636542358e-03
-7.351964329027045088e-03
-6.414971139605151655e-04
-9.798175259954895397e-03
3.039357041813654011e-03
-1.181432493781043973e-02
-1.847557747711020158e-03
-4.614337090364251928e-04
3.327581427930791091e-03
5.267418457429002936e-03
4.281051594330834674e-03
1.064486476303409162e-03
4.652978823092983633e-04
-1.596056176404223384e-02
7.228647669170889210e-03
-6.698228553972189817e-03
-4.313403432838824186e-03
8.424711841769417717e-03
1.845935844153534771e-03
-7.282618913183038986e-03
-8.991221187599738457e-03
-8.146980768340673917e-03
2.634490972378569773e-03
-5.560258811419780539e-03
-5.140422271484960774e-03
-7.398297360116034074e-03
2.691254185392484913e-03
-1.191923802717259666e-04
-4.402368717103816685e-03
3.225737063253399269e-03
5.924580693553957791e-03
9.683802898700126505e-03
-3.751806676520206066e-04
-1.723821823862661199e-03
-4.452584926328702862e-03
5.582477465138312167e-03
9.471316610924884055e-03
2.203796536155218366e-03
-1.404423556592681969e-02
3.837255670148443168e-03
-1.517164527256317915e-03
-5.567040932489112498e-03
-4.750375757264470138e-03
4.136969266528028703e-03
2.829588659056140893e-03
-6.748482479034924666e-04
-8.857047509617894596e-03
8.088565740085502248e-03
-5.105338183469254609e-03
1.626911042226112129e-03
4.782291594965557870e-03
-6.299203159819555774e-03
2.274995687616906265e-03
-9.911172037101982288e-03
-9.034450801385374152e-03
-4.594993692800654859e-03
1.354729191576743664e-03
7.669867041845866533e-03
-5.526141195493716740e-03
-9.363050617742998613e-03
-4.049672605212789427e-03
9.824162886921922189e-03
-7.655667932913037300e-03
5.218751281627293306e-03
5.100491130066272388e-03
1.840317905841838773e-03
8.662402397476910362e-03
2.987017301663699026e-03
9.332978159065627444e-03
6.501495090039916859e-03
5.880909235736945725e-03
9.026603997175749322e-03
1.857297946454698626e-03
-3.481925496280997064e-03
-7.906202053637102767e-03
5.197794675262915401e-03
4.811060457675059667e-04
-2.067331845967187737e-03
9.123074010204172690e-03
8.262290248393863029e-03
-2.145734864883500157e-03
9.005164654540463026e-03
-9.435417520446147312e-04
-5.467421310183598511e-03
2.319843931296150692e-03
-8.112300602681142211e-03
-6.928139374001954232e-03
6.427084568741588989e-03
6.330954737819686172e-03
-5.140750553739590993e-03
8.550062531048755951e-03
1.329423220826651472e-02
9.157605840186653842e-03
-1.031229384987226386e-03
7.381171385870463793e-03
1.249626684619596249e-03
1.305975988090391860e-03
-5.529019474733034602e-03
-2.321118343720042932e-03
-5.656440125280651730e-03
4.739865237947666135e-03
2.089197823361571300e-03
8.863631191343236682e-03
2.412040872299533664e-03
-4.407399278474583015e-03
9.084449853345711451e-03
-1.044455449294832364e-03
-1.113888097023426347e-03
5.499031905289266005e-03
-4.917633868545023476e-03
6.241868886665277900e-03
-2.904243795183177480e-03
-8.224573246583568448e-03
5.663112304311416004e-03
-6.110285301826875147e-03
2.894403431301969653e-03
-4.583295574253607590e-03
-1.320204258928401979e-02
-7.464325203081438771e-03
2.704726561392641754e-03
-6.145848535546077733e-03
7.010016789297962591e-05
1.136113564364286781e-02
-4.420809407109616246e-04
6.042701053791972761e-03
-7.067093434226518443e-03
3.143055753886448561e-03
-6.161245598579858512e-03
5.394345942759179793e-03
4.282221986623405488e-03
-2.376446113857661683e-04
-5.665076876529965590e-04
-6.557903685433966873e-03
2.534474873244598695e-03
8.529607122161105698e-03
1.578799228952878228e-03
-1.708631072886109860e-03
-1.799276644746154296e-03
-5.668300761236146415e-03
-1.134863290373372110e-03
-1.106461382880174549e-04
8.935791322624829849e-03
-1.410467498805876695e-03
7.300879731321330453e-03
-1.406502607125001240e-02
8.495903415430510050e-04
1.818045048339232694e-03
1.917543623025879220e-03
3.845856611731627737e-04
5.493984176509030849e-03
-6.597707756088343374e-03
-8.619822471658392105e-03
-6.586457054200872512e-03
1.174377488541553018e-03
-5.104193326038610097e-03
4.799386641414787706e-03
-8.711462899742207500e-03
8.588384942648359666e-03
8.720104092878414384e-03
5.718561000230533951e-03
7.588137591293299920e-03
-2.466342402061719261e-03
-7.190860835860056824e-03
-6.050464164978301175e-03
-4.959293446166235556e-06
3.040464347326454157e-03
4.761985016358565373e-03
-7.893244331032641184e-03
4.562517286915579277e-03
5.770749617738539505e-03
-9.750138079291661986e-03
-5.700299332535808602e-04
-1.134438975481561612e-03
-8.533249890596662085e-03
-3.546379960517388394e-03
6.420199942292589140e-03
1.782074552616925555e-03
-5.673084872840819699e-03
-8.236796975977113801e-04
1.247341563636228043e-02
-7.971145695362830477e-03
9.124770256475345231e-03
-7.177131672119222046e-03
-4.386075793366207495e-03
-6.312050329501821266e-03
-5.923138796130494096e-04
-3.788509628823356901e-03
9.895945398571517546e-03
-3.127414232632595020e-02
-3.626780082574410872e-03
1.911986543728824402e-03
-3.168663134243338182e-03
-8.388597906655012593e-03
-1.939214329979619886e-03
-8.115443712597142714e-03
3.001242750265169755e-03
6.700231281714944843e-03
5.785591997153390759e-04
-7.017742413094207703e-03
-3.204514161807247284e-04
-9.673160993009494169e-03
9.117856136002003634e-03
-1.705949703131020428e-03
8.066907094009263812e-03
1.716320780082634901e-03
9.695040585091439095e-03
6.889566024101617149e-03
-9.762888506715909631e-03
-9.626200156832753069e-03
4.874587363358003946e-03
3.533171913543364752e-04
5.142221955223981282e-03
1.813242677848438036e-03
-5.360778164743145412e-03
5.812886891945511121e-03
-8.838572357957763526e-03
5.756065173771834909e-03
3.261437068958839350e-03
3.923366696930721646e-03
-9.541437647626813123e-03
-5.855962358677067360e-03
-2.122273229920498263e-04
-1.087996471581424663e-03
-9.466388305303913286e-03
-3.112552909254246315e-03
9.349255765845320212e-03
-1.091775415488766172e-02
2.368748165300446022e-03
3.401678721275892738e-03
2.493333188390316289e-03
-4.188720986409827894e-03
1.893516886230707779e-03
4.085006919615547308e-03
-2.293169607318300534e-03
-4.393888555414948716e-03
-4.173380896978693549e-03
8.362007196359039565e-03
2.896835418799963840e-03
5.094827499406472462e-03
1.355086719136795173e-03
2.436956616954748245e-03
-4.487633950313395237e-03
4.701941601197979700e-03
3.998536798995827281e-05
6.148319441788696084e-03
3.440432132136087007e-04
-7.666158685875197089e-03
-4.860244734695780451e-03
-6.752041940274311612e-04
-1.421910891785857153e-03
8.321666565572240215e-03
-7.139797865554308592e-03
3.993208133892880984e-03
8.416388433431259974e-03
-1.749632474986162695e-03
7.598905925766409261e-03
-4.800757607643634309e-03
-5.018874579026336852e-03
-2.800969225124395629e-03
4.158777709848210055e-04
4.151841260210516193e-03
5.406093060140871286e-03
5.266156903810543036e-03
-7.762372782567630511e-03
7.983964339563954724e-03
-7.859234133476649536e-03
7.942089644047611516e-03
9.154671411184053462e-03
1.816090873480230442e-03
1.968571620470382661e-03
-2.596233138176821855e-03
-1.564106042858479442e-02
6.193016363787005700e-03
-6.669100791471664971e-03
4.351272384117555576e-04
-1.790441826980552001e-03
7.450703635488825985e-03
-7.363071958100728641e-03
7.895832605621676270e-03
-4.885120039767335866e-03
2.187762357845358593e-03
-7.040466115253021968e-03
9.895303405582416001e-03
-5.511970829465528965e-03
1.217072988933964617e-04
-1.053977903437701251e-02
6.041850173899212390e-03
-4.537475412058825444e-03
9.148526763251348115e-03
8.520212877655707756e-03
-1.478613531294662928e-03
-9.751568195574853576e-03
9.215838265120556219e-03
3.728914816687401573e-03
-3.949562960375956056e-03
2.084239702004101000e-03
-7.722098228524688045e-03
-6.791335937637003536e-03
2.780733711343725319e-03
-9.018071194077872596e-03
4.084389826644599895e-03
8.400121380569752771e-03
3.713009660699781965e-03
1.438459066644005423e-03
5.884069423070801066e-03
4.983811590377662873e-03
1.828026163962101448e-03
-6.024568142576004932e-03
-7.906339498927763762e-03
-7.652843790668944915e-04
-4.659046375959736454e-03
-5.391923686378616125e-03
1.970319805584923312e-04
-2.480327417436896300e-03
1.160935440504343841e-04
-4.412821121359602854e-03
2.870616388180406969e-03
2.461706684244846684e-03
-5.774498492590840817e-03
1.358181499873324996e-03
-9.055042402646537765e-04
9.442606281211522040e-03
5.515490948553638910e-03
-6.002608867941577539e-03
7.646239565294915032e-03
-4.065525642476510099e-04
7.019367878894783655e-03
6.630337783447188237e-03
-9.647648623448516758e-03
-6.059574274362111018e-03
8.299066823504714849e-03
3.562982032215258367e-03
-7.184433998232288981e-03
-5.772591735142097898e-03
3.143287201371554665e-03
-4.364674844479500028e-03
-5.140640214637898740e-03
1.131660214662956812e-02
-8.144830591646619539e-04
4.490789500919847941e-04
3.283881894138197290e-03
-7.309234870969054214e-03
-3.821510537102019701e-05
8.126527066424192244e-03
8.882868072320509317e-03
-1.109523352998245579e-04
7.868219813945124055e-03
-1.220329751992939643e-05
9.781929665619961897e-03
5.774140030814362869e-03
6.542226752132358075e-03
-6.186901209530071104e-03
-9.907638326871996345e-03
1.272386598061909374e-03
9.689148107209069605e-03
9.257621614330200158e-03
2.321907915281105472e-03
-6.162873695285291283e-03
-9.764528371458604944e-03
-2.364584687473792824e-04
-3.944412162012174948e-03
-3.201286567827551707e-03
6.804611363597336607e-03
-8.246451153218828378e-03
-7.929684029813277926e-03
-1.146157440771136465e-03
-1.708315191719376666e-03
-8.707284523114441552e-03
9.328200328004558227e-04
-2.106934227631037911e-04
9.890222531114772550e-03
-3.080692891118608570e-02
-7.509027203566732631e-03
-7.357663590236459064e-03
-2.939741147138985947e-03
3.303018414297661295e-03
9.547603675300112697e-03
8.115761880224529531e-03
6.532922690238369317e-04
-8.552248940730151905e-03
3.109100007840096252e-03
-1.582500026802004765e-03
-9.466873353024042939e-03
7.278682264565942799e-03
5.521569350663642264e-04
-1.736408380653180683e-03
4.485556064561944251e-03
7.244009745804327188e-03
8.703476667173181205e-03
-6.381788605280782310e-03
-6.310445863383140619e-03
-3.388677327387160879e-03
9.527844953690849106e-03
-8.014391531112894165e-03
9.008468150729061555e-03
2.372734027298185888e-03
-9.293018708199568545e-03
7.153992018231072544e-03
3.573215225545267604e-03
-7.217767620120426296e-03
-3.183150123821340809e-03
7.552349542598206684e-03
-3.458203498726341012e-03
-3.572012939196195919e-03
6.369893723184688085e-03
-4.835512853419464581e-03
1.163055213871284259e-03
8.536045668446935741e-03
-1.405702155091190751e-03
1.125390509634470893e-03
5.628525889154201330e-03
-5.911474275580433368e-03
-1.479054672480680562e-03
8.464659254065651575e-03
3.042093011639888326e-03
5.252044533977082152e-03
9.276212609107839513e-03
1.934764237730828788e-03
7.741975973607155732e-03
9.906152757236117226e-03
3.358849710356805619e-03
3.777675887677392399e-03
-5.331483102621612305e-03
3.760343175853071989e-04
5.537923414146112520e-03
-3.131718194566042446e-03
-7.656495990537584388e-03
-9.443797500703022749e-03
4.358204963906839834e-03
-7.001071326806446692e-03
-2.233194462384786307e-04
7.612801145642883807e-03
6.544519399256798139e-03
4.387607762760323618e-03
7.240213411764726166e-03
3.629798159090413638e-03
-9.715628020849935084e-03
-4.558435419094545855e-04
-9.703281595588935174e-03
1.335496626981991100e-03
-5.245434032945721012e-03
-1.161565664678233713e-03
-5.866707705319949666e-03
6.354869110757460464e-03
-6.210372399283133060e-03
-3.426860885359870375e-03
-9.692327333713848803e-03
-3.800111365601229092e-03
-9.440040316543312632e-03
-1.127884310344829267e-03
-9.487963659467437555e-03
-2.223575512265068676e-03
2.158766298204223364e-03
8.127324043863199537e-03
8.512004757353298012e-04
1.193186606848493057e-03
-8.990395158798616601e-03
4.083174056452253640e-03
-1.659341932927337971e-03
-3.503225967136933041e-03
5.494950816897213250e-03
-2.081211399735835924e-03
1.050846745214297114e-02
4.546534416951328143e-03
6.329878088385706460e-03
-3.069897074354266051e-03
6.428835925259567680e-03
3.967661599987185733e-03
-7.795378225006520737e-03
-2.093729076221840808e-03
7.078975829817195364e-03
-2.423437465268875150e-03
7.312155517979090913e-03
-1.026668736932239085e-03
1.297104293115354783e-03
-2.000422775957942829e-03
2.169132022210754768e-03
3.959815778845910393e-04
7.520886401960325332e-03
9.629434747831731520e-03
-4.188566924767689846e-03
-6.942321264168165203e-03
-2.816089160018995369e-03
4.333191025527398897e-03
-5.785200114898400581e-03
-3.561448015276240386e-03
8.700731315563363377e-03
5.106533087649030300e-03
9.363188381332772370e-03
-6.424319123044847264e-03
-2.149949854157156149e-04
8.191628562443873871e-03
1.963692160441430929e-03
3.009771324126437123e-03
-6.634892939805601270e-03
-4.615221117238411767e-03
-1.477481373116866503e-03
-3.664621732930666963e-03
6.912165293508801961e-03
7.564573054067137703e-03
-2.826823391903159240e-03
5.005070755139616120e-03
-4.509932887779993967e-03
-1.904913462360502364e-03
-9.324457233180873453e-03
-7.059358326345802764e-03
-7.883787507669158187e-03
-1.113955022846571446e-04
2.361793207076625430e-03
-8.926150486307163692e-03
1.237921984164647247e-03
5.084592881027689797e-03
1.864420490744607645e-04
3.716354662061424185e-04
4.699687810815931892e-03
-2.341116523668372845e-03
-2.386385926853187064e-03
8.028991726365541579e-03
6.898146303736851608e-03
3.920125620419382534e-03
7.481986229002986211e-03
-3.819780361152443938e-03
4.917098531316520249e-03
-4.116676891759376948e-03
3.502540641825928726e-04
-2.429633028399772279e-04
-9.012907364301245977e-03
2.206844379467589202e-03
2.742459940048105915e-05
-5.521206875670948803e-03
-9.307311477174940589e-03
-2.112199651135762430e-03
-1.536382671654073053e-03
4.726655280824471929e-03
4.434694256108868797e-03
-2.362659122022129406e-03
-1.965435835078368186e-03
4.149392698320644376e-03
-1.576594597014424615e-03
3.319465678529625891e-03
-4.489650308751283632e-03
-8.915103305919963583e-03
3.889704511531756094e-03
3.165862183993555391e-03
-1.218402063569397342e-02
-9.542260747556159661e-03
-9.936215465323411725e-03
-4.144688509670368080e-03
-5.741057995269331291e-03
8.453710618684684777e-03
-2.197742001149461527e-04
2.416804288126780942e-03
1.135790305963891092e-02
-1.088977391145813742e-03
6.155585512736292536e-03
-2.214912096610106070e-03
4.843355613763324595e-03
-4.581478065825295674e-03
7.855910108544528203e-03
-8.913066794687393019e-03
-8.757213395550067113e-04
1.080394066173783786e-02
-2.802262219846364533e-02
-7.848780811457980316e-03
-3.354645563469889520e-03
-6.290326288090851252e-03
5.340800884272169959e-03
3.718455696239414063e-03
5.283449854842733233e-04
1.620815286306572650e-02
-3.797995684750157374e-03
-1.109131712535636576e-03
3.135120065550663342e-04
4.172884468552803296e-03
-6.011928731753021608e-03
3.475616621634476915e-03
-6.267375304648709414e-03
9.612481562232577312e-03
8.581359435732042670e-03
-1.956351710434553470e-03
7.724499558603203746e-03
-2.098275569981591145e-03
8.253381154868341847e-04
4.953980489811386952e-03
5.184277125076441547e-03
7.717296464472876184e-03
-7.323341804773733470e-04
1.862004651307857910e-03
1.431460228173654517e-03
-9.880693878763058269e-03
3.719297126267131614e-03
-4.831077019404855788e-03
-8.740125301918984235e-03
-2.666373890559982189e-03
-1.347353624335066637e-03
6.036886288197035669e-04
2.728322534414977588e-03
-2.688123789953190696e-03
-5.051603643624627549e-03
3.606047906030754140e-03
-2.078242281004586897e-03
6.583421887947418609e-03
5.286320015000137151e-03
8.482112121559047535e-03
-8.072145516678985375e-03
-6.267360902824556032e-03
-1.185554353717477088e-03
4.143923316863586462e-03
-5.454423570069573055e-03
-9.431801218469412773e-03
8.589381304590970601e-03
5.619625399261021434e-03
8.497169485534658215e-03
-4.189502625533849875e-03
1.997545037474398786e-04
4.661273660763794874e-03
2.566741144800471081e-03
-9.733011048682011293e-03
4.307345881394562988e-04
9.599779088898160659e-03
-5.343287284771180978e-03
-8.813723882372064391e-04
6.163806225575467999e-03
-4.705698911235997595e-03
-1.910352125366982564e-03
3.622685594380144116e-03
-8.676213362326291477e-04
9.079110890885694687e-03
6.987738103118692687e-03
-3.931055647668203930e-03
-9.800413397072615246e-03
7.385793355047574980e-04
1.098013832574354885e-02
8.203466065542409577e-03
-7.541948501858570901e-03
7.863429548311047512e-03
3.181167352979099769e-04
1.191431476982945763e-02
6.128804181497513916e-03
-5.036209503185023854e-03
3.645903583343592866e-04
7.124634506601074807e-03
7.154806843314067549e-03
1.027767715610604544e-02
6.895047270045618314e-03
9.850100238125132981e-03
2.512946149159254235e-03
2.206667464170637086e-03
-8.985936361405289299e-03
-2.107367878705125770e-03
-3.791883707300022603e-03
8.467158150202274899e-03
-5.447379346329388368e-03
7.203938578927765110e-03
-5.209413388992707380e-03
5.187040755375576725e-03
1.354560054309563452e-03
-8.068531646083282674e-03
-3.593638257385208326e-03
9.683777340103755238e-03
7.589437304406977149e-03
6.575170711637735692e-03
4.400882453644928971e-03
8.013645875783636380e-03
-3.047309363795926325e-03
-5.578693159894106655e-03
-8.396286795045034348e-03
6.842901900387328255e-03
4.414904638847653474e-04
4.387008215420211583e-03
-8.783878237005028622e-03
7.432641689279445400e-03
1.977469708972683007e-03
-7.034595188058034680e-03
3.639798885950028289e-05
2.264850630655327549e-03
-3.212864500310733118e-03
4.216700312410091162e-03
1.672807738401410876e-03
6.756688357790232614e-03
7.320316184311796183e-03
-8.481254107228967595e-03
2.943804633104524920e-03
4.470357098067118985e-03
-7.183460940421768255e-03
8.124027487766652400e-03
1.147380271781648330e-02
-6.482814138071231469e-03
7.812134086493453984e-03
3.119813562888487917e-03
5.688666975228671464e-03
8.569146236814078471e-03
-6.720299842981658327e-03
-8.708503138416900588e-03
2.714919327065890096e-03
-3.318604924177233611e-03
-5.013967530880308714e-03
-7.151351854903581322e-03
7.100575290127865771e-03
-6.749224563264977043e-03
7.039674339567906017e-03
1.281995191630039494e-03
-9.026498839079008518e-03
-5.603763913580886609e-03
6.367201169033773374e-03
-6.017782607239017048e-03
8.275999748182055402e-03
-2.716941080189933314e-03
-1.165218725278605386e-03
3.416995240117812280e-03
5.982430695173309929e-03
5.143379392517542781e-03
6.161601323847636265e-03
2.445420750191646449e-04
-3.700238462958521570e-03
-5.635749859250566325e-03
9.194958606677097052e-03
1.509699996884763303e-03
9.898572933008905825e-03
2.889070935949887998e-03
-2.491949968323839328e-03
2.181944662504431420e-03
1.171897439083828540e-02
7.191803625464693143e-03
-1.809336181045352685e-03
-8.140324294473345879e-03
-1.819116140533420800e-03
5.153464163015984353e-03
-9.835450246176906039e-03
6.605827548208978960e-03
-4.771581813276112687e-03
-1.392407515585014459e-02
8.820366775162511927e-03
-2.548888483346424538e-03
1.635815879824101260e-03
-1.892925217951613734e-03
-3.022533663017282018e-04
-8.473478656664071643e-03
-3.139353579826205821e-03
-4.099315655296739149e-04
-2.715792407008495776e-03
6.785985021733257141e-03
-6.458524703403121711e-05
-5.200457594562068325e-03
-5.121566337661356480e-03
1.674567782875810906e-03
-4.279516428040753043e-04
4.305883777116532515e-03
9.787254846426628879e-03
-5.970614031301790976e-03
4.678521456992878157e-03
-1.762446429953662928e-03
-2.217477829066769480e-03
-4.436708556735549300e-03
-2.887643897544285923e-03
-7.608313372786036644e-03
-2.839199953100396173e-04
1.752626250259351186e-03
-4.405233431714130309e-03
-6.810742883057791441e-04
-7.068279135815248165e-04
3.315460277875562512e-03
1.949491593001423818e-03
1.171854262887134755e-02
5.676691603707320231e-04
2.725793150559362513e-03
6.267658112346626096e-04
-3.087574790283714385e-03
-6.518759347385818734e-03
-9.509842781300046483e-03
-5.803013241724182432e-03
1.165443200020683558e-03
-9.590728291347419901e-03
-3.713309443194899324e-03
-8.888874137522961502e-03
3.738297962389986948e-03
2.118115530161934486e-04
7.889887635611299646e-03
1.982820514839349693e-03
4.087352237279818883e-03
9.291809453754552861e-03
8.059901881866933168e-03
-2.792194335619984074e-03
2.695367010166438166e-03
-1.840587723054660282e-03
1.353698032236440481e-03
8.984833064367810790e-03
9.879815783218367023e-03
-1.686853410718839132e-04
-8.552825316909838660e-03
9.244861098918288542e-03
-6.405790174805798057e-03
-9.418658427021069438e-03
4.331989127687254498e-03
6.938108447477504825e-03
9.888950867917229923e-03
1.928658439284735519e-03
-3.417946623480703095e-03
5.135093788033218837e-03
6.747863789370240825e-03
-3.366157843711616894e-03
-7.539659211772837535e-04
2.890566559093737248e-03
3.833843377813932456e-03
2.690234161996685278e-03
-6.892961412369782818e-03
5.996243980356112972e-04
-1.398093332232480234e-03
2.951540275807117489e-03
3.158102476676301600e-03
-8.001321374064184616e-03
-7.223947255754408631e-03
-1.188102062061270614e-02
-7.870095168505857400e-03
3.111268004959430802e-04
-9.933085753258068251e-03
5.885613763550063063e-03
1.304885171869685570e-03
4.284624100343701128e-03
-1.910416536790318859e-03
8.142836380224874673e-03
6.544634159959545304e-03
1.319603546246885049e-04
-5.127276208219572716e-03
-7.471029920926089418e-03
6.920140354208280734e-03
3.572100464854720183e-03
-4.656645668703389591e-03
4.539222805756032084e-03
4.464712642190554227e-03
3.454723638856136651e-03
4.816482917024751675e-03
4.592317832037374169e-03
6.190487520419903078e-03
6.916496904728412255e-03
2.454070858252509896e-03
-4.844425364441639487e-03
2.137702322316990377e-03
-4.258224017710579221e-03
5.847749190664055900e-03
-2.734859735615855197e-03
-3.438659318714627766e-03
-9.251715504683585486e-03
-1.094215232245370883e-03
-7.338733795713294795e-03
9.528474903892459463e-03
-2.965345744579782686e-03
5.905319042506730794e-03
6.680586997187210052e-03
-8.150528456390151999e-03
3.321487185008791410e-03
-3.048857895442858186e-03
-4.096086364529395035e-03
5.078020799904281631e-03
-4.691318801275433902e-03
-3.792566190095125658e-03
5.240870810025389549e-03
-2.969844029009364051e-03
-2.186533935873600457e-03
4.819001404195388805e-03
-7.220201123971652264e-03
3.867548746769484090e-03
-4.740215782954955090e-03
9.238996052691838060e-03
2.364259205497105075e-03
-9.856535092552074981e-03
-7.345423063986359843e-03
4.706278652434389871e-03
-5.762055737603109101e-03
-9.573129824111369091e-03
1.307136467173926689e-03
4.135887181190006992e-03
-4.510407576713771488e-03
1.611187888319618637e-03
5.057075569946370332e-04
8.731386323354113285e-03
-8.089395178380545670e-03
-6.539735129166583325e-03
-4.000297464703411916e-03
5.347247096527675027e-03
-3.254447084004885235e-03
-2.634073340474555464e-03
-1.595937953968191948e-03
1.530413210530542326e-04
-3.465317155381916411e-03
3.778260531952731295e-03
-9.488057331745753525e-03
2.280868067424727825e-03
-1.880930123151382249e-02
-4.087552166118790103e-03
4.569189746759958100e-03
-6.675907187966817480e-03
-5.329292170585121780e-03
4.803402129684614412e-04
2.351926341089817258e-03
-6.326535782849169488e-03
-4.832081471222778035e-03
2.487876927974203532e-03
4.449781486122327163e-03
-9.521927827093084251e-04
-8.636068574103060013e-04
-2.062767420041743648e-03
-4.322094652259854050e-03
8.837290233375715703e-03
2.398745126217377132e-03
-2.874462908363306386e-03
-4.925468530884042143e-03
-4.757827177383240971e-03
-3.685536036060407371e-03
1.067486525165659960e-03
1.660423604393509696e-03
3.239323174679276367e-03
-9.672715286002487450e-03
1.585766155515447914e-03
1.648691712314044426e-03
2.302411555580947261e-02
-5.332358448306455910e-03
-9.123448368334698827e-03
8.965501254409185411e-03
1.278129192052851948e-03
-7.844762809426338371e-03
-3.457907464973157714e-03
-2.156170871119524393e-03
5.389196774863561946e-03
-4.653479465751509704e-03
9.014466705774349178e-03
1.476898030893451135e-03
-8.246496693698019895e-03
3.487752489816797362e-04
1.549718004238904642e-03
9.120263469228636830e-03
8.337782020524948240e-03
8.821794228859935333e-03
2.412804039207917892e-03
2.809678425288911208e-03
1.072149203559217071e-02
-8.277148080721163925e-03
-4.663523283565420424e-03
-4.902994076461018001e-03
5.639294410984795232e-03
-6.624055826783666057e-03
1.102983943017286743e-02
-1.609126174891918658e-03
-4.511867380910030215e-03
9.832273602110946920e-03
-3.531222288006532345e-03
5.935033650182785364e-03
5.244530250931144638e-03
-2.469648263370020740e-03
-3.582205009257000312e-03
-1.016865713211729562e-02
-9.583717476488015554e-04
-6.225660503787236802e-03
-8.117908441463582772e-03
2.331104145382754522e-03
-7.468494181495783681e-03
-3.784187018577027557e-03
4.309859115521909832e-03
4.871393303564009770e-03
9.071235238855926766e-03
8.503699654089652213e-03
-6.318658124381729526e-04
8.903628938119625622e-03
-1.620440513584355327e-02
-6.818280323074184940e-03
9.122989055109047285e-04
-9.569041672967022738e-03
-9.282510193271678936e-03
-5.228346578967152034e-03
8.624469209596606623e-03
8.072396527605777555e-03
2.732704174836925615e-03
-8.670733671252128447e-03
1.409539802762145187e-03
-8.669876959062777083e-03
9.353644351731530175e-05
2.416282979825840321e-03
5.842681684673820854e-03
8.542651587708687336e-03
-3.202070394620756648e-03
-2.343488074895959134e-03
9.629424033065382823e-04
-4.913760666324542073e-03
9.622427210274063806e-04
-4.352254851889615118e-03
7.897748727627764906e-03
-3.947206634479176642e-03
2.584759077612105820e-03
-6.647089599355001516e-03
1.015844787548032639e-02
7.794188024427322649e-03
-1.504884257631482940e-03
-9.926808920290942917e-03
-4.127215134425054471e-03
-1.647869684803730914e-04
-3.286836815031599947e-03
3.182011956348916506e-03
-3.478330671029571716e-03
-3.293906382772146535e-03
7.802738829062407303e-03
-3.492699062798449317e-03
1.819905055848058516e-03
4.000293258132666535e-04
-4.857712496768635917e-03
-6.831125690068739521e-03
-2.761070116283718349e-03
-3.571764850092235596e-03
-2.817974011324774018e-03
7.326898474151911402e-03
6.159256106755307825e-04
9.394731317296947312e-03
-4.174156370098324430e-03
-5.111526499561465028e-03
-9.064554355615898548e-03
7.274842831695433991e-03
-1.267093688596203881e-03
-4.094560478836951553e-03
-9.374973197360114349e-03
2.359250925530435080e-03
-4.119510475756944096e-03
3.148874243826503116e-03
-1.081333284536882024e-02
3.544962324661045145e-04
-7.255640772893530259e-03
3.067983278228694679e-03
4.578494782124921045e-03
1.084246930326067566e-02
6.180087205689484449e-03
8.015247153713165110e-03
7.574116864975298513e-03
6.228572338536648295e-03
-4.976535688025111523e-03
7.529091244032448671e-03
-2.734100199515661963e-04
-7.264566866628323002e-03
6.197691623607223983e-03
6.232124821409794693e-03
-1.561980042696182666e-03
5.301155524897713939e-03
-1.375191282676955194e-02
-7.566936783501556837e-03
-2.088937885338807386e-03
-5.804954939588610231e-03
7.492021328402904447e-03
6.799559667055880309e-03
-7.181373167538496541e-03
-1.704710846200690804e-03
-9.818386469126110048e-04
-7.508206817766151578e-03
-7.547505215511684379e-03
-5.080196189440645826e-04
2.165831013246783017e-03
-6.615894818383686975e-03
-6.978169990360926292e-03
4.031918062976961106e-03
8.385997569581764635e-03
-7.887108463202658834e-03
5.271360253111783377e-03
-9.852343260195536509e-03
8.903817066938235839e-03
-2.659466072335268071e-03
5.397698993311650199e-03
4.735071351801711662e-04
-2.057913118817132972e-03
-2.421482038338126485e-03
3.696147756673154577e-03
7.673000173904374541e-03
6.208898701635279412e-03
-3.028263040889438325e-03
5.251478210156878407e-03
-6.393426987020679395e-03
-1.003390133167471679e-02
3.798974562939360158e-03
-8.307655693599341751e-03
-1.923554028570235433e-03
6.397990955382060023e-03
-2.289043572003996406e-03
-5.956248743577651633e-03
-9.602776431853277464e-03
7.632847168899940804e-03
6.299035560459194383e-03
3.091247354762267831e-03
-9.943184257170828780e-03
5.291870073831629780e-03
-1.325873738650851404e-03
-8.285503368512735570e-03
6.151234086608024787e-03
3.915373703738154326e-03
-5.651652476235070541e-03
-3.468721750725884800e-03
9.304349275279757275e-03
-7.586585652895921211e-03
6.364337407086903542e-03
3.034756761263883527e-03
-5.566155042847383341e-03
1.387316295116046384e-03
3.272878770650503380e-03
-9.053962830402686318e-03
3.733821344001568565e-03
-8.819653593598118790e-03
-1.983265855352991242e-03
-9.118619766878039920e-03
5.813557700686341860e-03
9.359007922361450155e-03
-8.575069541386608554e-03
7.524057871913774481e-03
5.119217357349272260e-03
-1.787540954377108814e-03
-6.496462621864809370e-03
5.005099675471654137e-03
4.719050779932162931e-03
2.973381127008040137e-03
-3.747865768609326756e-03
-9.117234281391037309e-04
-9.667342443615303121e-03
-3.234572756958134856e-03
-2.610061984785974772e-04
-4.846165297591729405e-03
1.181689349536691998e-03
-4.126233998944519969e-03
-4.488354062791804588e-04
9.537380153153979115e-04
7.478546307289174119e-03
-4.575455692335870898e-03
5.107508067606980964e-03
7.475335048333991809e-03
-9.083568301750721830e-03
-1.627440670805319458e-03
-3.053467456033889284e-03
-9.274916374390424281e-03
5.457867587965437549e-03
7.463774911998592373e-03
5.928129161572547740e-03
4.541043135460645988e-03
-2.890824076297629410e-03
2.570864265555205825e-03
1.509213763771839745e-02
-7.568289480612003933e-03
2.968218804105994795e-03
2.200790822303448635e-03
8.810116398106549243e-03
8.080654989496227625e-03
9.263085288087398450e-03
-8.613107806230285712e-03
4.409079245311755060e-03
-3.698829459902455794e-03
4.940202525505405125e-03
1.208057868956039947e-03
9.629352449544825721e-03
-6.000945372749831586e-03
-7.668335832053774920e-03
2.567741368772827066e-03
-1.181686249314197693e-03
1.306969882407862113e-03
2.170940722934341840e-03
5.929151402694118195e-03
-4.836115885770876990e-03
3.639128755003793580e-03
5.028013038317395711e-03
9.078662901449830944e-03
-6.339208741094926568e-03
-2.875313072564926464e-02
4.011951847611738321e-03
-8.811857843895234271e-03
7.435369454467538955e-03
-3.168795022998147082e-03
4.241029811318468463e-03
-1.889440198276617173e-03
1.027636077572893422e-02
6.138039726062834503e-03
-6.378386978875666934e-04
9.022958494920772093e-03
5.426012182630248620e-03
-1.338227744151797250e-03
7.831923646759286067e-03
5.304698374898799828e-05
1.428663545337644555e-03
-8.010890714491656489e-03
7.832588342482177737e-03
-3.175679245546855246e-03
-1.958448009673415501e-03
1.158458485313381900e-02
6.531731756428312170e-03
-8.311744307939726052e-04
5.888168565737002431e-03
-5.205857621855912616e-03
-6.677404614191473353e-03
6.467173792092975951e-03
7.496542999824463158e-04
-8.050455853695993652e-04
-8.843162737095101866e-03
-8.021435434784450133e-03
-7.225519935945608901e-04
8.845895920718454056e-03
-2.973187102069891133e-03
6.166494212608464483e-03
7.188756977518326622e-04
2.003750125300523752e-03
9.068909783631942320e-03
7.257794455958102575e-03
1.045814811079903879e-02
-8.894522791946666423e-03
9.805787796071240014e-03
1.030473778507354395e-02
-8.384119077117958493e-03
1.029069213436409900e-03
-9.405524269307059468e-03
-7.863925641096471825e-03
6.714405664330288376e-03
-2.892285597203327757e-02
-2.487481265664284562e-03
-8.280884763489620287e-06
-5.005623425505401590e-03
8.677672098381473964e-03
-4.819688991515236158e-03
1.178159095388468195e-03
5.486312569275622435e-03
-9.519909669656455298e-03
-2.300897111673909368e-03
-6.055670953853554278e-03
-4.849217284610903705e-03
-1.765090233188207000e-03
-8.914989699088247260e-03
2.294462203965158716e-03
-8.052784704516065609e-03
-8.063788069896257737e-03
-1.024281613936950039e-03
-3.032529525332458911e-03
9.499554436168672691e-03
6.083071149806890641e-03
-4.118379031782251447e-03
1.734749743009505107e-03
-2.152755062286186908e-04
-6.561197547549681326e-03
5.202459969443448684e-03
4.015071923279996124e-03
-1.116221854752571206e-02
4.480618122075471707e-03
-2.502154552614983644e-03
-9.795651460830532425e-03
-8.955504274853608171e-03
8.995121034229258119e-04
-7.970785787664129429e-03
