-2.026833580703770593e-02
5.675692352468466283e-03
1.025230397160841779e-02
-3.891768664925012063e-03
4.399727024587334751e-03
-5.187729915008124255e-03
9.454544022664556485e-03
6.864120746400718606e-03
9.086810067593256365e-03
-4.047617179943692640e-03
3.519636576028897356e-03
-6.867386406537079671e-03
-9.483154802257273350e-03
-7.728291234632973350e-05
-6.349809659735998132e-03
-7.844534043273655721e-03
-9.109355593251091884e-03
1.895782221974977397e-04
3.033172439738078194e-03
9.920187247133267425e-03
3.715588335284313037e-03
2.421455374948841815e-03
-7.343770955057457063e-03
4.119645842195895392e-03
-7.273025989768188218e-03
-1.802501026845339596e-02
-2.478857692020013017e-03
6.110942367852951508e-03
-8.294591118947638661e-03
3.895285026601519665e-03
2.091468136291361416e-03
4.292966777246545393e-03
-4.447823125185181720e-03
-8.506024852670121192e-03
7.342192168362098557e-03
-7.250031657593997148e-03
8.001665706290118224e-03
1.958903324769469250e-03
-6.604631716424736940e-03
-6.356851503848759757e-03
-7.937370201738824012e-04
8.404899859205425955e-03
-2.996373790015611181e-03
-1.025424964393691031e-03
2.355806986434685456e-03
9.809428457657889261e-03
3.657573067042493744e-04
-5.323385967726905477e-03
-2.881897137420567131e-03
-5.328496624001892099e-03
9.081509922792406486e-03
1.210056025182759155e-02
-1.890642090905881017e-03
-7.516289810684109035e-03
-4.401809244974582737e-03
1.037764382854910582e-03
6.598499605516306441e-04
6.695666316854544629e-03
-3.061844585739148354e-03
-1.886944596715938371e-03
-5.338296213657043633e-03
-7.218122594412533510e-03
-6.477770891577604813e-04
-5.314160917679909557e-03
5.657914577881352144e-03
-1.120994093173383012e-03
-9.809866483410586285e-03
-3.414818549800013696e-03
7.078475458322345225e-03
6.905673495327153836e-04
2.231964805886721415e-03
3.990167146344447191e-06
2.358601311465614685e-03
9.760266637840766396e-03
3.655886150686079618e-03
6.668192366812301757e-03
8.700490885385974565e-03
-5.453615301756298966e-03
6.048464332966682795e-03
-2.654249675268969232e-03
9.394009009957932088e-03
-9.490628964849753130e-04
8.726820140905918594e-03
7.748622550738415091e-03
-8.344712418099441142e-03
-3.790429072694570089e-03
6.118730291124549123e-03
-6.828519956508903241e-03
-6.133261395684774971e-03
8.663477799444659067e-03
1.778716828561537153e-03
6.796296416245853171e-03
-2.608586030397609754e-03
3.742933031033096603e-03
-1.225859705880238308e-03
3.788777824496622568e-03
1.017695206248175974e-03
-5.636689637212216651e-04
6.877023155906682866e-03
-1.681229361469411925e-03
1.615987215203490380e-03
-8.972865188428666774e-03
7.824153140523530670e-03
2.311074868355133226e-03
8.523214449266328444e-03
7.040656101366711420e-04
-6.043079846842403305e-03
2.692190521126703977e-03
7.840026806680892163e-03
-1.081470300834400751e-03
5.313151198307608514e-03
-1.349449738691647742e-03
7.144110647786453341e-03
4.152470227624600711e-03
4.245148177951417402e-04
-3.543899056123711241e-03
4.771893209344307656e-03
8.771167199631299191e-03
-1.011493418487844839e-02
-9.573828294366440450e-03
9.944233992952777532e-03
-7.577433644737435053e-03
4.685570701162333068e-03
2.021318460550821684e-03
-2.285446778240115152e-03
8.907523752603657002e-03
7.937759488535272093e-03
6.759004416826537576e-03
-8.257189910150251888e-03
-9.519099510228314076e-03
-7.444300768946917474e-03
-8.091188153689594931e-03
-5.511441528783192316e-03
-9.308762343742700909e-03
3.988022207274597147e-04
-9.760795942973736483e-03
-8.896312360170905223e-03
9.371763707473943980e-03
-4.530009256026834921e-03
-8.445778318665572368e-03
6.677936445483359171e-03
5.926165375030528933e-03
3.032796916928142718e-03
-4.565438319676065788e-03
3.911162491518777214e-03
-7.999518695408788446e-03
6.271372156259871246e-03
6.102744615764268792e-03
-5.225488677161394153e-03
1.649213933841141852e-03
4.923387906011014031e-03
6.566626421865373250e-03
1.637524715823808008e-03
-8.728417679463104303e-03
6.511072578796330869e-03
1.105865186731379421e-03
-2.811784707641053292e-03
-2.602674182806260714e-03
-8.197465151268519545e-03
3.120096974193966536e-03
1.903551730146179916e-03
7.433927391641572367e-03
2.471779266709074000e-03
-1.455707710661810744e-03
4.138188609019009812e-03
8.326160351602012247e-03
1.168079254827338520e-03
-8.903267523166355155e-03
3.032692157240051735e-03
1.013453617383196399e-02
4.070940205856287200e-03
9.190099122626077771e-05
-8.272510612783784065e-03
3.073644238036105959e-03
3.760248514430242217e-03
5.798612286529404233e-03
-6.329268732881226066e-03
-8.275604022838469387e-04
-3.524409038021462763e-03
-1.597131467814872675e-03
8.241358979860113898e-03
8.526203223212054302e-03
4.164974134279178161e-03
1.702088584477631479e-03
-1.268426981501344407e-03
6.390966149130985000e-03
6.390632387325565975e-03
2.668772431051022378e-03
4.984754149397360029e-03
-6.054592773866264606e-03
2.404035307719623333e-03
-6.078385344045182485e-03
3.005918389423294611e-03
-8.458366901284737963e-03
2.060455346595375329e-03
1.806966385394567429e-02
4.011750115043118819e-03
5.895597230375400864e-03
5.646526141618769465e-03
-2.817366560781013173e-03
-6.071804029538123773e-03
2.813245548553917376e-03
1.394326407987980408e-03
-3.562773435802757578e-03
-1.011881420043439506e-02
-3.632936997452027895e-03
-4.314279067794904855e-04
1.302904453946670963e-03
-8.088027081331477380e-03
-2.291604496589659946e-04
6.050594418633000945e-03
-7.469074668481550522e-03
-2.506290186375921200e-03
8.062075966185021023e-03
-1.948612465646202760e-03
-8.754125771929544345e-03
-7.017009024931067027e-03
-7.223495749210381150e-03
-4.184274716883026879e-03
-2.561638729944643554e-03
1.278702581554198294e-03
7.664024981993598599e-03
-1.386047940064371242e-03
9.262488358416275103e-03
2.276430788293554424e-03
-1.678686346270318876e-04
-2.731024939755475126e-03
-7.332430512392820038e-03
-7.636950611992209502e-03
-6.787687359145424051e-03
-9.540499793650332114e-03
4.429637122793370248e-03
7.869286943713429960e-03
-1.547323021110965594e-03
-7.186345439736345660e-03
-5.963422422125009767e-03
7.107400399279817371e-03
-5.738467650468866837e-03
-9.059552921865022049e-03
-1.939047858052248561e-03
-1.401310180329159169e-03
-9.055195689896466602e-03
8.715247502869673604e-03
-7.960666046115555741e-03
-8.609607908440926674e-03
5.782352157883862386e-03
-4.492164537997118956e-03
-6.589972630182007636e-03
2.325952678426277884e-03
1.953155746947926943e-03
1.783131842497474168e-02
-9.436035148620370086e-03
4.523563425886796508e-04
-4.885684461111504395e-03
-1.187690975240837448e-03
6.033458177802179453e-03
-4.844976124131768203e-03
8.318481848589923122e-03
6.208593786120366871e-05
2.161552628014676031e-03
-2.465770469322665741e-03
8.751780649174364241e-03
-4.026651131923702880e-03
-9.314502953918600905e-03
1.093798198263648894e-02
2.675725230586525351e-04
9.852555120462435853e-03
3.372429935359956294e-03
-3.586214785598505848e-03
-7.210824826019929332e-04
9.481785441881575988e-03
-1.366090435141621880e-03
2.503790950511576661e-03
-9.741346887742843060e-05
7.103281299821540343e-04
3.818020048049294238e-03
6.804178300625354607e-03
5.603820229832469704e-03
-7.121324982514342511e-03
-2.181276687223071640e-03
-2.987437135486564581e-03
-1.978815177681832876e-03
-7.311084980971608444e-03
-7.164999057498842513e-03
-5.060863689096132233e-03
-4.331692956284151526e-03
5.918284766498791739e-03
3.395025494090455481e-03
-9.721736324449037001e-03
1.115494012260199010e-03
-7.348634693324149550e-03
1.301460871556977140e-03
-2.085371376038144126e-03
-5.930358812376398947e-03
-7.035849366602804156e-04
-9.589903082845765286e-03
-9.509503140694300707e-03
-6.694983251074314821e-03
-8.266364324065468908e-03
1.570489801577979253e-02
-2.144336526753957018e-03
5.925720684229831420e-03
4.737009776285213444e-04
3.697581593445176378e-03
-5.969989502995345226e-03
3.132287467560424497e-03
-8.014735942167649715e-03
-3.219370314036590288e-04
-8.067426591986191775e-03
3.030542093650077061e-03
4.469375558280995475e-03
9.038562653058121454e-03
3.579045406853202920e-03
-1.863758234812476619e-03
-9.916867067980976100e-03
-8.873058200036740284e-03
-5.520311527348321229e-03
-5.327073947607927767e-03
-3.208969600246450084e-03
5.086228694740192388e-03
1.415958124870194627e-03
7.815851329542931533e-03
3.313898520361867762e-03
4.644155649487675952e-03
-6.488638585206367437e-03
-4.367762153584147863e-03
7.441353043472038846e-03
8.127444655499199352e-03
5.729691300189299931e-03
-1.590585595795410492e-02
4.657920522512370466e-03
1.444134075175662266e-03
-5.378740647615664131e-03
6.455359100176194520e-03
6.072723390218500231e-03
1.091902177658950332e-03
5.487390204050696454e-03
6.682810558828058446e-03
1.766965821372088515e-03
3.455102625564710969e-03
-4.781371292299605065e-03
-2.302350104043611716e-03
-1.499487521389173674e-03
1.811590251345235932e-03
-2.341135731620107210e-03
-5.236677377185498458e-03
5.005532318682796335e-03
3.516467950656878855e-03
2.447269538075080766e-03
5.520932253349728445e-03
9.228618959675818911e-03
-8.678339259466793729e-03
-7.086275853701053812e-03
-1.014659789496556198e-02
1.874591488775672818e-03
-3.646536212988154158e-03
-7.403506018649617243e-03
8.339099866902392744e-03
4.444733169589236942e-03
-1.485938968308368182e-03
8.279995678596515848e-03
4.119927075584124687e-03
8.993528982693147975e-03
1.080680238767175614e-03
-2.232972474909365040e-04
9.185228976311099816e-03
-1.210381611893626436e-03
9.258509195660433871e-03
-6.274380384356383717e-04
8.307247652775155353e-03
-8.595552508061736138e-03
4.620527442277430966e-03
4.054597753780170288e-03
1.198212466537802896e-03
2.524790162177609296e-03
7.117937994844540693e-04
6.107086574150050922e-04
4.603447777063119674e-03
8.872604137926511439e-03
-2.925634938157256398e-04
-2.861670389504411983e-03
2.225549365012484924e-03
-4.549599385921685758e-03
-6.217510997724520934e-03
-7.389322795226304329e-03
9.394050649727172381e-03
-1.472550791943527237e-03
9.325439159454973134e-03
8.650973193616946430e-03
-6.549351804445209362e-03
-1.461871421695785716e-03
5.240632840623459139e-03
-2.303503367559547345e-05
-2.519774067907012277e-03
3.421587699395330518e-03
1.981034799868369028e-03
3.643011156514420600e-03
8.588344373998251782e-04
-5.164865224268581391e-03
-1.533583807649513929e-03
-2.617782228001653937e-03
8.164518785315415944e-03
2.976241982258718936e-03
8.695201954181721107e-03
9.106170767152269030e-03
-2.507897907219515041e-03
1.129714827163744162e-03
-1.074476655393222409e-02
-6.480953281363681720e-03
5.019124014037440289e-03
-7.999963623096953066e-03
-3.276380864218061875e-03
-1.526293167515363307e-03
-2.484479371824582349e-03
5.598544522652928318e-03
4.303030138311932443e-03
8.558679447272031504e-03
1.591891765474394600e-03
-7.505076679540706973e-03
5.012245448581246392e-04
3.576065931307722146e-03
5.060462636135126292e-03
-6.015379280716651698e-03
-7.688452744571981461e-03
6.270483740098602501e-03
3.829681762892484138e-03
-3.395471613266523234e-03
7.256609559414664351e-04
4.130427951296473769e-03
4.763230542702971346e-03
9.479128800914728495e-03
9.027076034221879000e-03
3.379468186971671274e-03
-4.768101104757970811e-03
-7.685399483413068132e-03
-2.469272644531696898e-03
-9.661936365564649173e-03
5.359406899752013065e-03
-3.174276761395744377e-03
-8.798803163125718668e-03
9.270465662046875957e-03
9.959149262250567222e-03
-5.365903601069669723e-03
-6.428995227185529786e-03
-1.084829351450559976e-02
-8.556726237878701721e-03
-5.339741787163041625e-03
-8.236351889899911835e-03
7.822398933476561178e-03
2.477901839821312121e-03
1.245282371174020455e-03
-1.273848084607207476e-03
1.228726786567454262e-03
3.774653537475554724e-03
7.862103592407637329e-03
-4.826577390528003463e-03
1.472845738821109297e-03
1.631453820041882429e-03
-1.839919958758462351e-03
-4.225757649822923026e-03
3.001924757227903643e-03
-5.362112531514826551e-03
-5.534485861850294702e-03
1.462886856548887941e-02
7.489077202659880431e-03
4.556603521263166527e-03
-6.510976967409551905e-04
-3.622049083724583705e-03
4.837695685386734709e-03
-9.732445209963891050e-03
1.714045752372980302e-03
4.712263073458946780e-03
-5.343638662736266420e-03
2.559008909181109074e-03
-5.965146005482905092e-03
2.786122952438187163e-03
-6.818612497580987634e-03
7.657619006967509960e-03
2.084349395703402000e-03
-5.705889481401258713e-03
-6.701542203436381025e-03
-6.747579686840851632e-03
8.354890574057220395e-03
5.128032581708414110e-04
5.660798460731144080e-03
-6.075520750125138056e-04
-2.258837253659426447e-03
5.387174393055752658e-03
6.528430729571750232e-03
-3.929895435595519813e-03
1.378335733226880751e-03
7.209875701693587054e-03
8.986440912259599512e-03
-8.349320922316548141e-03
6.407448739206771798e-03
-6.414984646897841161e-03
-4.794929900184850997e-03
8.643004056107130148e-04
1.255319585245612789e-02
9.249393143552256738e-03
-9.299891716828406762e-04
-5.300612552315579241e-03
5.282928252664018364e-05
1.441163745513717245e-03
1.281590995176693643e-02
-6.277207756378883497e-04
9.015829131788614254e-03
3.613960308897993384e-03
4.636312318017767574e-03
-3.195901961022071507e-03
-4.247684308722891704e-03
8.113611373747419905e-03
1.466579952316069291e-03
5.217034210993322374e-03
1.137645913180229413e-03
5.678446421690268829e-03
-8.697059004793941325e-03
8.403208198770164075e-03
1.212617655671118129e-03
-2.981105439925493556e-03
5.055494260188941359e-03
-5.209724705299445362e-03
-8.528420932677678243e-03
2.773099514255890265e-03
6.138976178133257258e-03
-6.385890285250060520e-03
-4.010414596589641743e-03
-1.831162959717315929e-03
7.563424805575272736e-04
8.542453991952735429e-03
4.940747473773623088e-04
5.541747875936714300e-04
1.805424601993793707e-03
5.418920830569187025e-03
-8.203760241196341590e-03
2.152706337154912386e-03
1.083732977898994865e-02
-7.960454972646089375e-04
-1.096907382356450205e-04
3.348101703424071190e-03
1.008562027134727798e-02
-4.919796968645989525e-03
-4.166575865114257628e-03
-9.067891082519633286e-03
-8.458884944792703989e-03
6.293491334441082483e-03
-7.952974666803433457e-03
2.800347742362167602e-05
4.190288262260334455e-03
5.061555274863609004e-03
1.023857732294727006e-02
9.853142488619820449e-03
5.713430597215578451e-03
-7.369359047544634918e-04
8.596278441918936072e-03
-4.630562415355422325e-03
4.916989667008396514e-03
-6.547856721598271056e-03
-1.743137256909781281e-03
2.642556085711988186e-03
-7.705697441106760560e-03
-3.428470664285699233e-03
-9.249081937480264567e-03
4.692074832677682952e-03
-3.217795704623388139e-03
5.126078922045215411e-03
-9.230191970848835789e-03
8.998584679059696070e-03
-6.270823942087006518e-03
6.757658324485339360e-03
-6.345701204352510207e-03
-2.388127903211731407e-03
8.211631391018705747e-03
5.536562645417375007e-03
8.118017442653476315e-03
-1.890989370282567666e-03
-6.946992616844923155e-03
5.710559273570733375e-03
7.667380953340800949e-03
-4.489253625601557010e-03
-3.543016740148208308e-03
-4.478744533749948534e-03
-1.354517230380937161e-03
-1.927025348789077226e-03
-8.281662699055274135e-03
4.175616025534321235e-03
7.942028532768737395e-03
-7.724748614728233626e-03
-9.707660039947343944e-03
1.460745519325406909e-02
8.926534531644146966e-03
-4.959711816070382171e-04
-4.326961293018947042e-04
-5.988689048560881176e-03
-9.992001670650365458e-03
6.254095166111075729e-03
7.352087313592927005e-03
-3.310479351177355819e-04
-8.983881600765178041e-03
9.532168940562772350e-03
4.023746060766977307e-03
9.980612138408229139e-03
-3.315901777447320502e-03
-7.253221118111349494e-03
3.647162056448823714e-03
1.584178473377621105e-02
3.609830986694998129e-04
9.856756742426414988e-03
-3.678941437830097073e-03
-1.010518178872557744e-02
7.080892997007909480e-03
5.765368923104606524e-03
9.284816756080871078e-03
2.940775196375036097e-03
-9.234521307933033982e-03
-3.194247811265702071e-03
-1.612270767543196601e-03
-4.073008211908724432e-03
1.220160002060169911e-02
3.415660224278532428e-03
-8.496965273984287068e-03
-3.872087472744147074e-04
-1.838763666762594775e-04
4.884541390935089912e-03
2.581542973107029022e-03
-5.922508300362117496e-04
4.040166429075589712e-03
-1.632580961445325709e-03
3.057705485225249275e-03
-2.779565654690866524e-03
3.964280369820617420e-03
-7.326708639484320017e-03
7.679343196058022181e-03
2.750967183818066233e-03
-1.788061776006670892e-03
-2.347785126586907859e-03
2.627058196063450021e-03
8.039113692461288471e-03
8.616061902021222851e-03
-4.360180273385122658e-03
-7.654941631720047976e-03
9.590560049727796244e-03
9.204780606684642708e-03
9.098566642265687454e-03
-2.626260004623286182e-03
6.446377440342331922e-04
-5.233810967939925458e-03
-6.888020859214142450e-03
7.266726363505783028e-03
-8.151446230949788499e-03
-8.026915257858403818e-03
-4.186292988596844455e-03
5.849268471211860679e-04
8.046542422892842550e-03
-3.903475095019000914e-03
-2.165824746456029588e-03
-2.775435127951392678e-03
9.563479787048669023e-03
-3.701265356883688858e-03
8.933445659833956498e-03
6.248817626276349617e-03
-7.143309830662405643e-03
2.196194353397117830e-03
-1.664992175667676924e-03
-4.018347676426270378e-04
5.842242011884184703e-03
8.132485111600395652e-03
3.052838460295993588e-03
-6.293279861478445585e-03
-1.001255765806902120e-02
-4.999891557942728708e-03
-6.117912342555803691e-03
-6.423136402706876389e-04
-7.343864984888825304e-03
8.051432043682213088e-03
-2.341960532563463950e-03
5.301560821683913051e-03
2.145274789895374335e-03
-5.420723448230309327e-03
2.021386905097865162e-03
-2.158320132402106236e-03
-6.014841552746566337e-03
-9.011235803162291266e-03
-5.960444470506288082e-03
6.621514121269725384e-03
7.429771614815331403e-04
-6.331278794503323454e-03
8.095926295973823392e-03
-1.277128226543674736e-02
-7.017927346388156198e-04
1.885853034850329272e-03
-1.114837875437519601e-03
6.442705806784666811e-03
-7.273411589788632454e-03
8.178383220890308655e-03
-9.487651709351474852e-03
7.112835990879644472e-03
-2.349251316901958351e-04
-1.082573993992425043e-02
-2.972581219382740888e-03
-1.395862082879377175e-05
-3.304441895791596258e-03
7.393069613121680105e-04
-1.077624216965301050e-02
-8.066371739678862562e-03
-5.316755135776955049e-03
6.043265958710326326e-03
1.253481402043252506e-03
-3.149143124890983921e-03
-3.840874171406474715e-03
-7.258441087046125541e-03
6.474358725761616105e-03
-8.362114745726144382e-03
8.987484489510887131e-03
4.141719551007876782e-03
-7.288587752709755653e-03
-5.280726192598807038e-03
-4.379557239233746596e-03
-1.950041534754371657e-03
-1.391862968357500526e-03
-3.233785726572211121e-03
-4.354340388562276051e-03
-2.959981014328994138e-03
3.352777518659621689e-03
-2.526628334493669905e-04
-8.023435641800491860e-03
-3.221941998927871278e-03
-6.055068490302658972e-03
-5.449594914874857608e-03
-1.007654471847684811e-03
-8.596283489877450806e-03
5.511269793537237503e-04
7.152544466697513363e-03
-7.280613260649114286e-03
8.795677476687914845e-03
-2.694340372978593686e-03
8.526466264258084071e-03
8.427341721921128431e-03
-6.964399078389735698e-04
6.306551904314336605e-03
3.536682803783424128e-03
-5.533288357839483661e-03
-8.659506267042631905e-03
-5.608774725597702113e-03
8.520337676007511477e-03
-3.919333625307845105e-03
-9.454979307724637946e-03
-1.180698897640389960e-03
-5.273214227146255824e-03
-9.670904000802713063e-03
8.457647806593613510e-03
6.680556280040236480e-03
-1.318824792585707693e-03
2.228119738848875937e-03
1.225590961047605138e-03
-7.633940179197341944e-04
-2.279411365539683008e-03
-9.391179334813671079e-03
-7.737136883684851349e-03
3.350469601800593316e-03
-4.327906336698156622e-03
-8.413328086097959790e-03
-3.880798929376468877e-04
3.854479714507015684e-03
-2.472943077903943729e-03
-6.696611234241645928e-03
-1.717261039660269517e-03
2.408874099600979892e-03
-1.398472758869245651e-03
9.517260562298821697e-03
8.792766841952780535e-03
6.578172474617736140e-04
9.065828096991194324e-03
-2.883780193065199528e-03
-4.066788904425118131e-03
6.385639605160292782e-03
4.654611574277297062e-03
-6.225726330959697151e-03
5.049948946706821727e-03
-3.252029352709868287e-03
6.871683655262586119e-04
-2.887593211204814419e-03
-6.659965538081903148e-03
-2.498128898556441126e-03
7.626196418821737724e-03
1.511265235904557741e-03
3.723626582902637028e-03
3.404495191148202956e-04
-5.273849507907788468e-03
5.850939486945091333e-03
4.859428870035154002e-03
-1.076189140834850344e-02
9.447060757857747224e-03
-1.469152246804045290e-04
-2.479634408591543243e-02
9.422770237175349256e-03
6.250088053798941862e-03
-2.520074538437108019e-03
1.170667709442356009e-03
2.607769893099832169e-03
7.112048523708999065e-03
8.473485200760054199e-04
-7.632780030340528300e-03
4.795658763371779369e-03
8.489723356399489149e-03
-4.855852040191328475e-03
8.266700671190906763e-03
1.257879019445716897e-03
-3.954197184104770064e-03
-1.286283176150585916e-03
-6.886742836364941230e-03
8.582551638110884340e-03
3.878089772261051043e-03
2.321143526028542677e-03
-3.733883220097220304e-03
2.772452181024331278e-03
-2.892834206847274929e-03
5.247138748364834661e-03
-8.099583756334299486e-03
-2.076643706605314169e-03
7.057335699011283402e-03
-4.390858978891544299e-03
7.961025049224855141e-03
-3.680599947183465885e-03
-2.590035063328537807e-03
-2.896388629549983933e-03
-5.821465787983457624e-03
-6.793904983561592330e-03
-9.967284021285530496e-03
-1.292352746098041939e-03
9.188913868419390160e-03
2.590422581822259852e-03
9.516021860706993032e-03
-5.592346247852860407e-03
9.549321458349979003e-03
-9.242761043153609538e-03
-6.136153856022222818e-03
-8.017631193130115089e-03
-7.731406631709049349e-03
-4.069534339793000680e-03
1.935959093228132102e-02
6.593422632324849424e-03
-7.465212343647216302e-03
-5.117472730709994762e-03
4.177002730451721650e-03
3.281944018441665042e-03
7.070208767229402107e-03
8.498053470991270494e-03
1.286911060672470478e-03
-9.135700170100196152e-03
-1.444839103763180402e-03
-9.892863023229732378e-03
8.645838606844221882e-03
-3.111470380870573656e-03
8.961551266077194891e-03
2.074205541467712220e-03
-1.002070978896364012e-02
2.378334814816674379e-03
-4.222941599684654386e-03
-3.402309722425008332e-03
-3.286939168716619675e-03
-8.961394637641017374e-03
8.933386532908148140e-04
5.053732036380743052e-03
2.296281918016213671e-03
-1.306576541265433563e-04
5.373206524038338060e-03
3.732684073497920859e-03
6.351733614469992281e-03
-5.278067047754197300e-03
-5.249969551896086287e-03
-1.772705179056216539e-03
2.995206987721255086e-04
4.957337597556671707e-03
-8.754945227292415880e-03
-6.576413800927329370e-03
5.125552466250037076e-03
3.115418432592220298e-03
3.183626057279693739e-03
-6.745986231762752042e-03
8.907496032006086140e-03
4.627084526416986449e-03
-5.215809206015792170e-03
-6.729608251453278976e-03
-2.235414818234637401e-03
2.165164995794187797e-03
-2.983019792910556606e-03
-5.175996848516012210e-03
3.911123397855044773e-03
-7.871420547924788696e-07
7.647741237741366958e-03
4.145268866652430072e-03
-8.522152236242619069e-03
-2.684690947819137405e-03
3.835405196457622803e-03
-4.513598695518998907e-03
-6.298430873874067554e-03
9.742467964292782223e-03
-2.500076477881173556e-02
-7.812029719788633926e-03
4.843086292420105410e-03
-7.232593789976694788e-04
6.421426302006341853e-03
-1.000059539345434304e-02
-3.930196614083494508e-03
4.436749404295141017e-03
4.418821755257595907e-03
8.473045302240921756e-03
1.267560388025390505e-03
-5.694410927658588627e-04
6.921326890659668628e-03
-4.654974167808282985e-03
1.025267814866382549e-03
1.147303935595801695e-03
6.873903019382514475e-03
-8.024277673647538592e-03
-7.420583832664393725e-03
-3.479437743485088753e-03
-5.387285043643493671e-03
-8.981964087006544598e-03
9.540978824497085495e-03
-5.427580654198082416e-03
-8.348355368495817205e-03
9.754032695615855869e-03
-9.684623828763030268e-03
-6.262488620640062863e-03
-3.221761770182444366e-03
1.027888097822667090e-03
-9.054029674296453639e-03
-6.469733746496482765e-03
9.021916565327546544e-03
-3.032163193361874735e-03
-1.151193040186617280e-03
-3.714245270673954737e-03
-3.967115514355228773e-03
-1.312218807443803637e-03
6.559103068632290978e-03
6.932349494053844687e-03
-5.193914810356994177e-03
2.730112236941893006e-03
3.032983561351607939e-03
1.005793172280709628e-02
5.284494893129476449e-03
9.074955952950689714e-03
9.338883738252642258e-03
7.152152524678417195e-03
9.624949316272727456e-03
8.247874943358803057e-03
8.864913374256471607e-03
3.938256011215991031e-03
7.143446728160948549e-03
-5.393800178643571317e-04
-8.833580039787314667e-03
-4.500071193058125495e-03
-2.622574499589887601e-02
1.670068701658848674e-03
-2.652433639149644282e-03
-4.699066859233379766e-03
-9.097908538813440082e-03
3.550467491204219086e-03
3.036306431935832488e-03
-7.760660823091909688e-03
-1.913309250970064148e-03
1.410436238526257711e-03
-5.196135724243394587e-03
-8.068319556084783267e-03
8.039152438190491634e-03
-2.182561512858944078e-03
4.463230233030568254e-03
3.544218980513808188e-03
-1.853368641399491664e-03
5.084316897625676228e-03
-2.626197030243243927e-03
-5.229460926258325260e-03
-4.735849253768453608e-03
9.351629536925755784e-03
-6.002876805944325038e-03
-6.716969596596436033e-03
8.959264143532461727e-03
6.291405323617564951e-03
-8.902208979478390752e-03
9.305575152112379941e-03
-7.899117313883012234e-03
1.223331565391512716e-03
9.797374321612475553e-03
-2.378622399134892559e-04
-4.643057395631056475e-03
8.701726184316489060e-03
2.213408198444082389e-03
-3.954229302613280865e-03
-8.788373238090167738e-03
8.359579677692748068e-03
-5.665701492665188577e-03
-5.495261265947253351e-03
7.937469832114239440e-03
3.031867655018008305e-03
1.496085114322718256e-03
9.960378040796321816e-03
-1.028699285036881184e-02
-7.812604680568159890e-03
1.124327276941572244e-02
5.429185676718935663e-03
-4.478557239603405023e-03
9.622902088178699603e-03
-6.857141509161539944e-03
-5.693250441022203526e-03
1.802007155397159768e-03
7.619826632601703342e-03
6.363009285567737192e-03
-6.178144295379447287e-02
-4.360313521111850062e-03
-7.294454222098062726e-03
-2.633417443505716403e-03
-1.626430557732290796e-03
-1.603208915773784993e-02
-6.972721589941828328e-03
2.356664966705625339e-03
-4.163883414072435795e-04
9.172602847013549762e-03
-3.746816823166459944e-03
-4.926744552028791864e-03
-7.340433559940848403e-03
-8.766604315987573670e-03
4.232886219116157450e-03
1.432634945654980355e-02
1.060027569679826073e-02
1.004413942380887916e-02
3.111750425481609079e-03
4.293016280753406827e-03
6.768503373146882683e-03
8.484892275108735227e-03
9.715723184647324234e-03
6.728126586114042788e-03
-1.736343244668694941e-02
2.318558887360721004e-03
1.168040119104183684e-02
9.661932284616144700e-03
5.977814096614069740e-03
-8.613011261632204027e-03
-8.086475384831318808e-03
-9.288184049503192454e-04
3.493966478842565251e-03
9.473765492662229032e-03
-9.778693613513205277e-03
5.695559346370188819e-03
-6.822377839228753460e-03
-5.570528531351912060e-03
4.558282076382439742e-03
-2.196475969803647794e-03
4.319909259765881797e-03
-4.091797207530290144e-03
-7.170999463001524223e-03
6.244736662363101079e-04
3.060185180250162874e-03
6.316974263692002635e-03
5.994219917955395140e-03
2.820696686374125645e-03
8.521488549236086105e-03
9.846820072452732234e-03
4.143609385434937793e-03
-9.000939765822649555e-03
-3.844203559394767083e-03
-4.504378323637358086e-03
-4.900418802804877398e-03
6.321450646564565935e-03
2.999385020766217984e-03
-2.801335257151481382e-03
5.950056927325250017e-03
-5.638937520453151178e-03
9.351955947149024478e-03
-6.058037115724811301e-03
-3.517687672231493371e-03
7.077652049286310525e-03
-8.452298823029428046e-03
-5.010167608376728601e-03
-9.646688443660692003e-03
6.202937083593849238e-03
2.117517114997349501e-03
-5.117294317172020081e-03
-4.923246260207133664e-03
-4.241942311757827301e-03
-3.918939165524217379e-05
-6.875121774710438692e-03
-4.881374483161861171e-03
1.475800285077321109e-03
8.478260205755566714e-03
5.321065016954226040e-03
4.486833918604331674e-04
6.954470258423235858e-03
-7.002679875958999281e-03
5.464405251206280907e-03
-3.598656242442047331e-03
4.055213520425354941e-03
-7.111842047103194555e-04
-8.812518874019520040e-03
5.025324819040059149e-03
-9.890193362051850554e-03
-5.492450102606591909e-03
5.615165154350027638e-03
8.560189459985550683e-03
-7.969295214163016686e-03
7.581008807783165201e-03
7.930424609217614010e-03
6.126864154007353840e-03
4.430095846061851000e-03
6.497208121583958156e-03
5.187433811038822014e-03
-3.284166703393290917e-03
-8.217416352035057311e-03
9.450195292281587597e-03
-1.381046013724893540e-03
-6.838998062436990469e-04
-9.181485801967351548e-03
7.430775951965262402e-03
-7.962515305755799890e-04
-9.574003716734624109e-03
-8.864497455307998597e-03
3.316439444623418831e-03
2.167373739687233989e-03
5.398022851968204035e-03
-8.266311333958180699e-03
7.496306343134529794e-03
-9.214254291864048402e-03
-9.045707059027302196e-03
-8.296711351705926552e-03
-8.426326740742874633e-03
-4.391870726363362445e-04
1.458720256781755086e-03
-6.337669435257005553e-03
-2.288131258894251195e-03
-6.725186570630065086e-03
-4.068597931214690613e-03
-5.505040271498273623e-03
-1.893480362575029310e-04
7.004293348052150446e-03
-7.044515525175157160e-03
7.498398525357362517e-03
3.331589137265497397e-03
-1.299181795729237440e-03
-4.637068409243143979e-03
-6.928169935126207019e-03
-6.240356830404388336e-03
9.902068887562993568e-03
7.668754573469670037e-03
-2.795485048349896466e-03
1.157381856143192139e-02
-6.920599451327004784e-03
2.774117461207682277e-03
1.500236237804853994e-03
4.039133966078658350e-03
3.316232941997793691e-03
-9.377571690233456672e-03
-5.965266140434347629e-03
-9.116037223549663601e-03
2.967933596396749550e-03
5.651108877648446278e-03
6.046029997513131847e-04
-1.640243481406954444e-03
-5.526037338521935446e-03
3.604757031146918478e-03
-4.496219140032416735e-04
1.478814871844425817e-03
7.065304985789992937e-04
1.116099860049361153e-02
6.140833091954439778e-03
6.566949934883823010e-03
2.282886216076549912e-03
7.988573464596575302e-03
9.461878940113199049e-03
-5.285431460309318380e-04
6.602776098865895810e-03
6.515770429568727533e-03
5.022776130554114891e-03
5.388112530342404997e-03
3.869701053081061378e-04
9.690040175070746553e-03
4.399607631416981024e-03
3.303376905177529948e-03
-1.452959227794555603e-04
-8.620110771792846918e-03
-9.751463665470014308e-03
-7.303247739387792870e-03
2.604911880714630250e-03
-4.873592879898447014e-03
-6.602717145948178157e-03
5.540031841503332243e-03
8.109390906298847776e-03
-2.338424887273790869e-03
5.330743338060411896e-03
-6.758071678141085864e-03
-6.045978271768240320e-03
1.348851656677023554e-04
-5.204021430938287306e-03
1.669520015596845722e-03
1.784922263027813273e-03
8.443181566618307085e-03
-2.406250754916978291e-03
-3.390320250971855329e-03
8.006389700907248080e-03
9.181416945291256265e-03
-7.231380798126802421e-03
-4.792924146129941970e-04
4.293649992583139022e-03
1.810109218479739575e-03
-9.948444400232195339e-03
-1.879185899003796636e-02
-6.772874290830942570e-03
-5.444841293909872745e-03
5.149775192240842701e-03
-7.186716821979803344e-04
-6.641376953772692819e-03
-5.150148017668362659e-03
-9.446348363486102573e-03
5.415478103776716215e-04
-1.366190298523873572e-03
4.356904444864539289e-03
-2.005393053917895168e-03
-5.808882714165026183e-03
-6.982578918230926759e-04
-6.168531920546242199e-03
-6.606674538272717077e-03
-3.845067185717165794e-03
-9.810194547863772957e-03
-6.805786550495521864e-04
-7.787293039296630873e-03
-4.900721558365330778e-03
-4.639438646385084415e-03
-3.752688515187088420e-03
-8.270928532346911652e-03
4.286452212130363246e-03
-2.534503857150480818e-03
6.861049783489762792e-03
5.876078479119553784e-03
9.993674702941721458e-03
6.464677936826543694e-03
9.290857064264652215e-03
-5.771331895728750057e-03
-7.895011870295655376e-03
-8.572330015021825331e-03
8.790246903854537913e-03
3.760003656969039543e-03
-9.803946107996201406e-03
-8.419481947804190528e-03
-7.955913620029550493e-03
-7.402252723454454120e-03
-6.330750843547840526e-03
8.798644279762129691e-03
2.919324105511532288e-03
4.643785704224170398e-03
6.173037049287426713e-03
4.211462242973941332e-03
2.835569084793276590e-03
-6.178509784815708079e-04
-9.078726940078874624e-03
7.759747683497255320e-03
4.078074464352230387e-03
-3.656061119500751688e-03
9.731194262943583875e-03
2.779143747829550867e-03
-2.252585129804278094e-02
5.733068927149995685e-03
6.456415085516368363e-03
8.369002274214821374e-03
-4.832762357226383018e-03
8.973067252326428350e-03
6.340948463042533900e-03
-2.592679223185602455e-03
-6.072132124729417817e-03
4.199660335884479977e-03
3.047132694330153407e-03
-3.886819380324887593e-03
5.042256098436753708e-03
8.072408870603939302e-03
8.612572995226030689e-03
-3.187288824140939989e-04
6.350857209781138324e-03
3.803461251680048606e-04
-2.560857665226026758e-03
-1.765368300422865419e-03
4.002752995260322987e-03
-1.258408587636617891e-03
-7.645623045315345923e-03
9.151104942452644104e-04
8.820922191601699922e-03
-1.265586742119182047e-03
9.913428191276523003e-04
1.038739400101774523e-03
-3.969475181091480656e-04
-3.594086605117336039e-04
3.889140580793221374e-04
-6.766040077821342327e-03
8.176280133038494463e-03
2.795086605039060531e-03
-1.278698213585864043e-03
-2.982739088962480922e-03
-6.798813952098557017e-03
-9.127974851186361482e-03
-4.709188692303697228e-04
-1.364294769811348780e-04
-4.546608886021387061e-03
-8.009989573683143002e-03
8.530617744877053155e-03
-8.468350862304412910e-04
-9.459456940312010315e-03
6.695884975945485054e-03
-9.867475244867423764e-03
-1.562689718720964877e-04
9.620249122903556244e-03
-5.552488789260766073e-04
-8.502697614471650678e-03
2.064945998031081874e-04
-4.834000655359152986e-03
8.855709674146955077e-03
4.370217903138770392e-03
-2.703389509320710659e-03
-3.982381900211432423e-03
3.276031781260565351e-03
7.867877186356954725e-03
1.792621210829562634e-02
-2.121125859126852739e-03
8.423453326266570201e-03
3.997556418115472132e-03
9.749372073440558395e-03
5.376684263033293561e-03
2.288583386736204543e-03
3.444046771611719484e-03
4.619760739901337780e-03
-6.087299924015631379e-03
1.692478079999732723e-04
-4.941547434055139180e-03
6.993094131883347171e-03
3.070305475943119287e-03
4.887695465104605931e-03
-1.216296351605134505e-03
-6.962416632724746646e-03
-3.984111262992603639e-03
-1.056209270602841361e-03
-7.961701828208512036e-03
3.389717923455158686e-03
8.376608243934723780e-03
6.835211415514676377e-03
8.904305125984345731e-03
-7.891495673570374930e-03
-3.763393083550510554e-03
-9.823590802922029311e-04
-1.844514139788781034e-03
-4.654153472444900325e-03
-4.835249654565989749e-03
-9.551562765868937266e-03
9.850735156580709556e-03
2.487929762352261882e-03
4.672286728698881939e-03
7.380548324589272791e-03
8.091873432387368392e-03
6.503697304239290568e-04
-8.648788636575810429e-03
-4.159982656195305127e-03
1.271871317037731076e-02
2.014266419973100963e-04
1.818143765409188108e-04
-8.694770921416159620e-03
8.829211713364749220e-03
4.508252856598926259e-03
4.353818614663503873e-03
6.540949146075922954e-03
-1.743841314987005326e-03
4.957277837830790373e-03
8.380211912962306706e-03
-1.516144628051619911e-03
-3.463806887791683314e-03
8.450487307257611134e-05
4.813545073033018238e-04
6.089748031609392050e-03
-1.960869814476401320e-03
-4.630323344121776638e-03
-2.661014502120014145e-03
-4.987701167995081154e-03
-8.731571387339646939e-03
-3.830150533852307460e-03
-3.277875568989954951e-03
-9.772971738215851818e-04
6.132035266073073386e-03
-6.347016982873241592e-03
8.383622072542923354e-03
-7.339977730395577486e-03
2.282858093297227605e-03
-5.036477602747196696e-04
-9.311136063085203099e-03
-1.467564617902228060e-03
7.915455486073292787e-03
-2.010132209595509763e-03
6.578285595721499596e-03
7.767328539026283236e-03
9.384796308377265500e-03
7.867477507471735965e-03
2.375516483990657707e-03
6.185287588324943700e-03
4.124371679686402586e-03
5.415836832747783318e-03
5.876828761854635541e-03
4.118712595432422185e-03
-4.474282027869243804e-03
-7.279022035186342998e-03
4.594816629550415102e-03
-1.043407066028407930e-02
-1.540865194524822235e-04
-6.322625467010855455e-03
3.147488954183053685e-04
4.661435783069382138e-03
-2.288081311944287211e-03
1.062219190126852640e-02
-7.592406250406743412e-03
-9.642878600625666083e-03
-1.604468162130869013e-03
-4.851661892890020769e-03
-4.934082732067803304e-03
-4.820745493105887264e-03
-5.674691905374762944e-03
-1.486838802226430993e-03
8.818230509849965017e-04
-9.833331177317217175e-03
-4.046124672991689188e-03
-6.076645086691261901e-04
-9.571591689858272457e-04
2.126929084858482713e-03
-5.108555394466214768e-03
-7.166733777181638274e-03
-5.294217199086370153e-04
-1.167948529749871173e-03
2.693191620028186073e-03
-4.146456300214429458e-03
8.280353684250231841e-03
-9.379756529879287527e-03
-1.774770705847628343e-03
-5.099470255791727254e-03
-2.829581864431705319e-03
-7.875099425047960358e-03
2.246812893423572044e-03
-4.963682474614611144e-03
4.217981848976837603e-03
5.936253867009881266e-03
7.621821340592242755e-03
-9.020905608079700377e-03
3.939242562113419964e-03
-1.813367713759199938e-03
6.454948973704421195e-03
-4.079237139778624753e-03
3.322995661288420752e-03
-1.765747911940820838e-03
8.343853288155372860e-03
1.703232853286817993e-03
1.296430106570681208e-03
-9.336088562950135492e-03
1.272581841463064326e-04
-2.439430788351744372e-03
-1.940096152020731601e-03
5.768857124652841499e-03
-9.298570932892705936e-04
2.768039863086508862e-03
-4.423762350759222368e-03
-8.572379477121979492e-04
4.898332727423715047e-03
-1.705122165012111285e-03
7.524239724377055141e-03
9.296540044647834747e-03
6.024876796009406149e-03
-6.686248235589811219e-03
-6.876836229787536975e-03
-1.631978713133682335e-04
7.278943087075615340e-03
2.123079708215602421e-03
-3.054338352888148148e-03
-7.985125996885198557e-03
-1.890684653896236318e-03
8.253860866862939086e-03
-6.474822570173362386e-03
-6.267047749938752139e-03
3.354724785338277383e-03
-2.500030545513051271e-03
9.912721849745790431e-03
-2.379860033181567872e-03
-9.840236509040084859e-03
9.937734760236299411e-03
7.359301087167527920e-03
4.371574704451074329e-03
4.048814001922811275e-03
5.466003806115157793e-03
-3.299213092363718729e-03
-5.580139405879527923e-04
-3.630247372521459501e-03
-9.282944132328038722e-03
-3.534358916663817799e-03
-1.447232083615230093e-03
1.313001806357303684e-03
-6.125427200688867563e-03
-6.959306547251777920e-03
6.808255518190799334e-03
-3.050228263812677313e-03
-1.405316028500828811e-02
-8.134758372599257617e-03
3.703059900920964865e-03
-3.945307911293032140e-04
9.790860924078974986e-03
2.898338405822026460e-03
8.839645275543740743e-03
1.040981792892667877e-04
-1.594549223326707180e-03
9.843822377778388769e-04
7.746961204544704216e-03
-2.642617086994653117e-03
7.428678405915062170e-03
8.494377957161538401e-03
5.309100666302258838e-05
-8.114269959139441823e-03
3.314802847208402330e-03
1.862532264990121502e-03
6.495821630179085711e-03
-3.108193441752964484e-03
-8.638771033298046562e-03
-3.631822157606331893e-03
1.262320494930367675e-03
1.064278862851034818e-02
3.936128011425298751e-03
6.354295036301045758e-03
-8.966060496920507002e-04
-1.708748838014660220e-03
-9.459936057375558250e-04
-3.346436462581700751e-03
7.231717867323054875e-03
7.759210423204310897e-03
2.352524040491912275e-03
8.621458037122133738e-03
3.777179759997459797e-03
1.199634622058228482e-02
8.878414619366952962e-03
1.099111893210061308e-02
-3.781804383254133012e-03
6.150978752833093262e-03
-3.857118097932091781e-03
5.952047093229351563e-03
-7.216062753823092139e-03
-4.548882825767529628e-03
6.781402866206157759e-03
-9.348115378406626069e-03
4.609124073281482478e-03
4.105711698049544986e-03
-8.979691840016996648e-03
7.810237333464371823e-03
7.336991163989320342e-04
9.174501733140253204e-03
2.759124605731896017e-03
7.672661438333745927e-03
-2.355175932732851175e-03
7.584366392752939917e-03
-9.472197238368194883e-03
-5.180978805370726852e-03
8.614636602912634916e-03
-1.082551231261558687e-03
-1.932266937798163536e-03
9.603693260890362867e-04
2.791697882496935873e-03
7.306635210292954617e-03
5.807428179169443934e-03
5.973534310352210906e-03
-5.091764451704272436e-03
3.044389121363845398e-03
9.089101714394318479e-03
5.736874732353298111e-03
3.200277543501254922e-03
5.072199407362885937e-03
8.064785534150433616e-03
-2.291933948788535326e-04
-6.934494815041903140e-03
7.584975491457385949e-03
-1.124905155410991717e-02
-5.005456760515824069e-03
2.525054247506099483e-03
-1.882929283307012707e-04
-5.577298295522547904e-03
9.309794047037476053e-03
1.105078068931276058e-03
-7.917502410281513497e-03
3.175811884636064227e-03
6.917942598224869656e-03
-4.704530971645090077e-03
-2.023803474084306334e-03
6.444773508181176822e-03
-7.569895000769842836e-04
7.058067736697166278e-03
-7.315753922188786632e-03
6.346414390467920025e-03
4.396694269396570626e-03
-8.585663155169636143e-03
-7.551416094051463697e-03
3.326140456142487063e-03
-2.071127182178866474e-03
1.071681967283800259e-03
6.830539595480977083e-03
-5.407659739545058429e-03
-1.232839768098513726e-03
9.330360793938690181e-03
4.203843111906988526e-03
8.061135131697289014e-03
4.931401039657553470e-03
-8.342884813504990865e-03
9.757446052386545970e-03
6.148027449324921373e-03
1.374268179256630260e-03
4.654342554998078100e-04
-3.214082387106755988e-04
-8.846066710993435653e-03
7.536462258367924993e-03
3.783806010455484804e-03
-2.297461094301556355e-03
1.687328313159038940e-03
1.551804341518250472e-03
9.953796326843011855e-03
8.807686356970179445e-03
5.910164500356765438e-03
3.118830183526341646e-03
2.312451490079901664e-03
3.130988979089640006e-03
6.982332740936554247e-03
2.620785431705532041e-03
-2.700945672913127298e-03
4.500819223643230107e-04
2.152636004168548625e-03
9.262899326728038507e-03
-4.093766297496565887e-04
7.671900065055827639e-03
4.870832901677930524e-03
3.435875564640660310e-03
9.393333686218653319e-03
6.275015673211564726e-03
2.961520960403140734e-03
2.706512605012970755e-05
2.600304281771775514e-03
-6.064078772720739481e-03
2.067768318419974924e-05
9.038638470733095830e-04
2.697662691381434719e-03
-2.246544095030141800e-03
-3.767544338075261203e-03
9.901678453552120035e-03
4.027251781448026001e-03
4.268312703764340008e-03
1.543531219786517387e-04
5.746643846094167014e-03
2.930957806155520037e-03
-9.517959818074324743e-03
7.871155476166791232e-03
4.668970063402209415e-03
-8.943957060348926152e-03
-1.102883906976142442e-02
-1.642074335701826371e-02
-3.168282579022590421e-03
3.606884349941550869e-03
7.045004036754881800e-03
-9.741708723496554298e-03
3.369668976675402154e-03
3.593247108444963880e-03
-3.987116892707518769e-03
-2.491732585259182238e-03
2.383246763282982281e-03
8.524636998018839812e-03
7.955166098301394428e-03
1.333212868807574130e-03
1.431129333056803225e-02
2.934962046994626234e-03
-6.526352730566797183e-03
-8.320564672396311284e-03
3.958520602026211962e-03
-3.508834956206057214e-03
3.322431168963014842e-03
-9.424907336514654413e-03
-1.887657291202410759e-03
-1.693973637368585737e-03
-1.345017474975232106e-03
-1.543923507966988131e-03
-9.607531894736726433e-03
8.528292784719313652e-03
-5.866823931834822155e-03
2.667553428447633299e-03
-4.546724838355363681e-03
4.574247710861266587e-03
-3.916700466066317873e-03
-2.447978410382428411e-04
-4.746751576227576513e-03
5.790504326972787308e-04
-3.729563695525988341e-04
6.957033986210751572e-03
-6.461112158727425059e-03
-4.854808872314117160e-03
7.269091400730373458e-03
2.270338402311615662e-03
8.922936756937841635e-03
-8.918839023632623222e-03
9.528678464473496618e-03
-7.282396685163699222e-03
-5.866981272478152300e-03
4.143537965743381295e-04
2.875535357944524091e-03
-1.402331558331940294e-03
5.748001744580832732e-03
-8.604293215461838963e-04
-8.402974587078768098e-03
-9.024947770848189277e-03
2.166794139356215034e-03
7.653124773242706708e-03
-2.208583211707825064e-04
-7.938579105442418113e-03
2.041574032478551525e-03
-6.276329176665707867e-03
-3.672972991682131854e-03
8.530555512854376800e-04
1.703671678784083546e-03
-2.079345871995293919e-03
-4.577990554802313129e-03
5.356018252104808967e-03
6.122149441444360574e-03
-7.040233496439274145e-03
-2.208733543739616750e-03
1.038943697132619672e-02
5.096142373967014159e-03
7.424846307841058771e-03
8.798127887129483793e-03
5.389869242781518237e-03
-1.455685090518848892e-03
2.661265861531924638e-05
9.942300474868458193e-03
4.613922722590351605e-03
-8.977683757924015406e-03
2.168858844874871523e-03
-8.278658693636004040e-03
-2.388490113068314168e-05
8.442201974546167595e-03
-1.580968232895368225e-03
1.277122319568825028e-02
-8.025467749029811804e-03
-4.646604483027961738e-03
-1.071867744943367330e-04
-5.401128149949639343e-03
6.853771967873737846e-05
-8.490324842173737480e-03
-1.700665153980638212e-03
4.503567403212471211e-03
-2.516261890879555128e-03
-3.084643574164056771e-03
9.984995401198671489e-03
-5.520296591276044676e-03
1.394412242944579477e-04
-5.589546634306826606e-03
-5.589254051151829397e-03
9.053039690033560377e-03
5.658818526632260724e-03
9.001486024933553001e-03
-1.386827510343420717e-03
1.558861290980463176e-03
5.617893156023089953e-03
2.022718220050926166e-04
5.549587908903311044e-03
-3.240373010296793751e-03
-1.388774258497152024e-03
7.156782290836235724e-04
2.575784325559644147e-03
-6.630869483222961817e-03
-4.583629383319193749e-03
7.778891123415582892e-03
1.505639654319629100e-03
9.410051254484077046e-03
-4.859865784538568330e-03
1.002107380173567104e-02
3.359442224407801179e-03
-8.291205803390246099e-03
-2.364428518250754393e-03
8.149416699865401348e-03
2.881090099918440488e-03
-3.267789999164349892e-03
-9.091950707043973401e-03
-4.382279536764088572e-04
8.323899000908584894e-03
-7.139657324525624897e-03
2.221136894731997116e-03
9.581384964481099234e-04
-1.108506784949245347e-03
-1.053632072404742884e-03
-4.864539824726414954e-03
-5.533727144734798369e-03
2.041493370059765944e-03
-7.701132587650200492e-03
-7.992582620942422292e-03
-1.522321656248410739e-03
7.175702885064957036e-03
-4.989545344866901273e-03
-8.230699289130182644e-03
-9.210324461259791415e-03
1.627386043839497117e-03
2.507354064541378585e-03
-8.608667012140696836e-03
7.795143276757027055e-03
5.797154274225904680e-03
-9.768503753769097048e-03
-9.715208363700664554e-03
6.905734604163488513e-03
3.950411458389928472e-03
9.639205676442882259e-03
-7.492790273287176783e-03
7.739526545162517604e-03
9.589468757971441118e-03
-4.370468087687963410e-03
2.209929313107006268e-03
-3.575716137602455089e-03
5.393765069396538880e-03
-8.257833963337353478e-03
-7.060798128750441806e-03
-8.892002370152437760e-03
-6.460398693916576986e-03
-4.237417506235838238e-03
3.691213328727247509e-04
4.539795921114459128e-03
6.603565078954168333e-03
-8.657854220855985827e-03
2.176481167482368327e-03
9.609001298399129018e-03
-6.856430168294847839e-03
-4.599670740918878481e-03
3.298826252190962486e-03
-2.451017511573652143e-03
2.422041994557193757e-03
-1.019927168319031139e-03
-6.355776362203622611e-03
-3.127625806626449425e-03
-3.008821309708911360e-03
-7.549246522243610244e-03
-7.343016857059415578e-03
1.075670395271231816e-02
5.666669893560213715e-03
-7.688157039418736655e-03
4.673428635525510126e-03
7.310549181433310603e-03
3.245892672750033420e-03
1.241223881033909002e-02
8.002866719355418088e-03
-5.445626850666624233e-03
-9.493833294032241396e-03
-3.826240836363913739e-03
-3.377143577278468936e-03
-5.019745266415101721e-03
2.114453938103858562e-03
-1.664458441785071803e-03
4.917028142879388379e-03
3.617874580891938373e-03
3.596932761016430162e-03
-2.209675657823571143e-03
9.952608307201685905e-03
1.444739672118849731e-03
9.105244359212458574e-03
2.845449353327307736e-04
4.692446597119562419e-03
8.406914088785048464e-03
9.511311789573670059e-03
5.500752342157408555e-03
8.673014961014632179e-03
-1.030262963444633639e-02
8.459740655868032075e-03
3.381213733045488126e-03
-6.982081525790513783e-03
-6.330657518375712098e-03
9.710186424404266062e-03
-2.971449746364005461e-03
-1.036716185004462731e-03
-1.644113106279339494e-03
-1.096617101799042754e-03
-5.654688330131803567e-03
8.046115493084269113e-03
-7.022874158208573109e-03
-4.987734065267988674e-03
8.117426494983519952e-03
-4.339141215339306309e-04
8.991418183707598766e-03
-4.419751057540816487e-04
-8.926724671598766647e-03
-6.820419556977029042e-03
-9.963095021394577366e-02
-9.030797059577121144e-03
-6.450304577235305148e-03
6.975129201686981403e-03
-1.447082160346986482e-03
-9.037065573944787905e-03
-8.753749900890811508e-03
5.543738377229987142e-03
-7.189448726542538130e-03
-7.588990883325381041e-03
7.021554613671963235e-03
2.286877607401574010e-03
-8.512791494909324047e-03
-2.772813127972366919e-03
5.877682678250056338e-03
8.725400540714051134e-03
-1.827812577082764281e-04
-1.556123870395629454e-03
8.204146664590926397e-03
-7.749626599049787117e-03
-6.557839948642740086e-03
-9.536078125031767841e-03
-7.824107356704374655e-03
-3.251346507472845874e-03
-2.362387233006142673e-03
7.045102906562961988e-03
8.012583700843583026e-03
-3.924234340829222019e-03
9.207254941384669655e-03
-8.397938601379809423e-03
2.377643006316786968e-03
-4.612092467245609319e-03
-5.371840560086662067e-03
1.488748114755258402e-02
4.747172772710124208e-03
-2.181779024514740508e-03
-1.761042774369770770e-03
6.802036614793576311e-03
1.995147655235779763e-03
-1.998388841635473367e-03
4.323132981754170510e-03
9.162628526705615672e-03
-8.284675029382911060e-03
-8.882015042048215653e-03
5.060941106500100629e-03
9.829085665346943765e-03
-5.424225734200167209e-03
-2.635371156979511055e-04
5.857655938016504554e-03
-5.447654965172981159e-03
-7.531141703076909936e-03
-6.637017551592294673e-03
-1.003545656573143945e-03
-8.278364815652302505e-03
8.924580750973435880e-03
-8.868992841172984587e-03
-3.605177506400425599e-04
-8.839181781606336719e-03
-6.054386357060692787e-03
5.894796222018610851e-03
8.539183793497341288e-03
8.531734202289744870e-03
5.475166087041519018e-03
-1.398982649518592993e-03
4.767334372235868672e-03
1.524254110852163663e-03
-4.609804978361539685e-04
-7.419995316301724805e-03
5.784956282381910342e-03
-1.312331439338904797e-03
-4.677687357600266056e-03
5.185170317470384413e-03
5.179743671766520556e-03
-6.866895837967031298e-03
1.455347870222691714e-03
5.228562349282925466e-03
-5.568106543513211618e-03
1.216822898537777385e-02
6.863239013643767684e-03
-2.188243570890097654e-03
-4.033697210003644312e-02
5.055765926607940809e-03
2.609191070990996356e-03
-6.357518070877383326e-03
8.194364966352070401e-03
-1.297946894108430345e-02
7.786788649797236200e-03
2.204682743690859238e-03
-2.829878118540514291e-03
6.261069669205059605e-03
-8.447479158110291278e-03
-7.675517442258998711e-04
5.473092255106495538e-03
-4.725709840368646879e-03
6.000910668624044077e-03
-9.141684407055183578e-03
-1.985613543337974921e-02
5.553108193353135762e-03
-4.669003632601415391e-03
5.242955935215521876e-03
3.694195112247732754e-03
7.335212319286161554e-03
1.621709167674128746e-03
9.023372723987656274e-03
-5.379797980586671288e-03
-1.253569689166360995e-02
-8.049913921664804059e-03
8.702316413551529697e-03
-5.620099239589494006e-03
9.309405513643497941e-04
9.777035311076556767e-03
1.360093216892712710e-03
-4.335751921347024383e-03
1.404091095233720105e-03
-3.571594569794584763e-03
2.094939765059750450e-02
6.972688214490096147e-03
1.118243524385915814e-04
-5.631424080835416811e-03
6.612442923549012065e-03
-1.386928135079521082e-03
4.582661784203890219e-03
1.779999112647192780e-03
-1.773806907869599327e-03
-9.748837958957676502e-04
1.085466130706577714e-06
-4.768836447560018815e-03
-1.555314079793390127e-02
-7.737972233425898481e-03
1.999838906815751705e-03
2.325548986751930797e-03
6.695461660282240983e-03
6.150299738020310360e-03
6.070651051002221368e-03
9.786045105611344917e-04
1.781031701786546387e-03
-3.253506441441437417e-03
-2.300417267318609436e-03
-3.589881015037521203e-03
3.663544533015126959e-04
-1.367917829003366999e-03
-1.718455724925067700e-03
2.875524714186299038e-03
7.988653471594707803e-03
-1.091237369101345951e-02
6.191338082544102853e-03
-9.290737965384519154e-03
3.747873157350443529e-03
6.133247691643378512e-03
-5.999984351277346493e-03
-1.169820422675505725e-03
-4.092734275431173310e-03
-4.321210132561421067e-04
-1.961736876141513021e-03
2.615647094663264231e-03
1.534934052013916129e-03
7.486370316811796419e-03
-2.208593033673141547e-03
8.795234479948263505e-04
4.150510124466805402e-03
-8.430036745595843872e-03
-3.642832324532808974e-03
-9.249086415560714425e-03
-6.719500066665377858e-03
-7.308323769666212090e-03
-4.012906017450012033e-03
5.767699982199125247e-04
4.875753272810639236e-04
4.122452632951196963e-04
9.110248901228202786e-03
-3.141708979617718108e-03
-9.394807466508175650e-03
-8.345923154666092317e-03
-1.837260421964198674e-03
6.679987844552727309e-03
-1.448266507949406848e-03
3.278301059059194125e-03
7.206451164160022384e-03
-3.281213204152068786e-03
2.597621179714790728e-04
7.108830340526560952e-03
-7.060362865936893086e-03
-7.920373055810630506e-04
-4.564827259573658608e-04
6.788759303287132500e-03
4.472825882358054395e-03
1.996711228038486070e-03
-7.293985266925263368e-03
1.008924914775800180e-02
-4.477695844485927654e-03
8.362974849394053806e-03
1.044376675359915026e-02
-7.557966061686570945e-03
-7.165741839434938872e-03
1.938362276017218310e-03
2.655072323710109573e-03
3.635045303515947995e-03
1.007745823351729846e-02
4.422098094767932391e-03
-8.032965514773829016e-03
8.795214343810016031e-03
-5.069880271581997042e-03
-7.628224084187919946e-03
3.458166898202541355e-03
1.002085303363213151e-02
-1.079671736109471159e-04
-1.140140147610822725e-04
4.678130203890297836e-03
-7.040150088556849581e-03
9.329404295557617785e-03
6.668359225069398454e-03
4.501903411518478823e-03
6.243344362939396916e-03
-5.944944969561063997e-03
-4.394882039224374745e-03
1.278308204124227205e-03
-3.958967722561245947e-03
-6.565169345865287838e-03
-9.975348091981875442e-03
-6.034330049278169295e-03
-7.247520962247463268e-04
-5.226738069385505892e-03
-4.757143598012774852e-03
-9.837645763444037919e-03
-1.375583814376672752e-03
4.672852037543285229e-03
1.904852547543847132e-03
-4.946430730309089169e-04
4.854512018805225669e-03
5.421359742249071828e-03
-8.893014642297468117e-03
6.003144377690210025e-03
6.105093928799617750e-03
1.045794058200179635e-02
-1.224265943969181239e-03
-2.816607973431032447e-03
9.620991105053022449e-03
-2.554761570471146461e-03
8.970186783863414934e-03
-4.961725026023770108e-03
-9.915730745311403943e-03
2.295559090033431632e-03
2.729810996384788961e-03
5.288470558741986466e-04
-6.561735405123764143e-04
-6.323670445172143925e-03
9.113546078981153362e-03
5.193248456474397479e-03
-5.970733540688609974e-03
9.445255449092729641e-03
-7.976913676095875871e-03
5.919374088394527625e-03
-6.899910578023265087e-03
-5.059022834626324475e-03
3.438716340859964467e-03
-1.700823792272957271e-03
-3.353793733963477113e-03
-2.730222618863200734e-03
-6.174277441766760476e-04
-1.793686207027504146e-03
1.349408377863697654e-03
8.308434100382655271e-03
1.802417967252408545e-03
7.051579607907618001e-03
3.793843192263500995e-03
-1.735159636803759850e-04
-7.067448953874622998e-03
5.771178441767504594e-03
-3.104745048863505157e-03
-9.434018781944416079e-04
-6.790576805060260200e-03
4.352613556964902986e-03
2.964502996966237366e-03
-4.758653893878258580e-03
6.486569384183328568e-03
-7.954099675393667274e-03
-5.139305959920110675e-03
3.669771449381121348e-03
3.538819948639400879e-03
9.194894902771066567e-03
-7.737752845895098409e-03
-8.345089307979851670e-03
1.158359807399803997e-03
5.891295319693566276e-03
-7.366307809773160742e-04
3.657874402727078443e-03
-2.748491946326703673e-03
-8.684910064994159906e-03
6.047033824034249092e-03
-7.126754583991341298e-03
-3.725178802640767214e-03
7.269929339534491296e-03
3.088140506409970017e-03
9.472996495529508940e-03
5.203648653168046513e-03
-2.793420315752691806e-03
-2.393580265412234478e-03
3.763518708433385290e-03
-5.487144306720090521e-03
5.184681693577501867e-03
-1.438843408010600979e-03
6.839460149227222056e-03
3.480608944004198648e-03
-2.056585099247200399e-03
-6.875389350872220147e-03
9.139867155463138326e-03
3.463835798863444757e-03
6.026758322043402477e-03
9.600134106037688797e-03
7.085335123167933215e-03
-9.037876319179516393e-03
-5.984619802265487599e-03
9.397529227370021200e-04
-6.142374397969305871e-03
-8.232227900846994170e-03
1.105363275912425334e-03
7.388248651409877465e-03
1.804058004695590365e-03
2.828373541096588888e-03
1.512048345640737814e-03
4.392971282593415537e-03
-2.714527203022973432e-03
6.690439883587204553e-03
4.435963392406785250e-03
-4.947817986906589624e-03
-5.346061554495796543e-03
-7.768520544594848497e-04
3.859108629673593631e-03
3.320598239467318063e-03
1.128771664154015839e-03
7.313797462261309446e-03
-9.419070893708258313e-03
-4.216500885037484034e-03
-1.465394363818850552e-03
-4.570832173861368161e-04
5.237042258374641907e-03
2.968098102119723445e-03
-8.873644139544879100e-03
-6.989899514425619229e-03
1.042790504346095305e-02
-7.887913397260675613e-03
-8.862522244720385731e-03
-3.202168697508228721e-03
-4.561238541038948463e-03
4.150239843659629148e-03
-7.538405622725679808e-03
8.213364594906064639e-04
-1.971610510775197254e-03
7.241551298892213648e-03
-9.276011605196315610e-03
-4.713671135235943978e-03
8.361570174428331614e-03
-5.781997763209941084e-03
-6.615850196418622195e-03
-9.743024656090360294e-03
7.535822912506434310e-03
-3.485965387462926918e-03
6.371499794965487622e-03
-9.785540953977338655e-03
8.323305356895205689e-03
2.147031831521384500e-03
2.479755568304676475e-03
1.077851807774003225e-02
9.288537052215403364e-03
-9.390073109104003475e-04
7.711750010617491984e-03
3.070467720405011154e-03
-5.920358100824972200e-03
-8.278615244261018982e-03
7.826998120116029911e-03
5.852842277543316048e-03
3.101050809003878805e-03
-5.114065996275653225e-03
3.446962323269243001e-03
7.449332431165995617e-03
-5.659596797568233056e-04
-8.597786880983218291e-03
4.711545947016551258e-03
-5.757561513174716712e-03
-5.856943079207210107e-03
2.918401544078568811e-03
8.834439094514911009e-03
-1.587644122396396655e-03
-9.494142895474663724e-03
-6.117172819037262205e-03
2.908921950797465576e-03
-8.977831133267869315e-03
7.179578535155864763e-03
-3.517808699136458234e-03
-9.735106587688268157e-03
5.700790667128563180e-03
-5.890984189509220099e-03
8.244748748078780873e-03
1.032950011550504539e-04
7.198048394099158115e-03
3.562156799960256373e-03
9.519828774072154609e-03
-1.318829020906894800e-03
-2.851775732995395687e-03
4.498555872330843412e-03
8.917023916884144613e-03
-1.695125841345831129e-03
9.202536414964055181e-03
-6.811792274827734896e-03
-5.784005086133880378e-05
-9.501002327364251737e-03
-2.264807248545635220e-03
-5.929918005710098361e-03
3.983786055960914299e-03
-9.536139274395489737e-03
-9.054523896279600970e-03
1.379919572551257124e-03
-4.702603651638160285e-04
4.114205919979490277e-03
-6.949596364968675666e-03
2.830870322698404110e-03
-5.831809052068286613e-03
5.091951389174564045e-03
-1.696830788096102566e-03
3.849641010782455549e-04
3.996168912729016094e-03
7.761941910035835370e-06
-7.256071532211770536e-03
-2.263166676596722274e-03
-3.119263559743071061e-03
-7.799887867746143309e-03
8.413130997776761821e-03
-9.512936300741165960e-03
2.219446506310586691e-03
-6.649312348865730679e-03
-8.571325482756176478e-03
5.330642218629408867e-03
-3.650548289597992276e-03
-1.885270719020491021e-03
-2.831544958859780387e-04
-7.401481965207802258e-03
2.263520798175998534e-04
-1.857228609273208321e-03
3.212443575421425508e-03
5.934658462891132316e-03
6.718369532804288613e-03
-8.675717371545725934e-03
5.410664641498586815e-03
8.049259729948861353e-03
2.851518044835106482e-03
-2.123384269228576794e-03
-6.680529214483525713e-03
1.001200276791064034e-02
5.120434900384546965e-04
-3.386243845432605044e-04
9.391688848807274934e-03
3.119986693244969616e-03
7.806376277204481878e-03
-1.732888548303545715e-03
1.572957640593204698e-02
-1.150746838710750390e-02
8.427885303941765396e-03
-7.295422482277776066e-03
-6.628529394510438398e-03
8.432742016879773636e-03
7.274243113981173139e-03
-4.036907842401791721e-03
8.156517483025068141e-03
1.907316133257180727e-03
7.268765765399407865e-03
-8.355723172024365902e-03
7.018897662463182037e-03
-2.571878436379497848e-04
5.754563540205189474e-03
-9.393591369306102806e-03
-8.185340709353252069e-04
6.327263472812900448e-03
6.970860533244804813e-03
9.586632904692485302e-03
5.156505174022136574e-03
3.213163380040679265e-03
8.209864140043699604e-03
-7.034068901748554391e-03
3.182164135324364474e-03
5.339109057912540084e-03
-7.209014343850385365e-03
-5.754372670774519048e-03
-4.496991698299681955e-04
-7.638182377351967469e-04
1.204318679949914137e-02
5.903646014021088351e-03
-4.947336311853026136e-03
6.288861958475542614e-03
5.358950216246360573e-03
-3.053775479980354833e-03
-9.455591352411229925e-04
6.234839080318572806e-03
4.189410933148229876e-03
6.748365177788870524e-03
-5.255394408409784328e-03
7.967504431112700479e-05
9.556326981925175254e-03
-5.308570648540749184e-03
5.718782327715480999e-03
-2.283418273876614696e-03
-1.994652781979003656e-03
5.973675473452227415e-03
-8.387642183945350979e-03
3.740291294009094603e-03
1.996696003079256095e-03
-6.572610302642912898e-03
4.792589998982719340e-03
1.635419639901745242e-03
2.488697001575644260e-02
8.399693233882558896e-03
7.523037957079569890e-03
-8.619080116262010753e-04
6.480361527343482704e-03
5.124308097762213417e-03
-4.182213488663994415e-03
9.266059672000920289e-03
3.734851098616191137e-03
9.529474492893392351e-03
-1.010644854672099364e-03
7.325258436604380544e-03
1.770025893552541751e-02
1.159715841931158219e-03
-5.372241113113820216e-03
-9.956888253127113564e-03
-9.919798215861916953e-04
2.568253047332868903e-03
-1.775023800303917893e-03
-3.376271036382232863e-03
2.709954559225403493e-03
9.878843889032524681e-03
1.693237982329798448e-03
5.692947120342599018e-03
-1.486799334776795715e-03
8.516142360704742967e-03
6.284583233114721806e-03
-5.913952905948815196e-03
8.293279923753562113e-03
-8.449627095819936540e-03
1.715232964491034042e-03
4.444616815566162539e-03
2.383683613430351376e-03
-2.893833315059814344e-03
-2.674166429394639593e-03
1.203900302779467232e-03
-9.902735302289640551e-03
-2.343185156823000131e-03
9.914252681767439512e-03
-9.842974115017515471e-03
-2.296263514700892360e-03
9.998604415190303490e-03
2.242230220167873520e-03
9.261911403197611858e-03
1.951069343111746634e-03
8.112652852876482690e-03
-4.360398551796641937e-03
-2.468747876923188447e-03
-4.896419682461413715e-03
-4.105973497838417800e-03
8.137049022855998709e-03
-1.103599892397388654e-03
2.178914756569846813e-03
4.718079204927059719e-03
-1.061368497068442864e-03
3.019674676988649571e-03
-8.575009376483396298e-03
3.060662044745750092e-03
-2.373814115328522472e-03
-7.872288362748929708e-03
8.331644005623514704e-03
-4.014917752732351935e-03
6.492526321302745027e-03
-9.723281712365174079e-03
-1.845291327178701654e-03
7.625025411191758279e-03
1.010496169945788395e-03
-4.547087758253960492e-03
-5.464517468892876248e-03
-7.534296971095362332e-03
-1.639066523618529832e-03
8.789599930065922218e-03
3.483738914809423096e-04
-7.688106582829024732e-03
-9.059681444673251330e-03
-7.018497438050365356e-03
-8.551067246569022881e-03
-1.537624295344365739e-03
-7.748436335496603627e-03
7.865288698897172567e-03
-6.075966531259852435e-03
-1.058536722133752214e-03
-8.859754811931052840e-03
-7.465339263660782966e-03
4.268226667594506550e-03
6.929910736720232625e-03
-8.117554841150315115e-03
5.678593124034711330e-03
-3.015207825129126212e-05
-4.025127457209184446e-03
3.911450848146526445e-03
-5.260803565510487924e-03
4.954693839200350301e-03
1.653533288505375188e-03
7.543634846740081279e-03
-8.032340116385150441e-03
-6.986215816504461745e-03
9.041866531585234998e-03
8.318196101196686371e-03
2.416884704401995720e-03
8.001661156520784371e-03
8.283807217547050489e-03
-5.831948254546089928e-03
1.649855076327008934e-03
-2.025757007776056266e-03
1.866090654398782711e-03
7.687150476564636944e-03
3.299579283475703815e-03
9.127201501478695092e-03
-8.274953192120361109e-03
6.235208260648170478e-03
-2.225214307734976055e-03
3.536709286612517000e-03
3.582383450741044931e-03
6.034295603070744668e-03
-3.120653719598600901e-03
-7.208123132109835532e-04
-2.528636409431394075e-03
-1.478601663394643649e-03
-1.391622242893898048e-03
-9.025326640024991954e-04
4.362239173211754362e-03
-4.773960750063821652e-03
-3.346230817559803662e-03
8.020936092964319614e-03
-3.876787343154687419e-03
5.377884439452084407e-03
6.015726916113801892e-03
7.480136728721039317e-03
-1.747990736494385057e-03
-3.041067612263623644e-03
1.890555304631731659e-03
-6.509038648496136108e-03
3.378546646910932875e-03
3.240137236529755556e-03
2.548116824960049067e-03
9.944380225486045694e-03
2.668908496167210400e-03
-1.905520679850806033e-03
4.706456126941664132e-03
5.981144133588156032e-03
9.339544173836400107e-03
3.882452829495337647e-03
1.335962387080166965e-03
7.952189149286529452e-03
5.260496374536730545e-03
4.266252357151554750e-03
-5.404039293069260071e-03
-9.154108788256060461e-03
-7.780189529696431537e-03
1.275341560192078366e-04
-6.318179929923748404e-03
4.622974771299337947e-03
7.214964638980139559e-03
1.144930010189028173e-02
-3.238598385350711928e-03
2.399611264453537472e-03
6.475432781315725375e-03
3.151544557282305418e-03
-4.154814319132382576e-03
-3.844530920741253289e-03
-4.974916042835933819e-03
1.440368364495324405e-02
2.948848583779766939e-04
-6.637484079277966922e-03
7.134365008201940146e-03
-8.752742128758097054e-03
-3.911819872757025911e-03
-8.372436127072910381e-04
2.103662643684145114e-03
6.416130830538208443e-04
6.572304535646061961e-04
-8.122863424172175814e-03
-4.310159172026322371e-04
-8.977845551115927122e-03
1.541867053197062791e-03
7.388688512556184154e-03
4.257603268982966538e-03
-9.711220255394694550e-03
-2.512041818727641686e-03
-1.230105353202375551e-03
-4.585294439138087180e-03
-9.626461906544533237e-03
-6.685501488068732942e-03
-8.478258850126986837e-03
-3.801063548794157395e-04
6.190100132964583383e-03
-9.310511144968789191e-03
1.092657856100005646e-02
6.069526852314465967e-03
7.004785895833439031e-03
1.165336823111170041e-03
-5.980494527425144619e-03
-7.671963551062122542e-03
-2.856160357545972379e-03
-9.183313593965155078e-03
5.832118449049366986e-03
-1.237689819770036509e-03
3.510348248438472860e-03
-5.273071756867645649e-03
-2.580170869144832180e-03
-3.149456207823272610e-03
-5.023572891552176289e-03
6.253740665504232054e-04
-1.549309825356222619e-03
-7.632977810152877067e-03
-1.681264592804467646e-03
2.694884196954521849e-04
-7.617072710574697078e-03
3.241843522735568268e-03
-2.566328993498987170e-03
4.161526594626267089e-03
7.522538617622248971e-03
-1.138533939602348610e-02
3.972795119054985807e-03
3.404568009800194254e-03
-3.822488764168756673e-03
-4.035751842079323554e-03
1.846790095463671233e-02
-6.928619566206631504e-03
-3.245665623855243948e-03
6.153595991410875689e-03
8.093521921427091967e-03
-5.733039323624499264e-03
7.868225191424214546e-03
-8.157761101945232990e-03
2.502422809081378090e-03
-7.606864923592505934e-03
6.614799219212970892e-03
5.114353694522205673e-03
-8.522371588622410302e-03
-6.289303633907119932e-03
-4.202565483764974380e-03
-6.579878473481430221e-03
-9.733330822270489652e-03
-3.102667419729534908e-03
-4.527019725504461377e-03
-4.945126173225106343e-03
7.001507081802873199e-03
7.026146605824751951e-03
-2.771667092032214976e-03
4.949753938585546402e-03
7.227549104983311754e-03
-1.249405193167772883e-02
-7.377964220185669053e-03
8.342226475736702965e-03
7.056812729825195050e-03
6.589933973402551347e-03
-9.060442849644183283e-03
-3.909614925284873518e-03
-9.196016536831056604e-03
-9.462189746574162924e-03
-5.783623323939650167e-03
1.692766634841119406e-03
-6.868285086543848492e-03
8.950016189215351595e-03
8.270310107667907043e-03
4.676195070375387987e-03
-3.070541910106514005e-03
-8.907652028108390893e-03
-7.736899936930145653e-03
3.821295262207881870e-03
6.616048961699088661e-03
5.266608087928827293e-03
7.439292136824062623e-03
-5.876881195260009148e-04
9.688610955394071425e-03
-3.231167112201866354e-03
-4.528638667309000353e-03
-7.222246649062460770e-03
-7.906566229168790136e-03
1.003241415858950603e-02
-9.091232202748582986e-03
-2.771830018974498814e-04
3.324671885568192525e-03
5.269286599458820018e-03
6.356426555118820793e-03
6.491609999552973992e-03
1.869122023107791042e-03
8.673156481641982815e-03
-8.173193774722880070e-03
-8.664493835879484226e-03
-7.057606353475296898e-03
2.605324743908866373e-03
9.674472526998904517e-03
6.513362987222260508e-03
-1.031552207160859084e-04
-5.408250193452343417e-03
9.880079370702494687e-03
2.699439261265327607e-03
7.105720334079566360e-03
-2.611344077445854669e-03
6.992774852480529955e-03
-1.253899550055881038e-02
4.075380503078917041e-03
2.540909895186467538e-03
-4.433240713558345841e-04
-2.518895048659287265e-03
-7.439303651700786627e-03
-4.543777769928898994e-03
-1.601179139561506115e-03
-2.628209173004075055e-02
-7.767252662133733790e-03
2.877658246522666382e-03
-4.892056832691152671e-03
7.710420652691816340e-03
3.614210828391733327e-03
-5.702311536368048772e-03
4.384038849070044132e-03
6.044622002536520836e-03
-1.187919462822389395e-02
-6.450001164828682299e-04
8.960370160607042042e-03
-8.940030387888129454e-03
-8.395271064441271053e-03
-9.746728098755317801e-03
9.020925210057317845e-03
-8.924971908238710228e-03
3.326639119852840484e-03
8.653969299388917374e-03
3.784290512081885625e-03
-8.551137194688833085e-03
3.897388048421603860e-03
7.244256342160458086e-03
6.788118791378661490e-03
1.008500323722649012e-03
-2.249948359156598091e-02
5.630079176364550207e-03
1.815531005865395628e-03
8.777406258274837031e-03
-2.154927076557964886e-03
-3.257343506276054283e-03
-6.430583138985984312e-03
-6.763516135823537979e-03
2.366969991254918389e-04
-3.745382343521727782e-03
6.764455009362690258e-03
7.260880101927733336e-04
-6.194106787352329606e-03
-6.643654241072999810e-03
-1.846665059370700135e-03
6.494712018170518616e-03
-5.884653810698356642e-04
2.479835447658638352e-04
3.315349513697145572e-03
-2.669549040511380936e-03
-5.984992123970452570e-03
8.586065673303963511e-04
3.201048748591816748e-03
-8.353436541702591311e-03
-2.199060746486834663e-03
3.703134359207845613e-03
6.596037926696855444e-03
-5.832157639037726521e-03
-5.677469260084513913e-03
6.779763545386297387e-04
-7.088212076979138326e-03
9.054777470690407622e-04
7.594747221186035416e-03
-5.830046327583672180e-03
4.580153356013963103e-03
6.628300008679641371e-03
5.923571068365365323e-03
-3.332275533956576864e-03
-9.882032226787020382e-03
1.566595559947195489e-04
-9.387671165750455238e-03
-8.760595244320452252e-03
3.908891125551720554e-04
5.394723486259525840e-04
3.710049340891633050e-03
-4.786883930428592268e-03
-3.322882267267077052e-03
-1.066131748300744395e-03
6.306661418437148510e-03
8.396398200548393226e-03
9.227584642334618267e-03
2.345447999543004858e-03
3.050916827526333787e-03
-8.125395716512481825e-04
5.450382332279464720e-04
9.982015323638140925e-03
-8.070194540953855647e-03
-2.497883278288040403e-03
1.028777572134289848e-03
2.625714901957841227e-03
-8.560707691856037820e-04
4.466169461773078844e-03
-8.162036776450477815e-03
2.835150763737060396e-03
4.854975719575299609e-03
-6.513161261268156366e-03
-2.824559551965112429e-03
-4.293067360756455328e-03
5.875604821736443197e-03
-1.008020233192085009e-02
-4.505461137827176965e-04
-4.601912142804346142e-03
1.364344565161790170e-03
-2.777164373272162246e-03
8.019064346487292697e-05
9.388283890999989806e-03
-6.629615750980053478e-03
-9.785043155189843828e-03
-9.798356239390656423e-04
-2.647540018050044061e-02
6.492263240593022788e-03
-4.430079317138803027e-03
5.789624983638949965e-03
-6.932345138193948819e-03
7.528124817466577690e-03
3.915552821412853629e-03
-3.787375537021878732e-03
-9.398566187133439512e-03
3.305357632880404420e-03
2.243392075917890333e-03
-1.568241818445293041e-03
4.918902978678600137e-03
4.613429581410029116e-03
-7.553348284330928253e-03
4.241764796889290964e-03
-6.370363658328743496e-03
-7.838111575686281668e-03
2.772401500701466258e-03
4.147945546721555285e-03
-2.003127985391459781e-03
8.140959510321390310e-04
-9.024373198008699961e-05
6.090798902053698146e-04
1.010064095411532595e-02
7.817278360835955286e-03
2.028174972689341608e-03
1.877376325746718273e-03
-1.234745451338668679e-03
-4.440408848074723150e-03
-1.290978642545322422e-03
1.049422571122437479e-03
-4.276419315826146539e-03
-5.771641623346769265e-03
-8.786040536479250082e-03
-4.449043885224766501e-03
8.160074460789944195e-03
-7.205138209026680984e-04
7.807092523020653548e-03
3.555584754558012948e-03
-5.512925067063273888e-04
-8.415245142143784607e-03
-8.097864454103715108e-04
-3.906227122443319336e-03
6.055854258454648580e-04
-9.157096536786878821e-03
-1.956860155096825944e-03
-2.938538198639286097e-03
-8.475179113687244083e-04
8.496526242057019299e-03
8.487200040578542562e-03
7.557367562473446022e-03
-5.250091714746682112e-03
-9.276123017795553927e-03
-9.529495194877819417e-03
-8.367376995087895050e-03
-3.881223172114396137e-03
-5.257080768395023737e-03
4.964998259892148581e-03
3.282066656119078489e-03
-1.342567938656566125e-03
-2.583308767317804653e-03
8.929267393205096368e-03
1.587913097801993976e-03
-4.343834260202930359e-04
-4.509917564099429066e-03
9.734158420644565754e-03
-9.837088701376785552e-03
5.621103664305473167e-03
-3.583477735856540041e-03
-6.604155791280105466e-04
-2.021781116847563495e-02
4.595014851192242254e-03
-4.248149678568385185e-03
3.418645383829259712e-03
1.961265637124805401e-03
-7.534080823301530540e-03
-4.720243305228515041e-03
-3.811449135888470788e-04
1.163323069172644353e-03
-1.703060084246266160e-03
-9.734463907664678284e-03
8.750799191520315309e-03
6.477313429218840325e-03
-8.244175936787752693e-03
9.551683626045940831e-03
5.867000895406153556e-03
7.112533741052063339e-03
-5.635505775941234731e-03
4.397568036324968344e-03
-4.403459178357199862e-03
-3.548834219213415058e-03
-1.667304520354604390e-04
1.227812331398424111e-03
5.525198862147810870e-03
5.177176089635744487e-03
-7.121511287582846933e-04
8.878938963295701300e-03
-4.197523929298943232e-03
9.287066231134871730e-03
2.771085828623432411e-03
-8.339639398333795889e-03
-4.423451858712529805e-04
-1.193684459715803163e-03
9.241519900915656435e-03
-7.721251741668563526e-03
-4.216700021191797758e-03
-4.133687698261724087e-03
7.967758225931426477e-03
-1.547322184152062283e-02
-2.630774803273270169e-03
6.208963893342698062e-03
3.753493483144534470e-03
-3.284908350328997594e-03
-2.959780578813756870e-03
9.432832444960168039e-03
-2.033552984040798168e-03
-2.235443547378639095e-03
-5.509841956809271267e-03
-8.456213110177721731e-03
-7.199973922681348129e-03
-5.493564950052980990e-03
-6.564769104148724180e-03
8.689157537262385926e-04
-3.645135046865647516e-03
-6.570415384583963223e-03
-3.795472161874836707e-03
2.955822598474773522e-03
-1.655464330913645815e-03
-3.539762199500138314e-03
-6.376357894925454087e-03
-1.178908381776893948e-03
-2.957924583190127063e-03
1.641907129887492647e-03
-1.927138404798280514e-03
-9.134498750949725590e-03
3.443590541808452549e-03
-7.585134358251065202e-04
3.598055964773395681e-04
1.072250443593407258e-02
-1.937107184267535887e-03
3.565688111843461593e-03
4.683881882847202444e-03
3.871965010966229009e-03
-6.092802819120364879e-03
7.357616936415557925e-03
-9.672878993750298401e-03
4.758872061227247159e-03
4.147739404344408763e-03
1.200172420707833372e-03
-5.755171583700936441e-03
6.241607760688099894e-03
-9.832816955963408559e-03
9.338933098234246041e-03
-7.427303585565061400e-03
4.082748163040993659e-03
-4.146048500322759185e-03
-6.001510549854931383e-03
-5.939745065109191223e-03
6.760486204623705579e-03
-4.256219806033786045e-03
-1.894268382873010590e-03
6.041699359235469698e-03
-8.270769568418830098e-03
-7.151011567543581228e-03
3.795589609037690326e-03
7.551785344865808748e-03
9.031695115073321706e-03
1.329676797572435735e-03
5.498066495272920136e-03
5.987866697783695083e-03
3.654920863569657494e-03
-3.452067657175834220e-03
-1.590932370046029823e-03
1.953290073585024246e-03
-1.056238859353365086e-03
7.676816004573771635e-04
-4.815331221658860489e-03
-4.650963892643072452e-03
-9.744288899459651113e-03
9.757415047130138519e-03
8.794249761563411802e-03
-9.731479017247767144e-04
9.617297265418163488e-03
5.009801323266520681e-03
-8.092456116653906411e-04
-1.628315910878730269e-03
6.398454590300308234e-03
9.775494036549014706e-03
-2.657319503441024546e-03
-7.154141796146300941e-03
-1.936110639368882058e-03
9.901870776432961443e-03
7.168267269301913970e-03
-3.371442604716572491e-03
5.721275795959990251e-03
9.003276742081321032e-03
3.629902031822210620e-03
4.768908340586311412e-03
-2.477800598408996021e-03
7.404060102232041911e-03
-6.649399952519255592e-03
-5.889375369025747105e-03
8.255794991054248000e-05
6.340341132545095656e-05
-4.534888400810004917e-03
7.527757830167311134e-03
7.928830871688306164e-03
-8.725620076295301578e-03
-6.442496500028190541e-03
-9.701826391458782256e-03
-6.207715882381563584e-03
8.444480200035893100e-03
4.926825007350948971e-03
-9.103786244028371291e-03
-9.247707119138350636e-04
9.754191145425234952e-03
-5.690056674238706293e-03
3.570044266831051477e-04
-6.551618158525742384e-03
5.699593548157431099e-03
8.870775179602609709e-03
2.103748149357217035e-03
-5.378021036803873507e-03
2.397679801210142285e-03
1.019910995605754697e-02
-7.898809250950915338e-04
7.177018528148421117e-03
3.250216979576533332e-05
6.310699746428419417e-03
8.955508480085042078e-03
-2.099078117468065972e-03
-6.840150772712528214e-03
-2.743467019395303807e-03
-9.908079131268968109e-03
2.336977327803588158e-03
8.101132298981980270e-03
-3.526123226085619341e-03
-8.120711778155464619e-03
-5.440538763747561693e-03
-4.024445756234768141e-03
-6.816046997574620216e-03
1.654522491622603371e-03
-2.338332442653726431e-03
-7.872525179611920831e-03
4.621203110245504508e-03
-5.414923975686733101e-03
2.067091151258924290e-03
-1.710357503898572631e-03
9.860220426854160794e-03
-2.726297935276841573e-03
9.129462652951631646e-03
-1.805496336941196699e-03
6.509120685654796144e-03
-1.708340285453362195e-02
-1.484987282346624925e-03
-3.455189040292310724e-03
-1.139782565722648839e-03
-9.261078870091369458e-03
-7.549022596418567162e-03
3.991435657885352740e-03
-4.392265091691935960e-04
-1.879867464981140957e-03
-3.984218942589421754e-03
2.361717845313599223e-03
-3.197944064122172723e-03
-7.994207871443469171e-03
1.912479418892219221e-03
8.972556676276029555e-03
5.774714934952508011e-03
-9.093540451347135664e-03
-8.779170438330548276e-03
-5.810082730272119952e-03
4.156534496342926752e-03
-2.125803997619025911e-03
4.048015664869002161e-03
-4.788521324968708637e-03
9.327388910767958272e-03
-4.782347864767352505e-03
1.000346626468771871e-02
-2.270364747072455090e-03
-9.323171758838155396e-03
-2.543535506791934353e-03
3.323390643343159413e-03
-4.668489236810661851e-03
1.590299812667137240e-03
6.246190667126704128e-03
-1.495727577457531743e-03
4.546839664364408541e-04
3.629971809491127407e-03
1.370893112388075824e-03
4.089336651455235082e-03
4.766929426760082612e-03
6.158445654718560855e-03
1.603535358964022035e-03
-5.654067241025597735e-04
2.617153056521599568e-03
9.640428625716070468e-03
3.736527371122704520e-03
9.076681785121484825e-03
6.826473070915433684e-03
5.936612410900361445e-03
-8.745298809613052254e-03
1.711243553725257582e-03
7.182188953466664069e-03
1.057160260592013463e-02
-3.257397074328388913e-03
1.761778303116987542e-03
-9.479249647632567504e-04
9.025176893917723903e-03
-9.588496906304182915e-03
-7.391346195796595978e-03
3.237073949712798888e-03
2.865405983574286809e-03
-7.920822703286676397e-03
2.228998169219580398e-04
5.569485436752766652e-03
2.321817389393199434e-03
3.103451956978497007e-03
-9.911019190141399232e-03
1.002342518178496629e-02
-4.445704718241951132e-03
-1.326925579786302388e-05
-6.759152170974930002e-04
6.806870830810928322e-03
-3.565059074102662137e-03
-6.388654198270518614e-03
3.367581614572043129e-03
1.211671525516375093e-03
4.576085772936910683e-04
-8.133067952753647578e-03
-2.192586178878235849e-03
8.419506486521262725e-03
-3.158533719826622614e-03
2.932987200790153782e-03
-1.771384149854257671e-03
-1.656052391381849327e-03
6.248633976625325714e-03
-6.986370838564357269e-03
-2.364758004858441565e-04
1.291393017057838703e-02
9.807217653502346005e-03
6.180866316297544717e-03
-4.618541302912170486e-03
1.136501135537289773e-03
2.303218485436730675e-02
-4.484258789788235543e-05
-1.079261663563238841e-03
-4.822832259939312141e-04
-3.841616637392128615e-03
-9.891310212514093508e-03
3.951698062986892628e-03
-8.647403567633337590e-03
1.653009219252027547e-03
1.007587107472734077e-02
8.148544899308817271e-03
8.366989383760460933e-03
-9.608853163902482397e-03
-5.148220991234987547e-03
-4.713390669073043443e-05
-8.577165412906772451e-03
-8.954439253380708143e-04
-1.299763741320364065e-06
6.236945219152955147e-03
9.027875445960474587e-03
-3.435471807072077409e-03
-4.427531422942223086e-03
-8.138520946550270238e-03
-5.372421152066237694e-03
5.151201748943690269e-03
2.121740084690913568e-03
-9.499528907300975808e-03
-6.113798116411109200e-03
-1.023565589439407592e-03
-2.104040726231415446e-03
1.196890421145280388e-02
-8.680891695495148927e-03
-9.712531342278431234e-03
-7.792154696335611488e-03
-2.609276818512898735e-03
6.756685822610019286e-03
1.084172985682538086e-04
3.381423748320299110e-03
-3.427215127812631087e-03
-5.089188186728241074e-03
5.526846806539568828e-03
-5.087245317715277486e-03
5.998652753239438855e-03
2.585013754941415526e-03
-1.053717061013231598e-03
-1.683150064189843772e-03
-2.839698856736422132e-03
7.529665015141449348e-03
-2.462123294785902375e-03
-6.740823645337779696e-03
3.365204601179302198e-03
7.866551677000455101e-03
9.935163008675765295e-03
2.917489063409687330e-03
-9.625505964931764177e-03
-2.786516745992521828e-03
-1.628128882125810502e-03
6.793900944389243308e-03
7.137715806015488065e-03
2.159541106908017660e-03
-2.652360669900975278e-03
8.301569384509488447e-03
-5.998274931603103741e-04
6.179199762822635590e-03
-7.197039360484919386e-03
5.015091637485482104e-03
3.564914863701505905e-03
-3.755099349310299893e-03
4.368230242151908624e-04
-2.474114747550555226e-03
1.753815265201113388e-03
-1.332190479467665681e-03
6.826773197567919012e-03
-5.198555567687981362e-03
2.794539803831186039e-03
9.756947510318033029e-04
3.635451659361454806e-03
-2.227306947214247653e-03
-8.963416695115940594e-03
-4.627812812675303165e-03
6.412612267056999604e-03
-5.752279441571671488e-04
-7.489701418032041142e-04
1.875022358054003878e-04
1.934261633055623817e-03
6.876282403397268768e-03
4.194579644280758447e-03
-6.680158914005591975e-03
6.007857747815960325e-03
-2.612010981095560375e-03
3.807997401237198879e-03
-6.351138030554603214e-03
6.288083579610031929e-04
-6.173949501982006934e-03
-6.081887675368391651e-03
6.525416537530332774e-03
-8.142003546669988878e-03
-5.622226955400449859e-03
6.159426209304317765e-03
2.774900851273675532e-03
-1.287026200282818077e-02
-9.751768698038350280e-03
-7.394212400787790809e-03
4.819051202221767520e-03
-5.636873697430900935e-03
7.578106256524491137e-03
-4.373730129847325752e-03
7.898793460615685658e-03
3.020111620138877118e-03
3.875672314452196631e-03
3.067225038777927296e-03
9.435534802459850934e-03
-4.410235013869416229e-03
-4.745863913347150853e-03
3.603573651421278570e-03
-9.881018472762069629e-06
1.249783377667616768e-03
7.905580239385886707e-03
-4.146739863921285185e-04
-7.839684619550875422e-03
-3.564135991841058029e-03
7.241277112658968049e-03
-2.862566976976053425e-03
-7.114913779269862668e-03
3.384915254000371576e-03
8.993267252421001737e-03
-3.652196446400644662e-03
-5.749999182586200061e-03
-3.750836609842510706e-03
4.126422132617628066e-03
1.715202269373110279e-03
1.703545903142028497e-04
-8.529756435501110318e-03
-8.466358599963242498e-03
-6.570757899162850933e-03
-5.771563516460190106e-03
-1.816882949341576403e-03
-3.984837743886924036e-03
9.150118795306598843e-03
-8.544260471971817233e-03
-6.851158699823789618e-03
-2.727605415790268668e-03
-9.138737989694495703e-03
6.809989368180351457e-03
-1.263044321592150625e-02
2.931667082577777295e-03
9.533314289950290538e-03
-3.484312972005378789e-03
-2.191230420976645644e-03
8.102578100170596681e-03
5.884668425126563310e-03
7.503156443606759374e-03
-5.801189719113127551e-03
8.880384170721272036e-03
5.021370491309923452e-05
5.581657850292752292e-03
6.610255244851166029e-03
-4.403324928527232660e-03
9.755356594212921673e-03
-1.399607110433284240e-03
7.639572849004984227e-03
3.620953464952327613e-03
7.255065706037948370e-03
3.185254857757712291e-03
7.512003640357924408e-04
-4.928944654450593751e-03
-2.212822417743376055e-03
3.864957988857717092e-03
5.365618631355147800e-03
5.680430400983002212e-03
9.050087314760479895e-03
-8.913790967078557854e-04
9.613059811497700821e-03
-6.731741502001824078e-03
1.726161035335166578e-03
1.202902821811656364e-02
-8.251368796225790406e-03
-2.493762343131311187e-03
7.736742526224150637e-03
-2.657267375969898059e-03
-3.478454466685067942e-03
2.498432719531856055e-03
-5.975686815440943954e-03
-9.646969890293099689e-03
1.114044338147228766e-02
-3.155736977853363951e-03
-1.013081051126460234e-02
-9.018073489307231599e-03
-3.520108581522876819e-03
9.301715990525663558e-03
7.020021175367421526e-03
-2.910860642083029463e-03
8.413263635439414663e-04
3.056919689986942103e-03
2.651956511766223601e-03
9.307549879927791685e-04
-4.616432126455761835e-03
5.086689452045807178e-03
7.508910345121026959e-03
3.999837511758550478e-03
-1.156985806619677216e-03
1.639929681704688181e-03
-5.018387053830427116e-03
-4.418672583609839499e-03
-6.614767483038546357e-03
5.233996708880515360e-03
-9.502037114996683687e-03
-7.926391140550178779e-03
7.126530287996224585e-04
-2.122295579001972406e-03
7.212644329510260049e-03
-3.720814632923991993e-04
-8.993296869032017804e-03
9.737467764478648438e-03
3.955821659074808608e-03
5.087363999377181832e-03
-7.942631251523443042e-03
1.103171778498308149e-03
-2.961228298655693269e-03
7.007632014960266283e-03
8.279891370048295118e-03
1.085923318275482281e-03
2.880323960660609393e-03
-9.031260260500535361e-03
5.927758380837921731e-04
1.964806347796022815e-03
-2.309859667930690076e-04
-5.841947585553473876e-03
-9.529982574194403172e-03
-4.489644149101097888e-03
-1.739215838700646161e-03
-3.409062812871623341e-03
1.777099673422496019e-03
-9.444655544785003284e-03
-6.914564598474689724e-03
7.884572951966355853e-03
-8.842711462903742742e-03
-1.020302847551224357e-02
4.590573285191640839e-03
4.888922468982211111e-03
-3.683650295794730842e-03
3.932551801505513277e-03
6.412536633930006509e-03
-6.486723315853906192e-03
-3.088725993376971891e-03
3.444006393478969349e-03
7.973641472314387316e-03
-5.947119860080797224e-03
6.268631661825095581e-04
5.772571778510311551e-03
-3.920436062670896483e-03
-8.166470042856904116e-03
-5.465005240642828790e-03
-2.006173521187359313e-03
-1.206029078355903318e-03
2.625656240521378072e-03
5.675934555432405465e-03
-4.553970025305045452e-03
7.369486620076595718e-03
-3.428106851797271381e-03
1.257429849906310055e-03
6.189018050869724355e-03
-9.709170190308421405e-03
8.924515391316384730e-03
-3.720609041602753516e-03
9.814696287365427818e-03
-5.168252797870666153e-03
-5.579748975542826901e-03
2.130010670574300255e-05
-5.323756409042442947e-03
-6.988462587087265927e-03
3.845754985622039119e-03
1.459819220932354880e-03
-6.016175724092740970e-04
5.456085134343878311e-03
4.506506369465281686e-03
-1.169990176962367595e-03
-1.024736075138805817e-02
8.193163357696247456e-03
-9.130138836797462368e-03
7.577193070592736814e-03
-6.113064050524841773e-03
1.266530738770757676e-02
-5.328661338133216033e-03
-8.332349668352129896e-03
-1.228070746105807722e-03
5.824358125533689312e-03
-4.277747039515458760e-03
8.145985455207054027e-03
-7.146843788943629122e-03
-1.095945300257226496e-03
-8.470193322894614685e-03
9.418059284802505690e-03
-9.102313658882156197e-03
-5.377296143473538764e-03
-2.478079221811285270e-03
6.370816627715314038e-04
5.740640430012909808e-03
9.192143594386052372e-03
-3.550692718311796478e-04
2.021655086600148733e-03
1.453505153986485356e-03
7.902380654424048453e-03
8.244421744775338665e-03
-5.764476562211344468e-03
-3.726063383773516816e-03
3.231111285849689024e-03
-6.046539468318233232e-03
-1.002798293079916817e-02
9.466425697883792956e-03
-1.007147857399742254e-02
-4.648797081402423516e-03
2.542066922052755706e-03
-6.983661277615993293e-05
-8.666843569170277345e-03
-2.370355767418399432e-03
-5.579760300477854852e-03
6.838763828043095336e-03
7.805630857863836425e-03
-9.463129083516248416e-03
6.872177251361251404e-03
-5.262074694117297759e-03
6.147830212835695210e-03
4.387998712897977355e-03
-3.068366863990114584e-03
4.760674615162831594e-03
1.031937071882354541e-02
-9.095564968608091730e-03
8.327663391330860851e-03
4.903739834462790374e-03
5.281900625184097163e-03
1.837726002107730469e-03
-6.419072674134791018e-03
1.161931649680351779e-02
4.215609527184497815e-03
-5.550748252545970995e-04
6.917654329196651353e-03
7.559577228440666173e-03
-3.063094271790316962e-03
5.563790791318435139e-03
3.316923036785312043e-03
7.798477135973477976e-03
-9.213238621203709029e-04
-3.754951204701580635e-03
5.961404596416208096e-03
-7.909781084951177446e-03
-4.680656692681519834e-03
1.055157890761965634e-03
4.042702235376198147e-03
8.892519285060946840e-03
-1.306611687680054625e-02
5.149989985048003018e-03
9.517489393634937650e-03
3.690773370504250167e-03
-8.253785824695544088e-03
8.780888567674309184e-03
-2.274388950871230296e-03
8.270693811050566085e-03
6.708645550306297119e-03
-4.228755648466788787e-03
-5.937555993417486903e-03
8.406062132128598596e-03
7.105417314575897605e-03
2.793611057666305856e-03
-4.839988727117001954e-03
8.571917384854348121e-03
2.100691540106232325e-03
1.261351409154479360e-03
1.337519359733477589e-02
-8.940392436686867353e-03
2.296878133210313033e-03
5.155932931984023165e-03
5.155807114796031286e-03
-7.020930238838961508e-03
-3.988293175595030229e-03
4.581678018836598566e-03
-5.435716065391602882e-03
-1.421618102895457706e-03
1.165360462111498900e-02
-7.284521265385473544e-03
5.284299682366917425e-03
-5.866586510621427109e-03
8.604749433190176516e-03
-3.923312725092244907e-03
5.094966163767358433e-03
-9.754131096083983737e-03
-3.864097000246390946e-03
-2.084730408134843980e-03
5.761156467481216197e-04
1.861638607670656836e-04
9.373363737703492918e-03
-5.679277677258040384e-03
-6.012312080456487517e-03
3.912155399575474764e-03
9.762289878018009593e-04
-6.527348070752016750e-03
2.294976358655209051e-03
-5.337871126493475091e-04
-7.771850198512556505e-03
-6.065881823270456545e-03
2.138811156223151180e-03
9.179165105252198864e-03
-8.151508599076049202e-03
-7.309168558501873657e-03
-2.799300922997994667e-03
3.616304635800853678e-03
-9.394246427748276229e-03
4.806914723555876911e-04
3.773924114548094216e-03
7.939522001161951684e-03
-2.557506435026784750e-03
-7.814046103030351451e-03
3.288828945136924604e-03
-4.942095511183633265e-03
-2.271267381331265166e-03
9.018864499293361564e-03
-8.796845894230510138e-03
4.593766453070321706e-03
-3.101361408482149976e-03
6.949514091770265384e-03
8.180522115012772710e-03
-8.409818970402258009e-03
-2.111009297914626624e-03
5.859588679249767319e-03
-9.811383032332565354e-04
-9.024578721695164681e-04
-1.603682213435602202e-02
2.934794415039665948e-03
5.781738505723885320e-03
-4.018506600192797186e-03
-8.894192780181551725e-03
8.400216667786310903e-03
-3.810032786291533708e-03
-8.612441106879612993e-03
1.840004879830109928e-03
-7.531323823946728911e-03
1.718261703833280835e-05
-1.187165246876035465e-03
5.726429534902433005e-03
2.821907226749100633e-03
7.975099694692299596e-03
-7.238102244638862717e-03
1.764140626045339897e-03
1.044615806735806453e-04
3.685733913498000832e-03
8.388700693658709268e-03
5.265267181105405536e-03
-5.492479144896979595e-03
-5.785279581480386353e-03
-2.652702643102503813e-03
4.529896957680993805e-03
9.031581770799768094e-03
3.374137051713676019e-03
2.162254868765815102e-02
-8.496689997052084969e-03
2.633750893516586047e-04
3.405332419672731092e-04
3.776922855809477370e-03
7.810947171468653021e-03
-9.629305094826786510e-03
7.698353020287714878e-03
-7.275527380132040811e-03
-3.454065065977086294e-03
5.688747147704825875e-03
-3.947378961381659696e-03
-1.088707854171266226e-03
3.016608480001396536e-04
-6.611657358498101815e-03
3.724262880176939247e-04
-9.249740127330567316e-03
7.033175010306359949e-03
-6.807273810533367824e-04
4.137097118321343345e-03
2.296831557898719022e-03
8.828660770253465503e-04
-1.744112516832252912e-03
8.169921832809080506e-03
-4.760907268288564636e-04
-5.313613998329743543e-03
1.130055774232094183e-02
-4.639592639285481865e-03
7.263701666638769372e-03
-4.626698002283317901e-03
-9.308412048580787246e-03
-3.455120421330511171e-03
-6.775781467681121946e-03
-9.077049381696502758e-03
-7.700094120859105051e-03
8.656251453412040775e-03
-9.490227931686292737e-03
-3.870202938377258380e-03
6.959697558893331720e-03
3.779565774923004592e-03
-9.445201525354230895e-03
6.169226055235435026e-03
2.569549306181917459e-03
3.181217392961979760e-04
-3.359679107914856702e-03
-3.126902019141686914e-03
2.201502329382223032e-03
-3.058019138247273800e-03
-1.791829175178984851e-02
-3.965967846482614835e-03
2.150724353512429958e-03
6.869366610187350314e-03
-9.585453328555718078e-03
2.816450879701904060e-03
9.188416957994529873e-04
-2.302030868413529503e-03
5.341802093164522633e-03
-8.427929489041453837e-03
-1.562954629058093889e-03
-6.744900145570063670e-03
-9.647766826948730307e-03
-3.356921985457209014e-03
5.929927647048099763e-03
6.100622858343530139e-04
1.004657200166106292e-03
-6.849142407764576349e-03
9.700990037267374563e-03
-8.261424277686261640e-04
-5.906499914217797770e-03
-4.466389214724434710e-03
5.918645024824709285e-03
7.576218243475468100e-03
1.750508428545707179e-03
-1.002036515404603395e-04
6.488422318294102646e-03
1.230834890666631038e-03
1.045166462271613847e-02
1.442595517437398268e-05
8.896337994854890130e-04
3.580732234565918437e-03
-7.644809278697628149e-03
-1.311396363795178056e-03
-2.896175066980473324e-04
-9.561840893267382208e-03
-8.886042074564120749e-03
5.759224297364508305e-03
-7.379657726994059107e-03
-3.364543918669092842e-03
-4.151526261394205761e-03
-4.793435331906497482e-03
-3.799945158554865303e-03
-1.656944083789239257e-03
1.426570771490328725e-05
-1.392660068978653944e-04
-9.202009365476824729e-03
5.521794338810414628e-03
1.877878783515830700e-03
-9.299408628164982163e-03
6.292047169551555352e-03
-5.359360717389050587e-03
-4.551732407859634261e-03
-3.975633518889442816e-03
-7.566022429344475275e-03
-1.152666492354709410e-03
-2.249632977483704329e-03
1.478791427267731095e-03
3.122534222907280468e-03
-9.471528287459477988e-03
7.666013010269167195e-04
-1.243401355140559853e-03
7.848864848833328814e-03
6.460337324392711501e-03
1.003490558872916980e-02
-8.985461823656832117e-03
7.265624312988460710e-03
4.339983432219866183e-03
-9.279214140705174113e-03
4.485316309244249608e-03
8.607372737218894291e-04
-5.261905523351644021e-03
-8.880704232512127289e-03
-6.153772681221983398e-03
8.081864844713456536e-04
-8.758792454507098243e-03
-4.129327016063090439e-03
2.349640881402964131e-03
9.064199232633730202e-03
-4.513569333023135371e-03
9.355127391494156078e-03
7.121215268629736694e-03
-5.580594182144748422e-03
2.866124214649924413e-03
6.011423599596564353e-03
-5.784903350534481743e-03
-4.543657919039387769e-04
-1.683040086943823465e-03
-4.575336551124453525e-03
6.356950608816345095e-04
-5.946786400357772888e-03
-9.756747167901601986e-03
-5.361677270586967352e-03
6.264322339695847959e-03
6.805953949991163862e-03
-5.637571671727752490e-03
-4.501899881123720172e-03
5.990995649401572275e-03
-3.580476105522204227e-03
2.747901844011242482e-03
-3.186731009646512694e-03
-3.275371598089885788e-03
2.834541725950615911e-03
-6.028310132661190675e-04
9.304216172966259940e-03
7.052292021766329126e-03
9.624731586748039996e-03
-1.950921489596508943e-03
-4.500949713418959074e-03
-2.585390362474167779e-03
-5.195336989140882100e-03
-9.097685300931098937e-03
4.647044288755950055e-03
9.047252697060153073e-03
-2.318752109027443203e-03
-9.932006427577190835e-03
-6.173701244779601291e-03
-9.058372531299570610e-03
2.491084424015168209e-03
4.408742977701492899e-03
-9.532708862976860958e-03
7.889170063499992627e-03
-1.210163005792069590e-04
-1.152283046585176674e-04
-3.380030465546424341e-03
-6.291425040212652448e-03
-4.921117379285086871e-03
-8.098531943636763306e-03
-1.851608639087560246e-03
-3.094978008249380419e-04
-1.766447939983630195e-03
-9.309156168376851379e-03
7.743681089098375901e-03
-2.300402899741069845e-03
-9.251515180576201647e-04
-1.883120559355541982e-03
-5.674507318646596597e-03
-5.982552383231696733e-03
-6.712956104978698435e-03
-4.285756118804973612e-03
8.323859987645650452e-03
-2.694937783706571107e-03
1.790193581262987431e-03
-2.932423474628424644e-03
5.228309345040029962e-03
3.498986022851329272e-03
1.723720271445654349e-03
5.031201709501217229e-03
-1.524243091732437180e-03
4.219696029815804550e-03
-6.193536419113061450e-03
7.899083952713202919e-03
9.612111653262752492e-03
1.364462580524330960e-03
2.044893689930779926e-03
-3.734708615068107768e-03
7.966174358155041560e-03
-6.035952149219972994e-03
-2.228795410400879941e-03
5.248706485396634897e-03
-5.590244903385681655e-03
-2.268755149313028425e-03
5.852593292041738567e-03
-8.407721481305609895e-03
-8.143272630964240935e-04
6.372208174714496208e-03
9.315269592761783388e-03
5.858187220273733224e-03
8.105978406540129480e-03
-2.014388458308917062e-03
8.383653391429322574e-04
-3.234594347608860890e-03
1.710014028078617881e-02
2.370325032398669374e-02
5.510869144879916061e-03
-3.296865457601271931e-03
-3.165452694775632014e-03
-6.090584438351895162e-03
-3.528664854826131687e-03
-3.666052397956314542e-03
-7.490518980030986748e-03
2.190319235537714745e-04
7.112990346577905722e-03
-1.250053160219010036e-03
6.400542575624883213e-03
7.297512157259698241e-03
4.274699499203023396e-03
-9.924162573866223899e-03
-8.218893089706627228e-03
-4.189483113338729817e-03
6.361130255020715912e-03
-3.401903762657170881e-03
-1.235950028061656497e-03
1.015536788804669889e-02
-9.062638300852942849e-03
-1.454455005067994966e-03
4.845529190828834834e-03
-1.035826173854687178e-02
-2.617203713662061629e-02
2.207132285512006069e-03
8.773183530969298413e-03
-9.475255464475697623e-04
-8.180893729526819008e-03
-3.104570478572549284e-03
4.269849683552507172e-03
9.995611174633387344e-03
-8.192978758409139375e-03
-5.775496026707270698e-03
5.701930598071632168e-03
1.121640262056751653e-03
4.851679289882418651e-03
-1.099646711450595398e-03
1.730095105663424044e-03
-4.051005234645525116e-03
9.054175601784845290e-03
1.948510654389878092e-03
-3.538214038047434156e-03
-3.473879984486063447e-03
5.614820881560081845e-04
9.997182435543537291e-03
1.260938088517323495e-02
-1.258840071535720926e-03
-7.772327851531993237e-03
3.231427902882087928e-03
5.843072316251783811e-03
-9.261374797217444138e-03
-8.311126112807439015e-03
-2.638620395911371879e-04
-8.095690351537836171e-03
1.748984119016229249e-03
6.112002191571313560e-04
3.060516668098763049e-03
-5.311280926809657486e-03
-5.201791778460608355e-03
1.173222069944419420e-03
-1.504685711263025220e-03
8.152838337146179823e-03
9.052577157338037583e-03
5.165373133503211971e-03
5.578826414736759096e-03
-3.906458384665196203e-03
8.402668229235762606e-03
-1.547225858433774965e-03
2.458511926133182326e-03
9.309871954001680550e-03
-1.234836807418854656e-03
-1.641054249016915892e-02
-5.730079416355479075e-04
5.081888787794596601e-03
2.370901010404171359e-03
6.158115840050414243e-03
-7.990659019628223309e-03
-6.547187080357363525e-06
-9.812419366014830599e-03
-1.007135323366086140e-02
9.673139203731572280e-03
8.435371832026434397e-03
-8.263480154764359445e-03
-7.125531158638910220e-03
7.295110493646392476e-03
-3.413838549955157571e-03
1.656703654347518265e-03
5.068235730615676393e-03
6.374081722015345272e-03
6.550642239125627035e-03
-4.287489279741105511e-03
-3.842965610607860117e-03
4.264400075825009145e-04
-2.520816413160538710e-03
-1.961425882994985870e-03
2.557688460293919101e-03
-8.983016244186868560e-03
-4.450566599091087920e-03
4.536603056920578657e-03
6.093849053214047892e-03
-3.857450420756450521e-04
2.707205685523593908e-03
-6.217989627091489134e-03
4.062392586033467153e-03
