-6.091344590779874946e-03
-5.986558880736831886e-03
6.773923970610671967e-03
-6.138342092733971300e-03
7.803585355069002014e-03
2.176938717714559015e-03
8.758517898096345941e-03
6.814952730197428553e-03
1.173285876458353633e-03
4.323876748339301919e-03
-4.043732256306623897e-03
-7.618847376964128087e-03
-8.011783470173814564e-03
-3.281249974336337277e-03
7.322136803366581081e-04
4.308559629151609283e-03
9.579949549930135214e-03
8.250059262578738825e-03
-6.326621730059972699e-03
8.957328348816237908e-04
-4.220515088911643009e-03
3.602698002332739352e-04
7.865895939502003456e-03
-6.535296991014397615e-03
9.810617011460723638e-03
-1.019742595060385559e-02
5.347378072787386215e-03
9.366480887343346315e-03
8.825130371291251040e-04
4.062686411478508633e-03
1.346466132016829048e-02
-8.597738039790185638e-03
-8.855959705807013582e-03
4.188122206946018333e-03
4.496777979315289865e-03
-8.898838786781207086e-03
-8.032600378789923889e-03
2.155348602878003614e-04
8.650334486442945361e-04
-3.864952577854918053e-03
-2.120254994841186608e-04
7.305144064831466978e-03
-4.547279200331967586e-03
9.420105765676240958e-03
-1.724218420872621711e-03
2.599916593019924258e-03
7.144566637674858861e-04
-2.486124913848070713e-03
4.608382145650465923e-03
8.264353634224560347e-03
4.715781360864712514e-04
9.196775321703386935e-03
5.890278963089943609e-04
-5.914462435837484697e-03
-9.772973086846533774e-04
1.036654483837960716e-03
2.226561839069708410e-03
5.123459725690684106e-03
-4.595469477815277391e-03
-4.439315799680692426e-03
2.437747673413415833e-03
-9.514509828724957569e-03
-3.200568984968058493e-03
8.757865579647659826e-03
3.601528519268173707e-04
-4.132088767554741027e-03
-5.903841674326891151e-03
-7.817146797557225635e-03
-1.750644242807913083e-03
-4.856631820104552986e-03
-9.007716728202688067e-03
9.707304546479160468e-03
-4.527616604659510761e-03
7.993823710917514688e-03
-3.644565213441355520e-03
6.794186260533421028e-03
5.455846834245338915e-03
3.102939481974584246e-03
-2.664968437980307601e-03
1.308834274005728736e-03
6.438469682233529702e-03
-5.675582844114569238e-03
-6.219421930143398218e-03
7.628352145548062020e-03
2.456376391440145187e-03
2.097640517853667074e-03
-4.285500230295747996e-03
5.134229274788753086e-03
-6.977835865867552077e-03
-1.528140608054457793e-04
5.069738165380172946e-03
7.464150953215831046e-03
4.430982234224903338e-03
-4.236020286550397189e-03
-3.927521539033938802e-03
4.907690525537159072e-03
4.361075255975351873e-03
-4.995844207871511823e-03
3.859487038000753139e-03
-1.410869505788934185e-02
-4.330877128044171957e-03
-8.540469300764807342e-03
3.633698975797414969e-03
3.586220038705610538e-04
3.641157760916131653e-03
-9.485397786163694486e-03
-5.523584623634360952e-03
-1.054157851047883001e-03
4.083797818547574461e-03
6.924897845552226497e-03
5.431078576106410614e-03
-8.770430904689071119e-03
-6.566529592132662983e-03
3.631663355111182032e-03
7.378300111835940645e-03
-5.453201567097111860e-03
9.658197114625656499e-03
-2.268235370538978363e-03
-3.789065685565590289e-03
-3.762226858237818078e-03
-1.557206251691178097e-03
-4.715759370260957234e-03
-7.832738303727658155e-03
3.569691587823242175e-03
4.294849614310617021e-03
6.044759798047282147e-03
8.192180137103979506e-03
4.716657572823682552e-03
-9.310877131975274848e-03
-2.055399417788413962e-03
5.314323271386048320e-03
5.090641792865528356e-03
-1.509356989000530669e-03
-9.495376263757992694e-03
-7.193148407729133345e-03
7.208060402354924193e-03
-8.569758171630059360e-03
7.161182785506782326e-03
-5.868480057970698258e-03
3.169397656937441091e-03
4.657284191827916649e-03
-5.767817434157859139e-04
8.870933236355418861e-03
-3.764905161064062075e-03
1.164056448155954999e-02
1.249642922828857845e-03
8.281288743018769272e-03
1.345622249978073925e-03
3.380016217443878451e-04
-8.768008927431439684e-03
9.235464270615395196e-03
-7.574561996519479619e-04
5.966128331960843375e-04
3.182212288706920585e-03
4.265121156133003417e-03
6.586035059394574828e-03
-5.565442121367965463e-03
-1.475560569476079466e-03
3.362008283995719833e-03
1.300179887621569176e-03
-9.688959395827725224e-03
3.250351377581042235e-03
8.663225970160105122e-03
-4.003832369512597307e-03
-7.998552541408798788e-03
8.552341136844089642e-03
-6.566114809499049888e-03
-2.070465402755209024e-03
-7.562020003891323922e-04
5.319765185933821028e-03
6.997847357695417304e-03
-6.684420179664041402e-03
7.898692964872664965e-03
5.906991097518610699e-03
6.262601423327827238e-03
1.492698552993218910e-03
-1.434709995938748513e-03
-8.112398433341558648e-03
-1.308958745868709500e-02
2.022732958987445619e-03
-1.235823077413059946e-03
-8.015124561872130626e-03
7.646810954311418496e-03
5.510883391291056255e-03
3.173411033723628170e-03
-6.961115991111065972e-03
-9.802771948949922168e-03
-8.588580210057846723e-04
4.896044346229106586e-03
6.572109811620423236e-03
-2.098543613582107455e-03
2.326772518443259198e-03
2.633845703787493671e-03
8.737645118295504082e-03
-5.353470544723836280e-03
1.569018711925094026e-02
7.890773355250558369e-03
-4.013496402047812654e-03
3.550571788948199935e-03
1.606473853043046112e-04
9.639803595734952428e-04
-8.627076556924633162e-04
-6.267939365813979084e-03
-8.432445048569880974e-03
2.674105397610714724e-03
4.760523850711931466e-03
8.834957030754209129e-03
-4.141032622890693238e-03
-4.885000972954388516e-03
-4.633272230122251895e-03
6.711996573770110004e-03
-6.117287290479199837e-04
-8.583634154932509239e-03
6.275298238226809273e-03
-1.937431822928215031e-03
4.898748571267480013e-03
-1.953456470967359032e-04
2.295802842138850840e-03
-8.770061592185098703e-03
3.062300889344216331e-03
4.388406746125727252e-03
8.069077837396163716e-03
-2.998628022999250218e-03
6.121189286558506061e-03
1.024511659934567148e-03
-2.398981605264978879e-03
4.850935145388686237e-04
-7.252746081866638488e-03
-4.804321893811390638e-03
4.712839943999219856e-03
3.952251421594814990e-03
4.885613631682020515e-03
-1.808957039002854691e-03
-1.035113355057110714e-03
-8.738697358032768495e-03
-3.574102820967706585e-03
-9.830742745837152408e-03
8.646523761615452705e-03
6.689444149373761743e-03
-8.577346962554100243e-03
-1.314908750499557515e-03
7.447001693135512496e-03
8.673375814690300126e-03
-1.197234079068513861e-02
9.230468120337696758e-03
-3.654065128706070285e-03
1.035335578371959775e-03
-2.268885177452936459e-03
-4.806963784657392047e-03
6.133706460080635102e-03
9.723744584269744876e-03
-7.489467035019395022e-03
1.473030178574291811e-03
1.466997042377840002e-03
5.478193268829575045e-03
-7.176299778638886139e-04
1.361879034282920987e-03
-2.328267059883292519e-03
-1.176010463623499043e-02
-7.735554394730694699e-03
9.456978587028713398e-03
8.694871041476677845e-03
-4.234914408710769435e-03
3.549426307673166515e-04
1.330688621335186610e-02
-6.214869075171085971e-03
1.121555200466362902e-02
-4.289795857561039434e-03
-3.608368852114266986e-03
-2.448214577076099786e-03
9.995432754175432449e-03
7.112309147323886633e-04
-4.920449669023360499e-03
-7.332312787349984373e-03
-2.717048618303245094e-03
6.416867636833720884e-03
6.404884385591159274e-04
3.056080322359683299e-03
2.860565963248186318e-03
-5.270741404688500387e-03
-5.340438379039144992e-03
-3.044019819502991313e-03
6.509946041996628359e-03
-1.623283482781015573e-03
-9.389422620433150735e-03
9.243687532743807833e-03
3.007074930893942864e-03
8.253960947421673956e-04
8.487115563001613582e-04
4.862720624212162925e-03
-9.816403037297605563e-03
-6.729251695226319552e-03
-7.966396122538261376e-03
7.792700089998130970e-03
5.069242474963870163e-03
3.996148481848704748e-03
-8.088733875367145817e-03
4.821886673251360098e-03
-8.560674343056604713e-03
1.049548361359486752e-02
2.761408857615364493e-03
1.634357836821037939e-03
-6.603252592139938204e-03
-4.662905337026885741e-03
4.980781549530631167e-03
3.631600770704102987e-03
8.677853868738674009e-04
7.778464048471519024e-04
2.339527412204344542e-03
2.811020571066446313e-03
2.969052362150655620e-03
-8.229223839619721759e-03
-4.080808139365783675e-03
8.653244126325799687e-03
-5.035583873844055869e-03
-4.833937812813651411e-03
6.036159455935390279e-03
-7.950987149710982832e-03
-6.549486960602802360e-03
4.981614293639712032e-03
2.696343527899010446e-03
-3.176533629837071434e-03
-1.543648713234733539e-03
3.685289397907864223e-03
-8.769176422126968851e-03
-6.008939210366079191e-03
2.678995542843928650e-03
3.939932104748929305e-03
-5.807375901641985937e-03
-2.144136905696509068e-02
-6.918192076562816942e-03
4.714235421093842734e-03
2.022450121317106823e-03
8.254993472012462502e-03
5.375788414698273385e-03
-7.569748898518604413e-03
-5.503039607546430199e-03
3.571977891906282822e-03
-2.028903348944226682e-03
8.726057384453663954e-03
-9.977430909142660700e-04
-5.955516462150180212e-03
-6.218239145153626503e-03
1.378016232645384864e-02
-7.453806073991234467e-03
-9.279034716393274804e-03
-3.757497214087105516e-03
5.394561276519157372e-03
5.071407837167424791e-03
5.374108498069331491e-04
-3.076927871564502561e-03
4.194207470578989981e-03
9.116072193356142966e-03
-2.361507192136930600e-03
1.693568417133453977e-03
-1.105371242047382963e-03
-7.861767093885691296e-03
-6.872733068732432516e-04
9.955871036753787331e-03
6.555980717807710287e-03
-1.996158716406400287e-04
4.238679918029772398e-03
4.376304573638180491e-03
8.337712542007113398e-03
3.295462653040299658e-03
9.691026690859387213e-03
3.105819724224862053e-03
9.938581025681486603e-03
6.011730174688131000e-03
-4.257468065561206133e-03
-4.943958047600831296e-03
4.409854208177381094e-03
2.120857768288895041e-03
-1.969254830064055828e-03
3.955788323506451674e-03
-8.557905147030122435e-04
7.849416578034151479e-03
-9.707320390910148186e-03
1.737157487671477877e-03
8.140126477375065825e-03
1.442368360014860884e-03
5.723593429265292493e-03
-9.102507886204001808e-03
9.725675438505063455e-03
9.996275431112812762e-03
-4.336582019877582503e-03
-8.538918967345904276e-03
-8.832221951462666809e-03
-5.098305829989405354e-03
3.805202083825296247e-03
-5.178384889193463991e-06
-7.263500399365779153e-03
-7.391250687586816185e-05
4.511368072507222424e-03
-8.805970630625790940e-03
-8.193528326162626690e-03
7.480006154056311092e-03
-7.658446034452125357e-03
5.505276439736840610e-03
5.982919295915936457e-03
5.830581957440036586e-03
1.884084366417563671e-03
8.792755430564838312e-03
-2.673748758874962966e-03
6.094147753814547520e-03
5.155656502949956636e-03
-9.846546949006875979e-03
3.691042062446177850e-03
-4.529412791611907123e-03
-8.065209418821705015e-03
-1.188705951637265487e-03
4.052170970025728916e-04
-2.746467760964815732e-03
-2.752291219890559346e-03
4.843048546557272502e-03
-9.725616160813110520e-03
-1.258371034411806186e-03
8.841711874676423666e-03
-4.081231947788185009e-03
-8.421009333721968595e-03
1.354015556162668516e-03
1.833080563267276697e-02
-4.599263826446387156e-03
3.859310019636001503e-03
-8.213324183617552732e-03
7.896027992802459941e-03
-3.883505108489625039e-03
-8.673727277370230082e-03
2.973521798115163171e-03
1.060433653517091086e-03
9.454252640742356537e-03
-1.355586610588421607e-03
-3.255087700560377762e-03
-5.186334786379705186e-03
-3.225181108355797133e-03
8.140558997063484722e-03
-6.597224254662551954e-03
1.618806018515817980e-03
-1.407011792686698511e-03
-6.495193072075640395e-03
5.064762615443712916e-03
8.173957868204248436e-04
-2.696513435856752808e-03
-2.958190325457448074e-04
8.947571018140887205e-05
-3.058272532935974765e-03
8.638520197082241161e-04
8.741599078119786969e-04
-4.771826316861251492e-03
1.088503440201129234e-02
3.566035082227744096e-03
-8.190766811454660776e-03
-1.459047862849890270e-03
-9.631351960878607385e-03
9.919587044396355191e-03
-7.464530960472929959e-03
3.178325820351996043e-03
2.054002414720389571e-04
3.464074586514611764e-03
-6.371636889762793791e-03
-1.884314786351571746e-03
-9.860509191940735815e-03
-3.153254787251413230e-03
1.164616765359415647e-03
7.775968773435602962e-04
8.179298222835883203e-03
-2.022048288022802037e-03
-8.819450713173575263e-03
2.605414968538252544e-03
-2.618002189251658531e-03
-4.885569992877029921e-03
-5.997161689512297070e-03
6.501559010123663697e-03
7.199099821140882323e-03
-1.229185520383354073e-03
-8.907852647187308043e-03
1.399767492600839137e-03
-2.091913446909888369e-03
-8.321828403931317078e-03
-6.046299883135734451e-03
2.061820235408118632e-04
2.672096546583001189e-03
4.740360301252449088e-03
5.063579356954510564e-04
9.571769267032667616e-03
3.486287816855033941e-03
-3.489096405453744488e-03
8.947895793607473988e-03
9.028853856982353016e-03
-8.016064208364356847e-03
-9.255812443281798835e-03
3.429454226864961028e-03
4.843558899073822747e-04
-4.109676837414505944e-04
2.826246251787107797e-03
-3.019656788774999212e-03
3.908754256933073302e-03
-3.295342112467584440e-03
-2.480963682011140363e-03
9.129154430715219135e-03
5.046046448537284783e-03
6.140777657200790357e-03
5.869901576323932439e-03
-9.040585931250960314e-03
2.120860929591064301e-02
-5.646233247652334038e-03
-5.856525128236548562e-03
8.168260128858909758e-03
2.417474651536348062e-03
5.346352639477428004e-03
-6.655540585319242447e-03
2.179410777373043655e-03
2.206574486066507402e-04
-2.193310919836581867e-03
8.296491014622509388e-03
5.377181088918627644e-03
-4.391610685991180311e-03
-1.224619571326011165e-03
-6.815117535183047061e-03
2.771079039474501002e-03
4.932292229449138955e-03
4.806554754590114560e-03
6.701663228089838747e-03
-4.811584589658784300e-03
2.552937443873006407e-03
9.341397252212068486e-03
-4.146645774636088799e-03
-8.147632897553691231e-03
7.662472836460719298e-03
6.195090822633147684e-03
-1.373742069128991222e-03
6.798681230362761847e-03
-9.588088672778560112e-03
-5.998718343028286437e-03
-2.785917790762653876e-03
3.469679523910403594e-03
9.764788805225585802e-03
-5.674557238825185534e-03
-8.566015935664125780e-03
9.599827203147254240e-03
-8.975760558133120612e-03
4.564809137046569806e-03
3.877485434508436135e-03
-8.455760702974098736e-03
-6.537255115000255475e-03
1.463523784438318116e-03
2.291057668109326858e-04
9.463609707737875680e-04
-1.106932079665855651e-03
-8.099279170305249964e-03
6.881661562969473844e-03
-1.736408408904753856e-03
-8.633044129534269903e-03
-2.276810491508058851e-03
-9.118579816014400069e-03
-8.901057102757937989e-03
-5.696585164776606092e-03
6.116494179020086179e-03
2.635142075621929331e-03
7.842461941189831157e-03
3.484710437275239693e-03
1.937989472411632587e-03
-6.467330885029516337e-04
3.337300175638632186e-03
5.323204052963328168e-04
9.242395583571106840e-03
-5.325870753929361559e-03
2.752517190840919788e-03
2.370624870647758311e-03
-6.505891205380818880e-03
-4.119226011718987246e-04
4.210815053631242373e-03
7.166726223180487111e-03
-9.164519166779971655e-04
5.820028620446340666e-03
6.053445380947083954e-03
-5.044240076860400171e-03
9.076655203981022491e-03
8.731668297700789089e-03
7.324045905173800011e-03
4.830412504164481938e-03
-7.598566978749212060e-03
8.429445229832131445e-03
1.468948275131235805e-03
6.363867425483133583e-03
-6.683841123844592449e-05
4.808669491093701086e-03
-8.313787593762162267e-03
4.198480442301295238e-05
2.495170689262318775e-02
-1.403428120887994460e-03
-7.227482761518405976e-03
2.312139444909533208e-03
-4.112909969966265823e-03
-6.033872118247055397e-03
-4.472050066527408566e-03
8.196140958144285463e-03
-5.710720856903793224e-04
8.183876510517149039e-03
2.602540344419082205e-03
-6.836880354651939801e-03
-4.603308518110392662e-03
7.186939251232642156e-03
8.590097093072438308e-03
-1.023961499139575907e-03
8.919461919618825591e-03
-9.492110339520597184e-03
-5.093931832676364818e-03
-3.904657834423639739e-03
-6.730707138642931173e-03
-6.914805959515905529e-03
6.931628480605088287e-03
1.232384630514926291e-03
-2.843120842457079120e-03
1.837567140259505202e-03
4.441372045587158035e-03
1.820351417311815096e-03
-4.586530908647212931e-04
-1.608554437812699392e-03
5.796440974186014769e-03
-3.330465430790524248e-03
-4.578253524832821310e-03
5.020660991511397865e-03
-7.796417747996684487e-03
-8.621579713361207653e-03
-7.593919363530578226e-03
-5.465776983346108849e-03
9.574447806879309714e-03
-3.951955880882403530e-03
3.895906166324996939e-03
2.349624896205472057e-03
-9.927981069393850694e-03
-5.761917343003668084e-03
-3.021955629127794345e-03
-4.253097693658690337e-03
-9.564077098823332151e-03
6.020621448292064583e-04
2.277024715539077530e-03
7.557609260912736583e-03
-3.526874556421086011e-03
-9.420038152599586115e-03
-6.352808278991258634e-03
6.863068615242088992e-03
9.409016755294347546e-04
-1.221228790697151401e-04
9.143336015256133334e-03
-3.976533056996116137e-03
-8.116726385687717329e-03
-6.753565364947282899e-03
2.796838009355895674e-03
-1.225098701736506779e-03
-5.681613931673996053e-03
3.074802682657033943e-03
8.052868371250000712e-04
-2.050819885328799587e-03
-3.661606212244786283e-04
-6.447479651910779583e-03
6.810780716108635717e-03
1.860317694550580247e-03
2.153197550099298068e-03
1.010922507577043453e-02
4.299273312112593740e-03
3.581050068282754135e-03
-2.580602125502346345e-03
5.698714773056156972e-03
3.276232154901060744e-03
-5.522465168056086247e-03
-9.239421574468699438e-03
-1.187415950940021430e-03
8.722457751633135373e-03
-4.131974869392082694e-03
-4.901087953987832459e-03
-5.019709707219266893e-04
6.884750679478440771e-03
-8.781298227907675252e-03
5.076356400371947802e-04
-8.369567897457370204e-03
-4.351161075624150696e-04
-7.394147684888946991e-03
5.186284585398333313e-03
-3.513091775519806229e-03
-8.040793481662495551e-03
-3.896171860626664908e-03
-3.682132929430198022e-03
1.758576507248851839e-03
8.081481981014061386e-03
4.289324233925555750e-03
8.670470533363602850e-03
-2.043716474086934229e-02
6.385793467711016469e-03
-4.707264512499706910e-04
-1.350288913069854369e-03
-1.095947310725077940e-03
-5.306609018658880322e-03
-3.872171770541903927e-03
-3.163342844149153767e-03
-8.283725758778320153e-03
9.045296950586128454e-03
1.851935155380625441e-04
-6.101253679819464669e-03
6.214897071489823219e-03
8.944931390510175995e-03
7.302831605724780309e-03
-3.292727243731273078e-03
8.419736665531120379e-03
-9.168959717970171994e-03
8.796161838161210833e-03
3.041508491777143372e-03
-7.481608924892068149e-03
7.283940679580646997e-03
-9.952826118305630563e-06
-4.196137431461501033e-03
-5.705981982273248578e-03
-7.295940209846229693e-03
-2.182009028153657736e-03
1.748157752088088171e-03
1.713554910284003068e-03
4.940970939871332061e-03
2.457789155400440934e-03
-3.479895007011334866e-04
7.284304153839812977e-04
-5.706249603993490682e-03
2.937865563527257418e-03
6.504739776354047723e-03
8.584463410247803253e-03
8.959305400159864319e-03
7.717610272283579979e-03
7.849905668488098981e-03
-7.416379912641189037e-03
-4.498511075735429416e-06
5.013985508863834199e-03
-2.651448167207194964e-03
-6.863554345413234482e-03
1.090183664604639328e-03
4.901556718072842128e-03
-5.146977909603447747e-03
7.623994022188430170e-03
-3.155154962118253089e-04
-8.948903635920569047e-03
2.685751952916676667e-03
-5.789297267907125844e-03
-5.726150664829969018e-03
2.284458427952634329e-03
-5.432127651335960997e-03
-6.031474408597609083e-03
-2.957072041968367409e-03
-1.435992926750395097e-04
8.722675478629262139e-03
1.254169885704110605e-03
-1.337660587177862603e-03
-7.204848962862086745e-03
4.049755327165238845e-03
-1.488990506085877998e-03
-2.247822055313937473e-03
-5.817524869814589411e-03
2.700770669978487526e-03
-6.758532198620406835e-03
-8.579137187890800709e-03
-4.137594122445102315e-03
6.756096809625004689e-03
2.556977087727966159e-03
-8.970131533495805803e-03
2.372948339372143393e-03
-2.739796144904865088e-03
3.759490687774938336e-04
-2.065940541045817574e-03
8.587093141413489061e-03
7.091995652417739000e-03
-8.158018342623262614e-03
-5.919861549919623947e-03
-8.139164043363527126e-03
-6.867365567811172487e-03
3.367872509629664043e-03
-5.282725258870604908e-03
2.390400078649452826e-03
-1.010211078862164116e-02
8.562054741427800163e-04
5.622028383890214157e-03
-3.424580046078841682e-03
8.557189872017390356e-03
2.080641965929372339e-03
-2.398028246742935077e-03
-2.450252387492552787e-03
6.797496182194486154e-03
6.320404986561194670e-03
-8.475554044832831618e-03
4.400776538080380940e-03
2.274695577576600885e-03
-9.964379656929395201e-03
-4.754435304877359901e-03
6.886069443133444740e-03
3.537337150036408417e-03
-8.569411515381934047e-03
1.659315788436614139e-03
-2.050614985744235452e-02
3.664933835243069579e-03
-4.824328293408905802e-03
3.754657595214789569e-03
-8.809593378552938239e-03
-7.050190641278939255e-03
-2.287439737899895373e-04
1.765384864755995594e-03
9.552114198365534506e-03
-3.503736053514107992e-03
-8.303459127653603847e-03
5.131346437204404795e-03
5.750412667521036594e-03
9.703944265762926361e-03
-1.508818514719289855e-03
5.945815804038723749e-03
9.095242096583333255e-03
1.034856044812179805e-03
2.747057146397680668e-03
-7.480867415512086095e-03
8.989039047295366291e-03
6.398011530372652370e-03
5.355868060809614896e-03
-6.588503540971972841e-03
-2.891651624031841682e-03
7.990139071855395167e-03
9.755469105747855904e-03
1.496759144259043363e-03
2.494903370664370429e-03
-6.955003343229704607e-03
-1.633952872880861662e-02
-7.194799461411289371e-03
2.053116796863283054e-03
3.490654368094777901e-03
4.995665312090546973e-05
5.279595348233682116e-03
1.383508074160323155e-03
4.354359971223857768e-03
-6.216873189333210932e-03
8.431247308290300627e-03
-8.974398311944049552e-04
3.871076598942582801e-03
6.711338972513634579e-03
-3.294648499330701200e-03
6.997371819773744173e-03
-9.420509308105930180e-03
2.331407862003275280e-02
-1.781959842214897276e-03
4.719852938891342352e-03
8.922333087559880527e-03
4.518316662912256858e-03
3.891392790934808995e-03
5.598492866527428856e-03
4.185229512472604663e-03
6.061190629227361558e-04
-2.444889526138448784e-03
-7.493369559655050326e-03
-5.574746790901754893e-03
-4.365477960953188102e-03
3.690620357769171418e-03
-7.484867160158170879e-04
-7.658859563266426189e-03
-2.230014189284181859e-03
-8.387412874450614689e-03
1.134573680779041695e-03
-5.395795330040820516e-04
-1.238136426309495875e-03
5.636162933782911354e-03
5.622053759083929514e-03
-2.589134783547419969e-03
-8.607787193611473415e-04
-2.944616344578271350e-04
-9.867104913877519038e-04
-3.469438253249560247e-03
-6.940379769159987213e-04
1.548741078337985367e-03
8.390909032449754903e-03
-6.357842835037076645e-03
2.670685667750141538e-03
-5.443284298517279095e-03
7.001052077396287959e-04
7.230179826611500375e-03
-2.485801004079636958e-03
5.701866009513613734e-03
4.212410284104568629e-03
-7.265413547180353190e-03
6.383136524452847661e-03
3.132128254596535342e-04
-4.386803496492016653e-03
-1.015755043658943084e-02
-3.962796496202517210e-04
6.061544470157691732e-03
-2.621662870805928532e-03
-4.725028091078746365e-04
5.988052147769234567e-04
-6.427043739627043110e-03
-7.047621111438795265e-03
2.803406611840494542e-03
5.728027179627536054e-03
8.946585465851421629e-03
8.617586500337857947e-03
-4.135664101820675856e-03
-4.485609703433107547e-03
4.099755161335824107e-03
-1.641819965879939142e-02
-5.329045942713667681e-03
5.089222991829979274e-03
6.636495858620963459e-03
-1.764864776224272895e-03
-2.385963836068360003e-03
-1.220188755569616510e-03
-1.249510930362343055e-03
2.994213147676462114e-03
6.761903626819423287e-03
1.657547226072921117e-03
-1.256446930505833448e-03
6.520295257107457457e-03
-2.968070766645836828e-03
-3.702996348445714161e-05
7.782334401913933684e-03
-3.420770020395752422e-03
-9.315385561761577171e-03
-4.288692824329270840e-03
1.018488564641094416e-03
-4.550956506676231451e-03
9.421457373059530585e-03
-3.936856024504966495e-03
9.255352889784388207e-03
-4.711000295300350922e-03
-1.543136534080247766e-03
-5.183150375983127528e-03
1.123038855406993533e-03
-8.342790612791896321e-03
-8.061264157450641343e-03
-5.529053372313813379e-03
2.526206227763816078e-03
-8.395419020477325883e-03
-1.207582705048751426e-02
-8.893138082142216724e-03
2.799977324301858306e-03
-2.692631841865575533e-03
5.855822684398315041e-03
4.208602271044005472e-03
5.724105319204823329e-03
6.006723045477600282e-05
-1.244529589496258905e-04
-5.109404834815824657e-03
8.111376002594723050e-04
8.689869737896057864e-03
7.476327740085981707e-03
9.486542880541327938e-03
-9.582508971617852145e-03
-8.903661374835175266e-03
-8.099034178390987493e-03
9.985760110809460341e-03
7.403182532285340275e-03
3.366739252025914564e-03
8.475022844341430564e-03
8.392030882836453223e-03
-1.622729978470075635e-03
-2.601840279971317366e-02
4.948278579052510333e-03
5.842005469820988261e-04
-1.628416559444124424e-03
8.746213266018430452e-03
7.283743239382591515e-03
8.167237218346477118e-03
8.979326366786222202e-03
-7.869677035279655552e-04
7.806487511292092840e-03
5.731801800950602627e-03
2.899961582036776901e-04
-5.833154731921742948e-03
-3.864839005010144331e-03
9.558419114527528376e-03
-6.528479390256407278e-03
-6.902425151825110870e-03
-4.421768087294257292e-03
-4.221436755593276600e-03
-9.745386191009168531e-03
-1.085482961512010663e-03
9.927904499479446934e-03
2.712233591436569082e-03
-2.253113853519370362e-03
4.517121220969619148e-03
-3.064783582173298028e-03
3.361561712022499010e-03
-9.779188317940295042e-03
3.957557637082915504e-03
1.280764478733687883e-03
-1.287013108366291247e-03
-5.678284465321243799e-03
5.475616494816839402e-03
6.031879062126582064e-03
-3.999864618159241353e-03
-6.765499528874554733e-03
-3.499473005218857805e-03
9.682741303105016697e-03
-4.336432871705304059e-04
-7.714101363972450387e-03
4.323611616106749593e-03
-6.759375830994665199e-03
4.422949616717249122e-03
2.101105819095978790e-03
4.838312654634544484e-03
-6.545036307611780402e-03
-1.571355375546878942e-03
-2.271487008916211938e-03
-3.535257953547748556e-03
-2.869070536187026677e-03
-8.407879349550232556e-03
-6.052340210278979796e-03
-4.368813210968597663e-03
2.821947879506992839e-03
4.518248929258267439e-03
-5.716528544800137529e-02
3.848030991617300538e-03
8.762505490652647278e-03
-6.466024234153120408e-03
3.782136771943537482e-03
-1.910899746179996889e-02
-4.316871651889434697e-03
8.047253536762883144e-03
3.739254996559420938e-03
-4.182721676473996966e-03
4.603223638466785554e-03
1.002123692308786200e-03
-9.839743230283071879e-03
-9.079121151027555806e-03
7.783624804729902778e-03
1.412309265567563430e-04
5.273631757548124903e-03
6.484201108403793955e-03
2.454794323735170342e-03
5.019027279322076443e-03
9.036444588379460852e-03
8.182101502817271110e-03
2.094052770859856742e-03
3.595810415072867201e-03
-8.279137262623177326e-03
9.334000832474338011e-03
-2.592271303077590093e-03
4.523085331724633479e-03
6.853164530778703238e-03
-1.904723542833219440e-03
-1.043114659516168824e-03
9.668598201703909253e-03
2.581526046358620464e-05
3.584016820006751501e-03
6.278217455961374342e-04
-8.580188320845694508e-03
6.725678247623345131e-03
5.186255342384611840e-03
-6.949952603178834697e-03
8.309486876558777428e-04
-2.959618926030265721e-03
2.696668771051863572e-03
3.220733934486853280e-03
8.172863392719218953e-03
9.638875301272407936e-03
-9.017435422303463760e-03
-2.800046554114306568e-03
3.712830221936583991e-03
-9.608772816476309972e-03
7.533866953024574362e-03
-9.374304249278566509e-03
7.209331223237016792e-03
1.186610419168714547e-03
-4.207457197156883977e-04
9.093828895904354156e-03
6.768624520609874649e-03
1.820284610569514790e-03
3.640181915506983303e-03
5.602720739527090876e-03
1.575374623179424125e-04
-1.949299392957629367e-03
7.196124350052790497e-03
-5.147872555889309795e-03
-5.079759674595347128e-03
3.451061591101508078e-03
4.687099423985026034e-03
3.513662887267767366e-03
1.044496784681818880e-03
6.684151766445524390e-03
-6.820019160200325309e-03
3.961717289941819702e-03
-4.395220263903449470e-03
9.423669295486585690e-03
-9.385343640364319714e-03
-1.778811823379514026e-03
-5.716998359922774789e-03
8.670853418829465101e-03
-8.674271463257082759e-03
7.866603032264043657e-03
-1.189419193598152203e-03
-6.721950941829668916e-03
3.839430183963060943e-03
1.408069577301737955e-03
5.456512543860678882e-03
1.073058302175524184e-03
-1.018927306800599232e-03
-8.720243579093201261e-03
-5.058746965565240859e-03
-1.168319517566414117e-03
-9.148275277974439457e-03
1.517304339287668408e-03
9.939353703322413927e-03
1.981205264706452276e-03
-4.792789823309507799e-03
-8.205909686686998009e-03
4.792132110971254050e-03
-4.308160564128128006e-03
-4.797819918425683637e-03
3.957146396967791031e-03
-2.780902396772801273e-03
-1.839464597401180681e-03
-1.763174192138215876e-03
-4.495789296785223169e-03
-9.270846778322898440e-03
9.778593684524057583e-03
-4.612447694618725808e-03
-3.616123644895379886e-03
-6.367594088043655558e-03
-4.821407808987633603e-03
-3.886078695779389674e-04
5.546011941761188994e-03
-2.712532580905356074e-03
6.688476592999763500e-03
-8.351675908086100483e-03
-7.342197740946189780e-03
-6.672071423556217781e-03
6.210177816935577230e-03
-1.453229747308754918e-03
6.963840009416414917e-04
-2.896430141143972996e-03
1.048382010456114753e-02
4.863845658445654224e-03
5.677037545159966878e-03
-7.279002983500908013e-03
4.584031687377592909e-03
9.527394489297286509e-03
-3.126495758858020661e-03
-3.817463243575011395e-03
1.201250731396390345e-03
-4.016884287741785773e-04
-6.051754373814747720e-03
-3.887240274687444154e-05
5.824131285103459690e-03
6.700551476989633458e-03
5.037017445245890040e-03
-4.920826581960335497e-03
5.301324915699155010e-03
3.663318918321842332e-04
7.195958233659086566e-03
4.426566604392066312e-05
9.353569436459126599e-03
-4.255887648688969592e-03
-1.576614839204872531e-03
-9.678236439458577168e-04
6.024216384963665752e-03
5.678234938422978533e-04
3.978542891233014314e-03
4.673358982718519260e-03
-6.894704410972223897e-03
9.203920552990633086e-04
-4.473664372882941130e-03
5.299928092819450667e-03
4.699722088803408131e-03
-6.125931438831650963e-03
9.881156731905047300e-03
4.099280343204894476e-03
-6.480350229398067555e-03
5.972553624560032401e-03
4.363106879369665903e-03
1.988483231950659291e-03
9.922590168061773061e-03
-5.786533665665711743e-03
3.910380054172961015e-03
-3.453306024146375608e-03
7.296571650538173637e-03
-7.922318002391844777e-03
-9.850468235856543742e-03
3.082060215999148003e-03
7.601620651776223175e-03
7.957254111070526451e-03
6.274378630779156064e-03
-5.753285935219153331e-03
-3.640951965297691949e-03
8.633444276431440773e-03
-2.460678443700318237e-03
2.753262799593912159e-03
2.937762679295494866e-03
-1.761143684653366940e-03
-8.054729501637877126e-03
8.000596716553681417e-03
5.519127190843585266e-03
-3.066382514797067697e-03
1.271271377106304550e-02
8.810452792278492679e-03
7.048552271531519087e-03
5.930120594626595888e-03
-8.688930054315717813e-03
3.971816324245634332e-04
2.673347330106789956e-03
-7.662680266245295614e-03
-6.819764831886796505e-04
-2.435111657442280090e-03
1.625408671326783287e-03
2.893635558880476924e-03
3.207865497297083027e-04
9.401279777155345518e-03
-3.576749718243376827e-03
-1.307015921663938875e-03
-6.417775728817750637e-03
-1.350772105558172747e-03
3.677107479392903184e-03
-5.575250908126429001e-04
-2.252541764365520633e-04
8.307010241663001331e-04
-1.172011467645095754e-03
7.416015898829834974e-03
3.837493582258556021e-03
-2.026191790293133121e-03
9.162143258060556628e-03
-4.650467861909205608e-03
-1.832720631904525372e-03
4.457434844264888604e-03
-1.234369646183963514e-04
-7.999707449468181422e-03
8.457933485388464609e-03
-1.693872417455715958e-03
5.438062872451607938e-03
9.805017319331118045e-03
8.947418986211583269e-03
-3.919190440447496530e-03
-9.327307812002135629e-03
-9.200170334591360397e-03
8.408355168405993313e-03
-5.503230166236650761e-03
-4.465266545474935039e-03
7.996513343572642790e-03
-2.092249923495763820e-03
-2.234506260251739249e-03
1.621809297469981904e-03
-2.844507152835597935e-03
3.029422552243137001e-03
-1.583067246860848454e-03
-6.928516484517914520e-03
4.535548095082023341e-03
7.455733484776007509e-03
4.373644731617589744e-03
5.131392924448609921e-04
8.619492709503006125e-03
-3.256277265325297886e-03
4.838752792935957221e-04
7.321942875981622863e-03
-5.970186322877987957e-03
-2.762381696517383651e-03
2.994384987582647279e-03
8.465593066288117780e-03
-7.740469197874059841e-03
-1.338876970704239991e-03
5.330572579124483179e-03
3.817886454429261518e-03
9.147788150257636641e-03
-3.269888604550431205e-02
1.500181653813532998e-03
-6.129656977225599957e-04
6.518348878638117322e-03
4.946306898566710762e-03
9.607396211835636524e-03
7.578992952751916964e-03
4.601268823599791169e-03
7.252815825762489767e-03
-8.440574366587867000e-03
-2.317248734867065254e-03
1.258426156552162065e-03
-5.091733478316940072e-03
7.286793867374158351e-03
-9.330771764238052907e-03
8.136077989427599119e-03
-6.582914142239978950e-03
1.303081258853269970e-03
6.986426714071746619e-03
7.779484836276296181e-03
1.666164678756282009e-03
3.266277037042373665e-03
1.127222880153127887e-03
-1.973813400450801035e-03
6.626693981985712703e-03
9.779937699069670906e-03
8.433345931530885492e-03
7.216421276528803969e-03
7.728586852140811869e-03
-2.526820508259846471e-03
2.353933415872480877e-03
-2.976805197000037713e-03
-8.344944905308130517e-03
3.219305096010011569e-04
1.531459562620976055e-03
6.205202592107303232e-03
6.246776728076096699e-03
-4.766084705118097883e-03
4.402090612272297962e-03
-5.022054439616896460e-03
8.289042454792868450e-04
-8.198411722110448760e-03
8.502564434818289663e-03
-4.551374023359490949e-03
-4.529676131075389967e-03
-5.509700493894301512e-03
-4.086236189378065348e-03
-3.261333802020607419e-03
-8.317323692071744478e-04
-2.019870820897553924e-03
-6.979378530875868930e-03
-2.863750517400898577e-03
2.403452741459772852e-03
-6.908754332996982876e-03
-4.364506299466000376e-03
-7.503283379009185496e-03
-1.861145327841659015e-03
2.385782100357577203e-03
-7.454203280790598629e-03
1.376341091403395812e-02
6.475475231647413558e-03
8.209471370872304524e-03
8.287124517978326776e-03
-2.067355447941294187e-03
-8.732413174190238256e-03
1.489234663921100692e-03
7.637134646922809009e-03
2.286404049321853098e-04
-4.504767655132801973e-03
2.817461919206343257e-03
-9.678135220040191833e-03
-3.131073542455023451e-03
3.249983394520651516e-03
3.295976818552276248e-03
7.879084130511101666e-03
7.581771887287890900e-03
-3.101624659615552591e-03
-4.757198552905123404e-03
4.840265465777145865e-03
-7.123175093261715878e-03
1.615200546318183413e-03
1.462304571335366595e-03
-1.831490085355718224e-03
8.265546942607962522e-03
-5.794261825704859724e-03
7.723232498626643027e-04
5.853890830100999705e-03
1.193051814195691430e-03
-1.281523785332529947e-02
-7.909362427332462461e-03
3.227871256150731914e-03
1.098492334904418175e-03
2.678387113629568817e-03
3.043383685385643838e-03
9.323412652553108443e-03
5.702390038121552679e-03
8.670504012749376960e-03
9.910065344906116708e-03
6.801560450667390890e-04
-4.515233665035151521e-03
1.508172514010898196e-03
7.051632461245816233e-03
9.045133499087214604e-03
-9.611385515679124469e-03
-7.664180662984508910e-03
4.258142602532141718e-03
2.448208251233591985e-03
-3.093385224666998692e-03
6.192548086287455456e-03
2.070062751237408336e-03
-2.272676065152710488e-04
-2.236788994776649914e-03
-5.118112321692540843e-03
-8.780881762018567099e-03
-7.076989872758911691e-03
-1.133066663593464883e-04
-4.823647225619017744e-03
-3.141551689416312038e-03
7.940629626616985126e-03
-8.429488631234209606e-03
1.517264784990352607e-03
-3.339278793849299876e-03
-2.141983546832327331e-03
7.800677691625813696e-03
7.899020659340788217e-03
1.582600074494368932e-04
5.916472335132137196e-03
-2.798473716447108343e-03
-6.807264781856501787e-03
8.619336391369764733e-03
5.645296890584823070e-03
-1.053399602456823146e-02
-5.960317350598996582e-03
-7.216744084616933883e-03
4.859018291697084560e-03
-4.875311280498674862e-03
9.139587597077091993e-03
6.013917713986797337e-03
4.127867307615771739e-03
3.901726716175061855e-03
-7.376081845342563788e-03
-9.468485285619913580e-03
-4.476512931351190813e-03
-9.894506827892961612e-03
9.833881874655267530e-03
6.848747354125898391e-03
1.684031249677347486e-03
1.834522517871255316e-03
-8.121696897263094850e-03
-3.635242289939390106e-03
4.376548689632084148e-03
1.212276344579512471e-02
-1.952494106039043362e-03
-2.991546530390990118e-03
-2.414499440212085173e-03
-5.717608979503995166e-03
8.683099185113804172e-03
7.211375279374468775e-03
-7.906841207206699237e-03
3.662065239338165110e-03
-2.667743982819916794e-03
-4.164293508486228935e-04
4.092965470502495963e-03
9.798282204954839730e-03
8.972670073358871359e-03
5.794894995594652813e-03
-2.813560465982205619e-03
6.780648860343663513e-04
5.337106389503310129e-03
1.664962120497415080e-03
5.232391109853888438e-03
-7.122793068518725075e-03
-5.154487131718610109e-03
9.295023037371497737e-03
-2.597256932631880622e-03
-3.156738141275733378e-03
8.860034609567800021e-03
7.640431001792236977e-03
-1.459412404066712157e-03
5.418524750187153367e-04
-9.794475978329920951e-03
-8.969125281284533527e-03
-7.262231617907848220e-03
-7.317263483229743612e-03
-1.891495632335161428e-03
2.273980030696649748e-03
6.746291859747597514e-03
5.104681962032825600e-03
4.222335328690898087e-03
7.521037365499541605e-03
2.560170642521044249e-03
8.676751683945507776e-03
-6.392508071688480543e-03
-1.302258096806581996e-03
-7.022088984258728237e-04
-8.068131882408858743e-03
-3.526816759518024862e-04
3.681737975913695372e-03
9.127455156286434779e-03
-6.916654079482052395e-03
6.310139344489653149e-03
-2.809308741117279144e-04
-2.617119562889988742e-03
4.537437145655679425e-03
8.268727340887177882e-03
4.868036601917382321e-03
-4.589103117586735246e-03
2.395045262280987020e-03
-3.793859054316433416e-03
-2.182418329414551397e-03
-6.205262366487162250e-03
6.002403476223998509e-03
6.984692240440396570e-03
-7.957487433743156910e-03
-6.372887534084389384e-03
4.762214000997523969e-03
1.863886265561175409e-03
-6.003325183487760904e-04
-5.377931923149191495e-04
-3.465061918600771586e-03
-6.686075161748833602e-03
8.526950222705937180e-03
-5.666905753511714688e-03
-4.660825619760423921e-03
-2.859353426616750848e-03
-8.870753647666325403e-03
-1.688757875689421515e-03
-6.721886990520550831e-03
8.776541215478437727e-03
-1.858489248613504410e-03
5.214006430958430596e-03
8.366938718885476300e-03
-4.437525653628648925e-03
7.605980150979526656e-03
7.192802370927456757e-05
-6.208061722681499674e-03
-1.733359444273137881e-03
-5.639387154264129294e-03
-8.558331856209426243e-04
3.470989095164684138e-03
1.721570764892304888e-04
9.543018029850285772e-03
-3.238960010572106921e-03
5.938044016362833792e-03
9.578973039265083547e-03
8.266773708672318574e-03
-6.528965739219132376e-03
-2.534211999818658176e-03
5.023180570155328685e-03
-8.736597224727507896e-03
7.508108866207673614e-03
-3.927246334272546072e-04
-9.475743573604795619e-03
2.577775253592625663e-03
-3.494359002302683485e-03
3.394998708774059609e-03
2.969905841375385276e-03
-3.435214252912214086e-04
-3.137870125428913852e-03
-5.179053645302515718e-03
-7.066882466707418396e-03
-4.258735700452180237e-03
6.484275536862562500e-03
-7.078010104709695806e-03
-9.437402421649561737e-03
5.730038440888209636e-04
1.157591151335284280e-03
-9.858392685881487566e-03
9.299496988661667268e-03
-5.922773677451205476e-03
-2.057385671476435769e-03
2.325874231290017864e-03
5.318564710232200760e-03
-2.985321856468371574e-04
-6.296065636890245398e-03
7.947060007118245811e-03
6.495199759526520782e-03
9.556958007061602117e-03
-2.653651045698610187e-03
-3.113261727488137419e-03
-1.026645694918436021e-03
-4.350522458180928857e-03
4.603778859763964226e-03
8.125714528018787575e-03
-1.084568519271078584e-04
5.973574667423411401e-03
7.445491958330832487e-03
-2.101873641379610642e-03
1.181279110536267562e-03
-8.643759641968446275e-03
-2.147190442209985853e-03
6.614963808874246842e-03
-1.794588873591531969e-03
-4.875147109242908804e-03
-8.220177613552462912e-04
-5.885291627639068282e-03
9.405092349196722198e-03
7.096276369742494754e-03
3.735965190856461765e-04
2.814470223193422417e-03
1.137771280406962718e-03
-1.300277498613242998e-03
-8.503646795704766087e-03
-6.953292304998235675e-03
7.013001648841306682e-03
2.516783275301266460e-03
-6.753014220143335744e-03
-3.674170471386719195e-03
-5.483057137220317956e-03
-8.097563008419248268e-03
-3.734226733107191051e-03
-2.731223893678412160e-03
-6.252529144156475545e-03
6.146088530781787518e-03
7.707749191833285218e-03
9.021614821031282089e-04
4.976415660194822947e-03
7.686552563001368757e-03
-6.157227796206106614e-03
3.594886794372447857e-03
-2.161944371641457471e-03
-1.689986297713492840e-03
1.915173879786390490e-03
4.177966442720035950e-03
-8.649112660132218453e-03
-6.480003506268150471e-03
-9.090160882971296680e-03
-8.544647303151436946e-03
-6.088902779033756978e-03
5.496055739043338804e-04
-3.154402678455989466e-03
-3.514826417595124687e-04
-1.887777500707669975e-03
9.242693485942060638e-03
-6.009725620099035971e-03
9.466740608440488494e-03
4.200331285650364872e-04
2.791865819439093115e-03
-6.467805731312830687e-03
-6.024968247919156028e-03
-6.225852749083612015e-04
7.176208683001395784e-03
-7.413780764568628050e-03
2.111862707622635341e-03
7.011801753748097589e-03
6.471248437339360664e-03
9.148923539760522514e-03
-2.727756418061926241e-03
-7.514873084130057994e-03
6.760344694844092582e-03
7.522695669831006883e-03
2.493737081174189543e-03
-7.981219813897945034e-03
-9.960645542082662354e-03
5.112717799058677862e-03
-9.810869185485784991e-04
8.899753059379273898e-03
-6.463855302032677635e-04
6.046587401714637218e-03
4.973361708005310557e-03
-1.751856458016891110e-03
3.468019615014851682e-03
-4.561745313715472733e-03
9.695144129458030391e-03
-3.948287979363325657e-03
-4.554602719542006316e-03
5.882336084499591514e-03
8.414980163073458239e-03
1.426266051330282942e-03
-9.290869581818048811e-03
-7.995370288593343575e-03
1.775454981472287738e-02
-2.444749749002531405e-03
3.480345122701382181e-03
-3.587051572883257714e-03
1.800365193815488458e-04
-3.747309097781966868e-03
-6.214804716745177954e-03
6.342007084927231246e-03
7.965874845004971769e-03
-1.107416426982013504e-03
1.203597790780475650e-03
-6.999583861513207267e-05
-3.396246158314132971e-03
-7.496243551173906519e-03
-3.389560183104138417e-03
-2.479537010819653740e-03
2.402345401215860623e-03
-7.694384168821962995e-04
6.866823206357079191e-03
-8.142973448769623424e-03
-1.158760742007745826e-03
-3.117860054553740507e-03
7.572118239892913771e-03
1.414627604014197064e-03
-6.321267468737216781e-03
1.444337308714309072e-03
1.901886127128289868e-03
2.627575230978835500e-03
-6.557265483580036747e-03
1.131834077071534363e-02
-4.602609149451286109e-03
-1.747013488336103060e-03
2.018630364467872973e-03
2.799180201486586167e-03
-3.846057098880513534e-03
7.686887838845636936e-03
1.768957468869504241e-03
1.339900841571331144e-02
-4.836527070874964071e-03
5.588353233957608392e-03
-9.039138459117232460e-03
3.437358297845438584e-03
8.664719778707632644e-03
-4.078585568517400714e-03
5.636225942942586775e-03
-9.058205449618004015e-03
3.634069945919358221e-03
-5.945618687048621290e-04
-4.802755834988866809e-03
1.753256109565027318e-03
5.836150522908730223e-03
8.300498949443959121e-03
-2.386462386419445272e-03
8.474001165095919677e-03
9.840675050609877517e-03
2.986157810354669352e-03
-6.704041116753507897e-03
-5.157536984025397515e-03
-1.654532845956460272e-03
4.941703888104894728e-03
2.992073975427945488e-03
1.254542644447263766e-03
3.355215492709485124e-03
-6.178456180098697813e-03
-3.604139857938571008e-03
-5.204685224551418819e-03
-9.469537910576497977e-03
3.804476091060964536e-03
-7.045848292612601205e-03
-8.350182164900831969e-03
-5.107922818229661960e-03
2.139881070786296691e-03
-7.814321789395694152e-04
4.477624268236999813e-03
-8.300918282133440754e-03
-5.288193043807595632e-03
-4.459412549751008009e-03
6.072647070323651010e-03
1.348081054495937816e-03
-1.377432315774769879e-03
-9.224127779524873838e-03
7.825643256017863342e-03
-2.298458533986711804e-03
-7.242744532272877428e-03
-7.869670284090439158e-03
4.833889712554699340e-03
8.046314841200219448e-03
-3.225976622588298381e-03
1.370385000748090614e-03
-3.198917616869772183e-03
-3.562087453572598122e-03
-4.347769736604712582e-03
1.796056331712473329e-03
2.146669394686442738e-03
3.431775827988002136e-03
-2.351339598419544420e-03
-4.733748268941008648e-03
-1.313740462635293446e-03
-4.165743771590581755e-03
-9.272612042014979558e-03
-6.083881269603316419e-03
9.370232686424220456e-03
1.058794234990239995e-03
9.455510008537615363e-03
-3.906421848888734678e-03
-7.652142290462033564e-03
-2.066612252681409873e-03
1.386804704309329422e-02
-8.951290038413850861e-03
1.896776299715080419e-03
2.735739336519738343e-03
9.941323634247822838e-03
-6.818794957615627837e-03
-4.181609565968669694e-03
-1.582686440545248534e-03
-5.385780317960384318e-03
2.996187806547692765e-03
2.001174265981981761e-03
2.294152469824594796e-05
3.195977535073755288e-03
-9.298898281673698141e-03
-9.444109016887152278e-03
4.864093513924092407e-03
8.856536454293051017e-03
5.167636739041320953e-03
4.738545294818334933e-03
-1.825560726711109635e-03
4.102311237967290816e-03
-4.018577089357532398e-03
-7.429729552352359531e-03
-5.831091727592501925e-03
7.055892242959290947e-03
9.438355813565051100e-03
9.364729604669653346e-03
-6.347689387450582144e-04
4.179721801225813084e-03
6.088024831732156278e-03
4.210284230480879075e-03
-1.137385849169274482e-03
-2.963876788738113287e-03
-6.854200591370969084e-03
-2.165904696070723376e-03
5.314836476198669772e-03
4.350443522716357890e-03
-3.760708139173798547e-03
-5.713297984872385896e-03
3.385299280817555875e-03
-6.691999319350542608e-05
8.501916349099958997e-03
-6.185636959938502384e-03
-6.833758176193648753e-03
5.929890383873723117e-04
6.692695202371045510e-03
5.737128378781643397e-03
9.752428187439489762e-03
-8.585855865798181288e-03
9.654440250643023941e-03
-4.338014963099070474e-05
-8.295127927013024732e-03
2.917234133985004401e-03
-6.209341533023561219e-03
3.061787659327485246e-03
-1.007144199808340454e-02
-5.801549021711972960e-03
2.798776196563944156e-03
5.991658032655515411e-04
5.748624694669751331e-03
-7.046300627810184181e-03
3.752097570122315921e-03
-6.167671183789020031e-03
-5.810826494175796476e-03
-5.408056881147486200e-03
4.265724974770674152e-03
-5.737764998761336888e-03
-1.742578997782697229e-03
-8.427740693844028644e-03
-7.122141529456968087e-03
-1.019255186268507550e-02
-3.292893375258461102e-04
-2.274316703734106764e-03
6.022306155386927123e-03
-1.232139067999888336e-02
8.067943137166667944e-03
-7.415057256072003083e-03
3.567392665712843750e-03
3.360678267808196815e-03
5.441884955562335986e-03
7.817373894628894260e-03
6.568998561450654569e-03
8.120360675380871099e-03
-5.238600594650200983e-03
-6.324466827723897178e-03
5.997907918745395105e-03
-8.308495307855604667e-03
4.588280157577341936e-03
-3.348470231233733642e-03
9.097146609708280790e-03
2.966401407149434413e-03
5.937997377294963047e-03
4.352418986809904883e-03
-3.238683119150292944e-03
2.049680887532412269e-04
-5.663163890406617065e-03
-6.094390910617320141e-03
4.421552728088576877e-03
-7.399823867334623427e-04
-7.196222357080344842e-03
5.096970193000044044e-03
-2.655298037409105274e-03
-1.052209628692603316e-02
3.878785758924446769e-03
1.620651403427874129e-02
7.042252290255152959e-03
-2.530702092949398737e-03
8.561041942880725023e-03
-1.842357001921583531e-03
-2.935764334945393031e-03
1.097405941807919408e-02
-2.358407582068821826e-03
9.035539592356254743e-03
5.376027253755002490e-03
1.493918542901823707e-04
9.694566795062026579e-03
5.882608649701393487e-03
9.241038228605853028e-03
-8.240168435913505784e-03
-6.798502119668505678e-03
7.999505852781715540e-03
1.178884547123519285e-03
-1.494427205141221062e-03
-2.053627972360251488e-03
-7.547326134366469375e-03
-4.351245401561049282e-03
-7.120545721958323245e-04
2.793858993895107249e-04
1.356707750545450841e-03
1.931418131755635549e-03
3.549266289172255725e-03
-2.385311090221779902e-03
2.212168460019578453e-03
-9.047863986554827154e-03
4.653714778657787321e-03
-1.513213504858686772e-03
-9.043298103378116792e-03
-8.049061989974149248e-03
-5.336641551897290496e-03
9.918725815576602545e-03
-1.433380040054130309e-03
7.324934058043008726e-03
9.418082040732779492e-03
-5.907744857342075301e-03
1.726468888059846029e-03
7.256654307626297234e-03
-9.575095510397972631e-02
-2.762247344103346304e-03
-3.004314377092717845e-03
4.888837099293895198e-03
1.009358259589072070e-02
1.008269898365694688e-02
9.951573318274840527e-03
2.321736699034463694e-04
8.270732647851880906e-03
3.220452532133971386e-03
4.572698677005661641e-03
4.884026828522743113e-03
-1.564171457371664898e-03
-1.449416741629004331e-03
6.422834042037672483e-04
-4.120006849276692217e-03
-7.019497071779173293e-03
2.138000898360778272e-03
5.324311469142107081e-03
3.890062314891702244e-03
6.879909705798455295e-03
-2.449769526052044451e-03
3.040392697239823871e-04
1.109603421337027399e-02
8.240078441881000179e-03
3.324427402137730258e-03
-2.002898767805628456e-03
-1.202537633587261049e-03
5.383123970584990925e-03
-7.438375429299238194e-03
-2.093346813661053300e-03
1.824274167619228471e-03
-4.767334410763727527e-03
2.002400227991681797e-02
2.753790867850933362e-03
-5.777547066370685921e-03
1.508238059120483102e-03
-4.408876354732343267e-03
-8.842579821570785079e-03
5.794397499994016201e-04
1.731862976747802459e-03
-5.201804611448855066e-03
-5.853467027465539610e-03
-6.462922645611554086e-03
-8.541219552736900589e-03
8.504916045381132397e-03
3.814664738487477387e-04
1.449836284389782910e-03
7.350583350834613040e-03
-7.718112523590462716e-03
-6.421932395793330389e-03
8.194111126738387596e-03
-5.304294647135421835e-03
-2.284660100828049567e-04
1.208234473282789045e-02
8.956313850257099571e-03
2.124159322942908990e-03
-9.032858661364761080e-03
-4.084793852545557345e-03
-4.973782814826123184e-04
-7.696985712650009906e-04
3.226533797389350474e-03
-8.124847282807549226e-03
8.340604308465323540e-04
3.654484221375240132e-03
-3.861869939753194945e-03
-5.541353121673173870e-03
5.772212441957541400e-03
8.353502624948839703e-03
9.205884803174814966e-04
7.463300162406469752e-04
4.975171251105952458e-03
1.021631506313019216e-02
-5.808036732537512348e-03
1.060011678897228825e-03
1.678838391265980584e-02
7.647337601531649940e-04
1.289434533825378759e-02
-9.005277905880801695e-03
-2.655700182686896414e-03
-4.528312381680865001e-02
2.310703040158312328e-03
3.970395575272810118e-03
-1.077919601861804244e-02
-8.195190078568507369e-03
-6.925701439117826555e-03
7.168071633131809818e-03
-5.996360302224132063e-03
-4.678228922331614933e-04
-3.757562051675254235e-03
8.309611110942423384e-03
4.110837546836392138e-03
8.732243162718936191e-03
-4.611902362508772321e-03
-5.172045235134066846e-03
-6.339796136078107089e-03
-2.587666834940708163e-02
3.694947611817240175e-03
3.786210786339789212e-03
-9.732875442228450247e-03
-7.980028878929757222e-03
-5.953002331231890647e-03
9.420469240949547532e-03
4.296563389089514719e-03
6.955785636357672205e-03
-1.756338386578867091e-03
-9.876593302744403682e-03
7.778998188832984481e-03
8.093443532703676821e-03
9.523567900598897034e-04
5.937374675908734835e-03
9.442453359152946923e-03
3.399439226597055549e-03
6.906414144681557142e-03
3.853406925194059578e-03
7.536969564518603004e-03
-5.384065312742346288e-03
1.005720756952234451e-02
-9.928714991467954554e-03
-6.119694405333035540e-03
7.757081557889931173e-03
5.961393869581687634e-03
4.093807027398520607e-03
-1.871808239904011132e-03
-1.004440461679755557e-02
-4.542013755018432450e-03
1.644019652087462839e-03
-2.300009193413179564e-03
2.164823175381219711e-03
-4.316603740798691073e-03
-8.672498688740749168e-03
4.909522382249864071e-04
1.412032648588139273e-03
-5.913804716875247468e-03
1.001366590481004432e-02
5.976541934520546162e-03
5.448478105925524950e-03
-8.301090772558139541e-03
-1.391019199908993505e-03
-3.774115704566518171e-03
-3.606623414123864748e-03
-1.004876476543630458e-02
-6.635115051766258838e-04
5.900621766244010941e-03
-2.953830912699828646e-03
-4.570421975662514180e-03
-6.626543956583497673e-03
-6.527778506204890210e-03
-2.713390269428468671e-03
8.962535472483929358e-03
4.574016674645820305e-03
6.820248070650301690e-03
-1.007721472489615279e-02
1.079949650134104377e-02
1.340964112466504037e-02
4.418035827970028320e-03
-3.308291135294198684e-03
1.937443401079155412e-03
2.548210889159881979e-03
-8.873473496225879609e-03
7.776471808963455329e-03
-5.147017121950894954e-03
6.330478918044123854e-03
8.220327115459355113e-03
6.671578773000459706e-03
7.853695892854494279e-03
6.071468456179409355e-03
1.068378604085092314e-03
2.794058960777776653e-03
-3.364792400674197076e-03
1.474241858586319062e-03
-5.818741099721372323e-03
1.012089865073445257e-03
-9.962539066115405975e-03
1.060602100120044619e-02
6.871978694343003173e-03
-4.585445727827849698e-03
-1.482001363764203373e-03
-1.021585921589281479e-02
4.577530130644518434e-03
9.679057322991613949e-03
-7.620230247031318550e-03
-6.287434165543922052e-03
-1.540083655273165189e-03
-2.215750036622049415e-03
9.420646341003929489e-03
6.855606089996344778e-03
4.410155132583687757e-03
5.006867631139089690e-03
3.961415592002657214e-03
4.239230020518578237e-03
-6.057903906725043905e-03
4.218635155321140591e-03
8.374528535488763581e-03
-5.436149579961931056e-04
-1.253703437691974136e-03
8.119105264275070302e-03
7.641614229812562775e-03
-1.038771262747653461e-03
8.175395457246841316e-03
-4.686642327308108980e-03
-7.138431444603690439e-03
8.392853406201696009e-03
-1.206839700149917559e-03
7.305897262796069193e-03
-1.083036027093784055e-02
1.031312192050659257e-02
8.204192728871963561e-03
2.598920419312899729e-03
1.017615022652213104e-02
7.983515301434459047e-03
7.510894946776647263e-03
6.296650600095213962e-03
-4.836110932977816766e-03
-3.197453800539785777e-03
-8.006131042653859275e-03
5.294478875806910532e-03
-2.074451986991445980e-04
3.027098114589161712e-03
3.096364829537963381e-03
-7.132829501955437537e-03
2.728982526288622080e-03
6.920591201802206265e-03
-7.880091499685824494e-03
-5.022421192479141136e-03
3.806701680465291327e-03
-6.355461161555308811e-03
1.193038068955549601e-03
8.422276469863333379e-03
-7.701486011127127440e-03
-2.565287403977720496e-03
-4.697211956335745585e-03
-9.736093690712519649e-03
-5.363274305434451508e-03
5.810992469863725252e-03
9.626755733468668474e-03
9.278316563895707900e-03
3.807311242464823248e-03
-5.548138988018274168e-03
-6.819755846967615227e-03
-5.686630303927853181e-03
-2.001629481704093872e-04
8.283689378757105870e-03
2.045546317624275759e-04
2.085960871800517178e-03
-7.859907745810064059e-04
8.385982314815156741e-04
-3.874386157025128639e-03
-7.460940449464876015e-03
-3.859371794050408654e-03
-7.719644819732454991e-03
-8.484684294500617618e-03
-8.421475561759589681e-03
-9.815467933103073570e-03
2.492941280793925692e-03
-2.204552111373492274e-03
-5.347364922224414306e-03
-1.083067145167060938e-03
1.015247459019159642e-03
4.079651457168861038e-03
-5.302360403697615153e-03
-2.408474258979568551e-04
8.691116432529370425e-03
2.589978050518650186e-03
8.374535799098355854e-03
5.444394660603605642e-03
-1.862543494082163562e-02
-7.345128037615728488e-03
-3.271209480481495485e-03
-4.238105924051379508e-03
5.174464883409132451e-03
-1.209151635333847920e-03
-1.594745046062230696e-03
-6.866754094178414286e-03
4.492870710388610286e-03
-4.586753835954780062e-03
-6.079780216601514409e-03
-8.156691614139292140e-03
7.184576983202940964e-04
-3.726604204533631465e-03
-4.718103716978669544e-03
2.084318171051448548e-04
4.566245297377526276e-03
-7.543371960872963765e-03
-8.057367299094567864e-03
8.449938763846351342e-03
-5.153334654932371223e-03
5.612428462575997506e-03
5.063347694628957812e-03
-7.245708531214168149e-03
5.783088589545676630e-03
7.545192087748667752e-03
-2.946178946856870071e-03
-4.144504734605115913e-05
-2.581531765868394501e-03
-6.673915383472566951e-03
-5.730398966761226891e-03
-3.141167818964313296e-03
6.107522796101869968e-04
-4.366807837033355282e-03
-9.081602430182526137e-03
-5.118590935935464666e-03
-5.409318223505917532e-03
-9.631794662814715385e-03
5.752774580647793297e-03
-4.498997445391606648e-03
-2.514989294501509143e-04
-1.841107111291956150e-03
-4.938078880054908547e-03
-7.625996453746067098e-03
3.771323610945993485e-03
-2.345707604586582447e-03
-7.646630295798821815e-03
4.178461730303556845e-03
9.427432775585095626e-03
-4.092885545497165767e-03
-2.293064895480111109e-03
-3.326438601753016044e-03
-6.895144776843037566e-03
4.623365876370785234e-05
-1.282518178657219730e-03
-6.445754313840759524e-03
8.059673098099115474e-03
4.265546853178001606e-03
2.381599582134808109e-03
5.671830698436039139e-03
5.101619819002190664e-03
-6.704367049319339550e-03
4.337018225700463303e-03
-8.665914551495310179e-04
9.533310695522928882e-03
-1.865127663770995911e-03
3.193592948137913431e-04
2.163428917885805783e-03
-7.624189345788421300e-03
-4.401016103463027858e-03
-3.371284631205928237e-03
1.232862013506544991e-03
6.681735531766238960e-03
5.394757022927695357e-03
5.468891368418888309e-03
-6.148056778185933928e-03
-1.248555257831796320e-04
-2.029218593099917003e-03
-8.732679697682729433e-03
-7.062357432536130186e-03
1.904610647063002945e-03
-9.540363096441361462e-03
4.384090343575589195e-03
9.971682330841339509e-03
-1.919917664673761711e-03
6.338132571467106936e-03
-8.666675372611945191e-04
4.576316126713245343e-03
-9.137160970476869079e-03
5.294335290320101051e-05
9.121576356878538169e-03
8.847973461796637684e-03
-8.071970193836271179e-03
-4.570962695003333992e-03
-3.871345620653384584e-03
-4.699429390391298691e-04
-7.749399284869850496e-03
-8.246535407844000909e-03
-6.388800927112175260e-03
-3.117553333236170333e-03
-9.592647582932715272e-03
4.151756451993273908e-03
-2.257075932876729737e-03
7.886219484030531236e-04
1.436867327737997857e-03
7.265714743152465504e-04
-5.978363913799446261e-03
3.977361919434049299e-03
-1.429506930775723298e-03
-7.768845395043469208e-03
-8.225089686654793453e-03
-7.518516431807371371e-03
6.583628532095605213e-04
-5.194979114060855122e-03
6.186396046312525251e-03
3.831920865533763963e-03
1.205191215185464487e-03
-3.918821849495727518e-03
-1.186270364622993160e-03
5.966752801321223432e-03
8.681125435752145778e-03
3.268981350516571294e-03
4.338618437167865959e-03
3.771352602841662391e-03
9.375158635479832140e-04
-9.561427222677550825e-03
-9.349396669526792783e-03
-2.081009758509211587e-03
-8.023543357526616987e-03
9.665825455849192879e-03
-9.831496207362278722e-03
-3.418667435519551212e-03
-7.193522845530811102e-03
-8.150857808357975243e-03
-6.913139838495482685e-03
-3.516926898156924781e-03
6.682569149254901156e-03
-6.180602981655148979e-03
-5.709568403638755167e-03
-3.782549324927286100e-03
4.852982018595055117e-04
3.341560749402492248e-03
7.537662349031571535e-03
-6.518523593146592632e-03
-7.985241441001700996e-03
-9.685994359585399505e-03
3.264977530564025835e-04
2.688714278528226559e-03
9.071402175980501983e-03
5.393583953874176232e-03
-2.930744721005597558e-03
-2.758480532494071626e-03
6.244210969686433618e-03
5.751541697322640808e-04
-8.935166282772882829e-03
5.261644566255473500e-04
-6.066283346815021585e-03
-1.005222587637267465e-03
6.894481605193138272e-04
6.440530735566338608e-03
1.786742137124948783e-03
-1.621291312600827133e-03
-7.304840579398074601e-04
1.769898790333727500e-03
-8.676887941380304753e-03
5.080957324523589953e-03
-6.085611266055062848e-03
4.311451832007344963e-04
-5.893181288064573004e-03
-7.325691918710399049e-03
-4.973097275114521550e-03
-6.870511699668098785e-03
2.380884677070996811e-04
-3.786689869443900756e-03
7.852233229404542367e-03
-9.095471475133020539e-03
-5.431375438535116645e-03
5.003788725222408501e-03
2.019964460255209773e-03
-7.637174755704460860e-03
-4.157358181988246408e-03
-1.717291494677480315e-03
-4.837565591678740125e-04
8.180999239034141002e-03
-8.574267786380151968e-03
6.455042557380300146e-03
-1.166151337383477746e-03
8.881896880271009098e-03
3.572397747545750287e-03
-1.493917490838175821e-02
1.001619184599700750e-02
7.065192494491933164e-03
6.885492320423287731e-03
8.821768554829285611e-03
-6.186550682952771454e-03
1.014194667918874408e-02
4.861801797959456120e-03
1.001360165927539687e-02
1.627858423532016355e-03
-8.786457606304216156e-03
9.468937839255810868e-03
-7.199853139022347435e-03
-5.355432565159200936e-03
2.925470850214930037e-03
4.935885384283759426e-03
-7.556694391866780429e-03
-3.099560790201260664e-03
1.684978672527466829e-03
-6.224898796066553582e-04
-4.076819003469038180e-03
-5.896973545205986926e-03
3.676037669027826683e-03
7.421819285487289697e-03
-3.145790033653270146e-03
-8.326350090083634720e-03
6.044171756935214253e-03
-9.525335581753988090e-03
-9.238946253964019570e-03
7.597724520908840729e-04
-5.863240676820234004e-03
7.883540589156070796e-03
-1.711713362051046385e-03
-4.269404671434033453e-03
2.470312504455359111e-03
-3.388017310942544394e-03
6.555237322536064046e-03
9.585430134397441779e-03
1.577105589532308691e-03
-3.176458450007132745e-03
-1.935377878120405227e-03
7.825112905217132542e-03
6.412941559085781271e-03
-1.265440523038763830e-03
5.260532004726555140e-03
-2.965172605426417193e-03
2.935023748985831835e-03
2.561772095971787296e-03
2.908012828649323388e-03
-4.820570028984821204e-03
2.477098793899890766e-03
4.606276415065623658e-03
-6.282876127891426354e-03
1.096761624884541944e-02
-3.146684194925660101e-03
-1.222634544214933972e-03
-2.944253923667084199e-03
-2.467591635161173105e-03
-3.505192849396020823e-03
7.995307214778171051e-03
-8.137698767912973294e-03
-7.611843630441541067e-03
-8.866259837871164409e-03
-1.937539238349505121e-03
8.438800871887702434e-03
3.242409720399784014e-03
-8.985560886539334857e-04
9.948796136618413832e-03
-7.113757587796383682e-03
2.248889172462333920e-03
-7.376814496357672613e-03
-5.108509282437561846e-03
2.307475010108068700e-03
1.016352038274587546e-02
2.036836472432389418e-03
1.499201371907352544e-04
4.727466816026122155e-03
6.771454013962663158e-03
1.149385422583580705e-03
-8.490270147835782960e-03
-2.389608970218443876e-03
9.597549795238323467e-03
5.154499831529557770e-03
7.060754716919302384e-03
-6.490663389018033747e-03
4.855772758155465010e-03
8.203671770057608878e-03
3.596159147310103599e-03
6.993318554332865304e-03
-1.889175581009723288e-03
-7.764173177070905763e-03
6.791119783102131727e-03
5.256621356692829303e-03
-8.722091565919980541e-03
8.032651996851641191e-03
4.908178037367287236e-03
-7.869324167295617053e-03
4.978617247744385188e-03
-2.880063062760643885e-03
1.114958583867697124e-03
-2.102345186368495111e-03
1.041288378216648778e-03
-2.355113940498360873e-03
-7.510797200767256598e-04
6.429916313967813483e-03
7.522882786752757393e-03
-1.272374415242351299e-03
4.155255031437871463e-03
2.510428940407049853e-03
7.585115645895794227e-03
-9.545681024595531429e-04
6.326711182918305990e-03
2.966224443888999395e-04
4.365742453607830698e-03
7.042681863229532414e-03
1.223730787595337863e-02
3.176718102372862174e-03
9.271310436388601958e-03
-4.039898006590916281e-03
2.323086195561608822e-03
2.256044056060372508e-03
-9.114197302217673727e-03
-2.796279994107765871e-04
8.735552436904891332e-03
-2.682447125299694361e-03
1.058430513335934919e-03
-7.732867968826384608e-03
6.791531705638351310e-04
-5.312556993633544764e-03
1.012094450006231338e-03
5.595776293148467528e-03
-4.852995286941219621e-03
-9.280228142617641396e-03
-9.913358365906042163e-03
-6.542236096635796472e-03
-9.645808518665453107e-03
5.572303660961538778e-03
-8.304886569138709290e-03
-8.748141168475725635e-03
-5.935210965500292354e-03
5.922554769782032401e-03
8.921696450040501186e-03
9.142004236747222536e-04
-2.062322697442827563e-03
4.197194689567673373e-03
-8.817120214944755910e-03
-7.275800620865364131e-03
-5.707104503076712403e-03
6.240491963558336339e-03
5.669282788787152229e-03
1.377473766782532803e-03
4.761731968434152482e-04
-1.744330744330005716e-03
8.459031772986956230e-03
-1.564977285080672558e-03
-4.925208882176119627e-04
-2.982694170916146831e-03
-4.517529317242951689e-03
5.744050188137674387e-03
2.248179011914765938e-03
1.205220638220969465e-03
-4.435139110577435498e-04
3.631932254004323259e-03
6.966654513857067216e-03
3.497661116100118667e-03
-3.820681556040293921e-04
-6.945965164581594572e-04
6.867866600487560966e-03
2.807484328200340450e-03
6.949712592133767616e-03
1.690736002566535176e-04
-7.368441523729602101e-03
3.106791470886249504e-03
3.388436732776018562e-03
-8.332781827630227414e-03
-3.986514845552596720e-03
7.847475806434538528e-03
-3.015302956828284659e-03
-1.644222974330992494e-03
-2.883438328677277989e-03
-2.195290923762874269e-03
-6.093279009447932076e-03
-9.898105023876292360e-03
8.133164896722520909e-03
-5.487871790835164784e-03
-1.204764292992309112e-03
6.363578563801201848e-03
-7.256113072722266376e-03
2.110812711246412565e-03
1.054884927121567363e-04
-1.921240140389556591e-03
1.737221282636040821e-03
-5.783927953393790469e-03
1.077219345574468917e-03
-4.361057164563164959e-03
-6.267198896457523531e-03
9.712154080310203552e-03
5.936361222902006990e-03
-5.976168445731852921e-03
1.629636390761559186e-04
8.055079642935824083e-03
4.118467438629164895e-03
4.381703532210376277e-03
-6.148257773494975389e-04
8.119151515744989916e-03
8.392712193364574441e-03
-8.889178820322201843e-03
-1.456457797072993523e-03
8.929955600942085861e-03
-3.378185048095639145e-03
-7.532616009138438928e-03
-1.500986342784084047e-03
-8.755500779235736095e-03
9.712198430878758032e-03
-4.873152369731072533e-03
-2.086648397627121742e-03
4.688216578276554504e-03
8.844571622027338348e-03
9.385909832086718543e-03
3.210382303450481662e-03
-3.492166681515321064e-05
7.397589819455351219e-03
3.203025003720254976e-03
-4.199614374320206726e-03
5.240307415369176158e-03
-2.399787184727081302e-03
-3.706912788189442023e-04
-8.649260881919189348e-03
-3.129645635540535906e-03
-6.355817399626541644e-03
2.738111323477396882e-03
-8.254801928983227129e-04
4.813212050946443984e-03
9.500755572189049231e-03
-7.354127484566349085e-03
2.248942527875308003e-03
4.015212544542345018e-03
3.142065090318337753e-03
-8.482058627099600331e-03
-4.541187619674160424e-03
3.557694298830014253e-03
4.050323896617497900e-03
-7.491756926503048350e-03
7.962483239784887493e-03
2.045350246739938843e-03
3.643108720787775756e-03
2.501954808419063706e-03
9.181540966104061521e-03
4.931544290787625261e-04
-5.079561419454155236e-03
9.563441583586152275e-03
-5.442623292654498674e-04
9.247909982125417788e-03
8.560698865140551478e-03
2.935751000876709194e-03
-1.996155105732136642e-04
1.833212436561585789e-03
5.641390949400868285e-03
1.021319621934895427e-03
-4.519581338713968494e-04
1.716741586068053823e-03
-9.986182947179291294e-03
8.557300411394458753e-04
-5.819025255879507925e-03
-1.617906274810037475e-03
4.011953922186457799e-03
-9.378877210618353361e-03
9.383668522073585492e-04
5.886845532812464213e-03
-1.847676558302329363e-04
-2.203314328561510084e-03
2.837216565432548743e-02
1.304970949698497709e-03
-6.264157513096635724e-03
4.805188176965715686e-03
-2.581836821506222970e-03
2.215661656224272684e-03
9.321576779927882514e-03
-1.179287990507418143e-02
4.398702785099912159e-03
-3.442188799806546618e-03
2.667405333102234027e-03
6.774629177268435935e-03
-6.872973829635079489e-03
4.274469800028122450e-04
9.074374683329481175e-03
-5.526526118271108540e-03
4.677784337373893514e-03
-7.891657955381436995e-03
4.627106807469091344e-03
7.846587528012861218e-03
4.756654232696113163e-03
8.299697903675703689e-03
8.926970312077621775e-03
-2.536359699962402459e-03
2.773905174619067373e-04
-2.837415306714560249e-03
-6.813407154924819124e-03
-8.527553912318086311e-04
3.812014062594973763e-03
-2.754568292720233243e-03
9.574248478363025887e-04
3.307454629561398275e-03
9.046386219817553059e-03
3.505709257546900121e-03
-8.852882370304548595e-03
8.531391147717592646e-03
2.482496466132390334e-03
-6.726470548610556308e-03
-1.379890894594509518e-03
3.069812180577097867e-03
7.974039397222808939e-03
4.237758694300813346e-03
2.951185245826887758e-03
2.094590310925649283e-03
3.530067989706914960e-03
6.074985577582703647e-03
7.084866949337501399e-03
-2.488072093600664572e-03
3.539924083433405432e-03
-1.105027370346485212e-03
1.723445926707741242e-03
-8.986041556957792553e-03
8.136174584385294853e-03
1.340305063389003216e-03
8.661149417944472365e-03
-9.751129155251355915e-03
-5.163185349638596544e-03
7.920215524131463255e-04
-7.932153897309909482e-03
4.559035249207218574e-03
-8.513532573035961434e-03
8.875309460894417746e-03
-1.173765788416036892e-03
-9.460976529212445849e-03
-4.091316385915017180e-03
-7.423095519002846990e-03
8.836083446101329272e-03
8.456524963111552301e-03
-7.795304388553002568e-03
-2.409803621546056235e-03
7.016110754215762642e-03
8.191358102719700079e-03
7.320393572515841718e-03
3.571500163214180474e-04
-2.922108048151374031e-03
-7.619109360227432730e-03
7.745362668004645732e-04
8.708135472508000269e-03
4.914644859304654473e-03
-7.321450654839523065e-03
6.092406016980241729e-03
4.262378193077834797e-03
-6.842095147137033755e-03
-2.743699691653430847e-02
2.137118166869630051e-05
3.759088880993707513e-03
-9.315727696387226739e-03
-2.372686198320846009e-03
1.278169350872365348e-04
-6.624980684839435960e-03
-7.349654177363668626e-03
8.213270217913381729e-03
-7.145904344786703543e-04
-2.872861125670493967e-03
-9.223967314080134747e-03
9.613881868647814605e-03
-5.211092128037618336e-03
-1.239594351460272456e-03
6.295986622719331773e-03
9.907002540698034779e-03
-1.004603277013196849e-03
-8.835958848646130459e-03
-9.601622482032482267e-03
-6.252631669870919832e-03
-9.205300779057023347e-03
6.124785152669945040e-03
7.733850692658394629e-03
5.510483352812721794e-03
-1.673732033513473591e-02
9.118046518781815343e-04
9.335170181188649427e-03
6.828958143482668662e-05
4.149129896124469433e-03
7.461079468614424844e-03
2.466884781336784902e-04
-1.509111633071395266e-03
-7.107942592582664268e-03
-4.788403299700307210e-03
5.866320541222608351e-04
-6.907575083515971048e-04
-6.064792964616330662e-03
5.717066466367811371e-03
1.213859267663680748e-02
-7.117793002082455599e-03
-7.143956311337657829e-03
-4.061748449062899287e-03
-9.936117067393692576e-03
7.148247929508959320e-03
3.288246308711342391e-03
-8.581140365223876437e-04
8.266250065982522557e-03
-8.966429784618840104e-03
-6.098832648440312074e-03
7.531108398540903304e-03
9.828682082073957049e-03
-1.264093418117679139e-03
-8.820501089466938754e-03
9.608294063290605258e-03
-3.962941271733630595e-03
5.750776295008714484e-03
8.364993237878618967e-03
7.886136666833298186e-04
8.179294638310888668e-03
4.243345886382477762e-03
4.837059151386462717e-03
-5.745472138840395076e-04
-9.655207238919146038e-04
-5.359149412383541061e-03
-9.176640952236428395e-03
3.569278150347296192e-03
6.784057255541097418e-03
6.598033135911213166e-04
-4.789332319649667290e-03
-7.004680957133675376e-03
5.369800714636231362e-03
-8.994509516496789273e-03
-9.912677003252807692e-03
8.580734462182290287e-03
-6.204101193875564968e-03
-4.989660722728305950e-03
-5.859274473348173411e-03
9.238645671200891932e-03
3.213690654006992392e-04
3.431255496086375780e-03
-8.658651704176874644e-03
1.871863122690390702e-03
-3.610777539233103392e-03
4.125333847664227130e-03
3.818834395924732353e-03
-6.004064592667959777e-03
-2.108566807188417321e-03
7.811643857148413937e-03
3.692940300709449553e-03
-4.572573597321866147e-04
2.194074609775945733e-03
-9.615151524431779853e-03
-9.650561786509938983e-03
-3.085362466506374676e-03
5.206726174732147217e-03
-9.612607898296219103e-03
5.738132577525010408e-03
8.996710899649798879e-03
-8.045707471158587655e-04
-8.516130810918932925e-03
-8.001975895856503276e-03
4.873332752462899466e-03
3.318001150872556312e-03
-2.012898252285002382e-02
6.947707531680625756e-03
-8.998866491335211562e-03
-3.749577089911475865e-03
-6.661337669783525331e-03
4.033182597079365724e-03
-4.027258833709883822e-03
-5.227433770106633057e-03
8.735252613065123614e-03
-1.857016219646463739e-04
-8.185339744234533185e-03
-1.277306602191457911e-03
-5.965023274351747770e-03
-5.784395110216912321e-03
1.754418542972105313e-04
1.346682747795796293e-03
-6.996461621165491916e-04
-9.624908194326148650e-03
8.530909913565663805e-03
1.108748271362371314e-02
-4.372348568757460259e-03
-6.127478858897317422e-03
7.726814279391999371e-03
-5.784239105879056438e-03
-1.494823377397883719e-03
6.914673468399896647e-03
6.878196625681956382e-03
2.031120966734952047e-03
-3.660445144514279901e-03
-2.655181514735674604e-03
8.890186213497909898e-03
3.246728093217327027e-03
6.081429726118518352e-04
-1.733390581657447702e-03
-1.076883990894822842e-03
5.828476502474689430e-03
-4.700060271915974808e-03
7.487333351173786761e-03
-3.731801331546711286e-04
4.762695828935942406e-03
-1.873749704258294985e-03
-7.645953150042409524e-03
9.359005250757642183e-03
4.539616321600342501e-03
-6.066127190237321273e-04
8.386859228988251952e-03
4.022400577864100948e-03
-2.127221703538928824e-03
-8.728859805236960714e-03
9.297592315692651196e-03
-3.733126656696192456e-03
-4.192145672920782017e-03
1.201660889909652273e-03
-1.782018514439752963e-03
-2.604378194090801665e-03
-6.878840191756324142e-03
6.141285073372715689e-03
-2.708851828471785933e-03
8.621918640715367163e-03
4.791256032771609892e-03
-3.250333992161202803e-03
-1.705446433352013780e-03
7.672781173076900080e-03
-6.624534369154925226e-04
2.285492188965919380e-03
2.714564893342013251e-03
-2.787489453063243805e-03
-7.942059103964555292e-03
5.800308450222024272e-03
8.343425913281743433e-03
-6.562558789968760565e-04
-2.329391587954270093e-02
6.282050951959649090e-03
-1.378527900348603015e-03
4.255503496627636474e-03
-8.172212269458779821e-03
-3.928451173313923447e-03
-7.138553545713754306e-03
-6.099278831683084025e-03
-8.187491517642470421e-03
8.014399699937430240e-04
-3.622967837097069987e-03
-4.991072334339238196e-04
5.442891329483693849e-03
6.710710730971197573e-03
1.004560557787574637e-02
-1.787316831077286148e-03
4.049221893935615185e-03
7.228416808058124414e-03
5.771784345838654878e-03
1.777717431262434457e-03
-8.963785438576827788e-03
5.173286161209390485e-03
-6.517256474630867512e-03
7.425494873187247699e-03
5.274464345193087197e-03
9.632274029117267322e-03
-8.960446254374743549e-05
-7.452822720972428899e-03
-7.053212284854114798e-03
2.952604167548032472e-03
7.871070992781765627e-03
3.821024012035629559e-03
-3.747923196834500748e-03
2.272669477684870123e-04
-2.499105380631723027e-04
7.228543983930734232e-03
-2.587642584022389284e-04
7.209534620659317425e-03
-1.454625917913528015e-02
8.758596520005962338e-03
-1.662639626467681594e-03
3.601858090940229622e-03
-7.269500210911885099e-03
3.231893152053571128e-03
3.802290972587743251e-03
8.499086552140551476e-03
-2.499893449483214965e-03
-4.909135492764145695e-03
-7.704788665920645624e-03
7.939584124765719855e-03
-6.316322007515252392e-03
-2.659011196449107169e-03
5.925266367524035724e-03
-5.686694810701151993e-03
-7.605440665161073560e-03
-3.603831160459268750e-03
3.438286008764904634e-03
-7.461966520691773984e-03
7.460805177421045778e-03
1.095838263316046765e-02
9.065403104184912089e-03
3.267359894510385530e-03
-3.512542078566095478e-03
-2.383528925557662406e-03
7.470138380402620293e-03
-7.982637435466951453e-03
-1.278159946717248065e-03
-2.158088114982605315e-03
7.631633163664019483e-03
6.842023832470531773e-03
1.631362262322844786e-03
-4.138578840801874700e-03
-1.217948158784443007e-03
8.445466194078170849e-04
-3.711826463155286360e-03
7.501460546634012086e-03
1.034714853580049254e-03
2.505918870581879364e-03
-4.736479492062368318e-03
7.664279681105595939e-03
5.234215156656588704e-04
-2.866801141921687061e-03
-3.803072248404940937e-03
-7.866474307493384957e-03
-1.007895892993194813e-02
-2.894259528358873734e-03
-7.477986686057581456e-04
3.543390749097829768e-03
-7.277144165711822016e-03
-1.396588537109298537e-04
6.865055838382844817e-04
5.858608435424059180e-03
-9.894353653156806247e-03
4.360389227632458127e-03
2.184562976083200946e-03
-6.752001174252795883e-03
2.562902307181781462e-03
1.288410518294460334e-03
-9.022956380800960588e-03
2.275175664393678469e-04
4.824816442506027481e-03
-9.046804089199642768e-03
-8.332249276266414165e-03
-7.068249682196966859e-03
-1.509777917111373730e-03
7.229268419248327526e-03
-3.551067432546518333e-04
3.799989608824986664e-03
-4.741847258607669556e-03
-9.008620675598913788e-03
7.525186858755387445e-04
-5.077506577043523935e-03
-4.616905237344558210e-03
8.233879388335838684e-03
3.610450498950306493e-04
3.246373267952834714e-03
-4.256243969128607925e-03
-7.547473893811187245e-03
-2.894960652271945899e-03
5.209163379744542613e-04
-6.152897370237753703e-03
1.502006991802790677e-03
7.080382401879063529e-03
-3.930304002873825225e-03
2.154699805304220814e-03
9.383929960721609093e-03
-4.367476208464572338e-03
-3.107788509182908727e-03
-1.933688447894557627e-03
9.047901241423184082e-03
-5.866998842392150831e-03
5.442181794306679386e-03
2.790433419755176947e-03
3.215284175054337890e-03
-7.788195033327718550e-03
1.857566856215208491e-03
-6.714392378732424345e-03
-5.768528428725390456e-03
-5.448029417260372154e-03
-7.939522835816309465e-03
2.951915108265403855e-03
4.538731174342482133e-03
3.222504620680257358e-03
-4.097427480652906205e-03
-3.783444361505127872e-03
-3.522626905007819175e-03
-8.574363249373545895e-03
-5.327701597728585169e-03
1.031509887821876852e-02
-6.642126085582013631e-03
3.492931604795181284e-03
-6.789485747296868101e-03
8.705008803757527738e-03
-1.741185607556284924e-03
1.160452124992554859e-02
-6.902450975731376850e-03
-5.082753677221924123e-03
3.276811878795278000e-03
-1.402777670702755070e-03
5.383703462067928290e-03
-2.072124990502929517e-03
-6.601902374694997022e-03
-2.983205738335145251e-03
-8.374677453415146217e-03
-3.540259469645399854e-03
-1.885300785011917142e-03
-3.888119282184102684e-03
-9.630792343240879782e-05
9.263345540184479698e-03
-4.446204310198959009e-03
-7.658728648031492246e-03
9.596878311949389589e-03
3.635945650429114884e-03
-1.582379309478882919e-03
-1.858941778945080768e-03
-3.584657466397390534e-04
-7.039009645963767436e-03
-9.093940180567980716e-03
9.741001469549767991e-03
-3.988069438488192273e-03
-9.859521065419292810e-03
-8.695876598884075964e-03
-8.245417375262706003e-03
-2.089109137434432689e-02
4.332043493690253440e-03
-8.263859947793417019e-04
-3.096040726343718668e-03
-8.998498606140390224e-03
-5.656290250749929083e-03
-1.651732335851280754e-03
5.275056246685447432e-03
9.519672286280738555e-03
8.702042399854847260e-03
5.542717836273402914e-03
-9.872744312197338432e-03
-1.572029028337743137e-03
-5.618603188895816315e-03
5.042874806662941663e-04
8.287805239842287175e-03
8.559478187578330177e-03
3.977506227035233939e-03
-8.390910001161131643e-03
-2.555550820009833655e-03
4.324772377951194811e-03
-1.693167985500151245e-04
-2.396415219834064411e-03
-1.024045473323219281e-03
-1.864738298043428812e-03
-7.514132146252170720e-03
6.844892955936557116e-04
6.644251746690383459e-03
-9.444686552166544138e-03
-6.444454374747256298e-03
2.310555294870132812e-03
-5.828509710616519568e-03
8.094751706698081854e-04
1.037381127975395625e-02
-5.116312460049995091e-03
-4.681847751984519190e-03
1.330606148915676793e-04
-9.696589361383033123e-03
4.965758687587092969e-03
-9.829005901507681039e-03
9.820139497467163248e-03
-3.263367999439525154e-03
-9.548875217518210112e-03
-5.366943781576406130e-04
-2.835230180545550947e-03
-5.217144049529967532e-04
1.854376349920214793e-03
8.881427999246750346e-03
7.580617386813810581e-03
-1.136030401483930415e-03
-3.331477808671698079e-04
1.058545086327132220e-02
6.264322196085168187e-03
6.013690441332068468e-03
3.916353927714826856e-03
-6.697197375032389044e-03
-9.238001722634781032e-03
4.408875946908715968e-03
-2.947818906886722021e-03
7.227921406184324889e-03
-1.207342859823762077e-04
9.627968609007608869e-03
6.943496822315651726e-03
9.284861401034271919e-03
-8.369693093900413801e-04
-9.786611109612685863e-03
-7.669190035237915225e-03
9.383644232150427367e-03
8.252854922944884153e-03
2.335639054732357132e-03
7.444895822493013786e-03
4.661111876459990422e-03
8.318732639787298350e-03
-5.568926453574296262e-03
-8.823865973934658796e-03
-8.659166894031032624e-03
4.481668351615269302e-03
-9.328369372585354480e-03
-1.651006482897297671e-03
-5.046801251256063763e-03
8.643695113890374412e-03
6.117885739471012191e-03
8.905947605182715568e-03
8.000317975138525328e-03
-1.318736866996738765e-03
-2.641972921401058993e-03
1.992218237979237038e-03
-6.341041392311883018e-03
-4.544938215733952507e-03
3.764646315159092473e-04
-7.133433991483353540e-03
1.373597365329975138e-02
6.107602821507536646e-03
5.442180146026345984e-03
-5.783623614397289010e-03
-7.703667373917938259e-03
-8.322743614978641430e-03
7.776570612347929101e-04
-8.210032047882913700e-03
-8.483806737946044535e-03
-3.084101173811369060e-03
-4.275347333703884492e-03
-6.698154077943913043e-03
2.676572089061705819e-03
-6.299835877380775828e-03
3.523140892431006390e-03
4.202861127261159520e-03
-8.131418003948351694e-03
-1.541227040006812581e-03
9.553365828413698177e-03
1.946374162143053171e-03
-6.232436400951816072e-03
1.150520065639638401e-03
-4.615014313645918881e-03
-1.623399326322763278e-03
6.583153374225471366e-03
-6.042771291248015021e-03
9.313811599457958931e-03
-5.681146283081387957e-04
9.182920551198209486e-04
-4.002752678475700147e-03
1.201702124502775602e-02
2.803379030356836885e-04
-6.807696088619880764e-03
7.738592177414144874e-03
-4.479872964847844176e-03
-5.892724679472704022e-03
3.218662468225052219e-03
-3.812723996630596694e-03
6.821688328968909636e-03
1.627834582208491148e-03
6.884712910527539080e-03
-3.784169579596232107e-03
2.872000779397305796e-03
-3.786539452603030799e-03
5.179042865347066593e-03
-4.675631187947956215e-03
-2.209554131531928111e-05
4.614292308316083474e-03
-2.621110846514819025e-03
4.680783618775949742e-03
5.486467735078031293e-04
6.507147554372445103e-03
9.263644283878122096e-03
-3.491580207995389237e-04
-1.263758157146440200e-02
4.523393373024202357e-03
-2.895133845234537998e-03
-8.428459105034952215e-03
-5.611180694979814483e-03
6.725999190056436601e-03
-2.902915400201523666e-03
4.839117274237890627e-03
-8.626883875511493936e-04
6.887554514576652714e-03
1.098742864015644612e-03
-1.604298909479563587e-03
-4.531775881074464295e-03
-7.974243690059525796e-03
-8.217112496578320505e-03
2.533955017187631588e-03
3.734092239242619692e-03
9.674610852296006494e-03
-2.309373589399140152e-03
-1.476104431362131129e-03
-4.162607325915621340e-03
-6.676159906727310075e-04
6.979722919308284064e-04
6.320791850860427337e-03
4.436607205417930785e-04
-3.965270613474118633e-03
9.472347632040625451e-03
-9.059565788837585856e-03
-4.426745077272712693e-03
4.983184895273603393e-03
-1.337611463955018553e-03
-1.769874769556244523e-03
-9.069995051795348359e-03
8.713456649361246698e-03
1.780320031910300306e-03
7.943085335103388517e-03
1.110770492069381409e-02
-2.716159068091459662e-03
-7.563568437456071915e-03
-1.471308471487667812e-04
-6.048934079649278227e-03
-6.889901462236753572e-03
6.624027865474087576e-03
5.268363278175511137e-03
8.288121405892124455e-03
7.249240806307553388e-03
-2.558325757351296095e-02
-1.969714852309242294e-03
-3.479134157878313767e-03
6.122445245638059169e-03
1.164506006176299277e-02
-7.872824724586176270e-03
-1.376160442562567455e-04
1.241745042966168125e-02
3.306765421719928214e-03
-2.031111386586840171e-03
-6.846174791280986056e-03
6.933738849367932812e-04
6.613273937064590227e-03
-9.927251715610393209e-04
5.240262536906657026e-03
-4.824967673832961969e-03
-3.788747586175218035e-03
-1.671242873737656962e-03
-6.816319267046069656e-03
-6.100885459105346090e-03
-7.174171231292519012e-03
-7.996968614592684169e-03
-6.916498201252075642e-05
-8.673094447740963345e-03
-1.680262564528980278e-03
-6.430778532837145775e-03
5.221549800409542273e-03
-1.272955594514481488e-02
5.484019458913597794e-03
-5.950580564482071781e-03
5.894168499281049640e-03
-2.976690258097904312e-03
4.531629152443252700e-04
5.374236783348008972e-03
7.622539714276919953e-03
-3.399959653483683106e-03
-2.642057595330375881e-04
1.317779013250232768e-03
-6.247883122799112758e-04
-5.008287508113548787e-03
-5.466027051588346480e-03
-8.282499376430009150e-03
3.554347166614612967e-03
-2.926255877935542843e-03
-6.811380419518461328e-03
-3.571754062996849392e-03
-2.649975751194205524e-03
-6.215778439738612639e-03
1.140860691411250353e-03
3.960369406313076976e-03
-3.063251493356685274e-03
3.377781360409187576e-03
-8.618571289151182382e-03
-8.190696320802860753e-03
-5.054394781649819987e-04
-1.222016577518247231e-03
9.672927374100949438e-03
-1.751146317169630486e-03
2.846270493078111030e-03
-1.418181935330644554e-04
5.130705136909285990e-05
6.247973825347715934e-03
-7.584556238509650508e-03
7.041407770421955793e-03
8.216681800404928085e-03
7.650161190943444156e-03
-2.031794693798743244e-03
7.748080907983698716e-03
-4.725636862416978182e-03
-8.759410947567092959e-04
1.013553154866996507e-02
-8.646815111834063247e-03
-2.836403943483452534e-04
4.543270906598158819e-03
-2.290394403459341307e-03
2.682152284799213223e-04
-3.159142955791067586e-03
9.905753351776502239e-04
4.434220594890112867e-03
-6.574567093674955724e-03
-1.269316832826359459e-03
-5.606791806273150967e-04
8.024559411328844802e-03
-8.994858148976641460e-03
8.534932304119040997e-03
-8.932326235363587108e-03
-6.443172428514164739e-03
-9.786118810176068494e-03
-3.094280038858256490e-03
3.116586221095028319e-03
-5.451716012142433440e-03
6.215262627432985819e-03
1.818963043894104327e-03
1.082623766486294666e-02
-7.604435487222811242e-03
-2.351704525936117608e-03
-8.673253551715769116e-03
-5.907351361265134916e-03
8.537926091902073994e-03
3.592568824628220719e-03
8.673534094247915133e-03
8.275959513775209275e-03
-7.346551411337166361e-03
7.295189167419116431e-03
3.707893248975792106e-03
-8.427012677706614135e-03
-9.849926801921324651e-03
7.011430059066077469e-03
-7.120945752270769168e-03
7.566209729607384013e-03
4.976881825044068494e-03
1.629878179910705010e-03
-3.451046331800395901e-03
-8.795762513712971839e-03
4.045903160089315935e-03
5.265414608814298833e-03
6.160356226774804525e-04
-2.134028829848036695e-03
7.672822319360744596e-03
-2.694030867683427748e-03
-3.714140612203326117e-03
7.946996267491599625e-03
-2.884353775424507247e-03
-7.399260251839898279e-03
8.329146074699480054e-03
-1.861887768100982778e-03
-8.549034760577615272e-03
8.618783898625023655e-04
-1.659172323308488479e-03
-5.148035884921895768e-03
1.127891429377530716e-03
5.119762154774959266e-03
6.936233468265061257e-03
1.223714074627984714e-04
-1.852459398625188507e-03
-9.317581170070813462e-03
-4.433674633880734222e-04
-1.465143748592606480e-02
5.045259961537860039e-04
-1.625381642976171616e-03
7.098796310369208731e-03
-4.244995880839193790e-03
6.905064516585118252e-03
9.182408356059882509e-03
7.684227078874832084e-03
2.213271487095904138e-03
4.686878892134785542e-03
-1.441980692799998401e-03
4.683017235785695044e-03
1.986545901930474901e-03
1.579682461180226824e-03
-2.202244636148574259e-03
-8.688447852207323990e-03
-4.197237752926574858e-04
9.454969921615702724e-03
4.123393702495595919e-04
-6.659706031311668148e-03
7.598648382055916799e-03
3.909689236824931240e-04
6.719960734270439672e-04
8.535504753018645016e-03
-7.589579139427532831e-03
2.720750700516836023e-03
1.001162383680057749e-02
-3.470572123602476237e-03
-9.863480939690486005e-03
7.563160888079275244e-03
2.397061450552154423e-03
7.452770151212865200e-03
-8.293478346333161763e-03
9.066310427437426767e-03
-2.773821821355999372e-03
-9.729453607383432932e-04
8.718000725270520779e-03
4.433839567235134914e-03
1.985948555147866446e-03
8.794531804702886537e-04
5.199798403012777280e-04
-5.610957801783860409e-03
6.955983664374780669e-03
4.018734218963953349e-04
-1.758132319611268365e-03
-2.625273389791028898e-03
2.180532316838282823e-03
-8.998704191559868393e-03
-9.161349076704161307e-03
-8.835338029559377821e-04
7.547986537241028158e-03
2.681398078778476565e-03
6.326410729721445789e-03
5.723919247624118314e-03
6.713423910880709881e-03
3.104601179610873719e-03
5.326612198027412710e-03
3.460354043722307579e-03
6.745264666590292460e-03
8.925410685883185258e-03
6.841441847033833887e-03
-5.472356334044848475e-03
3.021269354388001187e-03
-2.624549040509851008e-03
6.522905953382186414e-04
2.280195296960603295e-03
8.474387923663251679e-03
-8.782152680442710524e-03
3.277291930867697912e-03
-7.051695450889437083e-03
2.345312870862536765e-04
-7.787436060848078323e-03
-6.276074502734776961e-03
1.505029795909672112e-03
-4.620019662577109880e-03
3.574826740778790004e-03
-6.217971718937620462e-03
-5.627818036041691042e-03
2.470537933711004861e-03
-3.775320619786191531e-03
3.490478158818497399e-03
5.023221444206957265e-03
-8.769065585452328476e-03
8.238812220188034344e-03
-3.049467408434202408e-03
8.181702280178717798e-03
3.503783839535938496e-03
-5.477595454740093704e-03
-2.400553970578361753e-03
8.515550053885132670e-03
-4.865065385369559195e-03
2.587857112312711046e-03
-5.983503417196299468e-03
-5.278520200561469429e-03
-4.934059735434776633e-03
-1.134122092154501906e-03
8.227627433089024223e-03
-9.698534897352013850e-03
-4.228243528205265570e-03
-3.745820400982407942e-04
5.714865697492713288e-03
6.526427055023182634e-03
6.885019490528883172e-03
-7.121250093425646535e-03
-1.098104714243902831e-02
1.180057567391464089e-03
-6.361106731599969893e-03
2.732795395370930976e-03
4.966387480249309129e-03
-6.945611402721921972e-04
8.679589389222842899e-03
1.002751513402342677e-02
-9.123009827972700450e-03
2.792130349275056666e-03
-6.627384025944741200e-03
6.875841668237711417e-03
-7.294069981428903671e-03
3.897241421284610975e-05
7.209525219825027587e-03
7.308728801367278538e-03
6.197224277564199364e-03
9.814210899815383957e-03
-2.461531183529347844e-03
4.742577691067046027e-03
-8.153385097611667853e-03
-3.819579914727542005e-03
-6.945770664140146940e-03
-2.325905355266769201e-03
-7.088399764169680227e-03
9.456163252637673003e-03
1.975887333423621134e-03
1.910418516321475040e-03
9.980041042845888555e-03
-9.537763878783300786e-03
-3.257624257297937927e-03
2.955295989733710930e-03
4.369112222992165180e-03
3.866061777908481618e-03
-4.793240290577508063e-03
-9.275103512934505454e-03
6.236456461225409892e-03
8.943192260329701354e-03
-3.684968969860411871e-03
9.623089804604899669e-03
-9.522934228903117424e-04
2.606981815576865993e-03
5.239983225039969439e-04
3.935355639166688083e-03
1.929594848101820947e-03
6.905917741225645013e-04
2.315502179658117041e-03
7.595839908755946425e-03
-6.727298789358345660e-03
-9.190740758037399538e-03
5.906265002152416219e-03
-8.332135729045583514e-03
9.185849095352341745e-03
-7.356189414733156628e-03
8.584401953832929491e-03
-6.125061440172651153e-03
1.405656511100841040e-03
4.503259960084366083e-03
7.466534504834821881e-03
8.277421364316106880e-03
2.631983288100160981e-03
-5.054334800420439734e-03
-5.976391380300437144e-03
2.241694073463818167e-03
3.448406131447477683e-03
-4.422634880951613681e-03
9.218227047367879429e-03
-3.503878005222635025e-03
2.313541666175664667e-03
-1.534831643242702331e-03
-2.191884878509658041e-04
3.851908558097704143e-03
4.731747661625153659e-03
2.838087838576894978e-03
-1.815985293662896512e-03
5.789089009821050957e-03
-4.148169032263140238e-03
-3.074990498341281971e-03
1.229404979483960866e-03
2.693958559346361966e-03
5.485344963893296413e-03
-1.343375582487075452e-03
6.215892157346791617e-03
-6.473857407846166090e-03
7.488251546386330733e-03
-2.160939393143947521e-02
6.333808894622203374e-03
-7.930811161456738020e-03
1.094508140285706949e-02
-6.585949598137177388e-04
4.585317404245646718e-03
-2.520374408415247073e-03
8.158793452464636192e-03
-4.881106978045823656e-03
4.549150309235057768e-03
-6.818182089152353791e-03
2.524967730956001813e-03
4.137748345383786795e-03
3.611931729913888962e-03
7.152367944041576435e-04
-7.719423096340460345e-03
-2.761546413071623053e-03
1.820642655533544251e-03
-9.853965087294516353e-03
9.247267558082153394e-03
-7.664584185966675546e-04
1.076034318055306719e-03
-3.846730369808281681e-03
6.542755145821825026e-03
-1.527909928520562993e-03
8.846943551475583423e-03
-7.879886047014828671e-03
1.698835123319477822e-02
-4.070596164900210784e-03
-7.085272590700624797e-03
9.759761088325668438e-03
-9.414603000188453974e-03
-1.944938092382564277e-03
8.546360265959472569e-03
-6.693349093458206799e-03
-4.387521645137599721e-03
-9.407865398684701203e-03
-2.049422872560831277e-03
-8.301090835694364956e-03
-2.140016782474050624e-03
-7.465163998455751591e-03
6.227736839681246618e-03
-9.845618254693480273e-03
6.468391431835937219e-03
-7.856860709639985896e-03
-4.683564612645912603e-03
7.298335393324839257e-03
-8.599556753673666615e-04
-6.270944870576031921e-03
-7.136045759677166699e-05
-8.612403231007570090e-03
1.291130067882324903e-03
9.541529488528420824e-03
2.341311146364565433e-03
-3.347732388102740014e-03
-2.092794190289124119e-03
1.912067848360071579e-03
5.578311692860522288e-03
-8.842501791963589333e-03
-2.577177360775895210e-03
8.355313054058658220e-03
-2.359147336301368070e-03
-8.556049176833273318e-03
1.216130426886233989e-03
-7.875774441840767415e-03
1.944608317920966910e-03
-7.737581970767733013e-03
-7.368391293227066069e-03
3.436760470466956267e-03
-4.049296427997336871e-04
6.742312832960218466e-03
-5.029826703575253008e-03
-3.329836606319513774e-03
2.999584747426376451e-03
-3.830366240519268110e-03
-1.821653763529404793e-02
-1.080695062104561864e-02
2.045765944940370045e-03
4.441177270755314148e-03
-9.865955885061082620e-03
1.322261874460984232e-03
5.225743181316916050e-03
5.648525932549952784e-03
6.429628260751253654e-03
-2.817361791421985236e-03
-1.731779061835018313e-02
9.114373940127670423e-03
8.162170275241159567e-03
-9.948651884817638624e-03
2.848346252721119937e-03
8.782524279088588931e-03
-5.265624533124481192e-03
2.212900313957056383e-03
6.040940066864578179e-04
-6.065711160050719745e-03
-6.035636690810258428e-03
-2.644441666926760758e-03
-1.044177847669209083e-02
-5.602090299007703687e-03
-6.566594884785495988e-03
5.590988117998097265e-03
9.748535642092001977e-03
4.520499709562547479e-03
9.393301324529904420e-03
-3.752361758650272767e-04
-9.878174346929322058e-03
1.760305907821517815e-03
1.879986214553742551e-03
7.721711616821599032e-03
-5.851356311658514366e-04
-8.950936913355763899e-03
6.378774604841241577e-03
6.636956157177001728e-03
2.641203589716658705e-03
5.071865166502808123e-03
4.988802410435063187e-03
-4.467402961693368695e-03
-4.679292872733621309e-03
-8.306249104039511305e-03
-1.754258342385870599e-03
4.944155517936819726e-03
2.816376770054600590e-03
-1.109815495405551758e-03
-6.954729954544901227e-03
-3.822160631392778132e-03
2.693598513056802402e-04
3.151503226623957390e-03
2.114593496468185254e-03
2.350064931302816348e-03
6.436488147958685860e-03
-8.865166748203968244e-03
3.636019189391545515e-04
-4.772621992239040392e-03
-2.956411373707547915e-03
-4.107931970863017146e-03
-4.181858476219601183e-03
-1.713071065669779115e-03
-8.756270117529808827e-03
1.444175886792649875e-02
-8.933157366799308104e-04
-6.295055924910765953e-03
-9.264837138408539563e-03
-2.332675548685037709e-03
-8.336726506440291645e-03
-9.565588179194731838e-03
2.614083724363687640e-03
2.426635067834054683e-03
-3.119664036500630067e-03
-2.205344316629095480e-03
7.942535911192254161e-03
-4.764792370565333092e-03
-1.362058587682978689e-02
8.075192540609238065e-03
2.643681760576911503e-03
-9.658671575160402561e-03
-3.882343636792612903e-04
8.554987810408988189e-03
-1.048736166001862412e-03
3.560518533320185686e-03
-5.038154309697812083e-03
-3.339319997656195384e-03
5.799161543173747893e-03
-4.901486634934824373e-03
-2.147587744451570548e-03
6.807874616637201587e-03
-4.682268116493601071e-03
8.315095248703824674e-03
-5.952136489531249103e-03
5.519489298690505308e-03
-5.924325803399047193e-03
-6.664508320022617324e-03
-5.295395615233938931e-03
-8.176838771406566954e-04
-6.516006636209872513e-03
7.228289729901421143e-03
5.589020157194458938e-03
8.961577560439266260e-03
8.865939311670126971e-03
-3.183172381920580836e-03
-9.788111289669870069e-03
-2.591691220357205706e-03
4.416411528801002413e-03
-9.302423459153557825e-03
-9.566009961762905744e-03
2.933981616139627602e-03
-6.442769204615316110e-03
-7.272117137312667130e-03
1.667539735959491266e-03
3.861576826819811646e-03
8.254790277399913501e-03
-5.264198178996079558e-03
-6.752360519769571787e-03
4.157821082108677409e-03
-5.772281440866374423e-03
-7.739227573284264243e-03
1.737972822161707592e-03
5.777404880345447238e-04
7.123956076304505114e-03
7.068538329006992735e-03
-3.599182012261080421e-03
5.323196176275807844e-03
-6.843884133564160331e-03
9.196108989951165893e-04
-4.097034128787007366e-03
-4.791744807098469346e-03
1.865906328066651177e-03
3.668519632132364542e-03
4.964477572715855769e-03
-5.500691451351878876e-03
-3.646246912468418221e-03
1.866666443155814460e-03
5.833464568675113086e-03
5.339362977244951035e-03
8.890856120212413741e-03
5.038429444879448035e-03
-2.996771647965164233e-03
-6.035800740956888746e-03
5.239080974763667478e-03
-6.166318989320095957e-03
-4.771461370793039780e-03
2.027521283133887440e-03
-1.178724503092396219e-03
8.157217177339284343e-05
-1.936580372261108036e-03
5.992858299990280226e-03
-4.749367618513873797e-03
1.846079091120045573e-03
-3.189664273426855851e-03
2.601135600789262602e-03
-8.838724403572039562e-03
-4.866366962557898738e-04
-6.860377726149201501e-03
8.758317076199636933e-04
7.121034253312073618e-03
-2.543648545849763742e-03
-8.380099467149102616e-03
3.127750084499783794e-03
5.447807135732604666e-03
-1.822001262040938169e-04
5.931029133992545346e-03
-2.104086553473200668e-03
-2.923060123274337247e-03
5.992623115731716618e-03
-3.344958941924882148e-03
1.537760095336379411e-03
8.631346215879624750e-03
7.994066603430917406e-03
6.634647472068214841e-03
1.852006114833822450e-02
5.565157802289002857e-03
9.823050413008323559e-03
-6.542967303370865982e-03
-3.609269503208049033e-03
-1.044091977435168640e-03
-6.628093408660848916e-03
-4.084031147752182462e-04
-7.068638305048567487e-03
-6.275096019898315607e-03
-6.040708984257542324e-03
2.010987592423983238e-03
-4.054133109228958039e-03
-5.908192909297145003e-03
-3.284415794248503502e-03
-7.638407959367851489e-03
-1.096914831204068514e-03
-1.357806128975313749e-03
-7.245585028629509920e-03
5.738765531417815841e-03
-1.293985421905664585e-03
-8.894717436866759683e-03
-3.825022700845160089e-03
-7.787623398775225109e-03
7.552338158945666978e-03
-2.488165084322254902e-02
9.023776738494143287e-03
4.156600234445777774e-03
-6.361121522853323967e-03
-7.177911315906636280e-03
-3.766474126660610509e-03
-8.016524942887041580e-03
-5.493481955119023513e-03
-9.064512195050207152e-03
-5.910412006292254349e-03
1.658388353630953303e-03
-2.606343935136803177e-03
9.758328243293104554e-03
-8.368075870278889744e-03
6.974724382116709222e-04
1.341827965394262008e-03
3.365737212456747663e-03
-2.129217420773325993e-03
4.224323598622307420e-03
-7.540999231792444232e-03
-5.042907336792959092e-03
7.056629185809632464e-03
5.943159930594096516e-03
5.890472212818739089e-03
2.008171602853908722e-03
8.645831659408987138e-03
-4.128808480319381795e-03
-2.370348920998543042e-03
-8.058956200612891682e-03
-7.326670219420648722e-03
7.490082327489891445e-03
-1.112356929339756734e-03
-2.593674016840816308e-03
1.157273189813506908e-02
3.639828703275616029e-03
-1.960958483384854338e-03
-7.417708729272194353e-04
1.796186899614442799e-03
4.530625514638830613e-03
5.663805496912839924e-03
4.703372593412893628e-04
-5.581129054489186378e-03
6.238606193669438832e-03
-5.309684665727200208e-03
1.173816625291041653e-03
-2.532619739072743386e-04
4.799807164681105243e-03
-3.701033169538694311e-05
-2.770693946189401596e-02
7.896201784520986630e-03
5.067817541610095816e-03
9.758087072506438711e-03
-9.241094338122930740e-03
7.836706803844569608e-03
-9.959155471047734590e-03
-7.151664232545359989e-03
8.298240984261526579e-03
2.439200109473642700e-03
-1.941470368159561909e-03
4.935132731824547420e-04
-2.965643785017142882e-03
2.214597331020681792e-03
-6.539740058339610536e-03
-4.616957230658609058e-03
5.449777309274660836e-03
-8.259651257773847205e-03
9.825164122335361405e-03
-7.942528893686106803e-03
-7.634411222448242787e-03
6.001249607763688501e-03
4.715256096860977707e-03
-9.657622444331725314e-03
-6.878771333015381434e-03
8.213775704618876683e-03
9.015867275976622089e-03
-6.781708461975126346e-04
-2.567895043206197461e-03
-9.929354973644341845e-03
-1.775016827711901109e-03
4.686239050215578253e-03
-4.370598701099649534e-03
