-2.108064466181990004e-02
7.013792058070443015e-03
-6.325194980686549458e-03
6.378009421260434977e-03
5.504012694760404556e-03
9.492075981478623192e-03
-3.879150632421794666e-04
-8.349775929653512410e-03
-4.808497428169868602e-03
-5.442927845054214937e-04
-1.981104648678136404e-03
7.027665689105847685e-03
-2.783098974991183184e-03
8.123879463173392951e-04
2.130868823619199923e-04
-8.642833741257508655e-04
-2.337154157520776078e-03
-5.126080851648245722e-03
-3.189520748875716155e-03
8.145253391621582253e-03
-4.307987838811087530e-03
4.197018224285517518e-03
-5.256662025907587327e-03
-3.964531559506039027e-03
7.818412347216851035e-03
-1.678484114250924225e-02
6.846132466732813421e-03
-5.064657038725987014e-03
-9.738237523369663862e-03
3.060669679211154570e-03
-1.180465345204874568e-03
-8.330988265643790927e-03
5.221572974426222716e-03
5.302694345179302833e-03
8.550247650268360394e-03
6.197077880142597313e-03
-1.373765969953838918e-03
-6.562847550227990032e-03
2.348768496870782575e-03
5.319734384104646101e-03
-3.858890197333364296e-04
-1.484389856445755915e-03
9.905203733525507273e-03
-5.763288232596371942e-03
-4.540022202191670853e-03
6.892475152894523768e-03
-1.789174123378520762e-04
-2.950165264077473683e-03
-7.332799787643725503e-03
3.020625941482831672e-03
1.058204746534346867e-05
-3.036755005639176115e-03
4.748142625216740693e-03
-6.410771624215875174e-03
-1.554700410223824533e-03
-6.928236040849161670e-03
1.239680721184368683e-03
8.342991340087780108e-03
-3.753672346048627685e-03
-6.354605222856427038e-04
8.640062032045003535e-05
-3.041168554899828687e-03
-9.835668823859011062e-03
7.746002646749986995e-03
5.259069763412903102e-03
7.118958951824873142e-03
1.977662472250073505e-03
-8.142651718624580731e-04
2.109433117821731506e-03
-2.850391472922021285e-03
1.839545283011655716e-04
-4.449763227397424484e-03
8.316475172119705897e-03
2.662903879418421433e-04
4.724537937508641906e-03
2.825415183003756204e-03
2.668734218111198236e-03
-3.761483957612961077e-03
-6.844867810243781062e-03
5.801277359152398443e-03
-4.422835456753534261e-03
6.193413308118755380e-03
-4.861107108917205911e-03
3.033544710429039379e-03
-1.946348831780719260e-03
3.099912786097884943e-03
6.472219143111353039e-03
-6.386200219781945978e-03
1.008430065992511199e-03
7.494730456339786066e-03
-4.134492194799238400e-03
5.883805172717269071e-03
1.516765488233385618e-02
-6.420476609643102758e-05
-3.115250792645593222e-04
-4.818639187011547302e-03
-4.251518155923624952e-04
-3.797208472629770657e-04
-9.517378530942418452e-03
-3.189570938656767843e-03
-9.446449282538207232e-03
9.013518391156598308e-03
-9.349343502727352345e-03
-4.159947960045114364e-03
5.065184565738622101e-03
4.676701715821071810e-03
-2.898640567279642602e-03
1.610086956647560153e-03
5.947740142987072674e-03
8.803754665937251964e-03
5.013725868607489013e-03
4.721706257579522809e-03
-5.735934950098472811e-03
2.443653961016040675e-03
-1.594671014933437278e-03
-2.073068993037783907e-03
2.846941912687900918e-03
9.896217275265097729e-03
5.038632877970765887e-03
-4.364330345840109621e-03
5.183082299540510765e-03
8.148033654949369750e-03
4.148092926870318269e-03
-4.008718753639561004e-03
7.065754589973104703e-03
5.863736569092357041e-03
4.856870915078149650e-03
7.836327832756751280e-03
-8.819324252588018123e-03
8.418573113223594070e-03
-7.899581908819348908e-03
-5.904591415441684142e-04
-3.013689651159702607e-04
-8.275026840459696192e-03
1.945772669588245979e-04
7.560065737619512923e-04
-4.939818656137309749e-03
3.317438420732313816e-03
2.509616772346020576e-03
6.132755501077950984e-03
2.914312297394120680e-03
-1.551060608534548591e-04
2.090692764517622934e-04
-7.198044888685190337e-03
1.054704748147673211e-02
-6.491994947279959723e-05
1.264691954883635566e-03
3.009769382218236908e-03
2.060593943396878298e-03
-8.757339593574622882e-03
-3.120384803115408730e-03
5.870139066989963836e-03
-5.679678906807909648e-03
-5.377873453877633422e-03
-5.725521141047873810e-03
8.585915676427798710e-03
4.318056082194459376e-03
2.633850654937885255e-03
1.932786660008874516e-03
-4.531587746589306118e-03
-8.895512484607501213e-03
-6.361433920168043862e-03
9.091231304001405611e-03
-3.078432325704612022e-03
-7.805789627920789626e-03
2.929853482399607731e-03
-2.395076904796121595e-03
3.992767627228215911e-03
4.866987377641352787e-03
9.311793676701020372e-03
9.377297129655962765e-03
6.856001188556737520e-03
7.077512921962379917e-03
1.094100132306762230e-04
6.639528413792531933e-03
-7.381429803062443916e-03
-6.529900398019392721e-05
-8.738419898283651330e-03
-4.633131683144485827e-03
7.030225793724620940e-03
-6.598796282294884172e-03
5.017299945613009141e-03
8.647935982364078795e-04
-9.806905892160447391e-03
3.230934019358056367e-03
2.505273627609391675e-03
8.332737120041776649e-03
6.082643024195164526e-03
-3.371215816481443108e-03
-4.192238616771129869e-03
-7.921689387471600799e-03
5.293230641793289851e-03
1.153377020578808324e-03
5.987534595952742969e-03
8.914123721823008842e-04
1.289040991063026588e-02
-7.538650077584076355e-03
-7.581782061092594976e-03
7.047065649064075850e-03
-4.112059046808037854e-03
9.797042798481746598e-04
-4.974503280691021552e-03
-3.907325340570752276e-04
3.912650229081616679e-03
7.046476493660434881e-03
-4.864993147799922223e-03
-6.166586558554838608e-03
-9.083611897198152693e-03
-6.853273189802360464e-03
2.386966877564992377e-03
2.047475017928794289e-03
5.842717862005099988e-03
-2.017726722918573596e-03
-4.642667278002156513e-03
7.656822973417733331e-03
4.138922863339224503e-03
1.621249285109227197e-03
-8.479668808713092254e-03
-8.155916448937546026e-03
-8.173594060342653789e-03
-5.241971078498506090e-03
-2.810014527431099664e-03
3.397640798970875085e-03
3.905467957809783015e-03
-7.152480395421574946e-03
-3.164507239989884299e-03
4.025479133863704186e-03
-6.704185115007772061e-03
4.924407659892335440e-04
-9.152139870481690092e-04
-2.906955752064435163e-03
5.636566833690127322e-03
-8.276243244662390142e-03
8.681762116921159372e-03
5.437820091703213926e-03
6.845827767835093759e-03
-7.334008969148389512e-03
6.674571639657136957e-03
-6.476032937209419069e-03
-4.864031547917922402e-03
9.186516485077126509e-03
7.536888162326777288e-03
4.547217765999945864e-03
4.149102854820975288e-03
8.141551555421861625e-03
-9.297336221619306035e-03
6.632239699997120007e-03
8.970594767637016589e-03
5.196588550844975785e-03
-7.872228394928385995e-04
1.010647070605628049e-02
-6.460584262704718340e-03
-6.589292358629747059e-04
5.481276998496479279e-03
-7.052666355372492688e-03
-2.251399506899455418e-03
2.773975771098888439e-03
-8.763191302440440078e-05
5.567643018846076333e-03
4.474800271937241954e-03
5.688766157800666246e-03
-7.622314799536193154e-03
7.980366877891628338e-03
4.535851487308085843e-03
9.665807093293272631e-03
-1.119408980097621022e-03
-9.671263879968799689e-04
-3.865161516681434387e-03
-6.470445639677454251e-03
3.120703487279365140e-03
5.090508032997970340e-03
-2.426608405766375164e-03
1.190210587702396350e-02
-1.145256310951265830e-02
8.531091869305160169e-03
-9.806974457972344062e-04
-2.058644686026601077e-03
7.338411967680826507e-03
-8.664317910941255960e-03
-7.637082194957031320e-03
1.013121301897795812e-02
-5.243001805138142526e-03
9.811630248431613393e-04
-8.595227066745838446e-03
1.492091515189726027e-03
-1.077582790501819708e-03
-4.747734057021203713e-03
4.489730029817698594e-03
-7.982434163906383315e-03
-2.876122582535010300e-03
8.634328078473208542e-04
9.071356911496776532e-03
7.879298668794379110e-03
-3.974292513826812624e-03
5.220536101194342199e-04
1.082192995860890329e-03
1.627737753773457040e-03
2.886894774149374905e-03
-6.142094902413273300e-03
-4.655431630935253501e-04
-8.359260510826159668e-04
7.982435597013686282e-03
2.826119491951312353e-03
7.776537936917462916e-03
-3.023340635202182314e-03
6.096964018459308590e-03
-8.877364208573506124e-03
9.196008513361698944e-03
6.521854513034772323e-03
3.707786799287889155e-03
-6.602925697790109488e-03
2.589860838575926832e-03
7.963987498232462728e-03
-2.713602701376612025e-03
6.337443351113880921e-03
1.426612696037948911e-04
-1.013217819389481897e-02
2.549998116113495923e-03
-7.463469545712095657e-03
-7.573542860240132547e-03
5.990457778729839540e-03
-5.596166624711518267e-03
-9.916306269571566190e-04
-5.414414108757373105e-03
-3.461966220131811565e-03
5.017872667173180028e-03
3.338876073985105105e-03
-4.510655427724100629e-03
-5.766179894940212831e-03
-4.126723157695908091e-03
9.277966378915784504e-03
7.169939636593399696e-03
-7.494419937265614506e-03
9.754383257364964560e-03
4.059931630224449146e-03
3.359331891234298723e-03
-4.942277007047795635e-03
1.700298280522741581e-03
-8.885940683047892710e-03
9.190576179184962655e-03
8.442993046857262193e-03
-8.445356802781776168e-03
-5.219187708498736374e-03
3.830621471433354251e-04
7.333534772874645419e-03
9.885671639951847112e-03
5.568986931680878875e-03
4.308159307262900660e-03
2.564926687959851771e-03
-8.604445347695187374e-03
5.057355417665674972e-03
-8.956787884896684482e-03
7.691586712318024266e-03
6.827615673170269080e-03
-6.640523032902132146e-03
-3.815443784072002596e-03
8.999006940073262656e-03
3.199442821259491660e-03
9.110805602425831040e-03
3.476695977528643667e-03
4.739905570861635727e-03
-7.730568184695126542e-03
-1.413966078240439092e-03
-4.567846639442763902e-03
-3.320064603297634247e-03
-7.299154627244248267e-03
-4.197153825522224706e-03
-5.082205417843019095e-03
2.839345569265364945e-03
-4.798145977669238289e-03
1.521162626428051523e-03
-2.845234689168600097e-03
2.553981484002710613e-03
-2.576636064539055294e-03
7.734493227586029286e-03
9.963134242760627798e-03
-2.406825081616770657e-03
-4.875800886574611914e-03
-7.919381345149299626e-04
-2.254715955800878566e-03
-5.489415514325652473e-03
-4.242330538171882812e-03
9.969552514676635960e-03
3.080978578949661491e-03
-4.116210494266372977e-03
2.369057765844370493e-03
3.739384103126917923e-04
9.103383603280643804e-03
-6.250810768558285463e-03
4.415548805119705322e-03
1.961396974471925261e-03
4.599898833421484437e-03
5.743379953161623259e-03
6.372266654018184789e-03
-8.123856596435202054e-03
5.955482025471360054e-03
-9.194712777802666742e-03
4.202487772916220152e-03
-4.630819838208869929e-03
9.143638011127701998e-03
9.494747423958086949e-03
4.348511349232166839e-03
-3.880253572732832255e-03
4.494399858607387062e-03
6.554138812525817613e-03
-3.223175169848329844e-03
-6.749764659535128879e-03
-8.221207122107736590e-03
-6.724981356104918657e-03
7.411331309573096493e-03
1.234937563475952717e-03
1.123342286729341402e-02
7.920960295969448062e-03
-1.102047488741786721e-03
1.937244530886395250e-03
7.445067782735064789e-03
-6.636980213260063044e-03
8.964142792537148352e-03
1.192394810426209697e-03
9.518958047061586072e-04
-4.943824249719004464e-03
2.361072024867062746e-02
-4.193007678261129016e-03
-1.984248459729066102e-03
8.032969579013954017e-03
8.587643505111456840e-03
6.783117468843435395e-03
-1.177425287179557651e-03
-7.088190822229528676e-03
-1.352636177148670892e-03
-5.240339738469166134e-03
-5.049648987080530491e-03
1.502411731910506315e-03
1.597228560636839432e-04
5.632318579919260923e-03
-4.983673286874805257e-03
6.476112075355968008e-03
2.822038069038678224e-03
-2.467857518255256802e-03
1.809827717697187017e-03
-4.042804876702405653e-03
6.673736915081589921e-03
-4.872329992369865866e-03
2.926422628117000390e-03
2.955497546337917687e-03
-4.307309869256119176e-04
6.000081242306228892e-03
5.880947894658497543e-03
-2.525217225114071654e-03
1.520866326022108890e-03
-2.224828450449398143e-03
5.616237610608388123e-03
-8.741256887111187660e-03
-5.285078427655344642e-03
1.509922984436506185e-03
-2.500957048725088033e-03
5.790254790948838430e-03
8.645124996964804673e-03
2.646085040832558532e-03
-8.349841540394911318e-03
-8.749979190467710791e-03
-1.057244529169030361e-03
3.294767031127591485e-03
7.822197899339737148e-04
-9.937231934621038043e-03
-8.433786258517121312e-03
-8.178777607168253097e-03
5.460904596110817757e-03
-8.514982776821999888e-03
-3.746260305772301097e-03
7.963780724940866182e-04
-5.913766675862476216e-03
-4.215274900628855972e-03
3.806423906332325781e-03
-1.877141609602706561e-03
9.654426875904991573e-03
-2.769709787451925254e-03
3.120342593372914079e-03
-3.577442569709932997e-03
-7.332738909228521569e-03
-8.596414299622694849e-03
7.537982311711523276e-03
-7.740807471069079300e-04
1.471371298826120236e-02
7.459411464905149960e-03
-5.395411996267135760e-03
1.019353757332797789e-02
8.295824215188780243e-03
-9.466279627320222864e-03
-4.727993915563187544e-03
-4.333918732817167163e-03
1.193588361979563972e-02
-3.929202773956746476e-03
-4.277516207983185666e-03
-9.130891296138353777e-03
-3.449625941530386534e-04
8.012230099558346336e-03
-8.772460671299128418e-03
8.921960846781852583e-03
-6.595522719687428072e-03
7.853636743179038052e-03
-5.988492784887949547e-03
3.854355584898837978e-03
9.876057893259926682e-03
2.047968930066068616e-02
6.139753027007868562e-03
-2.598767879645557007e-03
-2.863053049595215907e-03
6.693660602792055568e-03
6.826391331144889517e-03
8.172771358755853699e-03
-9.899754034984522416e-03
8.900987233565542736e-03
3.338069157168859890e-03
3.178598270125590659e-03
5.676164284257122217e-03
-3.897991110453272569e-04
9.513875353648178212e-03
-4.205424079091679528e-03
8.390770478054473264e-03
-5.493970067593753441e-03
5.737263079490539409e-04
2.920687620842518824e-03
4.694376620028485256e-03
-3.697195568156136196e-03
-4.869164473787921700e-03
2.291280947856756765e-03
6.596207780501480919e-03
9.143599923544961511e-03
-5.576433767353059998e-03
-4.849725512093711229e-03
6.587749156728815204e-03
-5.421524977552731953e-03
-1.183191487910993395e-03
-2.717511510372161779e-03
-5.100976442767852885e-03
7.316263107821322116e-03
9.110105051358698396e-04
9.582155930898252766e-03
-5.803688487721705459e-03
2.469885377936757200e-03
-9.035746663513808882e-03
3.242795657468412317e-03
-1.602673987464197205e-03
-4.354620336269259852e-03
-5.054176147393718392e-03
6.470845907800596222e-03
8.659234000806165926e-03
4.967963260210692122e-03
9.387776146483383169e-03
3.407337065373171586e-03
-1.405570009969592997e-04
1.431696209248408411e-03
-2.165539225285178278e-03
6.154421375669075905e-03
6.125125552293738881e-03
-8.969192297061075788e-04
-7.540130600659927101e-03
6.338857442332346791e-03
-1.766568409801759100e-05
7.214175926936187283e-03
-6.552259914068429836e-03
-5.880645609641998658e-03
-7.809027516262680678e-03
1.151441952428974727e-04
6.720676685996590342e-03
-1.716271942192371548e-03
3.555597417962435463e-04
-4.383225024939243521e-03
-1.199124651605003224e-03
9.209004855238003481e-03
-3.245800966924653266e-03
3.044548548344540567e-03
5.100577984017775485e-03
6.628528299163240906e-03
5.747684881858582985e-03
6.653976035350234707e-03
4.346781810039765381e-03
5.627881633749148805e-04
6.187584955942714189e-03
-3.683726228070844343e-03
-5.086167744477041591e-03
6.181899814220455196e-03
3.878011095127871077e-03
7.401174737045870464e-03
5.055835833991282995e-03
-6.177833885530772604e-03
2.716135977538519913e-03
5.045333579940176547e-03
9.733896794716794670e-03
2.809420024908506654e-03
6.229962729911668780e-03
1.718662804540996682e-03
-6.268182246144162091e-03
-6.602333424922862681e-03
-8.631562897394374698e-03
5.229507667597360632e-03
5.090166616963270538e-03
-7.732993560073512379e-03
-5.524765020936006459e-03
5.179351134598157713e-03
-1.063952885072419821e-03
6.585829684544371350e-03
-9.844602518517963849e-03
7.348701886977811529e-03
7.092172512056986108e-03
-9.136031975084512452e-03
6.802257070314977720e-03
9.161225268870384561e-03
-1.936923286089390793e-03
-1.434850180329221491e-03
6.686011790596849656e-03
6.070467553052734215e-03
-3.316172470148917237e-03
-3.493092842694897962e-03
-5.775272863350644145e-03
5.713909511851801917e-03
-7.754164042732215358e-03
6.773541817364689063e-03
4.848295667090550196e-03
1.845013288166016388e-03
1.326791067028179356e-04
2.131827230495033742e-04
-7.525129064614921245e-03
7.849883512528308196e-03
6.874746316756402730e-04
2.401849215678802246e-04
8.269184469317736319e-03
1.213580233813426647e-03
7.479474099989016043e-03
3.844906350524110103e-03
-6.783106602038247064e-03
-9.707508480328207873e-03
3.944121979703689787e-03
5.847173380631575518e-03
1.552136146985239702e-03
-6.615968261003297816e-03
2.027587046540760361e-03
-6.807794001299724909e-03
2.315091323654264871e-03
-1.480343619695475123e-03
3.368581823185588537e-03
3.448341637902870016e-03
-1.892303220853321761e-04
6.792428668479203076e-03
-9.668033469305755204e-03
-3.539598543578915523e-03
8.232539328241122306e-03
6.605619318044556043e-03
-5.613219472172664704e-03
8.222374939941323735e-03
5.157168958624867156e-03
6.179231186622351560e-03
-9.606261310598081596e-03
8.062408026586578499e-03
6.606781560894049027e-03
5.231336162890213096e-03
-9.517569898532151490e-03
6.580838402954648260e-03
-1.696417851585460329e-03
-5.780675662087985008e-03
2.920871826411687577e-03
5.043160023256516161e-03
-2.389814491359388161e-03
-7.933256712930592675e-03
8.556665801039317967e-03
-3.855402473934291512e-03
8.908062413321135575e-03
-1.504425508399475937e-03
-6.185082156649762339e-03
2.716686182633769060e-03
3.226412946363491595e-03
-9.353109578894602469e-03
1.376920719143245615e-03
2.334261092142900750e-03
3.129005190641609944e-03
3.097342439314051309e-05
-9.318323997290716906e-03
-7.852923668780367392e-03
-4.454099738852853457e-03
-2.482852120320298665e-03
-7.446554712825623375e-03
1.886435135656374480e-03
-2.257414659202230684e-03
6.362957610534468282e-03
-4.353691624091601126e-03
-6.269337826901850638e-03
-4.361654317785847515e-03
-1.888236184083737570e-02
-2.824545200103034757e-03
-8.064135048450502344e-03
-9.088895079401209179e-03
-6.374698158667363576e-04
7.030553387853262677e-03
-1.040432046373038644e-03
7.993461416110686155e-03
-1.995855922807955422e-03
1.041058950372598197e-03
-8.783024224672666275e-03
-6.792449383324614988e-03
-8.586375124727884745e-04
-7.341907458188765521e-03
-4.681549633103348519e-03
-3.754933749682211504e-03
-7.579047912309312511e-04
-5.446073940662945166e-03
-1.184554212674985250e-03
-6.711517906259975227e-03
3.073282979088447567e-03
3.284948162438800032e-03
6.556935049873973721e-03
-8.612532267541503708e-03
9.009881330258463772e-03
2.645093966945863059e-03
-4.953829349121783437e-03
-8.171608845096765480e-03
4.741342970527468240e-03
-4.279096472006039750e-03
7.672436655088050138e-03
-5.941313568845828230e-03
-3.581563121894232836e-03
-4.969754527088534983e-03
5.883086803733570194e-03
-1.263111864397230798e-03
4.430195667021892200e-03
7.713543295063388441e-03
-2.000854950091723872e-03
-5.171556878793781564e-03
-3.933769877283574933e-03
8.071264691904809357e-03
-9.002097032649916111e-04
-5.890006500039525993e-03
9.922420574398639267e-03
8.830628269823604520e-03
-6.510709270674252917e-03
1.019250103999551132e-03
7.960987197957026737e-03
-5.277676061153096718e-03
7.570835830106047853e-03
-7.690527430491748972e-03
5.273153180099365150e-03
-9.844804532716584788e-03
3.644452432297300669e-03
1.357872980475163718e-03
-6.266677311316825628e-03
4.840672661402312983e-03
-2.044717570480154151e-03
-3.315567211530101328e-03
2.944258255025147646e-03
5.224246452616368962e-03
-1.403559603720968803e-03
9.472800118291700190e-04
-4.004484697288158632e-03
4.078582833275940303e-03
8.004730081727202962e-03
-4.649432491820701570e-03
1.012303916537388854e-02
-8.551243204977477738e-03
-4.471439627525154899e-03
-6.863060359069714754e-03
2.624246477756522495e-03
-9.903350416782465311e-04
7.368839606610155628e-03
-5.214332987278174486e-03
6.311540502193995622e-03
-1.255551569179150576e-03
-2.480586796023299262e-03
-4.774766784139736382e-03
-8.834986567315045169e-03
3.971225515797007638e-03
3.329387713324682800e-03
-6.441163160627095575e-03
-9.471833449261109900e-03
-3.705840087032261348e-03
-7.901499946133823393e-03
-5.077175791956180066e-03
-9.133160108231910823e-03
8.512435244143108995e-03
9.671790288760969551e-03
-6.577144401452573487e-03
-5.642424020320499674e-03
-7.695968401454125231e-03
-3.415519164126894474e-03
-5.324667142076251747e-03
2.815299259348726362e-03
-8.102921417759936795e-03
-5.399025020386074777e-03
-1.999525829125613913e-03
-9.390482580724151401e-03
-4.991011982806484691e-03
-2.627992799124110636e-03
4.849710667325720856e-03
3.593459924354422261e-05
-2.845525694447674503e-03
-1.540078610827908326e-02
-4.305368574991479298e-03
6.064727762199864647e-03
2.428968586507820708e-03
-4.167970878126304318e-04
-1.560881356343009211e-03
-3.526431849542146710e-03
2.592745866048275661e-03
-8.593590690704994844e-03
-8.504296901600904776e-03
1.233552351787683575e-03
8.188972680112337199e-03
-5.909656626311737826e-03
6.529543523400646240e-03
-6.870006758069368245e-03
9.303241302150983341e-03
6.644275337232196862e-04
-8.956213714656074965e-03
1.018232833643853766e-02
-3.474342258570432048e-03
-9.837911495793039834e-03
-3.598351175257028141e-03
8.510696888386270684e-03
8.262131316191493810e-03
-3.015625701360917770e-03
-2.520384782447302342e-03
3.710681077239976096e-03
-9.848395721965061758e-03
8.622790181845091037e-03
-8.074192737022299962e-03
-1.005796580529655371e-02
-3.160387787620564434e-03
-3.187741729759277325e-03
-8.996083562402472020e-03
-4.885554215164252152e-03
2.121528839547158918e-03
2.254990091298530053e-03
7.551332596160853115e-04
9.691418705012312673e-03
9.621396421124615156e-03
-6.737181298794820772e-04
2.305835347840136471e-03
-4.229969163497031108e-03
-7.530138664524456751e-03
-7.924521947741645922e-03
1.476488454923420741e-03
1.049335420066549278e-02
-5.856011032188260246e-03
9.430199123220834798e-03
-4.802358227088254078e-03
-2.748257863018961026e-03
-5.211879755683364833e-03
8.318617467403193833e-05
-2.302444995474292686e-03
-3.536211741111196759e-03
-9.839302576338212689e-03
-2.729541990887114807e-03
1.574419656113308945e-03
6.731940151524684786e-03
-4.620640738729662154e-03
3.690758908257735661e-04
2.700861476318279671e-03
9.518931436817633721e-03
-7.632412517250189606e-03
3.334087199444270896e-03
6.977151858147164452e-03
3.337655458182817777e-03
-9.436888059450240784e-03
4.795386645009282536e-03
7.542145760155664208e-04
4.150609863459348708e-03
-3.405030533627980208e-03
4.538949253345066735e-03
1.610363248898960542e-03
-8.461474815879284350e-03
-3.641532030830472565e-03
-1.742408677195224137e-03
-2.413547497995498399e-03
8.882276596403664015e-03
3.151784132337323314e-03
-6.810490555318396942e-03
7.411602388010266051e-03
-9.770526682210446418e-04
1.768803349095005072e-03
1.815260551540441320e-03
3.256944651836226820e-03
8.698511297166193479e-03
-6.713595655895176866e-03
-5.133466181514222647e-03
-2.573547773385837390e-03
2.523614775491533815e-03
-3.125069014973984143e-03
2.097407405443906664e-03
-1.864731246275795227e-03
4.768713190269421691e-03
1.001766964680330524e-02
-3.969395791440453666e-03
-9.818804447429815840e-03
4.168898028229827205e-03
-8.390900445206373251e-03
-4.446354535832284052e-04
4.521536607259539139e-03
4.828711035833228057e-04
6.363416739947835854e-03
-2.024281667036636687e-02
-4.611375542233168111e-03
-7.943319127924907547e-03
-8.611862789419794800e-03
6.582060257762241059e-03
-5.062377940669894258e-03
3.445814745481375584e-03
-1.949288903938134173e-03
8.673140560515626941e-04
9.140734932773073376e-03
9.954204147715193726e-03
-8.200610499788365745e-03
1.245785112403556202e-03
-6.316645297001142502e-03
8.006308913327013152e-04
-1.192792399097760943e-03
-4.928918159017878740e-03
-1.166052142336169864e-03
-5.101573827944697048e-03
4.182654747525725407e-03
7.672237527026635161e-03
1.109595133797350048e-03
-6.981455414782362229e-03
-9.678365979766869603e-03
9.296251678931354012e-03
3.810508910630125770e-03
-7.039334636958626858e-03
7.996552877804378318e-03
-7.012340865584941983e-03
1.546736629949900998e-03
4.740473294888185307e-03
-4.668219550922485077e-03
3.737399857740932724e-03
4.437311922128823159e-03
2.458900575051714121e-03
4.911786498158363969e-03
-8.138045145368340630e-03
-5.238775781326709263e-03
4.762173914044516045e-03
-5.528355793483208245e-05
-6.943123692703473404e-03
8.080974161073263551e-03
2.888627346882514414e-03
-1.983868691527056281e-03
1.343735626730543095e-03
4.929266121411732086e-03
-7.137505018192776864e-03
8.577134539079890249e-03
3.633268647561511619e-03
7.598921504953275174e-03
3.847500848396805725e-03
-1.369756399065306593e-03
8.052599492104278028e-03
7.114702961789878301e-03
-1.803382380346092587e-03
-8.970276466898571138e-03
-2.158884178726134737e-02
5.377052584604495242e-03
2.447961861571278964e-03
4.693305577479525183e-03
8.273603974429144178e-03
-7.325143457729239166e-03
-3.025046650464512208e-04
8.236478739534617774e-03
-8.952465227248695284e-03
-7.911265087546631410e-05
-2.102669268232539631e-03
-3.212180081459919349e-03
6.520983400814478123e-03
-9.780155830184171853e-03
-2.673264644326854306e-03
2.851807973886736920e-03
-1.298656256214358569e-03
-7.186627428570391100e-03
-4.225208411764262706e-03
3.728639800598195116e-03
-4.101177474184327341e-03
-8.344473659102598709e-03
8.373440612344444471e-04
9.449430458354276391e-03
9.519058596563347713e-03
6.941098154313734246e-03
-9.761710424885864171e-03
1.471761513283745021e-04
-4.348022087104053135e-03
1.049559261325869186e-02
2.570558505816969170e-03
9.356485432966594323e-03
-4.215143095861046720e-03
2.255922726475927207e-03
9.599004704821847977e-03
-5.944533708941366658e-03
3.739707617082859304e-03
-6.028538000979319876e-03
9.921740397767909829e-04
4.484352501793621888e-03
-8.163042992611953264e-03
4.388395510060137152e-03
-7.177946813757881545e-03
8.485851641252825997e-03
-2.098247706889116819e-03
-8.857230146014789243e-04
3.980425710083700282e-03
6.049157527355308178e-03
-3.757410266012292145e-04
3.920351521682837424e-03
5.771163256894896142e-03
-2.422001566656652172e-03
3.427955104900582903e-03
6.482306042430538429e-03
3.322300735577209205e-03
-5.622574749932972293e-02
6.775739755352277495e-03
-3.848990323328368036e-03
-3.170467609969284447e-03
-1.201460959250301268e-03
-1.722509308060723651e-02
-1.940319187938645143e-03
-5.795500060564715873e-03
8.710840108021791891e-04
4.728138221816793885e-03
9.622616996552098290e-03
4.163409229023883919e-03
8.760850350322445246e-03
-3.574643923917770159e-03
7.161618460182928025e-03
1.329808633059539023e-02
2.022337306521332541e-03
-2.464381969471898023e-03
9.520858787199880033e-03
-5.271744341920104292e-03
6.876349486273532208e-03
9.725183598466791840e-03
2.151398544549360144e-03
-6.219659020069234247e-03
-1.884631470439618317e-02
9.268727541080271342e-05
7.979401981231116006e-03
1.357021555308885046e-05
2.121321816334563112e-03
-9.632318340549715988e-03
9.142272983040428472e-03
-6.327888473966528614e-03
-2.365107960531163695e-03
-8.114378850888379719e-04
-5.922684855525477826e-03
-5.757711597364770922e-03
-9.752547578482879953e-03
8.778852844350135132e-03
1.303515784930552295e-03
-9.668699807461871021e-03
-6.982487605395742980e-03
1.850358121641516385e-03
9.338153427623204286e-03
2.965112978415832511e-03
-9.181043611373238336e-03
6.454676323781720522e-03
-7.946301860445918741e-03
7.517719018480945904e-03
-7.315631684122823886e-03
3.772892937476552029e-03
5.863457242116155120e-03
9.608489568910791312e-03
-3.551253530153842142e-03
1.755261528795316059e-03
-6.624434545453655558e-03
-1.019448773859765733e-02
6.950625704534151711e-04
8.054489904018314814e-03
4.145012158304168604e-04
-1.186795082947131189e-03
3.183402866728964314e-03
2.107865809372121407e-03
1.200877214286645654e-03
-1.263764861230382269e-03
-2.105696535653200398e-03
9.186215419978171343e-03
-3.217667958533098390e-03
-1.386883178664156382e-03
-1.463780582749477175e-03
6.893016973816498433e-04
9.134828658028592771e-03
2.971073261749017282e-03
-9.825806026625279535e-03
4.055421073258190772e-04
4.693587393972949683e-03
3.384030944088109016e-03
2.321111869379659676e-03
8.470267794820001556e-03
-6.372124588500377614e-03
8.698910071096492211e-03
9.524775214450300481e-03
-3.975691934211574366e-03
4.913722627882890354e-03
9.506029338343257098e-03
8.130224972207074200e-05
-6.525550013964738407e-04
4.608112202663570099e-03
-8.900391946549512934e-03
-7.554728771912177544e-03
4.743121165237615573e-03
4.245044529973054925e-03
1.850785567491213066e-03
-2.382785087298249470e-03
-1.097634005479099570e-04
-3.068169177186418246e-03
6.185825270315711485e-03
2.550801457454444227e-03
1.685688017602518475e-03
3.879669128825526721e-03
-6.549325876305517671e-03
-4.637786033300326551e-03
-8.798894891057026262e-05
-4.160486726630753529e-03
4.463607660479445953e-03
9.090422060682458102e-03
9.799877582298947148e-03
4.855379184748258303e-03
6.110701452031875973e-03
-6.423817199117680746e-03
1.039017641777896604e-03
-7.209636732849176478e-03
3.509490788982478834e-03
2.071908544393473439e-02
-3.097030504442253775e-03
7.204419848927595856e-03
-1.795484066692012992e-03
-4.443319364947729416e-03
1.480989048582474028e-03
-2.559985835241601008e-03
3.509022009005896385e-03
7.179657517779679254e-03
-5.687386841102575613e-03
8.212300794849204319e-04
-5.208024280057002228e-03
-8.472251679215274389e-03
3.247654753779527395e-04
-4.861410298002927927e-03
-8.541545198299167231e-04
-4.911768664900011301e-03
3.768886412536155348e-03
4.566083891017086796e-03
-7.442262289828682591e-03
-2.670269310003517502e-04
5.635258181508995962e-03
5.404032853731008217e-03
-7.128563882857328129e-03
9.110143488023541083e-03
-2.222748615163140564e-03
9.105592468867827402e-03
3.510202431791530076e-03
6.388958816865258732e-03
-1.774079911410523895e-03
3.622494453451251348e-03
1.310453578070731743e-03
8.749329850188750915e-04
-8.401340510928634233e-04
-6.095947232608433380e-04
-2.444052922890055119e-03
5.669256029681834369e-03
-8.047480801031634337e-03
5.683451297503700449e-03
5.424394360318531873e-03
-4.168154774850359526e-03
4.834454566288588252e-03
5.825694169210559811e-03
-6.331059678806239509e-03
9.072469338799146396e-03
-8.460632527766912686e-03
6.323611814973780984e-03
5.651025249533413522e-03
-6.099914425081648167e-04
-8.751068553888970147e-03
-9.072275295655656403e-05
-4.100079329517099767e-03
-7.819459095896956133e-03
1.004316917254036287e-04
-4.097449817516968587e-03
4.201015372690294859e-04
3.051587020589224472e-03
7.887077127913829852e-03
6.148123977629186068e-03
-1.138933515864876296e-02
1.546780142195617680e-03
1.049303381375171762e-02
-4.445432474700639069e-03
-1.695194975562162648e-03
-1.858563238414305367e-03
-9.261734884653470903e-03
-7.395626815035230041e-03
2.702466589513449063e-03
8.073024058865924113e-03
3.597365514091744806e-03
-1.946748091676431085e-03
-6.536497119832293014e-03
9.819282392169108309e-03
-3.635677206217357346e-03
9.966776462579563303e-03
7.148114526286945998e-03
-3.491426224780829531e-04
4.518215728781026751e-03
-3.718814729236199178e-03
-5.511906164673754244e-03
8.458016558587130168e-05
8.091675453190028469e-03
6.756945922504708352e-03
4.924000115681673867e-03
-1.273894403629686339e-02
-3.396606765565420016e-03
-6.282485951210962406e-03
-1.288010352804501131e-03
5.844500845007595015e-03
-6.445543823426541120e-03
-6.688577739766323089e-03
-1.817540559458682807e-04
6.184902454361120711e-03
-8.620394218474455514e-03
4.820750088800064038e-03
-1.339069929135867443e-03
3.989812634707134639e-03
3.823432556809665088e-03
3.867920988018744462e-03
8.506264782151509718e-03
-8.339744289975449532e-03
-1.090839338609750830e-03
9.990316298366294298e-03
2.584154904023111543e-03
-9.010435147821835300e-03
1.060258558140025203e-03
-1.014240768353499985e-03
6.463990081077533763e-03
-9.086171161841386304e-03
-1.488907251364704693e-03
1.956759079670620225e-04
-7.521909474872095873e-03
4.097129891259564984e-03
-8.205346895354041423e-03
-6.870809792720346254e-03
-6.583712429779058507e-04
1.983233955265717701e-03
8.829114940104564394e-03
8.868144961678188151e-03
2.879308146880427653e-03
2.786936343705762476e-03
4.990584916275118445e-03
7.617823011857548926e-03
5.229596664566313856e-03
7.280492400219909684e-03
-2.393944477805302982e-03
-4.241057774689053692e-03
-1.696202764629551685e-03
-5.211221018947630179e-03
-8.471448561922200957e-03
9.007275468884844496e-03
-1.456827248353379477e-03
5.247680194883270338e-03
4.857030286552738163e-03
-1.643512990723782494e-03
-4.315328295693587890e-03
-3.729099641674911165e-03
-9.376755884947988659e-03
-2.506723162083157250e-02
-8.269421240068203921e-03
-2.931290133423409972e-05
2.019860789478122864e-02
-2.122703224442835501e-03
-6.163988977312634052e-03
-1.693500419900393662e-03
-4.243224012418968065e-03
-5.587869668656184757e-03
-2.503728670309728066e-03
7.759643541322349888e-03
3.935608056432232313e-03
7.605275952140830471e-03
1.555198712466774854e-03
-8.019624148111276218e-03
4.346457476733772869e-03
1.022391770743261326e-02
4.085169948075176565e-04
3.541467054801500976e-03
-2.572860698056712424e-04
3.658791097166141232e-03
-2.197184311909583721e-05
1.420266154394727795e-03
6.512126955709491606e-03
-3.776347195545503611e-03
-3.410087930329579989e-04
-8.813820130959802018e-03
7.674404929407827730e-03
9.124008435018236135e-03
6.917180114407689255e-03
6.176542269653002327e-03
-8.498415543012321355e-03
-4.298295305946177834e-03
8.977450811922724899e-03
8.726289601613404848e-03
-5.273297673408128446e-04
4.598655512913405428e-03
3.133301315905979555e-03
-1.774084632176016116e-04
-4.680015205881704089e-03
2.297251043247482572e-03
-7.615600881848324545e-03
7.475240123779270870e-03
-1.193984383975303957e-03
5.737575265957646498e-03
8.330433185761791301e-03
-5.710165205805079261e-03
4.672817308917794239e-03
-8.372543267106949058e-03
1.242789872871180069e-03
7.865964912401376269e-03
-1.779496873240670731e-03
-8.728263859095011269e-04
-5.076748040015710214e-03
-1.666586251435601843e-04
4.162408027671888472e-03
-4.343448343066833375e-03
-7.868790996297309048e-03
6.812635458826721453e-03
1.743849845562747344e-02
-7.632932810281272892e-03
-6.832987509051366599e-03
9.670047018266401603e-03
-8.568866933372918521e-03
-6.318933991186866626e-03
-4.622690604388697555e-03
-5.067199926866013072e-04
-3.650169168685958414e-03
-9.778358905465817791e-03
-1.152816763771744718e-03
7.678029377950142814e-03
2.967317826542984361e-03
-3.523817501863563562e-03
-7.570482003867769075e-04
-7.608920369551233067e-04
2.130311792390513631e-03
9.697913951732365506e-03
-6.895324555785562956e-04
6.085781373681938868e-03
-6.922478043017763968e-03
8.413514749258908798e-03
-4.081716954884107539e-03
-7.459415833364781319e-03
-6.836263401241931582e-03
-2.499832018139472694e-05
4.334339066754002052e-03
-5.979477659478583257e-03
1.718550844394610769e-03
-5.309448952553716926e-03
-1.060110974670057946e-03
-6.320148858596190064e-03
-2.268434439977340747e-03
2.643836743571896433e-03
2.793975906562621171e-03
-7.365355967823346284e-03
4.255221113221942242e-03
-2.491329230372453778e-03
-4.447027281909361404e-03
1.755511014576997125e-02
8.743956536340292268e-03
2.347426292893211967e-03
7.725025772854934511e-03
2.457768452038922285e-03
1.286390013401616725e-03
8.275534266739624500e-03
5.201270060864970207e-03
-5.834407449970039315e-03
-8.977815321134114410e-04
-5.780203119806993570e-03
-2.867999299371087364e-03
8.714196541023691567e-03
1.288903012175241815e-03
-8.205248180956256979e-03
-3.711197145479274307e-03
-4.904698308276439836e-03
3.515887267273335066e-03
-9.770762749615755430e-03
1.029960828390207375e-02
-1.580803806443721029e-03
-3.936291593015678845e-03
-4.758696079138421270e-03
1.299123967650436459e-03
4.234056034918161175e-03
6.457585130809148297e-03
-4.644817503119537221e-03
5.811637178666410365e-03
-5.769698447978323028e-03
6.194656839363292186e-03
-8.819050558982211366e-03
-7.033694799368852418e-03
7.340980253495762997e-03
-2.945961841074095765e-03
-7.763050990373082660e-03
4.992325316198020606e-03
1.587306834787899096e-03
-3.982382939227076778e-03
-1.047065026128998939e-02
6.990209574932248343e-03
-5.254183524968430649e-03
3.524337198548307352e-03
8.558255474950170194e-03
-4.728912438070812310e-03
-3.631944910940433993e-03
-5.019248260825884787e-03
1.729987010903311778e-03
6.572944865759815453e-04
-4.826225663465600994e-03
-9.217859061870194853e-03
5.406079664559631549e-03
2.080599239527346558e-03
9.707642687122519307e-03
1.272187858646254416e-02
-9.138554648577020337e-03
8.767250590285371667e-03
7.370600462312019985e-03
-9.471234536700444753e-03
-7.072683395137862282e-03
-2.831923964525584047e-03
-1.339376896162114980e-03
2.899849502264247470e-03
1.081084040775977424e-02
8.666532881377059239e-03
5.617634925832672502e-03
-5.776532124170643406e-03
8.145741921890876534e-04
-5.541006422464183657e-03
-8.720768939589774310e-03
9.912377020123683963e-03
7.935713396714240073e-03
-9.872966286222483595e-03
7.950717191377805471e-03
7.144688479559724997e-03
1.546026772889992065e-03
9.649437072685963443e-03
-7.045805657100889796e-03
-5.728332828829577061e-03
-6.227480942497921369e-03
-4.815986033526158810e-03
2.062218110804934449e-03
-9.031114445798467394e-03
-5.834031247664742820e-03
-3.044283939266650843e-04
6.078521249699024402e-03
3.796229198411155917e-03
-2.947217043678334192e-03
-6.688126810889095421e-03
-3.266384806425313460e-03
-9.702974489661534904e-03
-9.364680585243961158e-03
-6.833204974846313756e-03
7.476077218403911519e-03
7.327163248137614007e-03
-3.948017860542244080e-03
-2.565478874749192294e-03
-9.603036898159569845e-03
6.612720237554665058e-03
-9.963817517155340933e-03
8.332892259519801862e-04
-1.562452507417031334e-03
-5.208564776157499111e-03
-1.143821808234482974e-03
-3.319774813004733142e-03
2.401854289751540286e-04
9.127091410989633322e-03
-5.014303778056877076e-03
-9.541843026071694656e-03
-5.631170498575121738e-03
-1.189376202296490125e-03
-1.274408604039213274e-03
-2.087194916407249246e-03
-2.220637693736686718e-03
-9.737915611837281993e-03
-1.139141928269437102e-04
-7.114300927098552926e-03
-8.374856624442478595e-03
2.156750244883500443e-03
2.971260710614862834e-03
-3.723432622202127104e-03
3.037320009567708642e-03
7.338830001927021222e-03
8.844137081143095894e-03
6.565750613267196979e-03
-7.091818443845415883e-03
5.056325867941236646e-03
-6.041537069103127336e-03
4.411619630609460788e-03
2.433129147643760520e-03
8.286383105550730946e-03
5.285008156225987552e-04
9.774495478853909448e-04
-2.893441271018030569e-03
-9.028070059311159301e-03
2.463250969566458531e-03
8.768747914293273382e-03
5.006391953146767035e-03
-4.025091897032280659e-03
6.719214274485130201e-03
-8.994925215087644713e-03
-4.740624900495859877e-03
4.931016338780257191e-03
8.018980109883602422e-03
5.592563359063812151e-04
5.291456494303388956e-03
-3.329940169148804321e-03
3.969398002199343856e-03
-1.897675779400958412e-03
3.335931760780157067e-03
7.660205812728045245e-03
-6.357640522770358592e-03
-8.440099672832466343e-03
2.248856200803535290e-03
-2.195483380585373789e-03
1.326637352265634933e-03
9.279497124548917453e-03
8.386199164740358938e-03
7.394364649993015633e-03
9.830447011165209352e-04
8.456518537994776874e-03
5.050462785943661201e-03
1.141434320517180486e-03
-7.728727319926211731e-03
-6.693029328722427396e-03
5.345873516297969773e-03
-5.059181020097162050e-03
7.330768502620135275e-03
1.203025151895778652e-03
2.183056433675570774e-03
6.804816799330035311e-03
-3.281079819290731291e-03
-2.063292376545749433e-03
6.013787034894720399e-03
-1.471937837428215299e-03
-8.747474225615987573e-03
-4.700822220411478465e-03
3.850920317450026199e-03
9.404342912756765566e-03
-5.658293494605909184e-03
-7.888136380035234638e-03
-4.817883965169883487e-03
1.779013689541226063e-03
-7.488577660920070142e-03
-3.878124330996303437e-03
7.243143616948385238e-03
-5.352825201027950654e-03
3.983903234260421401e-03
2.739031674528389585e-03
4.988489732069950264e-03
5.871659653331661767e-03
1.848692655145338674e-03
-3.592108403145509270e-03
5.466352591427756438e-03
2.542544169921097472e-03
-7.132884350109403200e-04
7.215384447303313346e-03
6.632660613335997733e-03
3.751792403450214530e-03
8.713292169364285703e-03
5.440823622367766711e-03
6.258798289752711720e-03
-1.685894695905151060e-03
-8.496269305225087262e-03
-3.976133245198957243e-03
-3.940972310140829736e-03
7.688906174001338854e-04
2.238321952150121481e-03
-9.465962165737321077e-03
5.843453766467953531e-03
-9.763141804056541320e-03
-6.979131133723123250e-03
1.785315313177968143e-03
6.879996888852172622e-03
9.744530889121904085e-03
-6.640092169250296286e-03
2.887945190393279970e-03
-9.728217449380809415e-03
-5.084689918694521157e-04
7.867364372686411200e-03
-7.067076581709081338e-03
-3.026959134006916748e-03
6.052421530099561138e-03
-8.366225601489229655e-03
5.473534566745660336e-03
-1.752102059117732801e-03
1.000094443289293276e-03
-9.079578832506656969e-03
5.351194964649623291e-03
-3.318814660259374310e-03
-3.023844990948191917e-03
-8.797917294120410903e-03
-2.915126432043332189e-03
2.868808862298573292e-03
7.230147525171167107e-03
-4.382723114322925086e-03
9.080349790939632945e-03
5.460480160544285526e-03
-9.296809346847305713e-03
3.555399358654621079e-03
2.688371499447762391e-03
7.535180528988005139e-03
9.147349023875331331e-03
4.250647482098352317e-03
-9.846072870130241281e-03
1.049590725218511704e-02
5.484810138694844357e-03
-9.751714540918589302e-03
4.000826569987695250e-04
-1.542601296669813063e-03
-2.992114948858162326e-03
4.143501336082358079e-03
-1.488328955503076534e-03
-5.866570274282119357e-03
8.623149265378280207e-03
-4.219321628856465651e-04
-4.326271299451992305e-03
8.919430646710696173e-03
7.216725114063458554e-03
2.784491821311470706e-03
1.150694287841300643e-02
-1.848079804356759451e-03
6.437504785153497049e-03
8.058716480907227725e-03
8.398884141922009425e-03
-9.992948648165557880e-04
3.719481647645893688e-03
5.434359206708897980e-03
1.286955457093962290e-03
-1.675831605974870131e-03
-8.453520149391326524e-03
1.942783468838777923e-03
8.935642832580772271e-03
7.729472700346290762e-03
-7.932398415537765882e-04
-3.902378243210864826e-03
6.493974837752332363e-03
6.353681212742068665e-03
3.947039526671246822e-03
5.846023793832306852e-03
-6.994507280403042433e-03
2.282243544003704702e-03
8.683682475448720184e-03
-1.250369995243628051e-03
5.190597633320377831e-03
-7.262976200803466717e-03
8.651991067467156688e-05
-1.892783062932143316e-03
-8.205322754939591012e-03
2.115353269203737365e-03
9.825318958188030208e-03
1.757035156913728862e-03
-6.079113907570198386e-03
-1.121444048208282938e-02
3.343042663846421039e-04
-4.082981567284562491e-03
-8.020827422207926077e-03
5.708051715868930984e-04
-1.322358789215438354e-02
5.931117209790274201e-03
-2.251516951891999532e-03
-1.936421682055657414e-03
7.394646796280102130e-03
-8.147358399820930214e-03
2.562489466075988827e-03
-8.180130224876512243e-03
5.775474611108983788e-03
4.503883104859029637e-03
-8.701716487530280000e-03
-1.129771778568434450e-03
-4.470135835311761681e-03
7.304818291458592752e-03
-5.947664639150384604e-03
-7.523363536062475584e-03
-6.844227871372524086e-03
-8.480208434115081920e-03
2.386042717812405980e-03
4.632227220419657399e-03
-2.967247113394775888e-03
-1.608720392340354331e-03
6.152181917590388710e-03
-4.291344289431810004e-03
-2.248708666471536683e-03
6.368086727287107507e-03
2.020125768901764526e-03
7.796442045006590250e-03
-4.829605716226408746e-04
7.243792664070364436e-03
-4.842955588252865172e-03
4.146856887250741606e-03
-3.163838715717562887e-03
1.562187773229093855e-03
-3.080619478521346832e-03
1.969447809184837663e-03
-8.582668986055891347e-03
8.488843046082852201e-03
6.172768719917391678e-03
4.374179154185837124e-04
-3.594254598193730946e-03
4.647450701482597722e-03
-6.168214652930281879e-03
-2.918673423115663700e-04
7.376389523146099914e-03
7.398716114247146959e-04
9.435547421200179627e-03
-6.422082304832175091e-03
9.592843619038487341e-03
7.949935642055474747e-03
-1.884751893418246983e-03
-5.490273689169384262e-03
6.189013881874171064e-03
9.021520728180588630e-03
-8.693081397040905434e-03
-7.408927109005457486e-03
2.576193756522847898e-03
6.522300345888526994e-03
3.651791155659018270e-04
-7.117318271665967581e-03
-2.942071493479214185e-03
-1.002485607762682203e-03
-5.683269977589118071e-04
-5.391432871733748376e-03
-3.749657280953967980e-03
-9.288978526735347865e-04
-6.812606790630020351e-03
6.669431390341627915e-03
-7.767562071571846964e-03
-4.557263648479949192e-03
4.645190566021637109e-03
-4.849466961444220438e-03
-3.418704014620404553e-03
2.806336143829903269e-03
-7.738088741065410163e-03
-7.102862445770004828e-03
4.472346181616387167e-03
-3.921471516963530302e-03
-3.344168161958121187e-03
-3.969753684118415039e-03
-5.304294230396139863e-03
1.507335787310818158e-03
-5.800022745588704655e-03
-5.155348798919822360e-03
2.514501992668326594e-03
-6.246186965802831732e-03
6.310082153919732706e-03
-2.733758237115641119e-03
9.050199419936833661e-03
-7.020280037079325991e-03
9.541749095888250876e-03
8.490882239608884760e-03
2.102097123894961005e-04
9.627427184305546498e-05
1.135177264227860095e-03
5.248179436339673980e-03
3.252441896201201370e-03
9.010230095287504598e-03
1.019890188040253540e-02
-2.358486115436669254e-03
-4.650361086059590435e-03
5.529292994930396637e-03
-7.869126690504915991e-03
5.421837172994999066e-03
-1.248732891171048728e-02
4.466331416183184628e-04
-5.363617123201303537e-03
-3.388543375427744385e-03
4.209485380263177506e-03
5.087415896684263812e-03
1.266081166932441241e-03
2.421060182987546175e-03
-8.613259824996317635e-03
-6.785838717829270617e-03
7.480266003677969559e-03
-1.636708159099729007e-03
5.184794116612383326e-03
-1.412036475725647275e-04
7.892379426387598554e-03
4.164640409170440420e-03
6.517431615977048627e-03
-4.262085707804918501e-03
5.907272054742878503e-03
2.260975916506116363e-03
7.912778073759216269e-03
-1.782970675575670317e-03
4.446699376193793268e-03
-6.510339116934335014e-03
7.647660622676654731e-03
4.540102941593062054e-03
7.946055656745354108e-04
-2.745728382118171971e-03
-1.382722759401758999e-03
6.474127072616985869e-03
3.268429996923232980e-03
-9.351612275626369417e-03
-8.993955827241849332e-03
3.088201661774621701e-03
-5.890124193579734761e-03
6.769561730406742361e-03
1.257522820527812862e-03
-2.228771703046778397e-03
-2.112442085875454716e-03
3.261199283316554461e-03
-2.710626793720785112e-03
-8.254363049553667397e-03
-6.635274032377057665e-03
4.295295008421247396e-03
9.235235414712305788e-03
-9.100292839553464352e-03
-3.392654744960982380e-03
4.636736747199160860e-03
2.035891057190356360e-03
-7.825165100636258253e-03
-3.576804691592024802e-03
6.691285057548458128e-03
2.644632212995550943e-03
-1.456222469757049824e-02
9.303357207857113412e-03
5.940720398673574217e-03
6.819667968121925251e-03
-2.444731817793750154e-03
-9.803892082296580823e-03
9.790272099978264420e-03
2.424775207903944602e-03
5.433607254858981243e-05
2.889844101204269277e-03
-5.995730219339459252e-03
-6.309507880523112545e-03
9.641056319140767911e-03
-8.040958655603003052e-04
8.791768440632830722e-03
1.425175701717095334e-03
1.423437803619413689e-04
-7.325322699486645252e-03
-7.097386035063731231e-03
-3.896491869445903485e-03
4.275251334195948570e-03
-6.767817602823026496e-03
-1.230122637359974203e-03
-5.096085260880421630e-03
5.804026251865981737e-04
-4.453041373857687135e-04
-7.757982872208305652e-03
6.392321549169481879e-03
-6.561920704887742525e-03
9.588015605509175865e-03
1.583100440908896678e-02
4.679999721657708209e-03
-8.542108077353857340e-03
-6.801886437417458200e-03
-5.213114340957506615e-03
-6.452820731579897960e-03
6.577406661702390632e-04
4.544424736836622132e-03
4.610590792719512776e-03
-6.981272009126433288e-03
4.191143089403439118e-03
-2.097020994926117408e-03
5.297227214311104292e-03
-9.499418682170629805e-03
-8.098932393469522248e-03
-7.268280941735040870e-03
6.222292640934568367e-03
-1.049414574648302283e-03
-6.960747437264806596e-03
6.105329494995529425e-03
-5.858322371387633329e-03
7.967647445513337170e-04
2.023955291874357174e-03
-1.524312887811918272e-03
-1.906690465432291180e-03
-5.107313518699691315e-03
6.925442912528344090e-03
7.637932847843183735e-03
3.017331882023851738e-06
9.751676648727074584e-03
-1.831814085904207110e-03
5.010039170132548660e-03
3.911643360139195938e-04
5.912349266610611095e-03
6.813233286167642670e-03
5.774357032280572240e-03
-7.876921497839943151e-03
-2.786703745444354865e-03
-3.451008379547245829e-03
-6.252277353051834824e-03
1.578855770596413821e-03
-6.846727524713044216e-03
-9.656710704305057624e-02
8.327097496541546046e-03
-8.653296072769496149e-04
-7.316099782819757320e-03
-3.018346431670562886e-03
-7.690903132053311664e-03
6.304491479805266439e-03
1.781081978892625709e-03
-1.504118445116429644e-03
8.227585040008601400e-03
-1.115328515655368297e-03
6.825963286912011506e-03
-3.649810881215759077e-03
-6.598539896958812399e-03
-6.413745597049523746e-03
-6.580476012350616223e-03
-1.524898000452232227e-03
-3.247955634121584955e-03
9.460147737944166191e-03
-9.224223605448210808e-03
5.478397293605103205e-03
5.018331205737376795e-03
-1.113167944109705147e-02
2.825464534054482248e-03
4.975289326287660012e-03
2.203276614981589197e-03
7.255895118448305904e-03
2.381794711223954742e-03
4.697265594751733053e-03
5.115436133545783054e-03
6.261930957288390671e-03
-8.384876996813893021e-03
-9.117842438784580852e-03
1.573972776647859437e-02
-6.193757323955838105e-03
6.566582538775685152e-03
2.741569747083901810e-03
-5.671382931536459934e-03
-4.816792210815049307e-04
5.377507376198513434e-03
-1.906961140808265207e-03
-9.028137354991276273e-03
3.916095121874403444e-03
9.067015562332154249e-03
-8.719711174728129316e-03
-3.734225449809115607e-03
3.966671240892050837e-03
-8.084942307552907964e-03
1.048726563015903689e-03
-4.724349096034348959e-03
-5.351943968904377368e-03
-9.362359610559858533e-03
5.451126193200595861e-03
-9.548653980331377536e-03
1.061622307464858868e-02
6.475914676903283575e-03
1.155887207151163384e-03
-9.110648327164546159e-03
9.164408555470052523e-03
-1.747496989306999027e-03
-1.526391124499819568e-04
-9.065319282482707866e-03
-7.229643357819914330e-03
8.455603849079059786e-04
-6.860122670932538441e-03
4.351155935437234397e-03
3.247173665703579834e-03
-4.592629983388614445e-03
9.639194819645745607e-03
1.930670130191234311e-04
4.569433480896654552e-04
6.808470914236364191e-03
9.619958010321812483e-03
-4.778674578337333001e-03
4.664431005146912543e-03
1.481058894146616324e-02
-2.740804979254478618e-03
8.564899047922895853e-04
1.484580252252389434e-03
1.865816130041793698e-03
-3.072364147714485780e-02
1.605959025519409296e-04
6.265518637775440401e-03
-7.090853037250196243e-03
-3.254317257439371530e-03
-2.849954120198469696e-03
7.498104719472149619e-03
7.158201286583187190e-03
-2.378862035538397169e-05
4.190670622865549574e-03
3.735318715523393632e-03
3.831704204333830251e-03
-1.872790036246077799e-03
-5.657003900852550400e-04
-5.164974902345714769e-03
-7.213600508474598064e-03
-2.309708227832083655e-02
8.846746293209029055e-03
-1.605720336650125245e-03
1.241481028604114962e-03
1.554610827881705570e-03
6.144613052403116726e-03
-4.725096534104250220e-03
-9.805782520725080109e-03
5.769952311773036274e-03
-6.990158937604429648e-03
5.718230817609581962e-03
-2.304560379804871349e-03
2.133025607447320074e-03
6.582811542822965441e-03
9.794403752237733178e-04
8.002554550980861894e-03
8.805047300102019497e-03
9.170849839167100406e-03
-6.954220651022624371e-03
1.150318076049846455e-02
-9.139226928755687235e-03
1.015942630228104313e-02
9.664626277396878851e-03
2.906592881300327363e-03
-4.515918977345190731e-03
5.039604665168332352e-03
-8.331951893897184339e-03
-5.886417264959031836e-03
3.702600259578620219e-04
-9.983991366169828185e-03
2.129809234614985728e-03
-3.378950704772381002e-03
-4.541991239040328761e-03
1.182874268966428548e-03
5.065245840816232081e-03
7.827726047156771672e-03
-1.015627297046759869e-03
-4.673407054820685400e-03
4.770716717602223669e-03
-6.591945866438807949e-03
4.412853387294595267e-03
5.485587375759264951e-03
-3.128115435661572678e-03
3.933580151723682118e-03
-1.615127427911803052e-03
-2.926589343980232159e-03
-2.464323958083094665e-03
1.058270996406684636e-03
4.781393147127931467e-03
-7.561820206417182305e-03
-8.175821287478422794e-03
3.908175167844079733e-04
-2.384966645954848721e-03
3.401743730943020561e-03
3.168473135540612797e-03
1.649237828435365675e-03
-1.046775844680968535e-02
5.464645798433104967e-03
8.089211189869183541e-03
5.234557599494761918e-03
-6.503143479554968943e-03
8.586652337980208230e-03
-2.886373767650687178e-03
8.418720785680899876e-03
-5.975201398235370650e-05
-5.246941291623942634e-03
-2.016425108710731030e-03
3.216112872205498067e-03
-8.759298270551832454e-04
-8.116379769998452107e-03
2.810795208630688293e-03
-8.990123149953885284e-03
7.409614161290303293e-03
8.696321493701128502e-03
-3.397079689428746845e-04
-7.197585286960677710e-03
7.279277564140498001e-03
-1.144453043449725508e-03
-5.346786634093238059e-03
-8.587526767008831288e-03
-9.862500456078171496e-03
6.961089437537433533e-03
-3.059283283149566608e-03
2.217161752708586911e-03
-4.164719865341001974e-04
-2.768417757421945489e-03
6.561217808651728309e-04
6.483639413122558974e-03
-8.593202749826972520e-03
-3.211504025615655004e-03
-4.343514265464594785e-04
-7.722193718723538609e-03
9.856520030407534688e-03
7.829305694968044646e-04
-4.666677672328910578e-03
3.693259093787434368e-03
2.194080462993760246e-03
-1.409001198676814804e-03
7.690236948815045229e-03
-6.885856450425846889e-03
6.927046457180915592e-03
7.805619434957058837e-03
-6.904630695191418463e-03
-5.568193379113267616e-03
-1.440059566472049217e-03
-6.883424722178476708e-03
9.780672696333867974e-03
1.096502230201919009e-03
6.516710757194627522e-03
1.870954887236780766e-03
2.540598118923432982e-03
3.153128637849160476e-03
-1.599738172911953273e-04
-4.895307827082781386e-03
-1.703037562734949857e-04
-3.661257137536701439e-03
-6.599966376347249017e-03
-2.521742997397023907e-03
-7.060859003212938655e-03
4.467525571339676059e-03
-6.672759459429485236e-03
6.108119061765072619e-03
8.448406665858696624e-03
4.865410822238088948e-03
8.620696953300152968e-03
-1.083556021381885687e-03
-3.877161960018810170e-03
-4.520429895782229063e-04
-4.509696081747305860e-04
-6.258510455170821288e-03
1.732902539596584352e-03
9.493572401706942701e-04
9.048235778659161901e-05
-5.713829026495706800e-03
3.243652832171524912e-03
5.444305284218953905e-03
-2.971657114732781380e-03
2.211764776876005544e-03
-9.787650744152073465e-03
-9.369680893733906349e-03
8.764587351863004777e-03
7.205250923507878526e-03
2.638700745065474494e-03
4.980804154256963240e-03
-1.619582438552900558e-02
-4.198516486581817600e-03
3.917349820974336781e-03
-1.930330648890395259e-03
5.000931765975776856e-03
9.177943935849735418e-03
1.543339475376259533e-03
7.878527494880108867e-03
-5.437831187789630809e-03
5.224679289733830112e-03
-5.154212815902036934e-03
-4.685234852274153088e-03
-6.948340253065150331e-03
-3.307263007932233385e-03
5.996235121161000436e-03
1.632801587010876670e-03
-2.255865749689600890e-03
4.275969874443051946e-03
-6.688635054402739324e-03
-4.545391801431601826e-03
-8.743093677360900401e-04
-1.155070489322484019e-03
9.190879448822901476e-03
-9.459188603686869909e-03
8.241261026616051102e-03
5.536714505148776846e-03
-7.412284347913570236e-03
1.188304246975668702e-03
-1.419982704347905276e-03
4.322891571481393171e-04
-5.656860484612307415e-03
-1.013249276640513803e-03
-2.912069683954414574e-03
3.588336134341354143e-03
2.275845858504955358e-03
9.000277517588453971e-03
6.277218761390666001e-03
8.750443650439343121e-03
9.207590249747642577e-03
1.061222981678301919e-03
1.675621143162051626e-03
5.516982663267670957e-03
-3.613921334943244554e-03
-1.163074219527363137e-03
5.687709658659418667e-03
6.905468093519855598e-03
5.860573990711284709e-03
7.009318085226897864e-04
1.420272329575758162e-03
4.627785928607211670e-03
-8.377332458391568981e-03
2.121264753257644069e-03
6.864310703498251827e-04
-1.974892894280225620e-03
-9.410971695861643227e-03
2.833166377107575011e-03
3.967132482627997846e-04
4.455240053516757066e-03
6.847305292065458335e-03
5.986651694748291834e-03
-7.945033543399681805e-03
8.286873357849411717e-03
4.361239811641335999e-03
2.707751402532465254e-03
-5.739727572368803418e-03
2.511080739413925657e-03
9.923801916805578827e-03
3.880071643116185433e-03
-3.305275827847106718e-03
-8.946346872260641306e-03
3.448065710376097405e-04
9.546978655374039127e-04
8.636048276288340849e-04
-2.808728699372950964e-03
-4.727448981016881858e-03
-4.600257761765677404e-03
4.039888986334770962e-03
3.537526118609515911e-03
-9.240809811689574063e-03
-3.370157291032604627e-03
-7.576030519253922936e-03
-9.239685027878070597e-03
1.378115564047104665e-03
-7.000248661504066515e-03
5.493633129941061753e-03
4.718920573653351096e-03
1.373253427991036552e-04
6.909126966267196274e-03
7.119011246238295988e-03
5.764874436956774276e-03
-7.368939311631140024e-05
-7.444800705060016129e-03
-9.588583545622249987e-03
8.831142628488001384e-03
-5.000997388432519737e-03
-7.954169890270125498e-03
-8.940104495340385829e-03
3.384517862958726260e-03
2.067019322576411130e-03
1.384247566896001404e-02
8.435635794330424708e-03
7.417396679795738509e-03
1.103651058554304398e-02
-2.119643406736910313e-04
-8.046274421022190163e-03
6.940640701938833104e-03
3.032789952276609274e-03
9.111831981469930425e-03
7.168519162623779827e-03
-9.868343014759013362e-03
3.264608123321227368e-03
-1.114569884929369082e-03
-3.243768601934980764e-03
6.611811921986131095e-03
2.418095868934354471e-03
-7.524534710318382495e-04
-3.901441666322569887e-03
1.554443913281404683e-03
-3.443488139357585125e-03
3.910358422169734130e-03
-8.392201199318449073e-03
-4.717886313339417909e-03
3.660541582414237726e-03
1.127655004132338762e-03
-6.217379559137278452e-03
-2.853254043574376692e-03
8.124236912246960221e-03
-9.408964837501226919e-03
2.342258041584496971e-03
-2.052472595160637851e-03
3.681617447782870121e-03
-7.817233881071456933e-03
-3.864798737352025843e-06
3.176390200177376701e-03
9.209467136059140344e-03
-5.748590829560792058e-03
2.952591252886557251e-03
-1.714003172055249356e-03
2.782354980394836723e-04
1.653670107210292823e-03
8.190183343735465624e-03
1.649357134331215155e-03
-2.192585081600596005e-03
4.052872127236126481e-04
-4.433066183629743619e-03
5.484269462288318686e-03
-9.505567514645365743e-03
1.922603109262248280e-03
-1.132810063239849275e-03
-6.933868861809431260e-04
2.785564366836665133e-03
-9.631692741630481711e-03
-7.627468467206974592e-03
2.846963651012735571e-03
6.850781722284290769e-03
4.708375135268142060e-03
-1.502752122487623987e-03
-3.913718886296859746e-03
-8.117943819391631663e-03
6.641183857916759491e-03
2.558260119309350294e-03
-4.146043570147204052e-03
-2.700093037434562592e-03
3.035548781916409117e-03
6.907774123459374006e-03
5.085700785235801151e-03
-4.232034998715667427e-03
-8.057246708751214515e-03
-5.386602308853286579e-03
2.290329485150887582e-03
-4.579924263945157371e-03
-5.994222680483942203e-03
8.216404707423633630e-03
7.311600347428536158e-03
-5.826709413220350527e-04
7.300612070969807015e-03
7.797806186871434134e-03
-7.572599911645673185e-03
8.555647685247805972e-03
4.229889703124591234e-03
9.158082428300880554e-03
-8.980799572225722782e-03
5.160148939773299796e-03
-1.136252462019253506e-03
-3.050441170086759871e-03
9.379736813953552192e-04
-2.433900264745322145e-03
-3.298951615922321879e-03
-3.846196039438450737e-04
-2.537836341581613166e-03
-9.089801375350219873e-04
3.689792191560412830e-03
8.477728798078822126e-03
4.303368887954547688e-03
-8.728100084856946911e-03
-3.812942356972033576e-04
-9.773852865412472127e-03
9.028166660880477526e-04
-9.684817328655021679e-03
6.521804888984493627e-03
1.320100855622856470e-03
7.278553552668588951e-03
1.998344112344400264e-03
5.514559265835571912e-03
9.312241281766836173e-03
-8.351722679348742850e-03
8.214694186906291691e-04
7.701144679238316679e-03
3.028952640646276600e-03
3.084372819749400026e-03
6.331331290672590102e-03
-4.369410539343883035e-04
-1.183740906914480329e-03
-9.194577211977174314e-03
6.663123927099777986e-03
-2.046452578514334347e-02
-3.988942804134401957e-03
-8.650981955333415102e-03
-6.968700047761601513e-03
7.061875846762883345e-03
-3.933788756002614372e-03
-6.583560008071465824e-03
4.391460797024624926e-03
-4.836978895561786645e-03
2.156476504296397229e-03
-5.381536900408828141e-04
7.151902868465006419e-03
-2.470472865365622942e-03
3.117517924582641990e-03
7.784010919340812740e-03
9.190535172242178530e-03
-3.962585322750773395e-03
1.393563757938798319e-03
2.744376558378626083e-03
-1.114287703515028181e-03
-7.981434390919172825e-03
1.382628101559230105e-03
-6.735722699495813245e-03
-8.760144399402432225e-03
-9.900401164441699486e-03
9.581566476206795913e-03
-6.510615130690484455e-03
1.891320350106377637e-03
-5.988688806847337030e-03
1.370845231660628750e-02
-3.893808325484650421e-03
-3.482946478125966121e-03
3.939259532422742689e-03
5.237214883479344822e-03
7.353059364472525408e-03
7.992738378586322764e-04
6.540448688382015374e-03
4.531469447340214993e-03
-7.794170882939756469e-03
-1.740759482060949027e-03
-8.215258588885533675e-03
2.588903127416416431e-03
-9.683950190598247451e-03
-6.485760393066310539e-03
-6.180929229726927522e-03
3.304222553679979357e-03
-8.266626099043276193e-03
1.844142415331981864e-04
-8.478886104192714934e-03
-6.630413796426843677e-03
-5.560103039010027247e-03
-9.614079505157070021e-03
-8.903135276379252339e-03
1.730818940677820647e-02
5.975348884194819910e-03
9.410095429854485605e-03
-3.641311909251186002e-03
-7.982942416513318443e-03
-2.370040551796380197e-03
5.921461231937081779e-03
7.026225816439145982e-03
8.716537223901874368e-03
-4.592927247434023044e-03
-3.658282584444495951e-03
-7.036497808451534948e-03
8.330040312582444664e-03
9.839301559177148979e-03
-8.085390584940115033e-03
-3.838351566933356426e-03
-3.607335536160948680e-03
-9.700018217957134467e-03
1.345541843543307265e-03
-9.229065443679203458e-04
8.901468146179885091e-03
-9.937730534232939658e-03
1.037575952136909896e-02
-4.188009727781413257e-05
9.977489060757254238e-04
-4.015563303366539993e-03
-7.684609915997371934e-03
3.220981435782670731e-03
-7.634819495579515079e-03
-9.406986955998385483e-03
2.379803078838849725e-03
-3.107761170222900129e-03
6.115589428033182083e-03
-8.590013039634664116e-03
1.174438360972349755e-03
-1.879768111897030247e-03
-6.282556172562826346e-04
6.169732529413765251e-03
1.644102238936980681e-02
4.421316850850485342e-03
-4.027177748050708890e-03
1.634339117880771177e-03
6.479052707753688890e-03
6.673723830761162448e-03
1.258248910524320877e-03
-7.629006726341438192e-03
-5.206296845454096503e-03
8.681869546872470964e-03
5.932249652688694440e-03
5.928211171433509820e-03
-4.339583485642285222e-03
3.635094230506353326e-03
-9.477669892467999874e-03
-3.784840951508936565e-03
4.696351445490448868e-03
8.068387424827299856e-03
1.073581575029146579e-03
2.784515827345130767e-03
4.242752050872840471e-03
-3.794657531595857503e-03
3.365150174483991837e-03
-6.910493297951316588e-03
1.525326064670374333e-03
4.328537171007897436e-03
4.342876290239448649e-03
-4.744634137944167551e-03
1.192438738776384561e-03
-3.996879499447035002e-03
-9.350084906850603117e-03
-8.906770275776536641e-03
-8.140449061071279233e-03
7.047353517951674730e-03
-7.673584933668721117e-03
-1.038796305511171083e-03
8.598737511125734145e-03
8.869946880110010992e-03
3.147090616942178724e-03
-3.540441697733179901e-04
7.665294821170157494e-03
-8.005541656533341280e-03
2.103168486786151196e-03
1.910564834071305090e-03
-1.797226028764289203e-03
9.573373267829319092e-03
-1.991335006928155425e-03
-2.420188336366481310e-03
1.409710601526281042e-03
8.913900623828151237e-03
-2.251158516105559342e-04
-8.344692703221471414e-03
-2.262893208302754582e-03
5.651237529385701869e-03
3.324847075810319959e-03
-5.833763556064035585e-03
1.107024886583358667e-03
1.836610545838124288e-03
4.591496425571438798e-03
-3.325811828697976258e-03
2.232654689487708396e-03
6.991399312466445651e-03
1.111063045405284201e-02
8.148982524830412563e-03
-7.020144440850462769e-03
-6.138162296194305152e-03
8.804313234064296834e-03
5.086050196662064184e-03
-8.858622564851089537e-03
-5.158301662391964748e-03
3.120321921508734022e-03
2.607550147568592474e-03
-3.698304694759763089e-03
9.177824236580870571e-03
1.162635718694025704e-02
-2.586149747485073339e-04
8.258810174508374874e-03
2.158046555334771494e-03
-2.961497159766771970e-04
9.411837594085141478e-03
-8.304133118616397954e-03
2.195993024277718541e-03
7.912508917244662557e-04
-6.498373511979803981e-05
-6.863057193399716045e-03
-3.242357906179569281e-03
-8.359793089296284688e-03
-1.651193676720430796e-03
3.854551602623469252e-03
1.802211867205942650e-03
9.930210360152416649e-03
8.040603619040194439e-03
-1.033356241502646038e-03
8.089739112485059766e-03
-7.953660856628711959e-03
-3.903560007502767867e-03
-2.401822374075869744e-03
6.471723085520512952e-03
1.249459762837496369e-03
-4.917167629423699858e-03
2.663016456615934988e-03
-1.074171980646270851e-03
-3.405217668931077510e-03
-8.967258512654837505e-03
-6.188007880108465850e-03
-6.897713981002583615e-03
-1.723311270648002214e-03
8.651798044354447673e-03
-2.821294571599252104e-03
-1.405830986033821490e-03
-7.462829096168390776e-03
5.693223113870319284e-03
7.007472028341290085e-03
4.081326946759530720e-03
-3.016201758959515932e-03
9.946083358950474906e-03
9.350826316389575579e-03
3.886019851535774724e-03
-5.767711959044006772e-04
6.829086646912349047e-03
-5.812831730319547099e-03
-1.827614372300295168e-03
-7.575054340308406790e-03
-4.747108884688898411e-03
-3.274719137459504003e-03
-1.519275935343241931e-03
8.979871544672796829e-03
8.156978711925836484e-03
-3.988655921484458855e-03
7.098248052646938602e-03
-5.715908755729671997e-03
3.386436001976020089e-03
6.755903196840988556e-03
7.078259492110374959e-03
5.521579830648389031e-03
1.836364142384209943e-03
-5.825964109120717119e-03
7.785096513739320212e-03
-8.063922532075605207e-03
6.699033590166162538e-03
1.029657110166029522e-03
8.097248309017096232e-03
6.053594844847446158e-03
-4.694206304006355926e-03
-4.591295581300722413e-03
-1.223355650556133545e-02
4.293528466924655639e-03
7.424808756566113332e-03
1.862356003189815290e-03
-2.255958520757544202e-04
1.571448789512126451e-02
-6.781559864647876239e-03
-5.122835220490378838e-04
8.159837887570365808e-03
1.301184955295650245e-03
-1.191486678120844264e-03
9.888721233476022859e-03
-1.498235743656831532e-03
-6.594193606492706680e-03
-8.166300489729398995e-03
2.203867605559398611e-03
6.831419701124876072e-03
7.091813812102035555e-03
4.775314193867230550e-03
8.145202516951773747e-03
-3.646341748743748851e-03
-1.568046241070569346e-03
3.559948559726072628e-03
8.934841764109557535e-03
8.168519380669857569e-03
-4.387467859596482465e-03
-2.125269806660132297e-03
9.163835905949524116e-03
6.072006150288317833e-03
9.617036474337406840e-03
-7.216917145317510406e-03
1.505325062922001442e-03
2.248832483314817509e-03
5.818453700786213253e-03
-2.550712464968254555e-03
1.290084918759541385e-02
8.928099979641583236e-03
-1.161087510226582438e-03
-5.289996393354818270e-03
-8.714143991681863946e-03
-2.261603227152887263e-03
-3.724843105111979701e-03
4.581024659291624279e-03
4.220704610674780310e-03
6.742622530099350898e-03
-3.195395672567935118e-03
7.617817761225951882e-03
-4.510017297671396058e-03
5.067186459327736869e-03
-7.550804369468853451e-03
-3.549501398669771286e-03
4.837559020978040442e-03
-7.991691403081519970e-03
7.976286040393340548e-03
3.195467385198750079e-03
4.384196445814096503e-03
-6.287167027119295280e-03
-8.673428250934675119e-04
-3.749421910222429290e-03
-1.114243669199698958e-02
-1.080174255959062517e-02
4.845256265466908914e-03
4.370492497845654585e-03
6.859734312392480084e-03
-7.480344791846868339e-03
3.421411686358851768e-03
-2.661217565413141230e-03
7.780809058796037993e-03
1.362253345859773448e-03
-7.836546974742003915e-03
-7.094904129398913427e-03
4.356561853226342991e-03
-5.581924589719751591e-03
-3.129091223770369499e-03
7.565897223085761049e-03
2.208589700240669220e-03
-8.619137129455911941e-03
-5.842997786538649263e-03
-7.352103304349581802e-04
-2.071991545901722288e-03
3.730734729762743163e-03
-3.862447744761144004e-03
7.617265825965079985e-03
-3.823167545666658704e-03
-7.477177958643441320e-03
4.529082844645882129e-03
-2.064759011050142784e-03
5.875878936691250783e-03
6.086785417739037744e-03
-1.036262958494141268e-04
8.176768151777371110e-03
1.282263525541557170e-03
3.260882842436053745e-03
9.424605780408875071e-04
-9.766688049455069312e-03
9.512578350280133724e-03
-2.075250375814997016e-03
5.451170937123254838e-03
9.166156014512457165e-03
-1.974846144801857724e-03
2.306034747914534767e-03
-4.859949233939687627e-03
5.763132101649570509e-03
-1.444600374116910505e-03
-2.755650211773575785e-03
9.639673191583189929e-03
-6.948950439540252898e-03
-2.098426353257886021e-04
-2.296605114486142474e-04
1.234208172627165206e-04
-9.994976406036666997e-03
-9.908665243392011934e-03
9.019173214082531120e-04
9.179824370776782164e-03
5.403413667147117204e-03
5.810904615882349009e-03
6.640053141289125075e-04
1.018164032586101140e-03
-2.111188605345555233e-02
7.246970749241946411e-03
-4.817643452381215746e-03
-6.243915031820685682e-04
6.481509858389130491e-03
-6.462014456532925478e-03
7.288986691237786530e-03
7.677042841500575192e-03
-7.001887942863604941e-03
2.671278211826854689e-03
7.618592928529518450e-03
9.146910340159226591e-03
6.428382601886021772e-03
-2.455259609402807297e-03
6.082283953046505390e-03
4.129951413721616622e-03
1.402601535063874999e-03
6.620897851867594414e-03
-1.747900074435105363e-03
-7.812030645683765324e-03
8.172006296914488543e-03
-8.499765506563970729e-03
6.942178252367268922e-05
3.287870574753967105e-03
9.168684269310532070e-03
-1.957071632595754063e-02
-8.292425226501131189e-03
-3.236947641349449244e-03
-5.694845993535691681e-03
-9.152350213124068809e-03
-2.239076605048427593e-03
-1.594099617628686773e-03
-6.171002869007136300e-03
1.031112061160904510e-03
-6.362942481318558698e-03
6.967277696717338355e-03
-4.792495951333381778e-03
9.051273827897110547e-03
4.325556547127524208e-03
3.882183058631019298e-03
8.851836669674947519e-03
-8.992873692727477997e-03
5.435025039429457541e-03
-2.687981633976829678e-04
-5.405770682654965388e-03
-8.639967415992530486e-04
-5.933109683660686869e-03
8.074468411905948162e-03
1.433205980610145064e-03
-3.991116860644856879e-03
3.506359352199265103e-03
-7.533458729893904686e-03
-9.254009689020736840e-03
-2.917077093323783721e-03
2.319531282893212004e-03
4.097691350543230713e-04
4.575800968126784996e-03
9.975344839528379678e-03
2.287462481660167135e-03
7.536706200792342610e-03
3.268020270365000306e-03
-9.420676678746960769e-03
-7.585305915099814153e-03
1.818980633786184981e-03
8.883914709316499334e-03
4.711747639233362928e-03
8.056182359727126832e-03
1.234217961373366024e-03
-9.110728932069935351e-03
8.984142829092403538e-04
4.765317875798601860e-03
4.357266441478577917e-03
-5.554849277946872707e-03
7.041887350763583039e-04
7.949357720302039146e-03
-9.891615361372417536e-03
1.275680710105280469e-04
-4.795491971355069112e-03
2.778022101515206180e-03
4.062617943612171177e-03
1.934908374148609604e-03
-1.915968735699576011e-03
-6.319216699537456069e-04
-4.515077889546512124e-03
-4.628620067415592162e-03
-9.735968297303033980e-03
9.252759110665132814e-04
6.883721482200152834e-03
6.554851951953334296e-03
3.257706068468560218e-03
-5.150450885320023015e-03
-5.567764802822327067e-03
2.218362863548613024e-03
-4.590056974241970428e-03
2.729190707909377213e-03
-8.249606059794080751e-03
3.043889610429268040e-03
5.604242032280879957e-03
8.449022705400087777e-03
1.918275716635276613e-03
8.607013630559122441e-03
-8.518498527803577969e-03
-7.431180258412320092e-03
-9.003630684704552051e-03
-2.444129876657390524e-02
-8.715620743587219887e-03
4.151447404914602665e-03
2.456108842864086934e-03
-5.797948379933521960e-03
1.224880251945248584e-02
-2.937574872926908796e-03
-1.461930756500466394e-03
2.182329016148538883e-03
3.965823345858897342e-05
-7.725953196997755595e-03
-2.102330766481161871e-03
-5.847469521535781679e-03
2.439888971397583331e-03
-1.425391902489993355e-03
3.735865680253646162e-04
8.548602221336543475e-03
3.719131583656866847e-03
2.392675347088765204e-03
9.202475156688063890e-04
-7.960326839097304000e-03
7.663721457215661240e-03
-6.042438285545446465e-03
4.816046900751771824e-03
-2.989195682096021638e-03
-1.731873818557564488e-03
2.862445559520721775e-03
-1.027039322170133009e-02
-1.241232470198138120e-03
-5.056961809472871119e-03
-1.863862581655910703e-03
-5.349215079950397911e-03
-8.137809266595815924e-03
2.511723625411117853e-03
-4.809148255577547909e-03
-7.916119638712061646e-03
-7.863117584426032938e-03
-5.222092522334232517e-03
7.297895311166780266e-03
7.614734458723180707e-03
-9.011882924426027619e-03
5.056041898094823170e-03
1.871759843201112848e-03
7.570918768361774645e-03
-1.973765090274328532e-03
-6.787112755253335225e-03
8.774312710103178772e-03
1.670712014762809009e-03
-8.947773663424512386e-03
3.416318695643691741e-03
-8.770634303172347712e-03
-3.759274517215132217e-03
-4.931844227556920687e-03
-6.804043756770990561e-03
6.124090336842464947e-03
1.571461958056507516e-03
8.299006506553191151e-03
-1.177028791396698005e-04
-9.084898392306707191e-03
8.213984221966589769e-03
2.149301871747564922e-03
-6.537846876784597118e-03
2.543032154213435616e-03
9.082812879645192627e-03
-9.842667237453109948e-04
6.023475550829111846e-03
5.748329430222428151e-04
-7.991258486411292536e-03
3.004390341307744232e-03
9.728138521911613859e-04
-7.074828080572278903e-03
-1.432422862483732039e-02
-6.476074761576178923e-03
1.544444607889541073e-03
-8.253893415990507659e-03
-7.220251587772193343e-03
-5.857727986761906633e-03
-8.220193440171517929e-03
-6.336961414833056257e-03
5.266388621861107198e-03
-3.080021203225908493e-04
8.699559886104322667e-03
-1.496611801625836579e-03
-8.236051268353897573e-03
-8.669250646938540805e-03
-6.038916053627352634e-03
7.354887628239415408e-03
-7.716341200390197316e-03
-5.871777808266044271e-03
-8.964260528191993552e-03
1.073327993444433493e-03
-4.283857078457254872e-03
-3.823571446638123622e-03
3.191537739905508323e-03
6.892080968255276385e-03
9.853110111631155701e-03
-7.185469671049771190e-03
-9.271995852089988735e-03
-5.301012673666407292e-03
5.219638063173765233e-03
-9.190724481258307670e-04
-3.667877421317718937e-03
-1.424479092340785388e-03
9.680946330569097438e-03
-5.277051409581645994e-03
-6.317803278930410327e-03
4.743830389875944124e-03
1.101572300176658801e-03
-3.185518522087222009e-03
-1.025137921617694584e-02
7.637598486366892724e-03
-9.838560307433533159e-03
-2.939562280767234713e-03
-6.772366115456352961e-03
-2.727011009355450114e-03
-8.782635604991624947e-03
-7.131156385334036204e-04
2.295048959063843153e-03
-2.407368869149418243e-03
4.694291213078776587e-03
-7.752288469850655318e-03
-5.174661494810019885e-03
1.817282867234729484e-03
-4.608062299456299610e-03
-3.779695387672219863e-03
-1.169243383931529816e-02
9.931526499007052675e-04
-8.312882055702427650e-03
-5.176197954780604842e-03
2.985968904336010459e-03
1.073722790266904738e-02
5.315079036451908663e-03
-4.209532784179481103e-03
4.767987235835300514e-03
3.246778396968603465e-03
-3.194950882800605841e-03
-3.527542374623597165e-03
7.900820249159130199e-03
-4.586089965878497633e-03
-7.219063806326314267e-03
-4.133607952804518306e-04
3.998803466523796583e-03
2.311668352950642467e-03
8.144824907391854524e-03
-3.430045883273317390e-03
-5.352667566434631159e-03
3.820135358756448704e-03
8.699008060767376635e-03
8.343314045910226254e-03
5.760927895676972582e-03
-4.043844465675616121e-04
-7.748218750262838260e-03
-1.022221653613216916e-02
-2.852189806808928460e-03
-2.436318269704710812e-02
-2.655818795992379976e-03
-6.548165942557393135e-03
6.483922177262369099e-04
-8.150093997666854259e-03
4.950825898179250437e-03
-7.967606488151063315e-03
8.052634920219422718e-03
-1.646177251018280567e-03
9.024221123949660237e-03
-9.708099070663516253e-03
6.765723841620857604e-03
4.551342364656714434e-03
-9.237856793864674537e-03
-1.253726348666674324e-02
-1.860621581991525955e-03
1.950012341181650956e-03
1.002579621721806299e-02
-6.952599807053645546e-03
-5.283167750128167986e-03
-1.868508339975808851e-03
7.648007237922129116e-03
6.636920159226061301e-03
1.921902613831222685e-03
4.472568363553599234e-03
-8.529519772559246774e-03
-7.669333756511708929e-04
-4.007845393172259837e-03
-3.348242833965439647e-03
7.525688057923556572e-03
1.302911349299036440e-03
-5.630069794328825504e-03
6.215409837160457140e-03
4.318973903108600312e-03
-4.131556643337071753e-03
6.712942718148056168e-03
-4.066427956275841561e-03
7.146443218787349068e-03
-6.018994114835474196e-03
4.506917743832530333e-03
-4.318774821685519155e-03
7.015428718628923498e-03
6.214037657395612285e-03
-8.798535268634855369e-03
3.030518611776389804e-03
6.025069178895867822e-03
-9.655187900319365038e-03
5.724490988785174879e-03
-1.404996699122897964e-04
-5.101252550887711229e-04
-3.367801280809475627e-03
-5.537163463392138357e-03
5.623268527164745727e-03
2.818432477625203332e-03
-6.847624535987383888e-03
-5.742540346360952043e-03
1.383104946553294530e-03
6.226516001666557165e-03
1.255063991456701515e-03
-9.203112418251443300e-03
4.134162055946160284e-03
-1.530642019067609064e-03
1.656117248418987340e-03
-6.398595086873092898e-03
8.077855596756815942e-03
3.239164888513005030e-03
1.042677774093886400e-02
7.735911437726773927e-03
-2.080222848537050147e-03
4.839745573911113409e-03
-6.836165987990401247e-03
1.212902199313730094e-03
-2.347711951981323354e-03
-6.338006555787268834e-03
1.034801371900102634e-03
-2.642720482654241539e-03
-3.826221974901688333e-03
5.130793479409720068e-03
-5.756285041469771067e-03
4.399251892935123268e-03
-3.644553433838396226e-03
-7.943109736230828319e-03
1.744479462614590250e-03
-4.575324191792600435e-03
-8.725439727075580930e-04
-7.290489869931969166e-03
1.571924626329506856e-03
-4.580507770663563502e-03
-9.461011693199142258e-03
-6.095547015681070796e-03
8.125099789482442955e-04
-4.431610088831799445e-03
5.254806163883104023e-03
-7.416977489997546823e-03
7.038799968484340565e-03
9.109882471583502853e-03
-7.249337162876595686e-03
3.237352062456492000e-03
9.703177940130685436e-03
-1.823883516944927721e-03
-1.568018393794688367e-02
6.799121035169667510e-03
-5.805427848341229019e-03
1.000725425962676815e-02
-3.054078950844561942e-03
4.615138836449807387e-03
3.890747770041947697e-03
-9.078523377545343097e-04
-2.399353751370976624e-03
-4.699265187371731191e-03
4.229474693595078501e-03
-9.359029126970897384e-04
-1.652496224766744539e-03
3.023845889312106860e-03
-3.105212661577560953e-03
8.277727671485988689e-03
-9.907374304133357429e-03
-9.054026686484051636e-03
4.530474804925786227e-03
8.982211621819427907e-03
-3.575438646779613601e-03
-5.739177928604240848e-04
-2.087934813443288913e-03
4.927382455024264044e-03
-3.423513827124200718e-03
-2.981990365986294123e-03
-6.818497014999005262e-03
-1.626599384322239238e-03
-4.208035700928468639e-03
-2.105804901986994826e-03
-6.664173512255439254e-03
1.516650680765114665e-03
3.748219605406902244e-03
-6.841956207700987218e-03
-6.370366885377281609e-03
5.420820681877596726e-03
4.514819676641195975e-03
-6.039681295936286630e-03
-2.000713550393772109e-03
-6.382201349460431619e-03
-6.506963293537338690e-03
6.432181860825292481e-03
6.589967516857558015e-03
-2.911020045294870559e-03
2.065701232844580938e-03
8.564699658503732715e-03
-2.011806899262065518e-03
-4.544553424028832667e-03
4.509422311482654683e-03
1.188216852654134983e-03
-2.438791601250645674e-03
-1.485611760962263000e-03
-8.359057576968030243e-03
-4.730984226127182661e-03
-7.540242519446404244e-03
-7.283188086308769495e-03
-8.675941506610305304e-03
-3.326756789059207454e-03
-2.055404840792963723e-03
-3.505082294979984959e-03
-4.340212346446273989e-03
-6.534513094383194443e-03
4.360242740604597031e-03
6.349530400096621563e-03
-6.815474202170688361e-03
1.959557313911644300e-03
-7.789650292678738409e-03
6.768650516115428360e-03
1.324750896402129363e-03
4.628932536530857601e-03
4.959256515033964689e-03
6.994972517155771891e-04
-7.874111854581710562e-03
7.477209210637904974e-03
-1.698033951161320113e-03
-9.042634598951050998e-03
7.941212750577842511e-03
2.543078538155040761e-03
5.045867145973980186e-03
-6.321829059241344632e-03
-3.544343793771012607e-03
-9.812010570137851342e-03
-1.952864617434670351e-03
3.816084617115967238e-03
5.993065964795713484e-03
1.567807607395995100e-03
6.701371474278190743e-03
-4.204755114443303049e-03
-6.418181590058003613e-05
-1.218058711051989845e-02
6.606138121143011535e-03
6.862486048213972852e-03
-8.617962542760130087e-03
4.011587289452283808e-03
-6.756846803691212919e-03
-2.483022814906189930e-03
1.544787219708998330e-03
1.343108199486381599e-03
2.621496717392193896e-03
9.186297002841301365e-03
-5.097118103271735222e-03
4.345974105683328252e-03
8.572713039619818745e-03
-3.861106189207990421e-03
-8.436983199102006045e-03
-9.321159838853130056e-03
5.485189138636339945e-03
-3.525660162862070523e-03
2.786322364968288161e-03
6.596756951824337724e-03
1.263432960704908084e-03
-5.693547393269534317e-03
9.767637298671544982e-03
1.457762146807543803e-03
8.184272401202162886e-03
-5.903091910753445817e-03
1.526767106621167462e-03
-4.950065323301753445e-03
4.198939503607453105e-03
-5.868280919200683041e-04
-6.763242692080957685e-03
9.245236276794988831e-04
1.586419653744477760e-03
-1.845039071089593337e-03
1.519338696015606113e-04
-8.417508969990621440e-03
-1.075018537453596018e-03
-3.408609218446257989e-03
7.687505815670916086e-03
5.538793508635266039e-03
6.129422753496227907e-03
-1.005459020977114357e-02
-9.378721462938199513e-03
3.204681844170245448e-03
-5.554579357770746649e-03
1.292355932504206904e-03
1.420196796152760994e-03
9.458792294608012186e-03
-4.101597039252944873e-03
3.949833048084981126e-03
-1.922100123214937756e-03
6.439756357583593417e-03
-5.730892539601667619e-03
-7.124302226456279835e-03
-3.360393010760181088e-03
-1.228331379022144267e-02
6.722554523907420428e-03
-8.913016533535428679e-03
-6.413792688715054362e-03
1.319587246953579868e-03
2.614632305886673176e-03
-7.703099250740554765e-03
7.975484810356979135e-03
-8.915040764783067548e-03
5.187842533442304886e-03
6.516283984201634571e-03
9.877195296398594976e-03
-4.339688535221913630e-04
3.466006238618551775e-03
-8.446438362163955632e-03
-2.065806135803343289e-03
6.773676078231688664e-03
-2.465508712331481063e-03
-7.565236369209684883e-03
-3.227417348951706292e-03
-5.121877463566707096e-03
-7.570813391619509412e-03
8.015683584828015018e-03
-7.033797836866541829e-03
-6.827153024395773463e-03
2.299719657243314876e-03
-1.650790728692155731e-03
2.893336674712869601e-03
-2.738789837207968904e-03
-1.943326943988365498e-04
3.616155447305105086e-03
6.977301542029789097e-03
-4.454913046985147125e-03
4.700409775040767686e-03
-5.402227222681479056e-03
-7.777709398931948945e-03
3.768655801617750573e-04
-7.824410988938433273e-03
-9.684392464086833633e-04
8.153709511065188736e-03
-2.005612629133260612e-03
4.079675981029323370e-03
-4.534437015846725511e-03
1.376828522307334182e-03
-4.180305600556982228e-03
7.066219688515652146e-04
-2.780425972851173141e-02
7.035834101566355511e-03
-3.399944861536190275e-03
-2.695589771203378907e-03
6.748908815482227395e-03
5.505674955752556422e-03
-6.489170081536651397e-03
2.515618618787031878e-03
-9.354307981324097576e-03
3.572555679813216832e-03
-2.681626038049500613e-04
-1.879241234853132412e-04
4.300530340741146561e-03
-6.907056738354772248e-03
4.322226415772630927e-03
-3.456839294095307748e-03
7.557625397984949790e-03
-9.802072716565142507e-03
2.501327816591430997e-03
4.860086461299900629e-03
-6.178196047603757256e-03
9.313304969522139334e-03
3.592809786340107046e-04
-1.837826685746336971e-03
-8.045925092773258472e-03
1.471885989212971769e-03
-7.698591991728635266e-03
-4.364858255750506816e-03
1.894605864713084066e-03
2.587408620397491869e-03
1.861416715437930105e-03
-9.019974231581871782e-04
-9.087918121199774560e-03
9.115286763009258428e-03
9.073901851339853317e-03
-9.511475288021644867e-03
-4.678631513107081065e-03
4.236847033843763911e-03
5.521084585543047964e-03
-9.623102703830889101e-03
6.124194839203434514e-03
8.155436257412038148e-03
4.017545081668147042e-03
-5.041961240766674145e-03
-2.118902814753971953e-03
1.991226648250923013e-03
6.813449018647692833e-03
4.185617982702841827e-03
-7.088078563166973385e-03
9.366076000559291417e-03
2.396927696741650571e-03
-6.752591165093844473e-03
-1.536804764036532947e-03
-5.975987742107595306e-03
7.777321020695130739e-03
-1.935259312007764614e-03
-2.980537401162743332e-03
9.562991216233618537e-05
8.075268901095500329e-03
-9.210590356358191978e-05
-8.975496115962586230e-03
-6.120230544231313602e-03
7.610203188059366103e-03
-5.632133789254777090e-03
-1.097964421755555711e-03
4.287494865281927907e-03
-3.538400957580430019e-03
8.381348363485060030e-03
-3.643948420332359783e-03
-6.520635830265924908e-03
4.947073582334731399e-03
-9.475071120857958898e-03
-6.122857474071149303e-03
-5.356529827856438414e-03
4.951506052161494358e-03
4.610277170537953849e-03
3.958220190132471540e-03
-6.543598058713011312e-03
1.727274248796164440e-03
-3.627206740638759096e-03
1.030371437512401372e-02
-9.292635160297576039e-04
-8.935256485556172454e-03
3.019564871353850374e-03
8.647325007364582011e-03
5.057777676079394137e-03
5.666351105672237480e-03
-4.837120077998601810e-03
2.380328423383532791e-03
-5.099158404663445450e-03
2.947298855242276409e-03
-8.738886640261822256e-03
9.720204065702901103e-03
1.227976637792763982e-02
6.194350175249525338e-03
5.446117537353739949e-03
9.091320798100287204e-03
-5.754836698251072566e-03
6.880884130831723365e-03
4.452520273852079644e-03
-1.615193601744232795e-03
3.194810394107786954e-03
-8.128957582493559486e-03
7.966966626960182360e-03
-5.467498933380788781e-03
-9.881429947134511612e-04
-1.447081166529960196e-03
3.874895950038530646e-03
1.058049204449620570e-03
7.571689491396609538e-03
-9.145297346120078927e-03
-8.899489550300626259e-03
4.110083334778251614e-03
-5.347018806627758768e-03
-9.425107887217201242e-04
5.015635032358036231e-04
3.312628774798708885e-03
8.267434254769362445e-03
-7.227276376776157508e-03
-7.639388929616644508e-03
-7.455954707920983866e-03
-2.448792251437823669e-03
-7.359053447666883546e-03
1.790908002873257314e-03
9.497351468255355728e-03
-5.135806853055574451e-04
4.086939167689155467e-03
-8.803092589061964346e-03
7.474669780123815999e-03
-3.495675755844146557e-03
2.397055061042392427e-03
-8.386653151818365161e-04
-6.570460233054170552e-05
-4.095880009768548477e-03
-5.659808913653505830e-03
-7.170937586670255402e-03
-8.072382871347453734e-03
-1.551899575391308371e-02
8.146417946182428829e-03
-6.259461826526975352e-03
6.975366470555246015e-03
4.833336389710912555e-03
-1.590514950190766901e-03
6.750759672483144097e-03
-4.456195950471889163e-03
-5.963661193916320810e-04
-9.529059057166812396e-03
3.531861635176951255e-03
-3.228752193867145525e-03
6.125626643895430365e-03
-5.159341474846320698e-03
-3.923249807118165886e-03
-7.231576575283770250e-03
5.123149877817038044e-04
-2.738842431366005428e-03
8.274744698747784136e-03
-2.625600405587748785e-03
1.175526138027868303e-02
2.643481363634511000e-03
1.205994762176646178e-03
-5.738668556221532963e-03
6.297662988790181339e-04
-3.290418262929743331e-04
-6.367679884783009232e-03
1.699186976961865455e-03
7.437031790806803919e-03
2.589130335688968193e-03
5.141627376967349873e-03
1.681162982571144011e-04
-1.556588643877075163e-02
4.685813578267055378e-03
3.368344071624653369e-03
-3.129174221984531209e-03
3.169991897684759901e-03
-4.342347899705126246e-03
-8.607183916966612905e-03
-7.571092103146670645e-03
-7.460389380363557053e-03
-6.714572058794260508e-03
9.123345601053286721e-03
-5.245543706461957591e-03
-1.297383444016798415e-03
1.088446683083869014e-02
-7.000175658458131743e-03
-9.218886463432903952e-03
6.752788965010044983e-03
-2.195239697528683556e-03
2.310469368401415168e-03
-4.204732738239504337e-03
-1.006568129536278191e-03
7.326653010425804129e-03
-4.067676912120382800e-03
6.835876877997650557e-03
-7.637047777239934845e-03
5.479353984953624045e-03
8.036239131686696846e-03
-2.569990090718274334e-03
4.928831258237428674e-04
5.239878798254440093e-04
5.317192972306163633e-03
-7.202495836698140190e-03
1.136925767708569200e-02
-6.466486176680035641e-03
-4.432547726460444974e-03
4.933893835269951254e-03
-1.507263352741357830e-03
-8.773101226650738271e-03
-9.473917011771885869e-04
4.709364150619942471e-03
-4.314667810157156100e-03
8.176874674731849160e-03
5.987595613695048842e-03
-3.850739514691592889e-03
4.599134521454184901e-03
-4.614376751989071601e-03
6.898834445238538268e-03
7.786669691898668103e-03
-2.298764310927142555e-03
3.394658885487151861e-04
1.011404621460948623e-02
9.414370937911442985e-03
-7.756795907789027465e-03
5.578325670828646402e-03
-6.995548295559057134e-03
-8.475615826458718013e-03
8.836383209845187622e-04
1.544727062612071423e-03
1.885230868857402855e-04
-9.525504078666514884e-03
-8.419083740117138531e-03
-1.267728910540326381e-03
-7.443266070633467422e-03
-2.904996346034312716e-03
9.411902836982680848e-03
3.965430316193681304e-03
-5.970695603156488986e-03
-2.141570960688290830e-03
8.815950151606129909e-03
-4.009671793780614397e-03
-2.572317269869770807e-03
1.716337645749826729e-03
-1.664044867706750358e-03
8.865896184658449836e-03
-7.131591825072529887e-03
7.871415791062296927e-03
1.837912806629921200e-03
-3.287371051492651592e-03
-1.215819012466331931e-03
1.162669187854236579e-03
7.251789393143576526e-03
-1.002361244111873648e-02
5.587789139274897295e-03
-3.150488226666386081e-03
-5.745375792270922960e-03
-8.937312557953677392e-03
-2.556130855683463095e-03
8.283985960114091315e-03
-7.957512296721779010e-03
-3.712877331985219975e-03
4.476220134964783645e-03
3.230158866488772994e-03
7.587480865617448993e-03
1.709418926388631046e-03
9.512371581677390650e-03
3.236754528148842042e-03
-8.515898073036837906e-03
8.686198552946912442e-04
5.468158484979875576e-04
5.375846079632545446e-03
9.446921361092568007e-04
2.535580174265987443e-03
2.926160839655559624e-03
3.925351987009802115e-04
8.289799880611087995e-03
-3.131595464089685990e-03
-9.113058808731030330e-04
-6.096304977478442244e-03
7.318492449219100296e-04
9.671920510819253733e-03
-9.687308277097586573e-03
-3.975383058400948008e-03
8.100244838817114226e-03
8.543605276668975179e-03
2.170781732087784591e-03
-1.939667393479006276e-03
1.959522833107353069e-03
9.634804367174636466e-03
-6.867448088290198892e-03
-6.765325292457015187e-03
4.511215627892359477e-03
4.579728441389699888e-03
-4.369230833694252511e-03
-7.163052137353305210e-04
-1.337820039491252480e-03
2.759012345086930742e-03
-9.487356287121677736e-03
8.892368244036451957e-03
7.692222326912808751e-03
1.136108496721722387e-03
-3.943413258327602144e-03
-6.515576174560946780e-03
5.981783106666607036e-03
7.303544081599336150e-03
-9.675570440333271238e-03
-3.892817916885920183e-04
-3.602360284073997162e-03
9.642948558767886272e-03
4.900600514330775634e-03
-7.205625518065893360e-03
-4.810248558195829444e-03
5.858592846751341926e-03
-1.053738471367067671e-02
2.508269639680057658e-03
-9.377043764654329708e-04
-4.506195404212712079e-03
-8.841410972643102412e-03
1.042100139003674254e-03
6.834226095018934230e-03
-5.538345751542582580e-03
8.748609568650129661e-03
3.174698787784072454e-03
2.412699240860164199e-03
5.387869230991828413e-05
-9.377919908724613104e-03
6.627427728536891376e-03
-5.473325203099394312e-03
-7.108231037548813462e-03
-3.648246213771045958e-03
5.248297557508948587e-03
-2.309847616363207724e-03
7.900601722782112091e-03
4.135228426380119920e-03
-4.160492199481414903e-03
-2.058353684798599082e-03
-7.334155218979118880e-03
-5.608324117863066997e-03
6.002462167645641151e-04
-9.664445846184636923e-03
-9.485374099413043311e-03
3.236468593516444048e-03
-2.817376327576041721e-03
-7.264053540809266643e-03
-9.517517331851566703e-03
-4.255895018783273538e-03
-8.018813711394498500e-03
-7.318743413365687983e-03
5.498122345286088168e-03
-7.796054857164278970e-03
8.585859840836533585e-03
8.302893308350144455e-03
-3.250140438465057117e-03
-3.206086544982304429e-03
4.275289347440346284e-03
8.149920379125270842e-03
5.357995380119689142e-03
-3.330597375643155715e-03
-3.785232503857963084e-03
8.555749260053906440e-04
9.283395463586308072e-03
9.937233809432288734e-03
7.287639872485897384e-04
-8.249978905099902837e-03
1.886725392384754367e-03
-9.917244988214241747e-03
6.461854142254434309e-03
7.687417149896183348e-03
7.126266257477012825e-03
4.105075064759657402e-03
1.276974193114444739e-03
7.489823970098752684e-03
1.862894423322838727e-03
-8.746337820335960481e-03
3.803513000217876184e-03
-1.999588715057371447e-03
-6.225590083406380357e-04
-6.299403405223968390e-03
7.840258444785917422e-03
6.820832301158044446e-04
6.279841060959969259e-03
4.192903379589839373e-04
1.813156566279451511e-03
-1.029977672243358264e-03
9.001898632601527950e-03
-3.087861860775835497e-03
5.981494732837659006e-03
-5.596864206153694815e-03
5.546940130268258190e-03
4.621741695865701390e-03
4.304688768335857701e-03
8.004399492590139401e-03
-9.590348685630649753e-03
-7.531447777472729133e-04
6.937099273654961061e-03
-4.174240310419848748e-03
-5.943947374603535463e-03
6.703147914416508237e-03
4.824410238924598318e-03
-3.465692952915028820e-03
-8.544657736543425849e-03
-3.884351388567600268e-03
8.678855632574930881e-03
-5.460374534206426100e-03
-1.547227197074855110e-03
-3.053818561331115948e-03
-6.773373920460299411e-04
8.241472090978984449e-03
-5.001533787676964299e-03
-1.101883978462660837e-03
1.189805066052783628e-03
5.731454952572891635e-03
9.532714713882121244e-03
-1.042410099269076504e-02
3.607539144831901998e-03
-9.146358411681111342e-03
-1.163663884142244120e-03
6.271089793955150196e-04
8.547644763295784293e-03
3.430691426016703720e-03
-4.916647211206672495e-03
-3.705892865573691408e-03
6.093188623511052934e-03
-1.230950064322585856e-03
-9.911250396800313014e-03
-8.957600767432695107e-03
6.951357497114885736e-03
-9.409550361954965164e-03
-6.706310446526042753e-03
1.018553802518243345e-02
-8.124044674814744418e-03
-6.403008251917416578e-03
-8.730286118171523210e-03
-3.629930853092965155e-03
-4.577004395082432016e-03
4.625329877541292309e-04
3.568044173999433601e-03
-8.027109517279295073e-03
2.413281085619828695e-03
-7.725865283043644241e-03
-4.276985998426795742e-03
4.096982213521805152e-03
4.949540404133886615e-03
9.056605283797165146e-03
-7.105839894653130304e-03
9.384796750869261669e-03
-5.275704392134292035e-03
3.375845298766320425e-03
-3.990825894655423457e-03
4.289604331843421478e-03
6.166047981425349864e-03
6.677819891424444446e-03
-1.726678649359064720e-03
-9.255191516956289693e-03
5.609199703734771454e-03
-2.569101515087005017e-03
-5.621658835641490763e-03
2.101146563152544045e-03
4.382855717860921485e-03
-2.752174482227775533e-03
3.504510363711031955e-03
1.596432253106513238e-03
-1.756828396903857212e-03
-6.015369286089575218e-03
-3.284051751066866323e-03
4.621609791641181908e-03
1.310059627717206909e-02
-7.070224792542682477e-03
-8.252603755792205578e-03
6.777239010365784626e-03
1.576012941931280486e-03
6.602486140027081368e-03
9.231842571863810298e-03
3.739440322670436502e-03
-9.655134397914849620e-03
3.872848246976369393e-03
-6.088295906419598745e-03
-8.195788352650171943e-03
1.686544915493053435e-03
-1.415831771735819034e-02
-6.203026313719498669e-03
2.403201552130349895e-03
-1.046947344787329051e-02
8.530837404852486053e-03
8.735868678921766828e-03
6.865051060493148304e-03
-7.776299549004325046e-03
4.122424580297300196e-03
-9.918129673129270560e-03
6.008724951822360522e-04
1.437477825631267069e-03
2.229697737900594896e-03
5.799730460966134524e-03
9.034239943919761262e-03
6.892972112512688217e-03
-7.466000130653928195e-03
1.079085457026974539e-02
-7.067266711857320485e-03
-9.746374318661240113e-03
-8.789570659079556578e-03
4.824412619293177648e-03
-5.542825117942348084e-03
3.997552873416876720e-03
7.392014025807610959e-03
-8.490064705447941673e-03
-8.502062859368622605e-03
-5.961893806920689348e-03
-5.186545035942297620e-03
5.521833169456509018e-03
-3.349290102522515210e-03
-3.023873611577347848e-04
4.585676704592744728e-03
-3.649145242299868010e-03
4.493861536164520804e-03
5.937213135719700014e-04
6.170390197357589028e-03
-7.066896526434623786e-03
1.246641916156273830e-02
5.811054007946404344e-03
9.467018820226547060e-03
7.849993208321795132e-03
5.502264491976351568e-04
-5.907364081344337534e-03
-3.150932325990239528e-03
-6.641229003207997465e-03
-9.057383713977946657e-03
4.725010332179069815e-03
-1.514459608505549669e-03
8.534044280872269198e-03
-5.195976739988760959e-03
-6.233151818459648288e-03
3.133337818068600202e-03
-5.059685425974591068e-03
-7.973701369468763015e-04
8.646642833999528682e-03
-7.216033589957739081e-03
5.875615923220017843e-04
-2.211361672409734350e-04
-7.617549599710719821e-03
4.582600558210394616e-03
-6.390654155703295695e-03
-4.451415551551424557e-03
2.311269150333205430e-03
8.458658049552005703e-03
7.304770575456949813e-03
5.865338993406528150e-04
9.126739644780982111e-03
5.999496757207139867e-03
9.421233917767290328e-03
1.254010771739048598e-03
-7.610986320767653898e-03
7.955015644867989913e-03
6.998772332337986450e-03
9.812675895375483695e-03
-8.437542228599066024e-03
-3.430986872845819945e-03
4.932643227843785949e-03
-3.526695480757342620e-03
8.056260220542961481e-03
-3.044109167775023179e-03
-1.109479322144708152e-02
5.942912277388905963e-03
7.666461328384072821e-03
-2.016593741087804523e-03
-5.766217786500598720e-03
4.347612160695674480e-03
-7.767358909445172196e-03
-2.877659053102655812e-03
7.410444718349173954e-03
-7.764847660290488153e-03
7.795818688733260893e-03
9.433753558956552501e-03
-1.672781115916046647e-03
-2.096896731482872107e-03
-9.860493243925988471e-03
2.234017434661334303e-03
5.975486928760103886e-03
-2.746050384441765194e-03
5.584136623441954272e-03
2.925755581691599772e-03
-1.188610108753569402e-03
-7.528652166685733185e-03
-8.832084161346072382e-03
7.213656444114299737e-03
-9.167113292271855327e-03
-3.259263242033168771e-03
-1.219158326914962683e-03
3.395895390019812356e-03
-5.297179264494628406e-03
-9.523134650524393841e-03
8.935643607760212007e-03
3.229400669400959035e-05
-2.389807681685301825e-03
1.204477412083569329e-02
-2.046394650699645632e-03
-2.685419900880897312e-03
-5.322742495791024653e-03
-3.153617294768448201e-04
6.776318985835158007e-04
2.289503203802907734e-03
-3.091616404324982505e-03
-2.545864013359894554e-02
8.401970618799074406e-03
-7.822460090348060460e-03
-5.579909611557070694e-04
6.684196026179436978e-03
-1.279935548247328452e-03
2.511390542565508643e-03
-5.033825549390880463e-03
7.208038730683722674e-03
-2.399709523437466852e-03
-4.894220798486749284e-03
-5.552501302904903902e-03
-6.804858972329643450e-03
-3.095315454711732202e-03
9.172152574449388487e-03
7.924717211857223997e-03
7.321800424888704785e-03
-6.639765542499374146e-03
-9.353631145394341803e-03
4.517997568886972411e-04
6.461071947021284831e-03
3.680367988723563018e-03
1.588875048101687573e-02
-9.146815025545386099e-03
5.143306688773427449e-03
-1.796789837494062623e-03
3.797813763269792132e-03
5.003982440357361387e-03
-9.145789384727199406e-03
7.981296143720053790e-03
5.182874207345130289e-03
-8.512856897222661687e-03
8.811454916352812888e-03
-2.789929335506247804e-03
-3.423727745934516085e-03
8.054918595859963254e-03
-1.992929636121627650e-03
-2.104389157479750506e-03
-5.777277950113597106e-03
7.121605237012337310e-03
7.361913477619477265e-03
-8.732108301418021329e-03
2.334086640466726936e-03
1.467252421877303760e-03
-7.259668089422396074e-03
-3.372744648505027459e-03
-8.547261071648070731e-04
3.965081201222581640e-03
-2.371573937270142485e-02
6.522562106516771076e-03
-2.990829162704211185e-03
-5.495631641123879417e-04
3.702486116625092888e-03
-7.941061513294638691e-03
4.648122442441521111e-03
9.979385588283510786e-03
-3.655346923407063776e-03
4.892926864207247997e-03
-2.258237869931282137e-03
4.225616675793576228e-03
9.886679386026527364e-03
-2.019630915147895521e-03
-2.719164424387605829e-03
5.711195873356833541e-03
4.642695170810908455e-03
-9.793208651015532576e-03
-6.232934422023762161e-03
2.565530914200435733e-03
8.034734978039307501e-03
9.252970984441798163e-03
-8.929162234083258889e-03
2.401113477952867246e-03
4.546178915520636410e-03
4.723891313227455285e-03
4.179186284681559241e-03
5.251591794906670767e-03
-7.014826697673111171e-03
-4.659251651128924754e-03
6.549265598727997163e-03
7.731249488210283766e-03
4.647456026857669197e-03
-4.101114783273792502e-03
