-1.733495294303964360e-02
3.561590864843847039e-03
6.354207202589359088e-03
6.332889745635871372e-04
4.363142687389453926e-03
-9.754231600601157709e-04
7.923752235896048407e-03
8.660460499518256652e-03
5.086858444887192715e-03
4.345870013536748053e-03
-2.484228442797965179e-03
4.201359311158995267e-03
-6.147664528095154145e-03
-9.804489147214150158e-03
3.248285149755153218e-03
-5.608458182342438217e-03
5.726761809303544670e-03
-9.837046855191688630e-03
5.577804478596244675e-03
9.431513338659410287e-03
8.117308749735917608e-03
9.909921535240720156e-03
-7.149365939972323692e-04
-2.485636646633441072e-03
4.125467069735264287e-03
-6.013907675998804436e-03
3.241247269546069110e-03
5.490254896251619762e-03
-5.036222462761244176e-03
6.440531635993208825e-03
-2.885194229180899298e-03
-3.500034558771046751e-03
-8.853775020739277843e-03
4.310308081331933050e-03
-3.873034168857147040e-03
-1.103195942467935682e-03
-9.611738061663725437e-04
4.935978701824077089e-04
8.065364403113643374e-03
4.449476766467021747e-03
6.123988963616753579e-03
3.920608715708443696e-04
6.188996631926780862e-04
-3.412849417826152067e-03
-5.430403465179458634e-03
-1.594818990103745535e-04
8.510646592601200933e-03
2.211028884277220757e-03
7.468624532719240344e-03
5.615229198231201646e-03
-6.848017785344231133e-03
2.127816707984022358e-03
2.370494248076257624e-04
5.139018056237595715e-03
8.919355878863374776e-03
6.500774828583114843e-04
2.224312287583538137e-03
1.488763893811288156e-03
-4.131652595175702540e-03
8.460644231849031313e-04
2.206803878428678992e-03
-8.013040124382347223e-03
2.211342684389631594e-03
-5.942645951102375548e-03
7.192605566311308964e-03
8.649378221474835968e-03
-1.143125480380378098e-03
-8.570903072334415743e-03
7.079168280849474151e-03
9.802057085447899928e-03
-3.098221130393353411e-04
-3.028876659090063133e-03
-4.036448433984672624e-03
8.866680082304390781e-03
1.020469116019781432e-03
8.257758442486485412e-03
-7.319317989084387840e-03
-4.287824223789258801e-03
5.861796049887201855e-03
7.410164545036878811e-03
2.611283089816977473e-03
7.434896790793781018e-03
-7.536481510670441954e-03
8.292349338988527427e-03
1.679852290580898010e-03
-4.543155303041153913e-03
-5.138583175145741179e-03
-1.140025392171864694e-04
-4.047644342959523175e-03
-4.076962041734103967e-03
8.973571298388828901e-03
-4.336151814669858377e-03
2.964613049973701016e-03
1.637667484854553844e-03
1.193445550142108527e-02
1.490655623172521525e-04
-6.734952208907024271e-03
-9.787365675351994074e-04
-8.435101657110350912e-03
1.107731481682468471e-03
9.007780516993700191e-04
8.105158772757485933e-03
-4.100764686353551049e-03
-4.036265387933746359e-04
4.107247624565918583e-03
6.513933095965623377e-05
-5.891173245367348384e-03
-3.171120434145952623e-03
-4.360605041344969152e-03
9.628689110513410226e-03
2.228693403046709141e-04
8.127615467909727817e-03
7.543070385632829299e-03
6.675244243204973837e-03
7.155169770294328609e-04
4.806009551144027961e-03
-7.188449258907414138e-03
3.927230379011515185e-03
9.483510817309340549e-03
7.808258244857891770e-04
-5.179698258367874779e-03
9.020771084995404506e-04
4.638617566701009297e-03
-7.643264470314495122e-03
-9.371633109631603148e-03
-8.484108090599925753e-04
6.693458250271489517e-03
-4.429753024830642566e-03
1.751432563494409803e-03
5.392501872305011275e-03
7.510376648134523513e-03
8.040692761068651134e-03
-2.380105090151909790e-03
-9.307339977940842432e-03
-4.205825933866941951e-03
2.410961327917781130e-04
7.360554916861610994e-03
1.360853593414689108e-03
-3.940826901551424365e-03
4.731365638306415065e-03
4.873906831508446197e-03
7.704338795373313897e-03
2.896858920783491973e-03
-7.686086012754347017e-03
-6.298447882074498065e-03
-7.041769371853850469e-03
-3.210881732353460059e-03
5.286803907240645098e-03
-7.987932192934695669e-03
8.479236628554343361e-03
-3.921602693581387362e-03
9.548797908565167039e-03
8.308464640342932972e-03
4.016291373791011990e-03
2.560607332379280683e-04
5.673207779769309442e-03
-9.490808234520241651e-03
7.055077104361508894e-03
5.647965291055364288e-03
-9.383046308659952553e-03
3.546414191461478085e-03
9.731143748767509191e-03
-8.217379977158045150e-04
9.460748642277437559e-03
-5.752438378476390328e-03
1.896737854572865282e-03
-4.226362249396529470e-03
-8.727207402731401026e-03
-6.948384899739579873e-03
3.934609251906568891e-03
-1.306399043210232456e-03
8.753644251504709081e-03
-5.942177484545540719e-03
-9.282674384061185072e-03
-1.750237396951879326e-03
2.051315972968007981e-03
7.451549831913813031e-03
-2.827981235476227737e-03
2.884470750464909489e-03
9.259522748976139637e-04
7.494935243520572943e-03
8.745627121311040381e-04
2.678723562330262691e-03
-5.596717384146891565e-03
9.227710575196047121e-03
3.235709471341666459e-03
-9.764201226070740383e-03
6.893352895201695051e-03
-5.730535804192529552e-03
-4.535816956004776017e-03
-1.425029520223953725e-03
2.568528618609175647e-03
-3.224245650551143920e-03
4.032362411047427271e-03
-4.152538553201637166e-03
1.260200317447571390e-02
-7.973932236647546593e-03
-5.102932057813559623e-03
-3.248434143830563475e-03
2.707097346932849959e-03
1.926394153384508329e-03
-3.138194126235172889e-03
-6.176136426129262558e-03
1.050565450742729865e-03
6.429506494489954822e-03
8.482359001739502719e-03
-6.146390854071711631e-03
-1.823275236892350423e-03
2.892580720681625986e-03
-2.243862795667898435e-03
1.792234972147212745e-03
-1.756230310813270204e-03
9.279126957255846159e-03
5.533505767291070285e-03
6.052699086098828514e-03
-8.138879241636054820e-03
-8.297328090976427428e-03
4.396459405788842763e-03
9.135473054749590135e-03
8.606582727733722016e-03
7.010721013982259067e-03
4.559514243475731518e-03
7.001542533083539473e-03
-4.431352345398043013e-03
3.858315343488389823e-03
4.683045683846770273e-03
-7.049197725856573733e-03
1.179050666219505841e-03
-9.039629205311093194e-03
4.105830644792645909e-03
6.560960276798180960e-03
-1.590384312031365831e-03
4.190352426462772592e-04
-7.088684315033655890e-03
-5.273873544197846611e-03
-3.166911996199107265e-03
4.297532537200869467e-03
-4.850240212085674130e-03
-2.657349819798510582e-03
-4.334397681877447984e-03
-2.950784173958513959e-03
5.984601406628212855e-03
7.618569188579298393e-03
-7.048035967821692817e-03
4.283929747813905974e-03
-5.886053563479945461e-03
-3.161563616642761206e-03
6.640070230701977140e-03
-9.963497913147897553e-03
-2.527137616013100819e-03
4.637876507734116013e-03
-2.259166587993935611e-03
-2.422514322655561735e-03
-5.656586328582575984e-03
-8.110113550653505823e-03
-1.454460582927246705e-03
-3.620753612220980501e-03
-9.553289909544947570e-03
7.736757073172892581e-03
3.097659300796816711e-03
-5.641311940804239616e-03
-5.753602014041356722e-05
-8.241244942607988191e-03
4.427002282133997782e-03
1.574149665116642005e-02
1.914188344904472431e-03
2.274547882926744764e-03
3.343870702280416201e-03
5.830093852954406275e-04
5.944430322932722777e-03
4.741355076162197257e-03
5.421123867938601980e-03
3.223136681782671261e-03
-9.863763960215541846e-03
-6.704530554159418218e-03
1.309707409644200521e-03
-6.227454956367012816e-03
-5.527146588500194031e-03
1.785855449717104523e-03
-4.439037988695999047e-03
-1.003360177427037054e-03
-3.721304231397695207e-03
4.343622904630352506e-03
-9.534498106697947978e-03
6.812094450882461016e-03
-5.185310541099220384e-03
-9.678404343853046557e-03
-2.396475656299972608e-03
3.682820402459180409e-03
-7.370979443506861170e-03
4.311447868215184144e-03
-9.427714668804204959e-03
-8.489923377007345395e-03
9.019752440404824392e-03
-3.051045095183362119e-03
9.271225613303523544e-03
-5.263582669603613165e-03
9.173965692801972979e-03
-8.556952960070701372e-03
7.505690114903576862e-03
-5.211849238623969711e-03
-8.305148267831052519e-03
-9.905406686485677611e-03
-1.469321206412524871e-03
-2.755888001089773845e-03
-4.013725010118740152e-03
7.330275933050123087e-03
-2.018318140919950470e-03
7.928907067207299417e-03
-3.134086928613446024e-03
5.383669199418210892e-03
-7.454139592801039410e-03
6.272181817401088592e-03
-1.026245441391665340e-02
-9.225332510713930498e-03
-4.514918481325147850e-03
-6.112677185404521985e-03
1.275671980929706959e-03
-7.336988568801195397e-03
8.449968611498078278e-03
9.971051560082098628e-03
-5.475734494238118427e-04
-4.164192173300091879e-03
5.934088790362217203e-03
9.762655595473341066e-03
9.681223307193256161e-03
-9.343070168676121875e-03
-6.271767541120176368e-04
5.832365059479691083e-03
-4.588990511824011381e-03
1.708972278853071718e-03
-2.403115802403805665e-03
5.688782224773875594e-03
6.983120282863306341e-03
-7.756961064671190863e-03
-4.317241591764522241e-03
-2.697948779848937089e-03
-9.070420663420808785e-03
-1.024084874244086604e-02
-3.149522352410730566e-04
2.772619967961667022e-03
4.037651267322711450e-03
9.734494629713675087e-03
6.620410907690018817e-03
-6.827932092658241421e-03
-5.628826497848629694e-04
1.408384127704184622e-03
4.728796654035946449e-03
-2.450033332760925484e-03
7.406697858505176084e-03
-6.453404809172821020e-03
9.138271111776523695e-03
1.948624356472413582e-03
-2.478918068335723458e-03
2.131579420225803573e-03
9.440882387501797410e-03
5.862710866238393659e-03
-3.467457770013985911e-03
4.536363168187711875e-03
-8.320176631511644067e-04
-4.567247888894199540e-03
-9.517378613346921812e-03
6.160743021597957572e-03
-7.004739004568821294e-03
7.997752451786702133e-03
-3.746180993597056624e-03
-7.985004117344705540e-03
1.722427869858655491e-03
6.664778675465201675e-03
-8.444612465027188626e-05
-6.113192435739391549e-03
4.167574901806857766e-03
-6.723166727023259063e-06
-9.597768984758408076e-03
3.158615342316269440e-04
3.950871109903017139e-03
8.151719038491602246e-03
6.849982625300610889e-03
-6.368046289946807485e-03
-1.840120251977035151e-04
2.132671429625117646e-03
-7.291078368533994436e-03
3.377477863122646529e-03
1.483235598845227812e-03
4.693719967425995926e-03
4.258729226775496979e-03
-3.861312662546731878e-03
4.982976772654163812e-03
-1.162751111128007900e-03
-1.171471563906343162e-03
6.223034785895534098e-03
4.578994718534401542e-03
2.925811702845490525e-03
-3.413075388705724082e-04
-2.807864377012675612e-03
9.629265646421044864e-03
-1.923208924191590046e-03
6.048075086909270558e-03
3.005346877394537985e-03
-8.817634746310594462e-03
-6.079128362796279612e-03
-5.106412585247445401e-03
-5.490950820861421021e-03
-6.840560082295209579e-03
9.146769162389547028e-03
1.393876422359627146e-03
-2.467246596134781925e-03
6.895914481735473077e-03
2.353849384166746301e-04
-7.211615594913559600e-03
5.839957957321153560e-03
-4.719894737407230416e-03
-3.623713102163167010e-03
6.437408913096792119e-03
3.752117332828280687e-03
-3.199427794375676263e-03
5.482357390418439967e-04
-8.104009703303050038e-03
-1.948409818101321184e-03
3.832250502886824783e-03
-1.545558458122093691e-03
2.054025197280014495e-02
8.121097917837944401e-04
3.917858051471245426e-03
-5.799315473830519291e-03
4.204023016584358327e-03
-6.891424026253808316e-03
-8.922303803434670708e-03
-5.529521594828777295e-03
-1.013794818789559224e-02
2.101778649291050072e-03
4.525859333408294161e-03
-2.619269044155473356e-04
-3.831360761523598321e-03
-9.242578095238892719e-03
8.319264387360658999e-03
6.566712810492340499e-03
-6.131485913835053522e-03
-7.463419775830009394e-03
-7.501488143713135092e-04
1.710580948265993245e-03
4.105013075888436398e-03
-9.127694093267441078e-03
-7.973327449048295615e-03
-7.481231977013389758e-04
-1.794127957035023457e-03
-2.724837387640576241e-03
-4.908450179555241301e-03
9.503199700370232881e-04
-8.464769839399137463e-03
-2.428985676452581274e-03
-6.583220374450987449e-03
-7.798327530287528161e-03
2.585134316830283580e-03
-7.738499970174190362e-03
-9.467158482870002487e-03
2.337650221895003384e-03
-5.515068123678656432e-03
-9.966592776112510876e-03
8.786679206208991219e-03
-2.901346446015536963e-03
1.570170502781532843e-03
2.522870975763510330e-03
-6.691557927184087640e-04
-2.162190171065498604e-03
-4.066079657740598319e-03
-1.860615636778855915e-03
-7.550798173231709418e-03
6.594981247825764011e-03
8.477514103025395736e-03
5.813743424847578681e-03
-2.934237015894650743e-03
-2.695963318877190066e-04
-9.916232554269108559e-03
2.180492937858488373e-03
2.279123875072578288e-03
4.336377347223608139e-03
-5.304172002933974471e-03
-3.467649308785354222e-03
8.572124666918586738e-03
5.717845499054729878e-03
8.805915676915802154e-03
-3.290413686102811562e-03
1.595398820746758359e-02
6.260396476409677870e-03
-8.308058862953663498e-03
-8.101785811478618912e-03
3.905777927843314800e-03
7.360695405462436627e-03
-6.801679260664579910e-03
7.335032795430606808e-03
1.446779666974283389e-02
-7.813523484771156546e-03
-7.944966049432504451e-03
-6.843646792804941592e-03
-5.404894646207764747e-03
1.163351737190427160e-03
2.939136236364145883e-03
7.395950442652248283e-03
4.500856546748821692e-03
-7.492821453992910309e-03
9.064668572568487098e-03
6.219427305773365423e-03
-6.128711887061439288e-03
1.482755745941815098e-02
-8.648000077164000321e-03
-8.232131166936263594e-03
-9.769355746543102043e-03
-7.758958501488545829e-03
8.221150149973013160e-03
-2.320165798514366943e-03
3.446682940951766548e-03
1.098679045377452855e-03
9.532046866540199587e-03
-9.963084642413508329e-03
4.086716734167431496e-03
2.001206276817974090e-03
-7.554453108555335764e-03
8.179989368465834590e-03
-5.723371666826485189e-03
2.028236233391629041e-03
-9.176613754744435483e-03
-1.260053282291414547e-04
-3.976656639208617640e-04
1.189381560202319721e-02
-4.847048168638468275e-03
-4.953972690377578952e-03
-1.830413214835296606e-03
-2.770287225703857263e-03
-6.152736149942921590e-03
-2.909903020010086612e-03
-7.493403780286923659e-04
4.469825361729886683e-03
-4.041459615716058718e-03
-5.428944392945419693e-04
-6.375950526717994761e-03
1.467685602927162533e-02
-1.156332306358633924e-03
8.924045761593725826e-03
-2.539295139138896592e-03
-7.290868360492849809e-03
6.798707476416233041e-03
5.050935869107106048e-03
2.123744471717881662e-03
-3.453086861802782091e-03
3.264742985767799584e-03
-7.693772111785301265e-03
-6.380413369986597492e-03
7.877564023944991917e-03
-4.854463261968821144e-04
8.554218629442625777e-05
-6.569102894872593836e-03
1.051855089783677649e-03
-9.010412215765914445e-03
4.677104173380751233e-03
-2.902640911224414234e-03
6.406686110026511317e-03
-9.286732910267818386e-03
-1.796315054308452418e-03
6.745457230951324747e-03
9.980794215170505843e-03
3.302408113368617178e-03
-6.799482036212053243e-03
-2.495059220620240818e-03
6.409967763767265500e-03
-3.569446780094204068e-03
2.868248942784941587e-03
-8.584130673102320988e-03
-7.030460298924213168e-03
3.430645600621964018e-03
-4.939696247839187905e-03
4.183125647945621956e-04
8.068635226071964317e-03
9.626794801069664745e-03
-6.439466471978681425e-03
8.203748765590211309e-03
1.754350773233255860e-03
1.277057670658414282e-03
-3.822033663566653302e-03
-5.086916735064282366e-03
-1.973862139003115714e-03
5.676372599418664719e-03
6.698798465623338663e-04
-5.743903219088146352e-04
5.395592210952227311e-03
4.163770955234554448e-03
1.513852248885764204e-03
-4.962998182277559081e-04
-4.664982773513992251e-03
8.403691724616853959e-03
-5.455677992883730884e-03
8.501324711416151023e-03
9.899771353607892885e-03
3.751507042898045638e-03
-8.783567538963248100e-03
3.837406272574193488e-03
9.780826909110891879e-03
-5.803469095768213140e-03
3.733824044065030007e-03
-2.185001736299388431e-03
3.026074476960501167e-03
-8.415087046335648774e-03
-5.936357298991185721e-03
9.753823702806611526e-03
-7.201359786712858979e-03
5.541756407001355474e-03
8.840506907571603953e-04
-6.504044459205259379e-03
-8.113595172346815126e-03
-4.149383450218533005e-03
-1.842621870429178403e-03
-6.568769514433497880e-03
7.231290022372444636e-03
-2.654056342145211158e-03
1.004450872826089143e-02
1.743776674394315832e-03
-4.365382772299006980e-03
-2.501217911705135889e-03
1.040881330890184274e-02
-6.861239981777561038e-03
-2.905937839966556309e-03
3.490489419136945468e-03
7.188223496246915617e-03
-2.669377228352963830e-03
-5.208377217583814826e-03
1.950630982455614330e-03
6.971575401510652671e-03
6.953738205185847586e-03
6.025163012071873062e-03
-7.765687029188048096e-03
2.541881437301005912e-03
4.089818535189643743e-04
-3.860961942034920550e-03
3.744572453319502427e-03
2.467144070455046852e-03
3.340585794622989886e-03
-1.760565410606872898e-03
-5.373444028813163451e-04
-6.415925655481167014e-03
8.930400851138336690e-03
-9.886226575185843093e-03
4.458626489652760434e-03
7.155738076371342439e-03
4.365039580963949069e-03
-2.796559998364074790e-04
-7.717499334698777434e-04
-3.604803131334113030e-03
7.842734922348673643e-03
-9.188593553477803627e-03
9.227844025643543516e-03
4.314355048393237954e-03
7.025300628364142784e-03
1.643630416359606605e-03
2.914580239970529507e-03
8.781399305524500293e-03
6.994684106040862867e-03
-7.071845367027428629e-03
-8.641924771162563107e-03
5.173917476030397491e-03
1.652904170782657943e-03
1.303099207384811851e-03
-6.275177018716919346e-03
9.540223155826227375e-03
-1.674387444667077519e-03
-2.111330002026203662e-03
8.722584531941589975e-03
3.082303148305965811e-03
1.954636356756425664e-03
-9.590980835477195057e-03
-2.089765627253014658e-03
-4.929876419725882225e-03
3.979733806989891633e-03
-2.330039951107960514e-03
-9.130618608709110962e-03
7.079594616416716099e-03
-6.960044301552366711e-03
-9.892028586584640862e-03
-3.406498683864307622e-03
4.517607480666600145e-03
6.231089563996201723e-03
6.641055138537414922e-03
-1.559430247921397708e-03
-2.349285274593155073e-03
3.250807076087050811e-03
-8.473312622011482456e-03
4.306151692291416283e-03
1.738943972533888663e-03
-1.454535890515241264e-03
-2.480157334353981849e-02
1.622728283148030561e-03
-6.088198305219395291e-03
6.569267957285603379e-03
8.169895533428259832e-03
-2.159253990731299817e-03
5.377615654380236282e-03
1.327050103170813230e-03
-6.684961061873894578e-03
8.389404702396460051e-03
-2.349116144494494112e-03
-3.082778067981727446e-03
-8.820574496861653679e-03
-5.470185839750727093e-03
-7.010119439802074519e-03
7.238294206789022689e-03
-7.368335321414644194e-03
-8.845169160177428561e-03
-2.680735960261706585e-03
-3.947753268140765694e-03
-5.860291133627472046e-03
-8.981190266713501985e-03
4.136143437736992598e-03
-2.030305024495357609e-03
-9.125692421210744587e-03
-8.192657046675034388e-03
7.228630168049960877e-03
-4.096124271872208372e-03
6.251228144366049663e-03
8.937194059815845720e-03
6.442627617535366842e-03
9.273808459364577331e-03
-8.596680148274624556e-04
-9.059879900743002604e-03
8.059573748749606151e-03
9.888238420677816082e-03
-1.602943340942866073e-03
7.516803449211072706e-03
-6.553603738889254328e-03
-5.747286579218253109e-03
9.562489894163516205e-03
-1.420193152173919232e-03
-6.158382277798139966e-03
-8.705581557828020317e-03
7.171947532532430176e-03
8.148589954736190633e-03
-8.791408050436610305e-03
6.314183865674834889e-03
-3.707828726295927732e-04
-8.658942816573867319e-04
9.042960607235583925e-03
1.033494976143157010e-03
-3.025521408279793637e-04
3.583795002733555866e-03
8.998782158767537620e-03
-1.884567059465316321e-03
-8.955164791165756005e-03
1.489263859021325997e-05
-1.933528572466199124e-03
-3.221891469760867956e-03
-5.314050377765383928e-03
-8.252569483912647330e-03
9.072570314119119891e-03
4.224499471766509154e-03
8.941444760375319781e-03
-7.881394803537094401e-03
-2.582951934497710982e-03
-6.526610118535144771e-03
-7.032344997048712958e-03
7.449437252315095626e-03
5.598690463012103184e-05
1.071080764588798126e-02
-5.992295106175989788e-03
1.769353317087767269e-03
7.033999959613692309e-03
5.108533647214879951e-03
8.702014081848771787e-03
1.703823689729127688e-03
-7.567593971509955879e-03
8.216289483461172022e-03
3.659133370292120928e-03
-4.042789074201879641e-03
-2.406438274128774694e-03
-3.157827489184133508e-03
8.757039163816494540e-03
-3.143141718942737712e-03
3.110542745881649841e-03
8.779712240305491064e-03
5.592740268461219091e-03
-3.773798733896898414e-04
2.339109231725034800e-03
-9.953550997575690701e-03
-2.808992442511078734e-03
9.396383622155012744e-03
-6.591126721151537027e-03
-9.146972456336208146e-03
-4.578930591399106922e-03
-6.504124524791238260e-03
-7.900321951994143319e-03
5.000078596344355655e-03
3.916334591358605795e-03
9.808627165566163528e-03
-8.118967477051033596e-03
-1.206859291878559920e-02
-8.019110641925666135e-04
8.768108758762669167e-04
-9.089821418701364911e-03
5.608356510550042452e-03
3.612989474945570330e-03
5.826737985222557419e-03
7.583795916175234582e-03
-3.474930543923894846e-03
5.756603741223223318e-03
-3.750627616469183294e-03
-4.853517746289175323e-03
5.620338267449920613e-03
-7.388897270255640956e-03
5.950449476307027689e-03
-1.254021006822262935e-03
4.533957957535501328e-03
-9.496089821661278171e-03
5.006153701952332363e-03
-4.839529944133262422e-03
-4.959026563601417331e-03
-2.007391134400804151e-03
4.650448901604101876e-03
-2.168457762228134713e-03
-1.259966679527670845e-03
-9.622828409486460736e-04
9.126347162754727487e-05
7.910581752091696076e-03
1.137091898111268961e-03
-6.090454975667419606e-03
4.002578831236932276e-03
6.706505372676357414e-03
7.518714051092753202e-04
-1.080898652570289054e-02
6.718520081087564141e-03
8.897255970083558368e-03
8.381316174884320333e-03
1.014708883583954066e-03
-2.792659286169359763e-03
-4.801392120231415782e-03
7.958283533049895914e-03
6.284424229766051280e-04
-2.033966762561491986e-04
-2.100480182860509342e-03
3.596657082646069307e-03
7.460704697783129315e-03
-4.590403688268766477e-03
5.461397223827988041e-03
-6.894835908719650942e-03
2.251304457113207508e-02
1.240170451973078396e-04
-3.973741616299494329e-03
3.741975195329308532e-03
6.071415484207340167e-03
-1.033649222559654933e-03
-2.393370811661439581e-03
-4.187246444645637521e-03
-7.246110314609232814e-03
2.430590826765682225e-03
6.921720266512026119e-03
-8.218128495521127494e-03
-2.623986812987759605e-03
-7.476750179848494493e-03
-9.130250749309339747e-03
-4.717359356413457412e-04
5.514170560528155671e-03
7.366183933313551549e-03
-6.165153235773795926e-03
7.315217270239049614e-03
7.747416058588100542e-03
-3.080138130862315835e-03
-2.444888136932239081e-03
9.580818534268932540e-03
-5.519578887295895422e-03
-3.160495371813242123e-04
2.111136183671982140e-03
7.584804543515744242e-03
-7.609643990826342116e-03
-6.458180446695674370e-03
6.801351292424708331e-03
4.924622903112998475e-03
9.533763029276757020e-04
-1.627565359410639793e-03
5.987135069326319191e-03
-4.362207322579599207e-03
-9.754757030837404863e-03
-8.565400074280799317e-03
1.268860953188297690e-02
-2.154326553649672359e-03
4.384982926977081842e-03
-5.761187424578578103e-03
-5.301977336948913468e-03
-2.009258097760545196e-03
-8.313403129659401730e-03
-1.286101000276756697e-03
4.338917400995764666e-03
-1.829185923636451492e-03
-6.897749977446714607e-03
1.265886379741286731e-03
-6.928325041907172112e-03
3.162265432459281100e-03
7.886285928587250318e-03
-1.242344486676341415e-03
5.315841434237312743e-03
2.485758997107811921e-03
-1.500236157889778786e-03
-6.186127586867538539e-03
-1.681889802976302070e-02
7.385284206428117428e-03
7.853494114764667314e-03
2.288980157161683328e-03
-5.216429373366037597e-03
-6.816932889733225837e-03
-8.998495649022204704e-04
5.086779874083068552e-03
-7.496898483441305321e-03
-3.832408648893832585e-03
-5.346989731282334943e-04
8.213296441244161139e-03
-7.063528788924430465e-03
4.337648219836735992e-03
7.169973756424965258e-04
4.053663259078865017e-03
-6.099948444644025594e-03
1.876809844305023147e-03
5.611185259070825861e-03
-8.649354648760551297e-04
-6.989160982511066766e-03
-5.384579403117940519e-03
4.690144956685576502e-03
8.068999196364385132e-03
9.352840018951241252e-04
4.116836412267716946e-03
-1.552290179161459546e-03
-4.043986365978680803e-03
8.252634996202389689e-04
1.762614800429120141e-03
9.496885544766794224e-03
-3.629930061249217899e-03
5.104434134418459577e-03
-1.204214328631800918e-02
5.460620470403979021e-03
-7.904393028539952529e-03
-6.149220110384383438e-03
-7.770699258288851080e-03
7.768833595131313316e-03
2.626261116647800320e-03
2.944193491833418290e-04
9.881713519334662382e-03
3.742419739684690536e-03
-2.648127053507862540e-04
-5.537833391488480340e-03
-6.289949870000990928e-03
7.253931244175431531e-03
-4.339101245479762975e-03
4.005894892128731427e-03
2.766219443550041630e-03
-8.920393990279893229e-03
-6.486838716035212872e-03
8.859861020085837632e-03
-2.895495849917540526e-03
-5.110887338771999758e-03
8.956613290467882807e-03
-2.004078510405090177e-02
2.147934844950674747e-03
6.620273333273050086e-03
-5.486992740067421406e-04
5.456556018557305425e-03
7.534346771830351293e-03
3.806895096741736394e-03
1.121072130130675850e-03
9.434342852730677811e-03
-4.970432792233424150e-03
-4.037571566643912563e-03
1.315257753080085286e-03
3.254025336121665240e-04
1.128625848927472877e-03
-4.606159118220366083e-03
2.805872561189557118e-03
-1.902259916811758567e-03
4.008628391309612508e-03
-7.920246674596471276e-03
-4.114794478009030539e-03
-4.749686622088105563e-05
-9.460920929107205501e-03
2.816367387428880278e-04
9.897313908567845556e-03
9.214878303064111265e-03
1.693555561528730215e-03
-1.826430265940871085e-03
-6.446681041032688644e-03
-6.200431703155429020e-03
1.146310442255416527e-02
4.015809944995812897e-03
-1.088223381634670622e-03
1.553197665170234516e-03
-3.579811979947558447e-03
-3.479856132770196234e-03
4.227220282035509813e-03
-7.367717676584202048e-03
-2.555595339595581172e-03
4.322840925135182865e-04
8.503962532309604708e-03
-4.137116751520534749e-03
-7.157022017275877640e-03
-2.567024867123014666e-03
9.969185934922412257e-03
4.372291389565891202e-03
-6.412145508340269355e-03
7.241693010409082018e-03
-2.148439185292842953e-03
-1.505468770843492593e-03
2.701345761512949882e-03
-3.434610681191062158e-03
2.794320413140342126e-03
8.009450802937429642e-03
9.852624222079931632e-03
-2.346078553417349846e-03
-6.614056011982336059e-02
9.521469537640407307e-03
4.672340258579198505e-03
-2.822209264851974989e-03
7.972235533671904670e-03
-9.157591703395185495e-03
7.277320021943185432e-03
-2.530426975850834826e-04
-4.632831881051140480e-04
-3.194258773607672013e-03
-8.488216481825379758e-03
-9.197550323185054756e-04
-5.794811910191270850e-03
9.721309212544682402e-03
4.138431437183257185e-03
1.283719493292595493e-02
-6.086064500541203508e-03
4.665742138997814627e-03
9.894125635021878973e-03
-1.762034051680068641e-03
-7.108003994106124566e-03
-3.346803588323460886e-03
2.963437384875164914e-03
7.099899547471744815e-03
-1.264463231346938180e-02
-6.902373551298155406e-03
-6.547447091409833338e-03
-1.933548871914734200e-03
8.997757622554699089e-03
5.704133855035011663e-03
7.211330322994953870e-03
-6.206841120563115315e-03
-6.387791818828542599e-03
-9.076818586719291593e-03
2.280193739047555162e-03
6.924117300503987611e-03
-4.608082679968194921e-03
-3.200300380692683213e-03
-1.100034871845268804e-02
1.621140942988840089e-04
2.888880505160245585e-03
-8.885737126860287355e-03
7.449573577308215254e-03
-2.950510101777214633e-03
1.781777991998302309e-03
7.100129463912958341e-04
-7.024658549612835742e-03
-5.624168979516255135e-03
2.180394134261141696e-03
-2.568634451619502840e-03
-7.743387687621517681e-04
5.406487262095249768e-03
5.811202225204595978e-03
9.505817891761733423e-04
-7.977774729193741823e-03
-1.071809378379193212e-02
-1.243039599581146270e-03
-4.155295603137407028e-03
8.313822872375268170e-04
-1.313505959804181847e-03
5.595905939836005004e-03
4.570696203817086432e-03
-2.782817479246420690e-03
5.668126040407417757e-03
5.408048576426439068e-03
-8.559942994084379989e-03
-4.630458040353290644e-03
5.525198915247764991e-03
-8.179733289278229638e-03
7.687347272589577403e-03
-3.054162254298720125e-03
4.682358706235326476e-03
-2.919019812818329264e-03
-5.501875739862711065e-04
7.961677896557496983e-03
-6.735267888905724712e-04
-7.331998877825796589e-03
9.165200144857416076e-03
-4.109400518483630194e-03
2.849725037169754472e-05
-2.722076770500492758e-03
-9.159794891475682085e-03
-5.659552645282110717e-03
-8.123915006058822497e-03
-2.299725718161965086e-03
1.502782130471148891e-03
7.645430344677024703e-03
5.304061587751406244e-03
-1.124632160585007940e-03
3.800576491938931819e-03
2.780909263161857135e-03
-5.769654462614661784e-04
-8.440188907783944747e-03
8.227210218944569498e-03
-1.904284396414012738e-03
1.350586520745790864e-03
-1.364080318284420458e-03
4.851829090100431667e-03
9.632433109385161660e-03
-3.577298885399811108e-04
4.714436659943877124e-03
-8.045960035540394850e-03
-1.849217455025510331e-03
-9.343494087159493963e-03
-5.544176367901847494e-03
3.216836437852957278e-03
3.312028693169947503e-03
9.979522777710702480e-03
-7.807293121283543301e-05
1.705548070973073645e-03
9.526577505155984366e-03
-2.342505219153651324e-03
1.927174491170211348e-02
6.669643299900279362e-03
-2.622174720463748242e-03
-8.223836331490900695e-03
-3.180210559777401670e-03
-6.444447988719502387e-04
-4.296579273736320662e-05
1.615872372374276130e-03
1.245270595720945721e-02
1.651476104002196858e-03
-6.464512033607615338e-03
-2.550726044940767375e-03
-1.717263285592139036e-03
-9.944252266254428874e-03
8.344924590353903007e-03
-2.798612852414331630e-03
4.186616574678002226e-04
-5.791327807635046274e-03
1.007588771777737958e-02
-7.156197368391430634e-03
6.682987676743057034e-03
4.449927639670777507e-03
7.855208079963864332e-03
-6.625214534176395755e-03
8.541619792243950208e-04
8.886919050354797386e-05
-4.394224629429578297e-03
-2.327584347760042714e-03
-5.704544719514532784e-03
-8.413076745416074587e-03
7.186723065187460360e-03
-5.814753608563338373e-03
-6.146487241858908726e-03
3.583839777980908983e-03
-2.841931985191537089e-03
-1.714277270075303863e-04
7.841734127700603074e-03
-1.389307311116243660e-03
-7.965587497853703460e-04
2.309247055952742822e-03
-9.664640799286264294e-03
-1.204742536788444389e-03
1.835577524674554192e-02
-1.696191309859117419e-03
4.497628634436643888e-03
9.239369275009803872e-03
-7.629275904922162843e-03
4.519071081203419361e-03
-8.286639911743273051e-03
-5.268882801676757870e-03
3.668071348398688116e-03
2.864573648110357081e-03
-4.940457034782991252e-03
-3.354065874515359258e-03
-9.247932237400745270e-03
9.963191957975982976e-03
4.749521685464024555e-03
8.841699095888275141e-04
5.443641945470066752e-03
-1.307696445234559843e-02
-5.534221107727331154e-03
1.560702137866389278e-03
-3.501919746239566273e-03
-1.224015877323083711e-03
6.025391808435943790e-03
5.127026035429771769e-03
-7.141254693165624383e-03
-9.248930359086702038e-03
-4.496991371466212487e-03
5.777610400364192184e-03
1.935242360458285828e-03
-1.019281686213607124e-02
8.792405803016618143e-03
8.954800671306042611e-03
7.128515417159086119e-03
-1.495097966418517613e-03
4.654200381963347934e-03
-9.341652423293810362e-03
-2.201068408402863212e-03
-4.894656379556073036e-03
-9.843402018833767673e-04
-2.393777765481214584e-03
-4.057268978586064988e-04
7.710983732162116772e-03
-6.411641455187918649e-03
-8.393007677217064616e-03
7.030846490844635220e-03
9.723876108851714538e-04
-6.926797706542321340e-03
8.904894155250550267e-03
8.195672199181634060e-03
3.890953013801207519e-03
-9.659836510961621742e-03
5.965031651814335124e-03
-2.716205184904878916e-03
7.822462643245427921e-03
3.117265448861038755e-03
-1.288436180485358004e-03
5.813836735247654604e-03
-5.322452360680423981e-03
-5.314295073671316573e-03
3.739782573677586427e-03
-9.415161935172278174e-03
-8.887608573086685712e-03
-1.068999661484264447e-03
5.111195109699026573e-03
-2.159688809546058547e-03
2.322730746293782261e-03
-8.114211236641832511e-03
5.241455868505811438e-03
-5.000886936577786639e-04
-8.560260603270556864e-03
-8.875813114807642318e-03
-6.646894730369073793e-03
-5.025835623011337162e-03
7.596802249916947969e-03
-9.439892815005283822e-03
7.452854979485795499e-03
-6.444353751028397345e-03
6.322725429906524077e-05
2.828266088424467471e-04
-6.400956155204724253e-03
-3.714359814150477914e-03
7.061245589724742412e-04
-5.166088135893374782e-03
-2.521428879298455699e-03
4.669262635203449280e-03
9.893712902097849798e-04
-3.581980674132544725e-03
-7.402444048214516792e-03
1.042629446660318059e-02
-9.715999143326025864e-03
8.221981109336551699e-03
-5.500585339168325046e-03
5.140347028012646861e-03
-7.159948255180417775e-03
6.431787432981511329e-03
8.973988649280487465e-03
-3.624337022260245428e-02
3.291639339533896616e-04
-8.193730642709911097e-03
6.790814066021734138e-03
8.295078520318745555e-03
2.994161227296619852e-04
5.840754028686848988e-03
-8.155515239642615113e-03
-6.304085636849973001e-03
2.739731232722433362e-03
3.140630133089585517e-03
-5.343755387263303402e-03
-1.508338192097206541e-03
-7.713130323979628723e-05
9.119298251552306403e-03
4.340381562862642706e-03
1.141363874050626594e-02
9.584502678405840137e-03
-7.971288169353663022e-03
5.465997000426566985e-03
-1.465543935701712000e-03
-2.888238557140277926e-03
-5.133992206924906446e-03
-9.256620528065020656e-03
3.284062317855130156e-03
6.146916769943019596e-03
-7.701450029119608943e-03
1.341223896933214444e-03
-5.475700598999695343e-03
-7.111057410171471929e-03
9.506440805010394832e-03
-1.133028862189393131e-02
-4.970446605064020480e-04
3.090350498352836383e-03
2.956182172639339797e-03
5.794142740264444751e-03
-4.255637951848723587e-03
-5.774102057150170587e-03
9.235641282415000403e-03
-2.105914118189276471e-03
1.931740388525593575e-03
-6.018794627317108036e-03
6.635655391500788237e-03
-8.648249993045526232e-03
5.312325416863617963e-03
4.147183430955946742e-03
-4.884365222512319221e-03
-9.502947655589705223e-03
5.353092322135832165e-03
-2.953147185431844943e-03
5.448125748837569921e-03
3.736935623177855929e-03
7.007973282180087263e-03
-3.380412100488629310e-03
5.827308241603905946e-03
-9.490944525059934189e-03
-9.045106686567470217e-03
-1.371638410744231706e-03
-4.761897215551202933e-03
1.863369608432870195e-02
4.490450855465400772e-03
7.096681115905060372e-03
3.716089582539046626e-03
-4.672599393270812987e-03
-4.212983565722179177e-03
-9.148205537183351152e-03
9.773513793241541195e-03
9.878364620683345587e-03
1.557335964261194949e-03
4.322007710652196050e-03
-1.854478833229678296e-03
3.881492629110727330e-03
-9.467785199297768656e-03
8.921504618798386035e-03
9.544831314726137661e-03
-8.064607521742761520e-03
4.100116615369812402e-03
-1.587934975351222794e-03
8.216641128930805490e-03
-3.865323739145050223e-03
7.416183374623807473e-03
-1.909281398246723445e-03
-3.098342915230779099e-04
5.585790410238916821e-03
-6.041243567019571013e-03
-9.804527546477396702e-03
7.337911082894170607e-03
-7.498799613567039626e-03
-1.763892436274452219e-02
2.233885766897125789e-03
8.301751977418713249e-03
-4.737466673595991558e-03
-7.504308093213668020e-03
-4.221522931905243199e-03
-9.545732294757032499e-03
-7.278004611533475145e-03
-8.202010686210505983e-03
5.575014755299991485e-03
1.123575310208531526e-02
4.616494890541932364e-03
-3.889011907543510772e-03
-8.949226401133032402e-03
-5.377105024857168486e-03
-2.587187289515592830e-03
7.678046254444351008e-03
1.678146194201816238e-03
-9.511084772914086410e-03
8.970511600056577583e-04
-8.796569728024918738e-03
5.671263498473045998e-04
-7.934023670040292898e-04
2.630951163037421100e-03
-8.202073432188794130e-03
-8.572661408686534784e-03
6.642927907936926023e-03
-6.307452153803415167e-03
4.587965171890665168e-03
1.698372238925039551e-03
-5.648929932831105345e-03
5.773310599041646396e-03
-2.534816611416287023e-04
-2.026937650190593996e-03
8.322869054477850066e-04
-6.404029572836891955e-03
6.682841521386479258e-03
-9.727308638505365382e-03
3.785655296341016145e-03
4.136613047935174849e-03
9.779010232296907277e-04
-7.942193711776259629e-03
2.245519132539045351e-03
6.733200018496612177e-03
7.705200334473992496e-03
-7.374508849783774703e-03
-8.694614591918300647e-03
3.602182175529388981e-03
-5.291186692050642293e-03
-6.820836100715811819e-03
2.780852936065451603e-03
4.286282529427062719e-03
9.505573406674485554e-03
-1.938930128328225817e-03
5.022524309801929335e-03
-2.576963812813716764e-04
1.492977440119553495e-02
-8.738207717380323120e-03
-7.302199818208532931e-04
1.208430870470355223e-03
7.895843196879338832e-03
-1.660782861923615133e-03
1.624760910846232472e-03
1.003474268508342156e-02
1.591028384569787664e-03
-3.554614749427896254e-03
8.021817766885196502e-03
7.475698891308884576e-03
5.947950207421894356e-03
6.074856656678844988e-03
-3.220956763858032136e-04
-4.577956799624706072e-03
8.617932812961947783e-03
-6.706144138592537440e-03
-9.188698035592095595e-03
-2.362759243289386767e-03
-9.042050344381104623e-03
1.277093805098515394e-03
4.450382583876732676e-03
-4.572124445306735389e-03
-1.437531173648366007e-03
-6.093933294224463098e-04
-9.087714137642333503e-03
6.200872537504996743e-03
7.907038835932331949e-03
4.951894994728653701e-03
-3.369664411758529696e-03
-4.261990274949028178e-03
-4.257796766932483989e-03
-3.821454016828170538e-03
-8.853534816823724687e-03
3.496228612889552140e-03
8.221439424228104776e-04
-1.174116318207798441e-03
7.515914454430992243e-03
-7.123377715920488004e-03
9.794397906997860323e-03
-1.165916285766488425e-02
-7.128037060649617535e-03
-2.641766274285767963e-03
-4.009562624637056857e-03
-6.270027428353134279e-03
9.837754017556666827e-03
2.812820844213622783e-03
-5.005944116487842828e-03
-2.463357658306574403e-03
1.239447173594240186e-03
-1.003315344613410834e-02
8.225240840311801027e-03
-3.754837415968159675e-03
-2.563638971304959234e-03
4.659736795128310675e-03
5.499464857255860831e-03
-1.425879497070515079e-03
4.072754570029270792e-03
-2.093956041053311474e-03
5.753025210861556667e-03
-6.886308651739443502e-03
-1.021245333317294390e-02
1.008580542875380306e-02
-4.809132680335105776e-03
5.575024807596117189e-03
3.230262339938239254e-03
-2.885905227839707411e-03
9.007265691198636931e-03
9.427320579565943298e-03
6.588620598205145902e-03
4.711442345450447908e-04
4.721631850727915636e-03
-4.824399082076136734e-03
3.176020508521852116e-03
-5.280251099863604060e-03
3.200764817812039916e-03
-2.449084657168614908e-03
-4.285823026984394123e-03
-5.583207692890111359e-03
-2.290579483299623464e-03
4.253460875304907254e-03
-7.736117783416727144e-03
9.826374890000913812e-03
-6.620823281781693971e-03
8.999512702191213472e-04
-3.718654789004543181e-03
8.487880506955973459e-03
-5.605989526025761602e-03
8.972864027827123085e-03
3.178783095335276261e-03
-8.302444245318457141e-04
2.757461812130747314e-03
-5.407983463982827740e-03
-3.926649037604591254e-03
2.060086606980352300e-03
-6.333041363817373121e-03
2.714958707758409343e-04
-7.590013149628105533e-03
2.911333032782791996e-03
-5.471094003173614280e-03
-5.426901375424250315e-03
-3.246023511721642715e-03
8.628754778696241801e-03
-4.600038360725426830e-03
6.339470598453734312e-03
5.069557926516576711e-03
4.885599316535306665e-03
-9.689172245597566608e-04
-9.534598512993174230e-04
8.310290969264113106e-03
3.977273502738017260e-05
-6.095898451200673814e-03
-8.877593652217604173e-03
-6.488585469539670872e-03
-1.586559884188865109e-03
2.376038796213472779e-03
-3.287047151026869802e-03
4.286983691110246575e-03
-8.776004223916600983e-03
-4.711845676296085202e-03
-4.296230842140358157e-03
-6.131810667151847347e-03
-9.684298417944542728e-03
9.641583677012030215e-03
9.019708976759214722e-03
-2.924429917032961811e-03
-4.637941539636138318e-03
1.743930907404564771e-03
8.604648644797199472e-03
2.895105332705447208e-03
-7.196325428802269678e-03
-4.782110843215244163e-03
-1.748134640073460526e-03
-4.037019239779727521e-03
7.648271338740043716e-03
4.361525984678702936e-03
-2.707510695031944427e-04
-3.313527654406781941e-03
3.236554501857169096e-03
1.409109965483003736e-04
-2.390159356225329389e-03
5.114322088619584032e-03
-5.349179572351656434e-03
-7.456264451227843926e-03
8.076766537161465462e-03
4.400423122069769752e-03
-1.746420643743829774e-03
-4.858755268990074330e-03
-6.178833412201700619e-03
8.991804340610106902e-03
-7.841717602827947067e-03
9.322842614760394955e-03
-4.417007422029583727e-03
8.774327691085766906e-03
9.402086762268040826e-03
1.572240414012466810e-03
5.546520529259514783e-03
-6.545115873706391744e-03
7.878717504898933785e-03
-9.666580755747422246e-03
2.809499720388473724e-03
1.050255404782229202e-02
6.137501100201714181e-03
-6.883842076142549990e-03
-2.805072522295155510e-03
-9.730535949686831354e-05
-5.261252194359532057e-03
1.742801371080876516e-03
-7.931136832935075168e-03
1.129991747570684938e-03
-9.259477561254319394e-03
-2.313366098356998187e-03
1.931489330326746417e-04
6.642936986547319858e-03
-9.757555287130459387e-03
6.513764348038136517e-03
3.612460578214737004e-03
1.679507391314963294e-03
-3.951987201681262524e-03
-1.784991940135495806e-03
-9.293920344865867419e-03
3.015814827324885591e-03
-3.100340592137135805e-03
-2.063740630907440546e-03
-5.691375673474514041e-04
-9.218760432676319574e-03
5.641813463731885653e-04
-9.849475947626525757e-03
-5.760758941180768242e-03
7.578249988924495688e-03
-2.472529087602847397e-04
3.802847754485507749e-03
-2.718358300154238524e-04
6.855861245122780133e-03
4.384465549227418470e-03
4.445602488081796221e-03
-5.387448952177328063e-04
4.094951937662738572e-03
9.493904574469939558e-03
1.980184644062632938e-03
-3.187184352404211739e-03
-9.815810270654783641e-04
-7.117963570364565194e-03
5.651491761103640855e-03
-2.837070209768848689e-03
2.859640440942629730e-03
-1.857582404424637642e-03
-9.467445617864814547e-03
-9.547523693942414416e-03
-1.045454402267431519e-03
4.500463304990568944e-03
-4.693480540802667279e-03
7.831656074867030318e-03
-7.867998230394553441e-03
-2.107542908764310340e-03
2.586827614856148944e-03
-4.957350472787085864e-04
4.470242685101680387e-03
-9.925681182118301776e-03
-2.038842610140148386e-03
-8.190858813856198226e-03
6.620664638538281341e-03
-7.914828267603712247e-03
-9.126999866302087580e-03
4.271565787693403296e-03
2.786924960281614728e-03
1.233550123916212805e-02
-7.003384852998784972e-03
-2.075820348633153085e-03
5.194235441274414750e-03
4.743454372860930746e-03
9.860054546926970767e-03
-8.406026832207246294e-03
-6.955395145085954169e-03
6.341862611668336834e-03
6.527813910084548886e-03
-9.929144380910484569e-03
-7.335352728854927645e-03
1.919612468770057721e-03
1.010403522041431953e-02
-5.922803332046462296e-03
-4.285360473968072466e-03
9.399185713404464848e-03
-5.788700138276214185e-03
-5.501162103771222930e-03
-1.173903140672295960e-02
6.712538162521065714e-03
-2.147881587361134912e-03
3.890136843284610745e-03
-8.345235958544756916e-03
-1.838144205526757308e-02
-8.688607501010143412e-04
-7.082127758652421827e-03
-3.025100350041851592e-03
3.950640844394203918e-03
5.564378555421650545e-03
4.451987939356597847e-03
9.105470196110829889e-03
1.915726231578072447e-04
2.701516311516900543e-03
4.251853389216483578e-03
5.720460809960736630e-03
2.005952864041956989e-03
2.068318306558683886e-02
7.919297873046531391e-03
3.306355063862927938e-03
-2.303831297411893832e-03
4.888631452374242285e-03
8.172835735207654995e-03
-2.835741187759287414e-03
-7.233199705939368646e-03
-6.240095349907037563e-03
8.143678512921874793e-03
-7.853454366317841676e-03
-3.640824699551188648e-03
6.494948294847915568e-03
-5.440033685357215792e-03
4.108095441040949397e-03
3.715181834581825215e-03
8.215692519518627904e-03
-6.679096639017665857e-03
3.378488342050753844e-03
-4.915309861017715110e-03
-6.109300883760823003e-03
-9.588041977641195701e-03
1.724413073469774045e-03
1.237976913304927136e-03
7.762630280233082797e-03
-9.763238030310001508e-03
-2.865005641318308684e-03
2.967593600573708527e-03
-5.021722923983656245e-03
-8.507716340831292245e-03
-6.003456243047802267e-03
-3.999853126544732421e-03
1.776861798635799225e-03
1.088596786280675169e-03
6.040134471439058753e-03
-3.591902936646855678e-03
-7.752857069737145029e-04
-4.183586413020472412e-03
6.819115736394458158e-03
4.700663932479053064e-03
-9.139699131816433897e-03
7.057392911875654852e-03
7.704322168691603648e-03
-4.820496742670670257e-03
-8.963729851546363078e-03
-1.370460589688247662e-04
-4.084742557917777663e-03
-9.160635127033554120e-03
-3.361990165655328244e-04
-1.628687179910962241e-04
3.019589833782412511e-03
3.130126328949505658e-03
-4.851076953081728295e-03
7.704666828445455237e-03
-5.504392430100851514e-04
4.592403145355634757e-03
1.733438914719999629e-04
2.125121900720056481e-04
8.085732109483496910e-03
7.395971702794280553e-03
2.374208751156201957e-03
5.214436674625220515e-03
5.739660926405093858e-03
-1.002062666713017351e-02
5.818356555771876659e-03
-6.991403881131530570e-04
6.312016607782894480e-03
-2.219530012503551954e-03
3.186800052392260284e-03
6.599319878876228930e-03
5.342039595775095739e-03
-8.029843558746026927e-03
-6.427437574505816438e-03
-5.364795040174365898e-03
-6.624592934394087605e-03
-7.993394829121531217e-04
5.808821991539123847e-03
-2.812332350202429842e-03
1.445467175358479232e-03
7.329621369417426043e-03
1.045625811530432638e-02
-5.464612688262903903e-03
6.907662514670702067e-03
-6.325948287894554191e-03
-6.787877420083346901e-03
-5.104852941348711655e-03
-2.183341870409638997e-03
-3.968604291861924961e-03
5.048975351142067497e-03
-4.972398248983906678e-03
5.861192312856697458e-03
-7.889208507087007785e-03
-7.454725544972048111e-03
-2.861139955461159258e-04
-9.181244300044629630e-03
8.539561710298019387e-03
-9.863910552806097812e-03
-1.677735144937834814e-04
-8.870754907885318799e-03
-2.652325979436791301e-03
1.168456358820267995e-03
1.568330131424000530e-03
9.490903781546860402e-04
3.923895483941163345e-03
-5.267305764169396935e-03
-3.184054522614481169e-03
6.135005973496217464e-03
4.663549710681036929e-03
1.069978436658237594e-02
3.257435258990926293e-03
-6.656512280181294677e-03
4.565886071168328078e-03
5.492813506074674390e-03
3.890907081877189796e-03
9.678764391453821905e-03
8.772391021653038129e-04
-1.247545618057836975e-03
3.384017481245918998e-03
-4.161847941488634761e-04
-9.016660941203119908e-03
-1.175750257546849878e-03
8.930995920819992037e-03
-9.051462177584795529e-03
-7.720031063309116225e-03
-2.244801091009093318e-03
-5.962050240850782015e-03
9.919699231098630388e-03
-1.595692172587558078e-03
3.478206119070023986e-03
4.912782479715579846e-03
-2.436780275463484424e-03
-5.762246494958000315e-03
8.486192929177094682e-03
-2.665943651869455595e-03
5.211301519803579300e-03
-2.872968548749946140e-04
4.474141100027399613e-03
5.998936417737204055e-03
-3.776227802219431998e-03
-6.786599498903871271e-03
-6.097947528248024796e-04
-6.320211504534147158e-03
3.462624303610484602e-04
4.405887619578534135e-03
-1.245849669265308712e-02
-3.165108170529296223e-03
-7.868915488083412860e-04
-3.230223473194739851e-03
6.320194534487847543e-03
-2.666095076129486666e-03
-7.592151262514555340e-03
-2.046099986632875234e-03
-6.041576072937052122e-03
-2.698890396173729035e-03
9.724110036559244566e-03
-3.353281540316767513e-03
-5.650073459262882312e-03
8.381261086182709499e-03
-3.213134373318552155e-03
-4.529816361841963387e-03
2.544895001926379338e-03
-8.468985115771413344e-03
-9.508223322281520590e-03
4.936642167934645990e-03
-2.610307814952137536e-03
-4.507859402792216592e-03
-1.325397173681976430e-03
9.008404779175053709e-03
5.530270784304952905e-03
5.628490865730891371e-03
-5.772124483949609558e-03
-7.404588266290847804e-04
8.879405509703860002e-04
6.993355549278509539e-03
8.729797841750614601e-03
7.921684050934435506e-03
7.601732031369524099e-03
-2.808347176592077433e-03
-1.050975219883248111e-03
-8.386901717613361520e-03
4.902348790629212222e-03
-1.125671904769936832e-04
-4.779026717512077117e-03
8.150979420624650598e-03
6.942269974093669485e-03
4.137145831993483715e-03
-8.071644518214744768e-03
-5.492036850078227048e-03
-9.435161154798640121e-03
3.101106592973229721e-03
-7.382079219106265841e-03
8.074449973267472727e-03
-9.011794325205640249e-03
-3.978162777291601240e-03
-6.288213921440071776e-03
-3.984184325374603118e-03
-7.819193882353980135e-03
-5.075635060374126054e-03
-6.309779471632976332e-03
5.753959123870895642e-03
6.217143969113963185e-03
-6.118925464860392035e-05
-7.768213913739162617e-04
6.070751485195449021e-03
5.512317297605965103e-05
4.309757205894407424e-03
-3.566154238222420721e-03
-5.408090749695215575e-03
-3.601237927846155998e-03
-2.872805610450804032e-03
-5.403377575200121047e-03
-5.987963600462252629e-03
-6.262199011019027248e-03
-1.417516582011936217e-03
6.509288504415046417e-03
-9.198871770458945732e-03
-9.782823312597205279e-02
1.361683070948679257e-03
-8.652003142361058829e-03
1.000827368152082744e-02
8.207612773209858534e-03
4.810624927626275596e-03
3.775493483699491259e-04
3.373254658327435544e-03
2.613643774989092994e-03
-6.810357165721680692e-03
-7.634965444281971089e-03
6.221253684650194550e-03
-1.251221567252420314e-02
1.346220736082097370e-03
-6.612596506121919647e-03
4.192758569024868445e-03
2.983244101244031735e-03
2.482805278153011296e-03
-1.062026818480623540e-03
1.387053937249790869e-03
-4.713083442940265051e-03
3.179974739837884007e-03
-9.322684223304154166e-03
2.222570636824496015e-03
7.861154829772754385e-03
2.672879170846948534e-03
4.673015227911975732e-03
-2.596539545287393502e-03
-9.127115216579221452e-03
4.720859127894540437e-03
8.899483775369554719e-03
-1.712142653310092053e-03
-1.259826510480985306e-03
1.846175223764055101e-02
-2.659882036171839961e-03
-4.410249446445260735e-03
-9.688575903241230776e-04
-6.550480373647398630e-04
-5.956279153824788931e-03
-8.871305186691241795e-03
-8.714248309676158807e-03
-2.320927731535483637e-03
-9.100577555220637146e-03
3.050442286054775784e-03
4.629483728570329276e-03
-9.389095554468209273e-03
-7.728113129622602578e-03
-8.825803455903388078e-03
1.991881275889715187e-03
7.513401561431850943e-03
-2.879901203303805463e-03
-3.039995311851791983e-03
-8.015598979340561039e-05
5.914460547453711560e-03
1.511940328862062220e-02
-7.203998050350008536e-03
1.846785114446399933e-03
-5.183947149214670515e-03
5.936068694086900008e-03
-2.355980337809717405e-03
-5.157672942065903883e-03
6.795274742875682429e-03
-9.155667980717156068e-03
-7.496990363850512687e-04
8.593023593221178758e-03
-4.637103887748790878e-04
-8.133159289613995160e-03
-4.263433700875568153e-03
5.638270461890992381e-03
-8.509510399265379083e-03
3.245075162762950296e-03
-1.440779779453829276e-03
-5.385921324656156237e-03
-6.577551244509072768e-03
8.032296983455542230e-03
6.112494455793231717e-03
-9.344743870398219835e-04
9.764474347759788614e-04
-1.439499987176637318e-04
7.291152357684225951e-04
-4.039231672241400811e-02
3.537138738192912506e-04
8.082013887714132108e-03
-1.079215437907809876e-02
-9.913156567525191129e-03
-1.583198349587500511e-02
6.029393641081630568e-03
4.605334384226469208e-03
-4.861312388167081389e-03
1.919901310764846915e-03
-2.387561683096268202e-03
3.747468476892557888e-03
1.152560362537962497e-03
-5.943802579224942081e-03
9.854901485336202763e-03
-6.013675940795809756e-03
-2.625089382760020795e-02
4.617529029693377522e-03
3.789627641742433556e-04
2.253875446275255701e-03
3.545550030475443960e-03
1.121393812860894956e-03
-4.970440771373891425e-03
-5.775062877673330791e-03
-4.949522143186707752e-03
1.138433571121514557e-03
-9.190970297211914497e-03
-2.425072758068751828e-04
-9.397926937132964134e-03
-9.814021474176462881e-03
-8.616113350701585724e-03
-5.320677521816293519e-03
8.787693927367636743e-03
-5.049414198147225523e-03
8.157472409484717649e-03
1.933514373869056960e-02
-3.563139908362736481e-03
-4.633988559848208934e-03
-5.295921007557223385e-03
-5.882079023095343473e-03
-6.890512538158783708e-03
4.469244536979692303e-03
-1.258674823510698860e-03
-3.609593857741431183e-03
5.168593513247562478e-03
-6.486559201845454661e-03
4.119126163888099136e-03
-1.590278546646477567e-02
-7.935376845170106705e-03
5.873314574180039591e-03
-3.332480942386532169e-03
6.201119247981506585e-03
-2.954181663357360529e-03
2.739871737724172609e-03
3.269036825467292080e-03
9.024112141164655418e-03
1.272662349065962258e-03
-2.841017511988679252e-03
2.858875550768697447e-03
3.188673961193778592e-03
-3.662324826451897916e-04
4.437446691788032513e-03
2.485827447546569164e-03
-2.853377543815860656e-03
-8.264557605249966965e-03
-5.742133793966618105e-03
4.709561820503920145e-03
-3.955747853957370871e-03
-2.959976967787440044e-03
9.583894077169459111e-03
-9.578014119048999103e-03
9.235943043173966069e-03
2.262856437979133585e-03
1.157002654120441870e-02
7.269934278077170263e-03
8.847876213886293403e-03
-8.383871674938021476e-03
1.290795602504548012e-06
-9.053595527823933217e-03
-8.230231365165470740e-04
5.019905531809581468e-03
5.550121055855802496e-03
-2.905319776264406444e-03
5.408946034088482450e-03
1.816089847499819570e-03
-4.490887182903096145e-03
2.088061857673098663e-04
8.828740051838430969e-03
-5.863689286169416343e-03
3.365843759127278272e-03
6.988756845200776169e-04
-2.581773965020143537e-03
4.519085354338195880e-03
-2.240068002501824709e-03
7.781679751223249952e-03
-5.669305991453460480e-03
9.878737768284880441e-03
6.683541605948429762e-03
1.709747154168429284e-03
6.246777560213304797e-03
6.665396538636640146e-03
7.526442278963018859e-03
-5.796725299713948072e-03
-9.050395114261295879e-03
-6.665389321326401981e-03
8.478275958019712566e-03
1.122505425540032018e-03
-1.485779615145975180e-03
7.061128923060280621e-04
-2.201385750264544432e-04
-7.482253774330071758e-03
1.328509006454896583e-03
-3.270747353394414924e-03
8.706808240322341796e-03
-2.670087607163605225e-03
-2.695123358306113735e-03
-6.153448051079919538e-03
-7.188398839297306490e-03
-9.417535046982136379e-03
-6.517048299664748856e-03
-1.783666536376363621e-03
9.638457732643239059e-03
-2.792910026588924215e-03
9.211188930979226364e-03
4.290651102928246148e-03
-9.852264501316678608e-03
-2.869148316778325110e-03
5.545698182704264859e-03
8.291922376097431158e-03
7.394138445785252431e-04
-3.997623001534502188e-03
-1.589524784000831848e-03
-6.098811790753712282e-04
-8.793480300610745717e-03
-3.816744700069106370e-03
3.844534890830344099e-03
-5.298142600347819893e-04
-2.706659358622153823e-03
-2.438867318293331740e-03
2.266304435073933712e-03
-9.031808735643888364e-03
6.862292751645083719e-03
-4.889960209270667255e-03
1.071233069482573986e-03
8.102230458098378871e-03
2.646910487266884975e-03
9.655936961394068901e-03
-8.499989453673697029e-03
7.657582988502300431e-03
7.241782375399187857e-03
3.624452491731632205e-03
1.102524996047069515e-02
-1.103438931946441881e-03
3.498041285460334101e-03
6.625780406076012610e-03
9.686048877266782708e-03
-6.006423287288232583e-03
-4.093867109481041586e-03
9.415963797471787675e-03
-6.248596827686403281e-03
-1.763735964238491438e-02
-7.977074429708906926e-04
8.039555353963969558e-03
2.944785069781886543e-03
6.918719217128451761e-03
8.436533675992315476e-03
-1.693279914854739770e-04
4.620652868839984599e-03
-3.213900854154018135e-04
3.231408060424330320e-03
-3.528952901969338325e-03
2.925079342343979254e-03
8.975159903072038939e-03
-6.340259809704248094e-03
1.455732073419954090e-03
-3.446635183658877579e-03
-1.401353766697988404e-02
5.129889034372490421e-03
-8.283100721905715166e-04
-5.459123060476661626e-03
-8.559592950908676001e-03
1.225336921396473489e-02
8.795469494351719486e-03
-2.999978400852553774e-03
-5.356361833879537925e-03
-3.738975409556963714e-03
-9.187047493801447917e-03
-2.887144648751284372e-03
-8.091063661573803453e-03
7.008805361212533738e-03
-4.908487218933303350e-03
1.903751964131995995e-03
1.272141411590046838e-04
-5.962722520860436540e-03
5.688418121577788408e-03
1.562145422922548137e-03
9.293400963194677067e-03
8.014507487247081799e-03
2.706012288328685841e-03
-2.021983032597388531e-03
7.712155095013834526e-03
-6.431418478469838780e-03
-6.100291076344445396e-04
-5.471373556912695725e-04
4.361431560691636164e-03
-4.783508677831120777e-03
8.619217270542040357e-03
3.146247291791469912e-03
-2.259088608024841655e-03
2.251066511119943813e-04
8.399396222998590025e-03
-1.278766088474275406e-03
-9.925178829019302637e-03
5.493076676192682091e-03
-1.685403454184513814e-03
6.717482830778893910e-03
-5.274573723880271112e-03
4.141728041051241302e-03
-7.796365197710157686e-03
-5.674724074448386606e-03
6.599832993684540822e-03
-9.920038820579072519e-03
-2.702456477097793346e-03
-4.175964333156342682e-03
8.775978224692166166e-03
-4.877138089354595384e-03
-3.587661809806508978e-03
-3.856823291513241173e-03
4.006559227573032282e-03
8.248589920708175247e-03
-3.074197800096011013e-03
-3.094073301256095726e-03
-7.427946237186039413e-03
-6.495220429542545096e-03
-3.017809938960100413e-03
9.256216919066202753e-03
7.421870534559883888e-04
3.165159143210968980e-03
-1.035087244395720488e-02
-8.531672496829741104e-03
1.605306468611279475e-03
-1.115818944526074949e-03
3.800759369091580991e-03
3.019843416889555349e-03
8.489167707270041732e-03
-9.605628061144434737e-03
-1.861188250941561316e-03
-9.592996922071656343e-03
9.650036989934883055e-03
5.127689273174677485e-04
-2.894969421381064865e-03
-3.955673870312491174e-03
1.842141673368402534e-03
5.653402109873538299e-03
-6.729223181744552890e-03
7.312587434873027946e-03
-5.781811570035879158e-03
-2.572396009405541247e-03
9.768607719676403872e-03
-9.986774576582146089e-04
-7.880493588413804359e-03
-6.080080338932281406e-03
1.396902640062972281e-02
-8.918057258254324243e-03
-3.972328235884189582e-03
3.900539096605229201e-04
-9.951688009879533156e-04
1.789208388012007104e-03
-2.807580813076362806e-03
-9.842475524578840271e-03
6.169305967979731454e-04
7.842772880150325476e-03
6.599502210454599206e-03
5.994089413241678044e-03
9.810803253113819719e-03
-3.036289522616371795e-03
1.623178804936511999e-04
-8.065385907373271573e-03
-2.881717931641536706e-03
-6.266442730276550709e-03
6.296428864703741300e-04
-8.727561084768454408e-03
8.619786740187318497e-03
1.614851764909250569e-03
9.438465301081402914e-03
-2.340645499618261832e-03
-8.675034375973835268e-03
-5.318151002879072976e-03
-3.639125857726648386e-03
9.704867999364397493e-03
2.369124309662170268e-03
-2.220227448240956469e-03
9.442362579444474324e-03
-7.361754378699458812e-03
-6.287637780984927337e-03
-4.401004815059226735e-03
6.980230155748950657e-03
-4.511896239357430193e-03
6.746687590823048815e-03
-4.699318407402653351e-03
-2.395303219301861929e-03
3.144131605717497089e-03
2.490948653508692680e-03
-1.802305192590082476e-03
4.411938702920873215e-03
7.056999760233922687e-04
9.655287900939958298e-03
-2.740382204356207278e-03
6.679870563328940865e-03
7.109450011609668753e-04
5.975109479371783737e-03
4.167981596768500357e-03
3.386327656847505380e-03
-2.325289086037642203e-03
-1.797851138793200507e-03
8.929614402805889986e-03
1.408545752065786796e-03
-2.598540802831394991e-03
8.303674786361523244e-03
-5.518772477377455188e-03
3.790777055655588593e-03
-9.217014896445145265e-04
9.357302455202155551e-04
6.683137179596698209e-03
6.332844550090870224e-03
-8.777140659140597254e-03
8.916675908449482948e-03
6.011475155833584383e-03
-2.405737433830598855e-03
7.813387611458952678e-03
8.943049866744439899e-03
9.513978245731946268e-03
-4.412416794243414694e-03
5.610174790105579810e-03
-9.329304723688456452e-03
-7.916591347005251522e-03
1.628924275858260624e-03
9.909134748303497289e-03
5.627810533785005363e-03
-9.250287628379221319e-03
2.560353334023928221e-04
6.230187885497548428e-03
6.033196395151526302e-03
9.872425016212833804e-03
2.293016282816329535e-03
-6.326047107893033490e-03
-5.221493786456716385e-03
3.995251981826902776e-03
-9.233477076366359768e-03
-3.016919774107731760e-03
8.401535614816836237e-03
-3.413771814216563869e-03
-8.824496735199981873e-03
-6.003192097047057099e-03
-8.395271668513688140e-03
-4.528290596863196807e-03
-1.244409963565635624e-03
-2.955681939705624445e-03
1.348500446329679739e-04
-4.736862126506437808e-03
8.644269291759787606e-05
-2.003863282537762976e-03
4.910734763880374686e-03
5.757319517155605991e-03
-5.812256000085235658e-03
4.181442614497083918e-03
-4.312813500438124510e-03
2.089544133235313444e-04
4.062442881060932855e-03
4.155771766632894264e-03
5.914945830994066539e-03
2.672530823813158533e-03
3.117294446302700146e-03
-7.197423543707076425e-03
1.061394317048331565e-02
-2.845862311510541365e-02
7.411616130924144133e-03
-3.897833540525408140e-03
6.563719936040449988e-03
4.932767819187710949e-03
5.276741894991289136e-03
-3.051303462287426656e-03
-4.073444288715989334e-03
2.520722008244952010e-03
-4.138200658641994975e-03
1.732425806158307429e-04
-3.173227252683267358e-03
4.672187216763480817e-03
-2.438131621128943050e-03
-3.105548668610169042e-03
6.819400634026613096e-03
3.342635181581562337e-03
-5.321693913003409590e-03
-2.329597251204251502e-03
6.853671849456346825e-03
-4.256507836495656248e-03
1.438757706781515185e-04
-9.119751566020697919e-03
-4.604497105370359937e-03
9.472453494654900844e-03
6.773082619783690229e-03
7.133914278174860631e-03
4.104667696555077717e-03
8.930469823354962242e-03
1.244941868648327850e-02
2.542781777632285856e-03
-8.219800486519450791e-03
-5.293439265153852477e-03
-3.305270857636165554e-03
2.418569160863093866e-03
-4.386759696774049106e-04
1.397256799361568840e-03
7.522448530821351440e-03
-9.389023616828244545e-03
4.088889989972636051e-03
-1.407814413103691082e-03
7.417234556152172038e-03
8.119068678413041140e-03
9.999781214371198865e-03
-2.783996477446841131e-03
9.765905429037286672e-03
2.970284863500870318e-03
9.606575754515496099e-03
1.692446729309359660e-03
-2.718133701670559944e-03
6.358399477765551769e-03
-2.986023410531449956e-03
6.658501775348124943e-03
2.714254625764182458e-02
9.816530949569747880e-03
6.204532974073105611e-03
4.566775599854883995e-03
2.898410333250616474e-03
1.397216690726650525e-03
4.479071917011466161e-03
-3.687446537359702781e-03
9.161711209786560853e-03
-7.991363751648361199e-03
-4.926802190571333111e-03
3.731375464265513069e-03
1.904890396308492329e-03
5.909743738242561120e-03
-5.803963386661155008e-03
7.794529005032442039e-03
-6.296593419282470519e-05
-8.024600874255804041e-04
7.973599247034656237e-03
5.907605505417519269e-03
8.183858880179145298e-03
-3.821584284766578639e-03
-4.815432146512313265e-03
-6.117178640387656990e-03
-5.963482680088476838e-03
5.543023886993057349e-03
5.212675025472954422e-03
5.298093536049449352e-05
-5.447629873935275549e-03
9.680054488482369573e-03
-5.853428257331771273e-03
5.313785204758526663e-03
1.327510335520129103e-03
4.622054019591307315e-03
7.788858421600933050e-03
-8.039727926810118219e-03
9.961806510046793562e-04
-3.447885405699735017e-03
1.359403576545907197e-02
-3.917151221745045729e-03
-4.776020428781519583e-03
3.050610373719204928e-03
2.854167475878273972e-05
-8.536910616173811611e-03
-2.239299413485483416e-03
-9.294912339245621838e-03
-7.052905439048103367e-03
-9.661723095135939590e-03
-9.848799939621181304e-03
5.142684792882272656e-03
4.343271513340092658e-04
5.281477054364928925e-03
7.802860100297639989e-03
-6.780865380859295126e-03
-7.508537810428183787e-03
1.265102578520082904e-03
1.975845335903364964e-03
-8.609829793628630962e-03
6.878014243366862256e-03
-3.877083080370185902e-04
1.438687629415433527e-03
-2.524429575551911161e-03
1.389265822871865903e-02
8.976190502071150490e-03
2.156885704574440716e-04
-1.697773551007224083e-03
-8.334206492130340205e-03
2.023538790839504199e-03
-7.398605098318766261e-03
5.513289027883931485e-03
-2.647480589343484837e-03
1.131927724120312126e-03
4.563785751129490094e-03
-5.462339075814430338e-03
-8.286818429059148935e-03
8.046929612902207693e-03
3.537391798619445287e-03
2.487529856218448614e-03
-1.505682622044478096e-04
1.512574354007830465e-03
1.315108358853507185e-03
-5.852284948875009080e-03
-4.365030696333044823e-03
5.462192028511073973e-03
6.896929677398913432e-03
2.560874024421037985e-03
4.742377668238883376e-03
7.502418180713302243e-03
9.662856043786026070e-03
6.517016553928599645e-03
8.889930804453155880e-03
-5.199901985749566004e-03
-9.179697772331091993e-03
3.615842556835583907e-03
-6.350525082217666362e-04
-6.126714660105968269e-03
5.137112716738090855e-03
-2.975854690885974298e-03
-6.303672219326691972e-03
1.941944583912592892e-03
8.328783958136723800e-03
6.131808818615728900e-03
3.075421756280343529e-03
1.379158141296552486e-03
-5.076721796990510231e-04
2.778114373259173934e-03
-9.250173881701349507e-03
7.116105156794579230e-03
-9.161079362591089889e-03
-8.453219296669384902e-03
1.481029295970657080e-03
-7.925459902901525397e-03
-3.615682662292413890e-04
6.483945412316422397e-04
7.139813564438626109e-03
-4.764962620222847013e-04
-5.134167055911245496e-03
-3.166001294178738112e-03
-1.357096468046972292e-04
-3.068507411309978963e-03
9.016204272555120719e-03
5.086103463026475473e-03
4.612672431231173986e-03
9.475567105140206281e-03
-1.985502273082507662e-03
-6.917388291728896257e-03
4.049278574212430114e-03
9.702227409332665753e-03
1.334187892307580172e-03
8.859564411449041832e-03
-7.421111256093637816e-03
6.248038591706294234e-03
-5.253083188005307040e-03
-9.631172205326719513e-03
-3.774143923605416309e-03
4.457148129899910459e-03
-2.903275219347107618e-03
1.021760904403605161e-02
-1.357755717016005366e-03
-5.102322200990648017e-03
-5.066915486678569801e-03
5.432673823969885220e-03
-3.883944246837148662e-03
-4.907220511177569355e-03
-1.749491546713021145e-04
3.257847089838742695e-03
8.089744308821705462e-03
7.773278944940673237e-03
-7.180700769883288127e-03
-8.083769684435930872e-04
-8.912281030060847237e-03
-4.647316460458754753e-03
-9.183306691967901836e-03
-6.060081335214013813e-03
6.334164666873832181e-04
9.306959050971012198e-03
8.645653142715235134e-03
-3.594865892140700764e-03
-9.416782471245284392e-03
5.428178119447494350e-05
-1.232497580879171302e-03
5.347616024323913891e-03
-2.661616611961416766e-03
9.098868051501675727e-03
4.550746148664283619e-03
4.633961119614207237e-03
-2.155993193302616680e-03
7.813706743186052753e-03
-2.270505601275436911e-03
6.162170213095203609e-03
-6.679907042504489197e-03
-1.621163333729848345e-04
-1.061971697144830501e-02
-8.068462026457801431e-03
-3.119225669056194770e-03
-2.279655369991600948e-03
-4.030214207432372339e-03
7.171769198000665924e-03
-2.728018208529265926e-03
-9.909231225929786280e-03
-3.795413153872115655e-03
-3.925262766455557550e-03
7.766687992839371897e-03
-4.233560403061872000e-03
-6.908487061066874262e-03
-1.257594534774623355e-03
3.118770605548064258e-03
7.934532063585924069e-03
3.274377284173216832e-03
8.969713538947246892e-03
-9.575292754470405426e-03
4.731299129213751252e-03
-3.680352534004738448e-03
-2.443491254002337285e-03
6.199707017274055931e-03
3.956262038047613123e-03
-9.516018215818812477e-04
6.033422274657894609e-03
-2.471625008661949494e-03
-7.988009457567838562e-03
2.276859910004651062e-03
-4.160295387114568318e-03
2.030202272852871422e-03
-6.543550776736816333e-04
-9.574610615920905315e-03
1.949311149589762519e-04
-1.867434702208802021e-03
1.403635549235499828e-03
1.660536773981565253e-03
-7.712779240151666250e-03
-4.346643137025959884e-03
-2.874529085013409306e-03
-2.781953209621709083e-03
-1.714143585924134822e-02
-7.530291735216412645e-03
-9.310769860532487271e-03
7.636115955452269129e-03
-6.357025739681153656e-03
1.221932419737542345e-02
9.390418530494829691e-03
-9.710414360212566917e-03
-9.562207616871713084e-03
3.678016279192581912e-03
-3.563107241039257383e-03
7.210893039800028194e-03
1.505534884598725212e-03
-9.043538477873688808e-03
-2.835618051350958027e-03
-2.185919127662034733e-03
-9.691282970724253432e-03
4.188122899817028357e-04
-5.682697639735114284e-03
8.125770007138868531e-03
-9.597520706248672401e-03
-5.314752690533650070e-03
8.942398579113374282e-03
6.445816255974023273e-03
-1.332657072064783073e-03
-4.236787638447665066e-03
9.645941173852605813e-03
-7.284504897565936311e-03
2.172716932048640841e-03
7.210007384379069420e-03
-2.964865543917744300e-03
9.725722156254489395e-03
6.167991546167812637e-03
-7.264982799508199786e-03
-8.331108054527728082e-03
-1.289406863338054795e-03
9.562954025006351402e-03
5.526290418654737288e-03
-2.829178223447387230e-03
3.561357893490320163e-03
-2.491066085485865896e-03
-1.059812032838595595e-03
-3.191658211675350420e-03
7.688806964673597366e-03
5.807122341921022377e-03
-3.133095867934843591e-03
4.284340123008701512e-03
-8.555329716745785741e-04
7.206740692449857544e-03
8.388659251550545717e-03
-8.200136178584975163e-03
-3.504613767133055603e-03
5.451874036354060170e-03
-1.689500599825922902e-03
5.964747855127085739e-03
2.324616315943123929e-03
-5.271442997589793206e-03
-1.887323414211359652e-03
4.259819595734104167e-03
-3.260302741505601357e-03
5.984468315701695421e-03
-7.329960655931315287e-03
2.824603341251348543e-03
-8.724960831104067865e-03
-4.784490877162221947e-03
9.607477709196043589e-03
-8.304945108229117717e-03
3.555715882145737191e-03
-4.835095224331318470e-03
7.363851506353957278e-03
-3.745317553008910977e-03
7.700762203153275337e-03
4.583849386271179188e-03
-6.437870189391870293e-03
7.067606596792836218e-03
9.978887110748704131e-03
-7.129975812059157966e-03
-3.190099729822718812e-03
-4.130000862675847740e-04
1.640921971414361540e-03
2.363603957814042200e-03
-4.925722883357372059e-03
-4.215509466591868537e-03
-7.876597149437777196e-03
-7.913284284495607224e-03
9.282925800650786152e-03
-3.600321044434483080e-03
-5.284441845699889423e-03
-1.867020937544472403e-02
-5.734439058744266425e-03
-5.282084468055879035e-03
9.361477536529510049e-03
9.052292613622690831e-03
4.185291169078356188e-03
2.309334157870596062e-03
-7.729345252803823110e-04
3.659729661142547847e-03
-1.156810696546861292e-02
7.065163956034398521e-03
9.818471029411232620e-03
-5.759971912885742708e-03
-3.571027836372787055e-03
8.516134384436439136e-03
3.485878342016501472e-03
-7.736829781498632923e-03
3.395751032138242826e-03
-2.913869879359966275e-03
1.004642468274593269e-02
-1.798384222972985655e-03
-4.037400701181553808e-03
-7.586879112289671850e-03
-6.922808493309040231e-03
3.189370776216969138e-03
-2.552266917808842725e-02
-9.747476058866179002e-03
9.336888830566393224e-03
-3.985403676730968348e-03
2.804708501880200534e-03
-1.030456275345522548e-03
-1.603220072149867063e-03
-4.640584268825618565e-03
9.435930769879941407e-03
3.857061885298406802e-03
8.948795820225794459e-04
-7.241567955961657026e-03
-4.567211344378446607e-03
-5.458107899252401078e-03
1.211795500370223960e-02
5.696483330009268625e-03
-7.677368969117166243e-03
-3.295477343957103032e-03
6.400404627202913033e-03
3.562900306666047078e-03
-8.660622370765636707e-03
-1.709616181299885435e-03
-4.802035293938506852e-03
-1.674512680572736584e-03
-5.193845936661226764e-03
-7.865863474687619789e-03
-4.157700233453616098e-03
-4.149021050791204058e-04
-9.111647053959592499e-03
1.695216310351899385e-03
6.466796735667069062e-04
5.402950739894481734e-03
-7.268520530543496824e-03
-7.054357321027811788e-03
-9.084495764891726069e-03
-1.352546040720323207e-03
-7.299350285180268853e-05
-2.355183213531694339e-03
-1.322813277246794907e-03
5.356474687557554251e-03
2.332951811420200337e-03
1.293638051991335665e-03
-6.492893131991602125e-03
-8.153832652769293227e-03
-3.192600568148957867e-03
-8.377164180909068419e-03
-4.371989033314440352e-03
3.980897964344190174e-03
-8.325153975241354753e-03
3.934228790629662985e-03
8.211653699448412565e-04
7.929582354493962953e-03
6.122638577726042912e-03
-3.225495104052516267e-03
-9.433396552727424736e-03
5.923735694300046560e-03
-7.924616654782130204e-03
-8.109753299690670644e-03
-5.170079413921237731e-03
8.794113983380159524e-03
7.695811845628500051e-04
-2.249885059953551317e-03
-9.707992042030880869e-03
-6.951021909812090185e-03
6.405482308521403406e-03
9.824125193837731848e-03
4.810505813239742551e-03
-7.266983998231019842e-03
1.191135234633064564e-03
-6.997014855598108173e-03
-6.200164066848251089e-03
7.463296779188929864e-03
6.031508467879896813e-03
-4.841040046606970466e-03
-8.559826987518261154e-03
5.494441784305853851e-03
3.390022721221221547e-03
-4.081341895183473838e-03
-9.192802403936915084e-03
-1.902730616901626010e-02
8.875345186426075728e-03
-6.322508519090088742e-03
1.581142598149468765e-03
-1.712309922558612803e-03
-4.532586721137932262e-03
6.459298150959340984e-03
-2.137275913899895543e-03
-7.716806996618586802e-03
8.982262626089044730e-03
5.266932612616542775e-03
-5.271048694178899659e-03
6.602214715831561907e-03
7.887262536846548905e-03
-5.445123923826265117e-03
3.039231118627788893e-03
2.096263339849942578e-03
6.995715331948592643e-05
2.309457890168525374e-04
9.297911026519608407e-03
8.733719247412822032e-03
5.795095961613228389e-03
-5.778251934092686753e-03
-8.762959893308899795e-03
4.570066506008632796e-03
-6.737836872412006871e-03
5.151437583489701030e-03
-5.690762994943824628e-03
-5.584115272308294575e-03
-5.307752060325581119e-03
4.793917018028005274e-03
2.423791242706912520e-03
-3.418196212045656289e-03
6.676744696302070554e-04
5.512653845279054388e-03
9.118115162930392472e-04
6.883622914460784704e-03
1.396663112841897963e-03
3.142516303470579107e-03
-6.071167032772380873e-03
6.986135360501430011e-03
-3.286413506272233952e-04
7.491173166458068092e-03
8.149658510391333960e-03
2.043791723029734800e-05
5.307119315590126847e-03
1.650881515438367862e-03
5.532581054760968287e-03
1.033791213156681158e-03
-3.835176958384877897e-04
-1.740899599286759069e-03
-1.662153418622691397e-03
9.784114079756184301e-03
6.991741960637970314e-04
8.138513423283018008e-03
-9.194660460469418137e-03
-5.774557364215680659e-03
1.058409935183755868e-02
-7.805111388854766089e-03
7.540938776150325935e-03
-6.229147401156978061e-04
-8.244865026111899628e-03
6.517550898776821623e-03
-8.837344579930550212e-03
-1.996506737866161722e-03
5.904115168050259616e-04
-8.037379404498614169e-03
-9.395930796516337516e-03
-2.653561357333821848e-03
4.709109271286314978e-03
6.716882036471539738e-03
-2.590648005669475215e-02
-4.295265850691899236e-03
-6.233806562319662778e-03
3.829345021813281274e-03
-2.635727458720992216e-04
-5.472449138348706513e-03
-8.067781089092862859e-03
9.461668828658979444e-03
7.404629301584845016e-03
-1.498388115303281266e-03
-6.651751819594905850e-03
-5.643646504010154134e-04
4.512464916504446873e-03
5.235282158341305302e-03
3.504605031245096834e-03
3.800469737443378394e-03
7.066357551192998035e-03
5.638118068440390630e-03
-6.254263566087539181e-03
8.975647252790992792e-03
1.491192455686677319e-03
5.210452688245686970e-03
-3.829782646393417415e-03
8.171654067457784568e-03
9.041269846809184621e-03
-8.203889551726026644e-03
-2.682018504202510895e-03
-4.258539886237458732e-04
-9.315048459641359080e-03
5.461783773054169726e-03
3.330538697770755313e-03
6.947786110623901598e-03
-2.125685339893127954e-03
1.061673930851066350e-04
3.697572238117101222e-03
-9.641265118752170848e-03
-4.907310370795515617e-03
-3.274346997739991782e-03
-1.281344953807063945e-02
-3.766543496417539254e-03
8.319907722177737400e-03
-5.275853671839717159e-03
8.958941980062421623e-03
2.405117538492025728e-04
-7.172588124130991651e-03
5.731711109998145585e-03
-4.467915490642408900e-03
2.491333008914692424e-03
-1.893855215271821046e-03
-5.960155240170613399e-03
-2.061562525914100320e-03
-5.614209302890846298e-03
7.933217816030036298e-03
5.667140451204729160e-03
-6.700683863856642282e-03
9.478948343639773816e-03
7.975477005056678947e-03
7.751594779269830628e-03
-7.857980497347739901e-03
3.535501321289042601e-03
-8.659277825223811106e-03
-4.495834969557370138e-04
3.523582892793964555e-03
6.215702936889859996e-03
3.481826429603592784e-05
3.627882029687327491e-03
-1.506399672427439964e-03
6.666731368836000329e-03
-3.883234448261185280e-03
1.068241689225777474e-02
-6.568273976859753151e-03
6.068163173227435550e-03
9.437950589101552767e-03
9.658930199253434531e-03
7.969954869417757853e-03
4.993249145450960255e-03
3.088934502096428013e-03
8.416796254433223448e-03
1.735346579552008404e-03
5.920039569458763334e-03
2.600025055535221986e-03
4.981267369202362419e-03
-3.651607601153495329e-03
-7.197671226114593299e-03
-8.105871866894997363e-03
1.406536799777282926e-03
2.489332981276197801e-03
7.399074498520308643e-03
-7.593355517942520019e-03
-6.812915609530371605e-03
9.019208271879887440e-03
-8.565999264352641696e-03
-3.835038504697149881e-04
2.280638614204267070e-03
-1.634882364137205677e-03
1.010503488173555668e-02
-5.870632499995237681e-04
-6.872289147701415510e-03
4.250038079787207476e-03
-1.631718039969752110e-04
4.320949197901014296e-03
4.329859407254386602e-03
-1.024036268291372322e-02
1.145426837965546948e-03
-2.121273907006410858e-03
8.243878343543488418e-03
5.037057347840144007e-03
-6.440783448873474253e-03
3.494464954496643151e-04
-5.818946570406329129e-03
-4.447142063002250401e-03
9.136716265854386704e-03
9.013239562145966208e-03
1.261123491058705045e-03
-3.791370475279223599e-03
7.545683193339106955e-03
-4.930125006264836351e-03
7.296707251450394727e-03
2.136053910464993065e-03
-1.108358384142432099e-03
1.069620538883156620e-02
-1.608040286021000971e-03
3.904494483770183308e-03
1.720803289930622178e-03
-9.027846877421506072e-03
-3.875151791534613317e-03
5.020194214753958065e-03
-2.336317804446570636e-03
-9.190114395983633999e-03
1.117932008446547148e-03
5.940733288468248545e-03
6.435591604151479767e-03
-1.636173291502312295e-04
-3.375006904523396561e-03
9.119999499734444959e-03
-3.397848998245304748e-03
-7.260182507378343773e-03
1.132618164286326680e-03
1.797285657547012310e-03
5.843184422540185531e-03
9.521113013110127019e-03
3.346174878941809462e-03
-1.565856640179272242e-03
5.552808084099736946e-03
-4.708972654232721454e-03
-3.974130124234396405e-03
-8.516944305858210754e-04
8.526177642926990527e-03
1.006037832678772712e-02
-4.527775189940866363e-03
-1.976972855124774827e-03
8.015597312613914963e-03
-5.314090163112070988e-04
-8.317899070020458308e-03
-2.212319895918792630e-03
1.754318794696154088e-03
-8.658701873413351610e-03
-4.235772041000319954e-03
-4.766119997259348970e-03
-1.682932988738308452e-04
-3.206997668194845868e-03
9.879886889785039969e-03
-2.123677334841420680e-03
-8.870162629397673748e-03
1.635511624953496154e-03
-1.149524249897634562e-03
-5.591043801468271492e-03
6.855752472233966888e-03
-9.009375163817211554e-03
5.947952515408477456e-03
5.232554118842857802e-03
-4.237306878857315627e-03
5.974317611770693821e-03
-2.379558947993802315e-03
8.976438666721176310e-03
3.009745068575962485e-03
-1.230212519440099499e-03
-4.178258831531191791e-03
7.817452433364888154e-03
2.564095113950408747e-03
-1.727970280907547120e-03
-3.910704657346941591e-05
3.056353873593030640e-04
-1.268677474623607603e-02
3.054827296897760693e-03
-5.140846477162014025e-03
8.805841484062293736e-03
9.986536366159511416e-03
5.321755148651722937e-03
-6.103141583093281419e-04
-7.109708073656973923e-03
6.577324326902138016e-04
-1.497338176473786290e-03
3.317045704844135551e-03
2.286643363287797943e-03
-7.181998144294242555e-03
2.808651892466545660e-03
-2.751768416067179764e-03
6.141800279227261315e-03
7.412690223719408007e-03
5.076989498821178441e-03
-4.375832420949465028e-03
9.263629193315364371e-03
5.492583076852754730e-03
2.178470016741069094e-03
-5.430228468665269405e-03
8.000386366309113206e-03
3.094871401546590590e-03
-2.493074085278307057e-03
-8.367257687904420399e-03
-7.676766370819481690e-03
9.367795990131849715e-03
-1.940055724206185463e-03
-7.180324405568481658e-03
-1.700723318180566782e-02
1.688605453102673794e-04
-1.827625321531858469e-03
-5.362319078455151170e-03
9.295614872756799776e-03
3.058595836857081352e-03
5.716592596656631595e-03
-3.830828036535595393e-03
-9.048766166343277448e-03
-7.939431228345804337e-03
-6.918539419238994674e-03
1.607963688891279322e-03
4.176738145804077297e-03
9.123997020143277681e-03
4.436453030566235231e-03
8.825490481623109520e-03
3.851686420582822040e-03
-2.223172277121202543e-03
-5.890371761486703703e-03
-8.363547376964611257e-03
-7.246492848837206464e-03
-3.767694594690811170e-03
-3.103333860854658611e-03
-6.395804002435188278e-04
-4.155804107620604190e-03
2.244674956513412634e-03
-4.313356595132163129e-03
1.917498991448904648e-03
2.270719966603770151e-03
-3.324961259821060367e-04
-9.068066409972999620e-03
4.800808416566508877e-03
4.714556304817939941e-03
1.168785061188072931e-03
-5.014036239024799446e-03
1.396001615672351655e-03
-3.533016402737911531e-03
-1.641938011812197826e-03
5.948389732303584199e-03
3.580344242373520187e-03
-8.984953608279902526e-03
-1.090234597713386202e-03
8.401171670659122667e-03
2.063345346711327900e-03
-9.670698848525123570e-03
-8.338750112521329735e-03
8.709581258143901314e-03
-6.248489975310266009e-03
4.682102543069437670e-04
2.825823810320019294e-04
4.784176888617094198e-03
5.276063330439506160e-04
-1.006626791878339339e-02
-4.922474779404844084e-03
-1.634258021411471532e-03
-2.823233201808108064e-04
6.226217733208627529e-03
2.504142599411490820e-04
-8.815721202660916148e-03
3.435197569025494010e-04
1.245996349272325728e-02
-1.716980517908508292e-03
1.274681186205682548e-03
2.400329523271594549e-03
9.632756588922937457e-03
2.308027722073846717e-03
1.535383077497631549e-03
-7.054691736785767033e-03
-6.079496247559861705e-03
2.808299556610581622e-03
-8.614928299081165211e-03
-2.837169774955007780e-03
-2.155397027492821690e-03
6.416644745915352915e-03
-7.341348966211902298e-03
8.626299032020905491e-03
-3.729753546517557486e-03
1.745631260663292042e-03
-2.977388650776169581e-03
5.461289676129157250e-03
1.026887066676073976e-02
3.256973988050746501e-03
1.039912413110106277e-03
-7.881635573083521293e-03
-8.484605390989324782e-04
-3.667855385065641512e-03
2.395394582525519050e-03
1.012803564142827385e-02
-8.952093252925129785e-04
5.269054526791767338e-04
3.037143128990893448e-03
-1.893507629010883530e-03
2.622724534293773176e-03
7.045912165335264238e-03
1.973330697945397522e-04
4.248063466424120520e-03
-2.059599646238188028e-03
-4.349008416372210709e-03
3.574852034379982259e-03
8.433328820566646233e-03
4.056942362922070014e-03
5.818742870904216810e-03
1.005155645743515931e-03
-7.387694201777770045e-03
-3.266439483240024273e-03
2.782363078134568088e-04
2.421179417184224098e-03
-6.967997924478236231e-03
-4.427441018928550409e-03
-4.511263692318994399e-03
8.002986546580534433e-03
-6.305855850898079394e-03
9.660200480883245414e-03
-1.506593511487252319e-04
7.520946547128030957e-04
5.230536809608681351e-03
-9.261258791206697025e-03
-4.510430920465550303e-03
5.728602308656413969e-03
-3.740431901374057649e-03
-1.217749324429721327e-03
6.919858486915875760e-03
7.320658563434539329e-03
-8.481738702946342578e-03
-3.409291943165539216e-03
9.838555029688575079e-03
-2.964027800004902322e-03
-1.493995313425096512e-02
1.038819055418132393e-03
-5.165725757066568641e-03
5.838055221581868286e-03
8.326854975813627671e-03
9.386720417817183068e-03
-1.769364791343663824e-03
6.450841859970510295e-03
3.634309081084438273e-03
9.841239630508012010e-03
-3.223954432521398050e-04
5.489069844518317323e-03
8.171046307568038264e-03
-3.153055022986232369e-03
8.853988715855245009e-03
-2.443099038348938400e-03
-9.209311134758556283e-03
-6.473630060592947509e-03
-2.691545394449908115e-03
5.981734045384072204e-03
-8.359996546258015998e-03
2.012705749476018189e-03
4.901692347194633315e-03
-5.249740906930570709e-03
1.264282142970160269e-03
2.631905323968831975e-05
-8.862581984293779747e-03
9.325027661024840389e-03
-1.788656511507027503e-03
-3.798483689638797959e-03
3.639441283918306726e-06
7.247452288867582346e-03
8.318695986131277630e-04
-2.043264848634264094e-02
-9.192074830920937689e-03
2.108824153542261290e-04
9.840558174506072037e-03
4.198731321415220645e-03
9.991826412500749363e-03
6.004722894895532341e-03
1.306875187708868985e-02
4.084832271222898353e-03
8.970578785524173371e-03
-4.980082022049435453e-03
-4.782072773354204519e-03
-2.782231450895972930e-03
9.060171731366815960e-04
9.105165168057425748e-03
-4.388290017168617642e-03
7.898079684895578309e-03
6.621061808575921630e-03
-3.922002318000763696e-03
-3.924530169495363784e-03
-3.303856713880327228e-03
-7.056748860080952479e-03
-7.301149588711108342e-03
9.157484116227635612e-03
-1.923941217013952791e-03
-7.202959175111979702e-03
-5.906490039786196390e-03
-7.548134755748389831e-03
-7.627689188150582784e-03
4.553452218360937338e-03
7.284478904932636251e-03
-2.686306720873250266e-03
9.834675038695766397e-03
-1.419779640934777393e-03
2.618271663563133400e-03
-3.076975058856837395e-03
6.767671912399954044e-04
3.223350669579309359e-03
2.771831882366544621e-03
4.529438774558845526e-05
1.470515363170901918e-03
-8.636946707016646130e-03
-8.410376458502184793e-03
-2.889785502867579792e-03
-6.736137039902577450e-03
5.360102284710038800e-03
-2.274324033044219581e-03
6.254742166547731970e-03
5.291621458651219259e-03
-9.901986724051865113e-03
6.516104285282589212e-03
-2.033027949172421835e-03
9.352413029372091957e-03
-6.076917472571005154e-03
2.822599474919328978e-03
-9.576805748336966045e-03
7.109075516824575613e-03
4.314451742642859064e-03
1.807681403174519162e-03
-8.839978253775046188e-03
2.991255053031074279e-03
5.375866221054847148e-03
-4.164792509329314461e-03
-5.952415159685731615e-03
9.620513481455387735e-04
8.140935848174673042e-03
7.506245885501320637e-03
-2.960099038325647667e-03
-4.948209790329188449e-04
-5.942570549203660298e-03
5.710799837454393936e-03
-9.436410909920197460e-03
-5.964919362368802450e-03
-7.270068526543573689e-03
6.814611619992408040e-04
2.610910190270551191e-03
-5.460602733592404869e-03
-6.019434861107644981e-03
3.048943153626218656e-04
8.684570225016187070e-03
6.334989279939939356e-03
9.020476364454230178e-03
2.741990117837825140e-03
-2.639917593065393107e-03
5.811713083776426370e-03
3.472657103736873779e-03
-7.012565152918929373e-03
-8.328411887950873827e-04
-7.131531405561645012e-03
3.985170513579722027e-05
-8.797962832335907328e-04
6.757248269899830337e-03
-2.430790225469312438e-03
-8.098624558556813879e-04
1.491842904560256294e-03
5.556330446951124498e-03
-4.424531590709916522e-03
3.161148211895116380e-03
6.227045392108901400e-03
6.555271960521196102e-03
-8.679070389885992082e-03
-5.734749014888104561e-03
6.788497504907647050e-03
-4.638171946303771415e-03
7.205540675104977859e-03
-8.492677990927101350e-03
-2.745250060553686925e-03
1.715532024417466828e-03
-8.872411276309034867e-03
-2.630462540090794214e-03
-2.872720555062432683e-05
5.844760882553934507e-03
6.677305307426499754e-03
-2.097670149012520252e-04
-6.128119343980280471e-03
-3.472581197933255156e-04
6.297046091263181627e-03
-6.952758864156254222e-03
-6.095470852529772873e-03
1.888577595001577963e-03
-9.839492125123824526e-03
7.166215251110037363e-03
1.759912380285904741e-03
-3.239623118032948935e-03
1.344821455470612652e-02
6.487286387195204812e-03
-3.290773709451456225e-03
1.109127920964733628e-03
2.485082352877556605e-03
-3.897292655140787224e-03
-2.740088837763291364e-03
-4.863327371724361983e-03
-6.494346938706265296e-03
-3.939867090109578328e-03
-4.211598475703362543e-03
8.432263362656766334e-03
-1.179658991767953014e-03
-1.206348061619851248e-03
-5.289476695967092537e-03
-8.028034914736734140e-03
1.402010176004110783e-03
-8.064550672956331476e-03
2.906110105790671305e-03
-6.318621718092092693e-03
-3.781533006593233454e-03
-5.620700739499382044e-04
6.475224814481280941e-03
-4.730577244629600130e-03
1.572229932131419001e-03
-4.779114105346650996e-04
-4.997266748026829922e-03
7.379521908556584131e-03
-2.000915939252015819e-03
-2.215869638795455419e-03
-7.514485887440658721e-03
-5.329025803466138494e-03
-3.383262731419248246e-03
1.136224660914301153e-02
-2.281967169558343691e-03
7.465851291619958995e-03
7.187813891194702598e-03
-5.445066725436514821e-03
3.574098238263584155e-03
3.149068230519949576e-03
6.662702855807859639e-04
-3.786277952025527641e-03
-8.310090034426535419e-03
-5.583598553205331751e-03
-8.039257934202863679e-03
-8.408131279517857756e-03
-3.275510792799547939e-03
8.114975733332063443e-03
5.229740698279301651e-03
3.700870068011312061e-03
2.065155071334768330e-03
-8.986148797472031996e-04
6.167080033168947754e-03
-4.053994658632273720e-03
6.789904782593941292e-03
8.221751469163093157e-03
9.721398979827614029e-03
-7.136108217277102074e-03
9.602187513458353835e-03
7.746895587564037308e-04
6.312328007429782346e-03
-2.767590022706669338e-03
-7.901628419322303393e-03
4.702708666423776294e-03
2.855974630675000995e-04
9.379741090744461024e-03
-1.964861869229219023e-03
-6.391684168840870879e-03
-3.360231033958207755e-03
-4.602352511261072199e-03
5.698321743368773770e-03
-8.405072330555300557e-04
-5.211955811299989749e-03
-4.703018410016483221e-03
-5.469270528989143322e-03
9.823910955934437444e-03
-3.326207561569124397e-03
1.062432137538887184e-02
3.989095869894703807e-03
3.103261575039390624e-03
4.306287971484504609e-03
9.092397353798102252e-03
7.953009336853406747e-03
9.161119305170113691e-03
-5.101466253436456530e-03
-7.257009222731304783e-03
-2.409844801485457391e-03
3.385023959928540327e-03
-6.014766060787791850e-03
-2.063949535841758370e-03
-6.569296756534712123e-03
3.948485404413696817e-03
6.414985670353141704e-03
7.290186652967264175e-03
-5.457671525037283491e-03
6.717783475611787541e-03
9.776289385920192143e-03
-1.123721880677323870e-03
-2.191253732908779992e-04
-7.078945189688595242e-03
7.414686537183167066e-03
1.596563761911864825e-03
-1.090738263503401992e-03
-4.850487913773839262e-03
3.208539386384504522e-03
-1.466213862080599354e-04
-6.136608597156060704e-03
8.291637957855419253e-03
5.950895841247910191e-03
2.408349565616614476e-03
-6.017488193496707029e-03
4.681835221021682478e-04
1.067722422545675821e-02
2.831712837487385115e-04
9.360516100603479689e-04
9.898188738683220966e-03
1.343817877197241032e-03
3.198679541572250432e-03
-3.958386858005398003e-03
4.294573334985144538e-04
8.353792367217808754e-03
5.894109380693967476e-03
-9.898607656150425899e-03
5.016217562538344797e-03
-4.556905279314009405e-03
4.768886011227537088e-03
-4.793415643734215761e-03
-7.593527297744501886e-03
9.434397551359618300e-03
3.488802116108704297e-03
-7.883072951863689948e-03
1.977092380617312146e-03
5.391661847927347977e-03
-8.657556573545501302e-03
-2.231544509671055162e-03
-5.610414511922794285e-03
4.964669700287398929e-03
4.732637579924122220e-03
-4.547929849709454742e-03
1.362225805116929617e-03
6.411585619730131823e-03
1.835895830998248443e-03
1.075835214565316715e-03
-3.328307141896093583e-04
8.598310504176283689e-03
7.719699804332565618e-04
-9.773213374874245574e-03
9.382958551224991270e-03
2.983713872563416303e-03
-3.715186805872391917e-03
-6.625282388909915256e-03
-6.504781947094733646e-03
-4.200345459219334836e-04
-6.471636680679085374e-03
1.147591665050626784e-02
-9.636763454101403628e-03
-6.061965209479906400e-03
4.352545520057832067e-03
3.913347703208238347e-03
9.407483678827798998e-03
-5.501420119042374837e-03
6.979368463267328695e-03
-7.443333757050637350e-03
-4.241707568296879116e-03
-3.446162036233063868e-03
-7.943799128999055881e-03
4.235879552248024774e-03
7.848186689502021501e-03
1.013901085385603314e-02
-5.416109131826509458e-03
1.689918168769948426e-03
6.770708247235082515e-03
9.892304953932439318e-03
-5.042917598240108552e-03
-5.721617854391003281e-03
5.299384239982824277e-03
-4.840307097978341550e-04
-5.439560643104961180e-03
-1.489706448412588024e-03
-3.017349467456337427e-03
-2.427063022198037382e-03
-2.769730981359963540e-03
-8.410825288607164454e-03
-3.251840201358971796e-03
-6.097792847936649163e-03
-4.336131401439412107e-03
-4.410849406637566174e-03
3.646194441987904780e-03
-1.043617710732446836e-02
-2.257546842777099876e-03
-4.186838379406122856e-03
2.755680889061327531e-03
-3.251818581805587718e-03
-1.758056541184144835e-03
1.634243837233342346e-04
5.800620073638628436e-03
-2.493398590897453766e-03
6.698236093608132304e-03
-9.253429363638519117e-03
3.816853664751754770e-03
1.200595212982939844e-04
-5.662342842665777330e-03
-2.429852439454503049e-02
-8.414499043255866534e-03
4.313706262357937943e-03
-1.397065707910253489e-03
-3.548190150454801073e-03
-1.399460531838984251e-03
8.151243126639123524e-03
8.807001719345371529e-03
5.179975124335292787e-03
-2.001748942371202582e-03
8.042147307376476192e-03
-8.544853146484215206e-03
-5.836911339806707261e-03
-3.810094673810104048e-03
-1.043499968144739757e-03
-1.160827624915691803e-03
-8.227254251721334566e-03
8.455026127316026680e-03
2.119276476161234806e-03
1.011055721457291071e-02
7.607345716632529960e-03
-4.269631698403024075e-03
6.934633157966694356e-03
4.149534989271166582e-03
1.112826663074845818e-03
4.854618044052454173e-03
3.298854386028257906e-03
7.884145978049057063e-03
-2.389799399264450292e-04
4.535936829012831434e-03
9.681276449699568326e-03
4.662769919719305690e-03
4.132440022181319526e-03
-1.052664345944327468e-03
5.483049570917155821e-03
5.950851273925922801e-03
-8.463481730664064104e-03
1.331083708513968030e-03
1.247045907410982953e-03
9.786134209371674230e-04
-2.321318637986885709e-03
5.762502489077502531e-03
6.962893585897977217e-03
8.193498410787859038e-03
9.288206805155152859e-03
1.548453868650755908e-04
6.356956520047872365e-03
1.004480624403411050e-02
-1.496085592213970434e-03
6.759537497769603671e-03
-1.693585943011201571e-04
5.109131167155814626e-03
-5.766352186669780090e-03
-2.701058075136657417e-03
6.644100726623334424e-03
7.697147965779930524e-03
1.992574143501795510e-03
8.216915024259295944e-03
-4.040149757734436652e-03
-4.315645790134382299e-03
3.719986768263643453e-03
-8.710547447269364682e-03
-1.218895027736051741e-03
-2.619934025153280478e-03
-9.629855405474962299e-03
3.300967626626302200e-03
3.879422840133709988e-03
2.689264415052239343e-03
-8.780127406790468048e-03
-3.219274440079906811e-03
-6.800246912827987052e-03
-9.335866154031067371e-03
1.018407613492973950e-02
-6.307725846554776937e-03
-3.054248834979373696e-03
-1.999896963511702680e-02
-1.135172689610865898e-02
-5.085595021524466392e-05
-2.213288457238441441e-03
-9.251964087730728606e-03
-7.450317321117282642e-03
-3.075389391330405568e-03
3.601218635139694091e-03
-9.262649585678224204e-03
6.506358616639936225e-04
-9.461010124497864007e-03
4.892447924124136011e-03
1.674331237470497733e-03
-9.383242337402246738e-03
1.147652074089160028e-02
-5.537422532052340730e-03
6.136245624305832966e-03
8.420648610125428674e-03
7.854129982685512448e-03
-3.516921160059794087e-03
4.565538315197552148e-03
-1.425753097823992920e-03
-9.107931482966074785e-03
-2.069351440891055091e-03
6.453805464029218654e-03
3.312062213274264300e-03
9.788512457269379127e-04
-9.878746795874023684e-03
1.188492681487228475e-02
3.429967203721344827e-03
-7.230584927547512725e-03
-6.457212736922656945e-03
-6.896270036527603342e-03
-4.431837887935493464e-03
7.184338373369357315e-03
6.506039632412405349e-03
3.325610264283070799e-03
-2.347667325778516202e-04
6.216886385726819002e-03
7.459670374309218012e-04
2.266548853041507397e-03
8.104601754033666575e-03
-7.247543497920361580e-03
8.671589683006864988e-03
3.310464466205198519e-03
1.884779768355722418e-03
-5.457597757138918197e-03
5.602670734317124167e-03
6.698035352801503042e-03
-1.474511670304269736e-03
6.628330571047716044e-03
-1.102511697732746067e-04
-4.522933942097771137e-03
-4.281550770324754791e-03
-2.356476966213083210e-03
-6.099680789170439620e-03
-6.068044721241761929e-04
7.924962239411172116e-03
-1.273642526779239503e-02
-2.551789149910512009e-03
-5.172814036989365101e-03
-2.360574222791711127e-03
-4.791987324957384942e-03
3.907107120863868334e-03
7.502351350718168034e-03
4.995499145327980152e-03
-6.864758542686403078e-03
6.798662143076141667e-03
3.591119203098075505e-03
9.794417733153298194e-03
1.735015877870460640e-04
-6.183719991321353845e-03
-5.848464205882326211e-03
3.174756850057332182e-03
9.559633460895928516e-04
-7.753856362363747458e-03
-1.144417755561697629e-03
6.936473087843507065e-03
9.352193258539453699e-03
3.197172211879106569e-03
-5.134984200340216194e-03
-9.046152669209386920e-04
5.909937541787352484e-03
3.905106381604336874e-03
6.694532134615949898e-03
-5.237357258264192794e-03
4.435111944224585500e-04
9.241294910265152041e-03
6.959565908635722241e-03
4.986404153238101732e-03
-3.487217680988046690e-03
7.235454159805710002e-03
-3.723502587562807498e-03
7.759172813633439213e-03
7.710975268780883088e-03
8.153056381189204005e-03
-3.686519639269288627e-03
-6.821767596324818800e-03
-6.114824540171019500e-03
-7.422534372388826102e-03
-2.518558877772287315e-03
4.350394355268946689e-03
8.423991461105298506e-03
-7.296420438991895428e-03
-2.253753587717295670e-03
9.966951572412134988e-03
5.997390559564386159e-03
-7.683674464889624772e-03
5.519912501759713722e-03
-3.342591200640079863e-03
5.125548439292892597e-03
-6.743410294892872303e-03
6.718052727819189864e-03
-4.921923487996124336e-03
3.747182101298825608e-03
7.565074296291246503e-03
7.738605905759626986e-03
4.361650501813321484e-04
-7.582558586787514071e-03
-5.561818187428490753e-03
-4.732652660539515832e-03
-1.889487569881909970e-04
5.536506595173919763e-03
1.027617921499285672e-02
-6.671433648970129422e-03
6.087142598429825038e-03
6.630489637309886332e-04
-1.016646554448502718e-04
7.010306653386286051e-03
8.585397925658063908e-03
-3.281742396172402537e-05
4.430541743407340541e-03
-8.746308964354041447e-04
-5.136328346568997359e-03
4.917984073407983062e-03
-4.833940691955447913e-03
9.654824398836202998e-03
-7.403686498005427295e-04
-3.333008085232894136e-04
-8.815198259164614900e-03
-3.451283529811340067e-03
-1.295293534828847754e-03
-1.861916531941672052e-03
-8.229673445662433889e-03
4.676529942484537045e-03
-1.186270216820806871e-03
9.884377793871832601e-03
-5.646246763470634533e-03
-9.803074847806292347e-03
9.743761282706995056e-03
2.435659316284246798e-03
-9.042357647753417743e-03
-1.943450124269766131e-04
2.954007118785359075e-04
-1.502761837051648508e-03
-7.692412076152821930e-03
9.731528559333438647e-03
-4.435693121988521816e-03
4.362124989899451681e-03
9.656095531236355209e-03
6.088222982765449653e-03
-8.253929181929159364e-03
-2.485611149307370270e-03
-8.005699014025525334e-03
-3.619444294618134449e-03
-5.730896406555194972e-03
-8.779846274204940876e-03
3.789892669101218659e-04
6.241872808320780841e-03
-6.540303261993627229e-03
9.021366601054590928e-03
-6.418785857487216417e-03
1.506823436394213664e-02
1.227851411988244330e-02
-6.396954427113732237e-03
-8.513564347212045080e-03
-3.459692285400460532e-04
6.944116891786235313e-03
7.457310704848018473e-03
8.277966496757768050e-03
8.979525854256126260e-03
5.095979143750244827e-03
-1.156772200870469051e-03
-8.640759703621101948e-03
-7.756471115166301000e-03
-8.962772967104381747e-03
2.354352410867738797e-03
-9.462684722418613498e-03
4.298017350547489804e-03
1.717617464329839611e-03
1.562360326946009162e-03
1.226946702527147593e-03
-1.009744955062527247e-02
-5.979015134709000749e-03
-7.570839885934647039e-03
7.071436207439601475e-03
-7.542036355058107273e-03
-6.159696047108536784e-03
-2.427166777086809529e-02
5.739459970976925306e-03
-5.813395676644058339e-03
-1.993678360650355964e-03
-2.346246842500211271e-03
3.595914593444548136e-04
-5.194304410597423531e-03
-3.856818996407396401e-03
-4.363939596154103352e-03
8.098219542878997215e-03
-9.167374948901813730e-03
8.963869308670340333e-03
-5.933154765822069333e-03
6.229038385794439039e-03
-6.371380743154003885e-03
-7.714436353180685949e-03
-2.750994533757459767e-03
-8.143186102252915944e-04
3.832247953245509868e-03
-3.863593680395476741e-03
4.231027515566231252e-03
-8.166801239019411476e-03
6.035311297529406295e-03
-3.532186456913918686e-03
-9.140344996919397627e-03
6.478122647361870927e-03
-1.241881305868877770e-03
-4.457578237146434669e-03
-4.434771492205577190e-03
-1.100774710695717664e-03
8.876179183275451773e-03
-2.675682948907863283e-03
2.154077253955665860e-03
9.739088458422093166e-04
7.179584170610356494e-05
-3.471059654591424331e-03
-5.216942545109437210e-03
5.953318695890167300e-04
-5.937481155288108423e-03
3.653019964981790626e-03
5.886329454870112103e-03
1.706570190366857396e-03
-7.754146761786089893e-03
-6.430161507774544843e-03
9.297129393430489039e-03
1.076413090306374380e-03
-5.282723824337521440e-03
-7.099844482936492132e-03
-1.447650654777083226e-02
-3.621006445419324218e-03
8.854260547550325475e-03
-5.201519246081466770e-03
2.278492860063536032e-03
-4.848798058844393417e-03
-8.873616601966427195e-03
6.367079776472949620e-03
5.947585611818803977e-03
-5.338069459593197674e-03
-6.492620613293025901e-03
4.074271229576438558e-03
3.768748938369058821e-03
3.993275567796152233e-03
-7.699487818606605763e-03
7.570786541228335942e-03
5.855872279937556456e-03
-2.940581431539520101e-03
-9.117791668768578800e-03
1.274950829614200642e-03
-9.528278648664307432e-03
1.094322473101009977e-03
9.746242790376287435e-03
4.275041775013258688e-03
7.878507351190744759e-03
7.409669680052151548e-03
-9.440283233931938758e-03
5.893977854625062456e-03
-4.541061566564892106e-03
-1.248485529598148021e-02
2.211336941272627060e-03
-4.394599681297599834e-03
